{"learner":{"attributes":{"scikit_learn":"{\"_estimator_type\": \"regressor\"}"},"feature_names":["Pitch","WindSpeed","WindDirection","AirHumidity","AirPressure","AirTemp","TI","TSR","YawOffset"],"feature_types":["float","float","float","float","float","float","float","float","float"],"gradient_booster":{"model":{"gbtree_model_param":{"num_parallel_tree":"1","num_trees":"100"},"iteration_indptr":[0,1,2,3,4,5,6,7,8,9,10,11,12,13,14,15,16,17,18,19,20,21,22,23,24,25,26,27,28,29,30,31,32,33,34,35,36,37,38,39,40,41,42,43,44,45,46,47,48,49,50,51,52,53,54,55,56,57,58,59,60,61,62,63,64,65,66,67,68,69,70,71,72,73,74,75,76,77,78,79,80,81,82,83,84,85,86,87,88,89,90,91,92,93,94,95,96,97,98,99,100],"tree_info":[0,0,0,0,0,0,0,0,0,0,0,0,0,0,0,0,0,0,0,0,0,0,0,0,0,0,0,0,0,0,0,0,0,0,0,0,0,0,0,0,0,0,0,0,0,0,0,0,0,0,0,0,0,0,0,0,0,0,0,0,0,0,0,0,0,0,0,0,0,0,0,0,0,0,0,0,0,0,0,0,0,0,0,0,0,0,0,0,0,0,0,0,0,0,0,0,0,0,0,0],"trees":[{"base_weights":[1.5829464E-5,-2.3467178E3,1.0108076E3,-2.8837107E3,-1.455399E3,-1.6678674E2,1.951649E3,-3.210111E3,-2.5263489E3,-1.8426252E3,-1.0903936E3,-3.9091714E2,1.5522964E3,3.5556903E2,2.2734897E3,-9.922871E2,-9.07866E2,-8.068554E2,-7.023155E2,-5.944089E2,-4.9481592E2,-1.2953564E3,-9.090992E2,7.0163745E2,-7.305382E2,-2.5097015E2,1.9085198E3,-1.733583E2,8.287504E2,2.3198572E3,-2.382516E2,-4.2304092E2,-3.6108737E2,-6.997694E2,-9.853331E2,-2.2172429E2,2.393308E3,1.302104E3,-7.5525366E2,1.1937119E3,-2.2144652E2,2.2971287E3,3.8939856E2,4.024984E1,-4.1336325E2,5.566541E2,1.0495553E3,-6.842887E2,2.355142E3,-1.3976678E2,-2.1695528E2,-3.1854044E2,-2.7370706E2,2.0405865E2,-2.4779623E2,4.9796765E2,7.454795E2,7.194177E2,-2.0074985E2,-2.4666946E2,-2.2022249E2,7.997058E1,5.567245E2,7.068335E2,-1.918759E2,2.9285403E2,-2.4139772E2,-5.1790676E1,3.7030853E1,-8.579066E1,-1.5923557E2,1.313919E2,2.0546492E2,3.1845044E2,-1.4540237E2,-2.3483937E2,3.849772E2,4.7645056E2,7.3611285E2],"categories":[],"categories_nodes":[],"categories_segments":[],"categories_sizes":[],"default_left":[0,0,0,0,0,0,0,0,0,0,0,0,0,0,0,0,0,0,0,0,0,0,0,0,0,0,0,0,0,0,0,0,0,0,0,0,0,0,0,0,0,0,0,0,0,0,0,0,0,0,0,0,0,0,0,0,0,0,0,0,0,0,0,0,0,0,0,0,0,0,0,0,0,0,0,0,0,0,0],"id":0,"left_children":[1,3,5,7,9,11,13,15,17,19,21,23,25,27,29,-1,-1,-1,-1,-1,-1,31,33,35,37,39,41,43,45,47,-1,-1,-1,49,51,53,55,57,59,61,-1,63,65,67,69,71,73,75,77,-1,-1,-1,-1,-1,-1,-1,-1,-1,-1,-1,-1,-1,-1,-1,-1,-1,-1,-1,-1,-1,-1,-1,-1,-1,-1,-1,-1,-1,-1],"loss_changes":[2.131314E10,1.2905032E9,6.9581235E9,1.8866586E8,1.4201574E8,1.0755905E9,1.7924608E9,5.735424E6,1.819392E7,9.949056E6,1.8405056E7,9.166462E8,2.073207E8,1.4705718E8,4.1504973E8,0E0,0E0,0E0,0E0,0E0,0E0,8.82336E5,3.826592E6,9.158767E8,9.563123E7,3.8887816E7,1.5790803E8,1.4268868E7,1.8040608E7,3.049861E8,0E0,0E0,0E0,9.57E4,1.75248E5,2.0766064E8,9.785344E6,5.129445E7,2.037696E6,8.098552E6,0E0,3.857523E7,4.0021944E7,2.6422648E6,1.80783E6,1.845832E6,3.630272E6,7.594457E6,2.0997018E8,0E0,0E0,0E0,0E0,0E0,0E0,0E0,0E0,0E0,0E0,0E0,0E0,0E0,0E0,0E0,0E0,0E0,0E0,0E0,0E0,0E0,0E0,0E0,0E0,0E0,0E0,0E0,0E0,0E0,0E0],"parents":[2147483647,0,0,1,1,2,2,3,3,4,4,5,5,6,6,7,7,8,8,9,9,10,10,11,11,12,12,13,13,14,14,21,21,22,22,23,23,24,24,25,25,26,26,27,27,28,28,29,29,33,33,34,34,35,35,36,36,37,37,38,38,39,39,41,41,42,42,43,43,44,44,45,45,46,46,47,47,48,48],"right_children":[2,4,6,8,10,12,14,16,18,20,22,24,26,28,30,-1,-1,-1,-1,-1,-1,32,34,36,38,40,42,44,46,48,-1,-1,-1,50,52,54,56,58,60,62,-1,64,66,68,70,72,74,76,78,-1,-1,-1,-1,-1,-1,-1,-1,-1,-1,-1,-1,-1,-1,-1,-1,-1,-1,-1,-1,-1,-1,-1,-1,-1,-1,-1,-1,-1,-1],"split_conditions":[8.243915E0,6.454491E0,9.4E0,5.0470343E0,7.2797227E0,2.8782297E2,1.0068111E1,4.2731743E0,5.82075E0,6.897271E0,7.7220945E0,6.373382E0,1.004E3,9.125271E0,1.1172538E-3,-9.922871E2,-9.07866E2,-8.068554E2,-7.023155E2,-5.944089E2,-4.9481592E2,7.477954E0,-3.5961905E0,1.04625E1,5.9E0,4.3133333E-1,7.1548266E0,-3.733721E0,9.548879E0,-8.526513E-14,-2.382516E2,-4.2304092E2,-3.6108737E2,-3.6802857E0,7.886114E0,-1.0608659E0,1.0982991E1,1.0813416E1,1.3150147E1,9.729943E0,-2.2144652E2,8.526513E-14,1.4566182E0,8.707573E0,-3.6802857E0,9.356056E0,-2.356036E0,2.6171875E2,9.9E0,-1.3976678E2,-2.1695528E2,-3.1854044E2,-2.7370706E2,2.0405865E2,-2.4779623E2,4.9796765E2,7.454795E2,7.194177E2,-2.0074985E2,-2.4666946E2,-2.2022249E2,7.997058E1,5.567245E2,7.068335E2,-1.918759E2,2.9285403E2,-2.4139772E2,-5.1790676E1,3.7030853E1,-8.579066E1,-1.5923557E2,1.313919E2,2.0546492E2,3.1845044E2,-1.4540237E2,-2.3483937E2,3.849772E2,4.7645056E2,7.3611285E2],"split_indices":[1,1,5,1,1,2,1,1,1,1,1,0,4,1,8,0,0,0,0,0,0,1,0,1,5,0,7,0,1,8,0,0,0,0,1,0,1,0,1,1,0,8,0,1,0,1,0,2,5,0,0,0,0,0,0,0,0,0,0,0,0,0,0,0,0,0,0,0,0,0,0,0,0,0,0,0,0,0,0],"split_type":[0,0,0,0,0,0,0,0,0,0,0,0,0,0,0,0,0,0,0,0,0,0,0,0,0,0,0,0,0,0,0,0,0,0,0,0,0,0,0,0,0,0,0,0,0,0,0,0,0,0,0,0,0,0,0,0,0,0,0,0,0,0,0,0,0,0,0,0,0,0,0,0,0,0,0,0,0,0,0],"sum_hessian":[8.983E3,2.704E3,6.279E3,1.686E3,1.018E3,2.789E3,3.49E3,8.77E2,8.09E2,4.92E2,5.26E2,2.468E3,3.21E2,5.86E2,2.904E3,5.62E2,3.15E2,4.23E2,3.86E2,2.81E2,2.11E2,2.44E2,2.82E2,5.85E2,1.883E3,5.3E1,2.68E2,2.77E2,3.09E2,2.861E3,4.3E1,1.02E2,1.42E2,7.8E1,2.04E2,3.79E2,2.06E2,2.2E1,1.861E3,1.3E1,4E1,2.13E2,5.5E1,1.47E2,1.3E2,1.4E2,1.69E2,3.3E1,2.828E3,9E0,6.9E1,9.3E1,1.11E2,1.52E2,2.27E2,2.5E1,1.81E2,1.4E1,8E0,4.38E2,1.423E3,6E0,7E0,2.09E2,4E0,3.7E1,1.8E1,4.1E1,1.06E2,6.4E1,6.6E1,7.5E1,6.5E1,1.68E2,1E0,3.2E1,1E0,3.24E2,2.504E3],"tree_param":{"num_deleted":"0","num_feature":"9","num_nodes":"79","size_leaf_vector":"1"}},{"base_weights":[-2.920367E-1,-1.6187977E3,7.210694E2,-2.0553293E3,-1.0383289E3,-4.8855907E1,1.4460315E3,-2.2701636E3,-1.8275361E3,-1.350289E3,-7.574514E2,8.5847217E2,-3.266524E2,4.1481955E2,1.6985592E3,-7.047282E2,-6.534075E2,-5.899708E2,-5.182201E2,-4.3712012E2,-3.626365E2,-9.2577094E2,-6.18878E2,-2.2060469E2,1.5920508E3,-4.7339877E2,1.6878165E3,-2.8242114E0,7.211759E2,1.727661E3,-2.8677637E2,-2.9054288E2,-2.347799E2,-4.8112152E2,-6.9393823E2,1.8872035E2,-5.8539154E2,9.8175446E2,1.7193711E3,1.0591548E3,-4.9482214E2,-1.9666331E2,1.8015437E3,-1.6336526E2,1.8775967E2,9.018523E2,5.434219E2,-4.110011E2,1.7456964E3,-6.237137E2,4.842525E2,-1.1633026E2,-1.5555383E2,-2.414735E2,-2.0048103E2,-5.5284946E1,1.5685156E2,-1.3465247E1,-1.7660216E2,3.3371228E2,-1.3381026E2,4.6629303E2,5.447746E2,5.264225E2,-1.5224785E2,5.1915125E2,-1.5089934E2,-1.1501444E2,5.546226E2,-8.3702614E1,-2.1667849E1,1.491525E1,7.537765E1,2.4915053E2,2.912961E2,1.2476073E2,1.8452727E2,-1.6033661E2,3.2723062E2,5.311532E2,2.1051128E2,2.2603653E2,-2.070887E2],"categories":[],"categories_nodes":[],"categories_segments":[],"categories_sizes":[],"default_left":[0,0,0,0,0,0,0,0,0,0,0,0,0,0,0,0,0,0,0,0,0,0,0,0,0,0,0,0,0,0,0,0,0,0,0,0,0,0,0,0,0,0,0,0,0,0,0,0,0,0,0,0,0,0,0,0,0,0,0,0,0,0,0,0,0,0,0,0,0,0,0,0,0,0,0,0,0,0,0,0,0,0,0],"id":1,"left_children":[1,3,5,7,9,11,13,15,17,19,21,23,25,27,29,-1,-1,-1,-1,-1,-1,31,33,35,37,39,41,43,45,47,49,-1,-1,51,53,55,57,59,61,63,65,-1,67,69,71,73,75,77,79,81,-1,-1,-1,-1,-1,-1,-1,-1,-1,-1,-1,-1,-1,-1,-1,-1,-1,-1,-1,-1,-1,-1,-1,-1,-1,-1,-1,-1,-1,-1,-1,-1,-1],"loss_changes":[1.0490235E10,6.997637E8,3.4690762E9,7.317299E7,1.0333568E8,7.602188E8,8.328668E8,7.66976E5,7.350784E6,6.745088E6,1.4098272E7,5.600037E8,6.833765E8,8.073712E7,1.4904013E8,0E0,0E0,0E0,0E0,0E0,0E0,9.66256E5,3.264456E6,4.2964284E7,3.1025088E7,7.121232E7,4.302208E7,8.2305445E6,1.1200096E7,9.84576E7,2.5345838E7,0E0,0E0,2.38756E5,9.7328E4,1.7045656E7,2.43236E5,1.4483464E7,2.7072E6,3.35827E7,3.9513344E7,0E0,1.6177536E7,1.5186358E6,1.0656715E6,7.6576E4,1.444536E6,4.661763E6,6.385869E7,3.546031E6,0E0,0E0,0E0,0E0,0E0,0E0,0E0,0E0,0E0,0E0,0E0,0E0,0E0,0E0,0E0,0E0,0E0,0E0,0E0,0E0,0E0,0E0,0E0,0E0,0E0,0E0,0E0,0E0,0E0,0E0,0E0,0E0,0E0],"parents":[2147483647,0,0,1,1,2,2,3,3,4,4,5,5,6,6,7,7,8,8,9,9,10,10,11,11,12,12,13,13,14,14,21,21,22,22,23,23,24,24,25,25,26,26,27,27,28,28,29,29,30,30,33,33,34,34,35,35,36,36,37,37,38,38,39,39,40,40,42,42,43,43,44,44,45,45,46,46,47,47,48,48,49,49],"right_children":[2,4,6,8,10,12,14,16,18,20,22,24,26,28,30,-1,-1,-1,-1,-1,-1,32,34,36,38,40,42,44,46,48,50,-1,-1,52,54,56,58,60,62,64,66,-1,68,70,72,74,76,78,80,82,-1,-1,-1,-1,-1,-1,-1,-1,-1,-1,-1,-1,-1,-1,-1,-1,-1,-1,-1,-1,-1,-1,-1,-1,-1,-1,-1,-1,-1,-1,-1,-1,-1],"split_conditions":[8.371461E0,6.2765856E0,9.7E0,4.829735E0,7.2192335E0,5.006827E0,1.05208E1,3.9859962E0,5.5492587E0,6.7608895E0,7.7220945E0,9.729943E0,2.9866965E2,9.280964E0,8.526513E-14,-7.047282E2,-6.534075E2,-5.899708E2,-5.182201E2,-4.3712012E2,-3.626365E2,7.599824E0,-3.5961905E0,-2.024137E0,1.0361232E1,5.9E0,1.1822067E1,8.856263E0,8.7233454E-2,-8.526513E-14,1.004E3,-2.9054288E2,-2.347799E2,-3.6629486E0,8.972792E0,9.045393E0,5.7674017E0,-1.2562648E0,1.1176149E1,1.991726E2,2.0962025E1,-1.9666331E2,9.97E2,8.576642E0,8.988566E0,-3.5287879E0,9.49359E0,2.6171875E2,9.5E1,-1.2562648E0,4.842525E2,-1.1633026E2,-1.5555383E2,-2.414735E2,-2.0048103E2,-5.5284946E1,1.5685156E2,-1.3465247E1,-1.7660216E2,3.3371228E2,-1.3381026E2,4.6629303E2,5.447746E2,5.264225E2,-1.5224785E2,5.1915125E2,-1.5089934E2,-1.1501444E2,5.546226E2,-8.3702614E1,-2.1667849E1,1.491525E1,7.537765E1,2.4915053E2,2.912961E2,1.2476073E2,1.8452727E2,-1.6033661E2,3.2723062E2,5.311532E2,2.1051128E2,2.2603653E2,-2.070887E2],"split_indices":[1,1,5,1,1,0,1,1,1,1,1,1,2,1,8,0,0,0,0,0,0,1,0,0,1,5,1,1,6,8,4,0,0,0,7,1,2,0,1,2,2,0,4,1,1,0,1,2,3,0,0,0,0,0,0,0,0,0,0,0,0,0,0,0,0,0,0,0,0,0,0,0,0,0,0,0,0,0,0,0,0,0,0],"split_type":[0,0,0,0,0,0,0,0,0,0,0,0,0,0,0,0,0,0,0,0,0,0,0,0,0,0,0,0,0,0,0,0,0,0,0,0,0,0,0,0,0,0,0,0,0,0,0,0,0,0,0,0,0,0,0,0,0,0,0,0,0,0,0,0,0,0,0,0,0,0,0,0,0,0,0,0,0,0,0,0,0,0,0],"sum_hessian":[8.983E3,2.769E3,6.214E3,1.579E3,1.19E3,3.014E3,3.2E3,8.08E2,7.71E2,5.62E2,6.28E2,7.06E2,2.308E3,6.3E2,2.57E3,4.22E2,3.86E2,3.15E2,4.56E2,3.15E2,2.47E2,2.81E2,3.47E2,2.86E2,4.2E2,2.152E3,1.56E2,2.67E2,3.63E2,2.533E3,3.7E1,2.12E2,6.9E1,1.25E2,2.22E2,1.35E2,1.51E2,7.4E1,3.46E2,2.9E1,2.123E3,7E0,1.49E2,1.45E2,1.22E2,1.78E2,1.85E2,2.1E1,2.512E3,3.2E1,5E0,3.9E1,8.6E1,3.6E1,1.86E2,6.4E1,7.1E1,1E0,1.5E2,6.8E1,6E0,1.34E2,2.12E2,2E1,9E0,7E0,2.116E3,3E0,1.46E2,6.3E1,8.2E1,3.9E1,8.3E1,9.4E1,8.4E1,6.9E1,1.16E2,2E1,1E0,2.453E3,5.9E1,1E0,3.1E1],"tree_param":{"num_deleted":"0","num_feature":"9","num_nodes":"83","size_leaf_vector":"1"}},{"base_weights":[-2.2123788E-1,-1.1232755E3,5.108367E2,-1.4031681E3,-6.5634216E2,-3.1009504E1,1.02117017E3,-1.5616223E3,-1.2001145E3,-8.450261E2,-4.678438E2,5.720821E2,-2.5210146E2,3.3943875E2,1.2009517E3,-4.8639447E2,-4.3500317E2,-3.8281998E2,-3.2597806E2,-2.804927E2,-7.380433E2,-5.557873E2,-3.656025E2,-4.357678E1,1.2257394E3,-3.5859598E2,1.2112097E3,5.719995E1,5.602337E2,1.2217505E3,-1.8750139E2,-2.6066214E2,-7.1059326E2,-6.0573004E2,-4.981422E2,-2.8057666E2,-4.2021313E2,3.8176144E2,-4.2598798E2,9.605822E2,1.3200585E3,6.92782E2,-3.708979E2,1.2954188E3,-4.3490344E2,-6.3670208E1,2.0924231E2,6.452825E2,4.2205173E2,1.2329335E3,-6.9744855E2,-4.3602548E2,3.631894E2,-2.1670474E2,-1.533535E2,-1.843651E2,-1.2066081E2,-1.355235E2,-1.6554727E2,-1.4331628E2,-7.2878555E1,-1.4701152E2,-1.164676E2,3.845971E0,2.1147073E2,-1.1445447E1,-1.2827762E2,3.1633026E2,-1.5521606E2,3.788745E2,4.9747696E2,3.7172406E2,-1.06617165E2,5.3409534E1,-1.1598728E2,-8.91362E1,3.9957834E2,1.9612874E2,-2.0514655E2,-8.171402E0,-8.251695E1,8.428562E1,4.6378166E1,2.5898157E2,1.835615E2,1.0918265E2,1.4373386E2,3.753524E2,1.442757E2,-4.1682925E2,-9.585202E1,1.9213104E2,-1.4690358E2],"categories":[],"categories_nodes":[],"categories_segments":[],"categories_sizes":[],"default_left":[0,0,0,0,0,0,0,0,0,0,0,0,0,0,0,0,0,0,0,0,0,0,0,0,0,0,0,0,0,0,0,0,0,0,0,0,0,0,0,0,0,0,0,0,0,0,0,0,0,0,0,0,0,0,0,0,0,0,0,0,0,0,0,0,0,0,0,0,0,0,0,0,0,0,0,0,0,0,0,0,0,0,0,0,0,0,0,0,0,0,0,0,0],"id":2,"left_children":[1,3,5,7,9,11,13,15,17,19,21,23,25,27,29,-1,-1,-1,-1,-1,31,33,35,37,39,41,43,45,47,49,51,-1,53,55,57,59,61,63,65,67,69,71,73,75,77,79,81,83,85,87,89,91,-1,-1,-1,-1,-1,-1,-1,-1,-1,-1,-1,-1,-1,-1,-1,-1,-1,-1,-1,-1,-1,-1,-1,-1,-1,-1,-1,-1,-1,-1,-1,-1,-1,-1,-1,-1,-1,-1,-1,-1,-1],"loss_changes":[5.156903E9,3.6632115E8,1.7075567E9,5.462477E7,3.7127424E7,3.9962698E8,3.893412E8,4.198144E6,5.286912E6,4.37168E6,4.562272E6,3.2360704E8,3.4217965E8,4.1408696E7,7.288678E7,0E0,0E0,0E0,0E0,0E0,2.62448E5,5.13008E5,1.033642E6,6.766407E7,8.485632E6,2.6706912E7,2.1217408E7,5.3978955E6,4.11124E6,5.4065664E7,1.3731713E7,0E0,1.18368E5,1.6712E4,9.194E4,6.261595E5,1.42554E5,2.3477328E7,1.19928E5,1.5248848E7,3.413632E6,1.4183111E7,1.7524096E7,8.651904E6,2.6149682E6,1.255516E6,4.66014E5,1.13964E6,3.0642E5,3.3211904E7,3.479003E6,2.219541E6,0E0,0E0,0E0,0E0,0E0,0E0,0E0,0E0,0E0,0E0,0E0,0E0,0E0,0E0,0E0,0E0,0E0,0E0,0E0,0E0,0E0,0E0,0E0,0E0,0E0,0E0,0E0,0E0,0E0,0E0,0E0,0E0,0E0,0E0,0E0,0E0,0E0,0E0,0E0,0E0,0E0],"parents":[2147483647,0,0,1,1,2,2,3,3,4,4,5,5,6,6,7,7,8,8,9,9,10,10,11,11,12,12,13,13,14,14,20,20,21,21,22,22,23,23,24,24,25,25,26,26,27,27,28,28,29,29,30,30,32,32,33,33,34,34,35,35,36,36,37,37,38,38,39,39,40,40,41,41,42,42,43,43,44,44,45,45,46,46,47,47,48,48,49,49,50,50,51,51],"right_children":[2,4,6,8,10,12,14,16,18,20,22,24,26,28,30,-1,-1,-1,-1,-1,32,34,36,38,40,42,44,46,48,50,52,-1,54,56,58,60,62,64,66,68,70,72,74,76,78,80,82,84,86,88,90,92,-1,-1,-1,-1,-1,-1,-1,-1,-1,-1,-1,-1,-1,-1,-1,-1,-1,-1,-1,-1,-1,-1,-1,-1,-1,-1,-1,-1,-1,-1,-1,-1,-1,-1,-1,-1,-1,-1,-1,-1,-1],"split_conditions":[8.463137E0,6.559948E0,9.7E0,5.263158E0,7.477954E0,6.2429304E0,1.0696673E1,4.442793E0,6.0468307E0,7.042968E0,7.949512E0,1.0361232E1,2.970249E2,9.417491E0,8.526513E-14,-4.8639447E2,-4.3500317E2,-3.8281998E2,-3.2597806E2,-2.804927E2,9.0432E0,9.516855E0,-3.6327229E0,-1.2562648E0,1.1036287E1,5.9E0,5.852292E0,8.988566E0,8.7233454E-2,1.9221601E1,1.004E3,-2.6066214E2,1.022E3,1.021E3,9.111372E-2,8.6E0,9.098226E0,9.49359E0,-1.0608659E0,2.0777214E0,5.006827E0,1.0813416E1,7.6E1,9.97E2,6.667692E0,-3.6802857E0,8.846515E-2,9.9E0,9.674982E0,9.5E1,8.3E1,-1.2562648E0,3.631894E2,-2.1670474E2,-1.533535E2,-1.843651E2,-1.2066081E2,-1.355235E2,-1.6554727E2,-1.4331628E2,-7.2878555E1,-1.4701152E2,-1.164676E2,3.845971E0,2.1147073E2,-1.1445447E1,-1.2827762E2,3.1633026E2,-1.5521606E2,3.788745E2,4.9747696E2,3.7172406E2,-1.06617165E2,5.3409534E1,-1.1598728E2,-8.91362E1,3.9957834E2,1.9612874E2,-2.0514655E2,-8.171402E0,-8.251695E1,8.428562E1,4.6378166E1,2.5898157E2,1.835615E2,1.0918265E2,1.4373386E2,3.753524E2,1.442757E2,-4.1682925E2,-9.585202E1,1.9213104E2,-1.4690358E2],"split_indices":[1,1,5,1,1,0,1,1,1,1,1,1,2,1,8,0,0,0,0,0,7,7,0,0,1,5,7,1,6,0,4,0,4,4,6,5,7,1,0,0,0,0,3,4,0,0,6,5,1,3,3,0,0,0,0,0,0,0,0,0,0,0,0,0,0,0,0,0,0,0,0,0,0,0,0,0,0,0,0,0,0,0,0,0,0,0,0,0,0,0,0,0,0],"split_type":[0,0,0,0,0,0,0,0,0,0,0,0,0,0,0,0,0,0,0,0,0,0,0,0,0,0,0,0,0,0,0,0,0,0,0,0,0,0,0,0,0,0,0,0,0,0,0,0,0,0,0,0,0,0,0,0,0,0,0,0,0,0,0,0,0,0,0,0,0,0,0,0,0,0,0,0,0,0,0,0,0,0,0,0,0,0,0,0,0,0,0,0,0],"sum_hessian":[8.983E3,2.809E3,6.174E3,1.755E3,1.054E3,2.995E3,3.179E3,9.82E2,7.73E2,5.25E2,5.29E2,8.03E2,2.192E3,6.64E2,2.515E3,6.31E2,3.51E2,4.57E2,3.16E2,2.81E2,2.44E2,2.82E2,2.47E2,4.14E2,3.89E2,2.044E3,1.48E2,2.92E2,3.72E2,2.478E3,3.7E1,3.7E1,2.07E2,1.46E2,1.36E2,9.9E1,1.48E2,1.96E2,2.18E2,1.05E2,2.84E2,2.3E1,2.021E3,1.41E2,7E0,1.63E2,1.29E2,2.28E2,1.44E2,2.464E3,1.4E1,3.2E1,5E0,1.93E2,1.4E1,1.38E2,8E0,7.8E1,5.8E1,1.4E1,8.5E1,4.2E1,1.06E2,9.2E1,1.04E2,1E0,2.17E2,9.9E1,6E0,2.47E2,3.7E1,1.5E1,8E0,5.6E1,1.965E3,3E0,1.38E2,1E0,6E0,1.4E2,2.3E1,5.4E1,7.5E1,2.7E1,2.01E2,7.5E1,6.9E1,2.405E3,5.9E1,4E0,1E1,1E0,3.1E1],"tree_param":{"num_deleted":"0","num_feature":"9","num_nodes":"93","size_leaf_vector":"1"}},{"base_weights":[-2.505546E-1,-7.807781E2,3.6141086E2,-9.7796545E2,-4.4427505E2,-1.9845081E1,7.211905E2,-1.0864944E3,-8.2242035E2,-5.827448E2,-3.23645E2,4.096422E2,-1.7803703E2,2.800649E2,8.562583E2,-3.5247272E2,-1.0406134E3,-2.6137234E2,-2.2223772E2,-6.381789E2,-5.060577E2,-2.4212036E2,-3.8575452E2,-2.6836956E1,8.5386554E2,-2.5275166E2,8.494825E2,5.7857574E1,4.0779385E2,8.730456E2,-1.901534E2,-3.2406982E2,-2.9663977E2,-6.9793445E2,-5.84756E2,-5.275481E2,-3.792972E2,-1.773057E2,-2.8078226E2,-3.6100623E2,-4.8058878E2,2.851686E2,-3.0534036E2,5.6240515E2,9.1980096E2,4.6278713E1,-2.8253418E2,9.0899207E2,-3.055597E2,-4.0276093E1,1.3676122E2,4.59277E2,2.9778778E2,-5.558497E2,8.8052136E2,-7.035724E2,2.6724167E2,-5.3664333E1,-2.1019028E2,-1.6276799E2,-1.9205798E2,-2.565069E2,-1.556759E2,-5.1351166E1,-1.2533476E2,-9.5446175E1,-4.8209164E1,-9.448931E1,-7.697934E1,-8.138593E1,-1.175553E2,-1.16151634E2,-1.79591E2,1.9392813E1,1.6517326E2,-8.8956566E1,-1.4893593E2,2.075891E2,-1.0856313E2,2.7764413E2,-1.3634708E2,-3.740026E1,5.579071E2,-3.290775E1,-8.941858E1,-6.908055E1,2.8062817E2,1.6670941E2,-1.5239459E2,1.7214814E0,-3.2683567E1,5.9459667E1,3.0154657E1,1.9251646E2,1.2969633E2,8.137733E1,1.12942635E2,-2.1762502E2,2.2184312E2,2.6760516E2,-2.323164E1,-4.1985196E2,-1.3142728E2],"categories":[],"categories_nodes":[],"categories_segments":[],"categories_sizes":[],"default_left":[0,0,0,0,0,0,0,0,0,0,0,0,0,0,0,0,0,0,0,0,0,0,0,0,0,0,0,0,0,0,0,0,0,0,0,0,0,0,0,0,0,0,0,0,0,0,0,0,0,0,0,0,0,0,0,0,0,0,0,0,0,0,0,0,0,0,0,0,0,0,0,0,0,0,0,0,0,0,0,0,0,0,0,0,0,0,0,0,0,0,0,0,0,0,0,0,0,0,0,0,0,0,0],"id":3,"left_children":[1,3,5,7,9,11,13,15,17,19,21,23,25,27,29,-1,31,-1,-1,33,35,37,39,41,43,45,47,49,51,53,55,-1,-1,57,59,61,63,65,67,69,71,73,75,77,79,81,83,85,87,89,91,93,95,97,99,101,-1,-1,-1,-1,-1,-1,-1,-1,-1,-1,-1,-1,-1,-1,-1,-1,-1,-1,-1,-1,-1,-1,-1,-1,-1,-1,-1,-1,-1,-1,-1,-1,-1,-1,-1,-1,-1,-1,-1,-1,-1,-1,-1,-1,-1,-1,-1],"loss_changes":[2.5363459E9,1.8834317E8,8.4222656E8,2.9374208E7,1.7400304E7,2.0267427E8,1.879794E8,3.04896E6,2.307552E6,1.755824E6,2.767452E6,1.5571998E8,1.6757493E8,2.1036076E7,4.2641664E7,0E0,3.72992E5,0E0,0E0,4.85728E5,3.71972E5,5.69162E5,5.75196E5,3.5366284E7,7.131296E6,1.8118728E7,1.0450696E7,2.1116325E6,2.530728E6,2.5912832E7,2.2271158E7,0E0,0E0,5.2636E4,1.2896E4,5.644E4,2.00822E5,1.7110475E5,4.5662E4,6.04914E5,4.62966E5,1.1202083E7,2.15134E5,9.351298E6,2.941696E6,5.758108E7,4.929744E6,4.461824E6,1.6769862E6,3.861166E5,3.163325E5,1.2914E6,2.17279E5,3.391809E6,2.6146944E7,4.375344E6,0E0,0E0,0E0,0E0,0E0,0E0,0E0,0E0,0E0,0E0,0E0,0E0,0E0,0E0,0E0,0E0,0E0,0E0,0E0,0E0,0E0,0E0,0E0,0E0,0E0,0E0,0E0,0E0,0E0,0E0,0E0,0E0,0E0,0E0,0E0,0E0,0E0,0E0,0E0,0E0,0E0,0E0,0E0,0E0,0E0,0E0,0E0],"parents":[2147483647,0,0,1,1,2,2,3,3,4,4,5,5,6,6,7,7,8,8,9,9,10,10,11,11,12,12,13,13,14,14,16,16,19,19,20,20,21,21,22,22,23,23,24,24,25,25,26,26,27,27,28,28,29,29,30,30,33,33,34,34,35,35,36,36,37,37,38,38,39,39,40,40,41,41,42,42,43,43,44,44,45,45,46,46,47,47,48,48,49,49,50,50,51,51,52,52,53,53,54,54,55,55],"right_children":[2,4,6,8,10,12,14,16,18,20,22,24,26,28,30,-1,32,-1,-1,34,36,38,40,42,44,46,48,50,52,54,56,-1,-1,58,60,62,64,66,68,70,72,74,76,78,80,82,84,86,88,90,92,94,96,98,100,102,-1,-1,-1,-1,-1,-1,-1,-1,-1,-1,-1,-1,-1,-1,-1,-1,-1,-1,-1,-1,-1,-1,-1,-1,-1,-1,-1,-1,-1,-1,-1,-1,-1,-1,-1,-1,-1,-1,-1,-1,-1,-1,-1,-1,-1,-1,-1],"split_conditions":[8.5215645E0,6.6178584E0,9.7E0,5.4089165E0,7.477954E0,6.373382E0,1.0982991E1,3.785832E0,6.155419E0,7.0965652E0,-3.5503783E0,1.0361232E1,2.970249E2,9.417491E0,1.8178074E1,-3.5247272E2,4.673695E0,-2.6137234E2,-2.2223772E2,9.389021E0,1.0207954E1,9.0386786E-2,1.29E1,-1.2562648E0,1.0816984E1,6.7E0,5.852292E0,8.915661E0,8.7233454E-2,-8.526513E-14,1.05E1,-3.2406982E2,-2.9663977E2,2.974325E0,9.222073E-2,8.135303E0,-3.437888E0,8.8E0,7.949512E0,9.077546E-2,-3.496941E0,9.61855E0,9.3E0,2.0777214E0,1.7558646E-1,2.6314453E2,8.562718E0,9.97E2,6.667692E0,-3.733721E0,8.846515E-2,9.9E0,1.69E1,2.6171875E2,8.526513E-14,2.2315036E2,2.6724167E2,-5.3664333E1,-2.1019028E2,-1.6276799E2,-1.9205798E2,-2.565069E2,-1.556759E2,-5.1351166E1,-1.2533476E2,-9.5446175E1,-4.8209164E1,-9.448931E1,-7.697934E1,-8.138593E1,-1.175553E2,-1.16151634E2,-1.79591E2,1.9392813E1,1.6517326E2,-8.8956566E1,-1.4893593E2,2.075891E2,-1.0856313E2,2.7764413E2,-1.3634708E2,-3.740026E1,5.579071E2,-3.290775E1,-8.941858E1,-6.908055E1,2.8062817E2,1.6670941E2,-1.5239459E2,1.7214814E0,-3.2683567E1,5.9459667E1,3.0154657E1,1.9251646E2,1.2969633E2,8.137733E1,1.12942635E2,-2.1762502E2,2.2184312E2,2.6760516E2,-2.323164E1,-4.1985196E2,-1.3142728E2],"split_indices":[1,1,5,1,1,0,1,1,1,1,0,1,2,1,0,0,1,0,0,7,7,6,5,0,1,5,7,1,6,8,5,0,0,2,6,7,0,5,1,6,0,1,5,0,6,2,0,4,0,0,6,5,5,2,8,2,0,0,0,0,0,0,0,0,0,0,0,0,0,0,0,0,0,0,0,0,0,0,0,0,0,0,0,0,0,0,0,0,0,0,0,0,0,0,0,0,0,0,0,0,0,0,0],"split_type":[0,0,0,0,0,0,0,0,0,0,0,0,0,0,0,0,0,0,0,0,0,0,0,0,0,0,0,0,0,0,0,0,0,0,0,0,0,0,0,0,0,0,0,0,0,0,0,0,0,0,0,0,0,0,0,0,0,0,0,0,0,0,0,0,0,0,0,0,0,0,0,0,0,0,0,0,0,0,0,0,0,0,0,0,0,0,0,0,0,0,0,0,0,0,0,0,0,0,0,0,0,0,0],"sum_hessian":[8.983E3,2.844E3,6.139E3,1.792E3,1.052E3,2.981E3,3.158E3,1.052E3,7.4E2,4.88E2,5.64E2,8.02E2,2.179E3,7.41E2,2.417E3,3.51E2,7.01E2,4.57E2,2.83E2,2.79E2,2.09E2,2.46E2,3.18E2,4.05E2,3.97E2,2.032E3,1.47E2,2.71E2,4.7E2,2.379E3,3.8E1,3.86E2,3.15E2,1.26E2,1.53E2,1.76E2,3.3E1,9.4E1,1.52E2,2.56E2,6.2E1,1.91E2,2.14E2,7.5E1,3.22E2,1.84E2,1.848E3,1.4E2,7E0,1.21E2,1.5E2,3.18E2,1.52E2,1.2E1,2.367E3,2.6E1,1.2E1,1E0,1.25E2,9.3E1,6E1,2E0,1.74E2,6E0,2.7E1,8E0,8.6E1,5.8E1,9.4E1,6.8E1,1.88E2,3.7E1,2.5E1,1.05E2,8.6E1,2.07E2,7E0,6.6E1,9E0,3.21E2,1E0,1.69E2,1.5E1,1.53E2,1.695E3,3E0,1.37E2,1E0,6E0,7.3E1,4.8E1,5.4E1,9.6E1,3.8E1,2.8E2,1.17E2,3.5E1,1.1E1,1E0,2.339E3,2.8E1,6E0,2E1],"tree_param":{"num_deleted":"0","num_feature":"9","num_nodes":"103","size_leaf_vector":"1"}},{"base_weights":[-4.1166958E-1,-5.432248E2,2.5565749E2,-6.8190497E2,-3.023217E2,-2.1657904E1,5.0136716E2,-7.586738E2,-5.678546E2,-3.9721167E2,-2.1854395E2,2.5426147E2,-1.41079E2,2.2486679E2,5.953872E2,-7.9494586E2,-2.0976987E2,-4.890866E2,-5.9327515E2,-3.4244305E2,-4.359816E2,-1.3870071E2,-2.48881E2,1.2656693E1,6.9716223E2,-1.8641054E2,5.912432E2,7.5275894E1,3.1700092E2,6.5514734E2,3.3226132E2,-2.5245259E2,-2.2970949E2,-2.5230238E2,-4.7673114E2,-1.8676001E2,-5.608792E2,-1.9703249E2,-3.3467715E2,-4.479725E2,-3.2717944E2,-2.9585074E2,-1.0811838E2,-2.415115E2,-3.7903662E2,3.1929633E2,-2.4677177E2,5.935035E2,1.2160248E3,-1.7473082E2,-6.500547E2,-3.18291E2,1.9040678E2,7.4172297E0,1.3460808E2,4.5875943E2,2.9484555E2,-1.12116264E2,6.579598E2,-5.0487445E2,6.2539233E2,-1.4837048E2,-1.180387E2,-4.43051E1,-1.6855661E2,-1.0663528E2,-7.882625E1,-1.5132686E2,-1.2895078E2,-1.0274363E2,-4.0339344E1,-2.5522352E1,-1.0328733E2,-2.5963007E1,-4.7933548E1,-8.137445E1,-6.2872883E1,-8.3501564E1,-1.4135567E2,3.1202824E1,1.5260434E2,-6.0198444E1,-8.990483E1,1.8506136E2,-6.3277233E1,4.4100247E2,1.7533034E2,1.3154437E1,-5.69151E1,-2.3914548E2,-6.460071E1,-1.1782251E1,-1.3439426E2,2.6660023E1,-6.458326E0,4.544292E1,2.2478668E1,8.777028E1,1.6005219E2,9.913938E1,7.435523E1,3.082165E2,1.9527364E2,-1.9852596E1,-2.9946146E2,1.9317998E2,-9.9022316E1],"categories":[],"categories_nodes":[],"categories_segments":[],"categories_sizes":[],"default_left":[0,0,0,0,0,0,0,0,0,0,0,0,0,0,0,0,0,0,0,0,0,0,0,0,0,0,0,0,0,0,0,0,0,0,0,0,0,0,0,0,0,0,0,0,0,0,0,0,0,0,0,0,0,0,0,0,0,0,0,0,0,0,0,0,0,0,0,0,0,0,0,0,0,0,0,0,0,0,0,0,0,0,0,0,0,0,0,0,0,0,0,0,0,0,0,0,0,0,0,0,0,0,0,0,0,0,0],"id":4,"left_children":[1,3,5,7,9,11,13,15,17,19,21,23,25,27,29,31,-1,33,35,37,39,41,43,45,47,49,51,53,55,57,59,-1,-1,-1,61,-1,63,-1,65,67,69,71,73,75,77,79,81,83,85,87,89,91,-1,93,95,97,99,-1,101,103,105,-1,-1,-1,-1,-1,-1,-1,-1,-1,-1,-1,-1,-1,-1,-1,-1,-1,-1,-1,-1,-1,-1,-1,-1,-1,-1,-1,-1,-1,-1,-1,-1,-1,-1,-1,-1,-1,-1,-1,-1,-1,-1,-1,-1,-1,-1],"loss_changes":[1.2488942E9,9.601024E7,4.1599987E8,1.5565504E7,8.292136E6,9.457113E7,8.401709E7,1.792128E6,1.189552E6,8.97528E5,1.32676E6,9.276619E7,6.6604396E7,1.1319076E7,3.77568E7,2.6672E5,0E0,4.07824E5,1.75936E5,2.90376E5,2.25252E5,7.225575E5,2.97886E5,4.4786484E7,1.5736384E7,1.010496E7,4.825352E6,1.2672555E6,1.463352E6,5.937664E6,1.1049606E8,0E0,0E0,0E0,7.5724E4,0E0,2.7136E4,0E0,2.14392E5,4.3232E4,4.829775E4,2.259615E5,1.3440988E5,3.10666E5,5.44355E4,1.0466286E7,6.83986E5,4.961096E6,7.161552E6,6.042088E6,2.769852E6,1.9951981E5,0E0,3.508312E5,1.577735E5,6.7622E5,6.5964E5,0E0,4.439616E6,2.5255506E7,6.111704E6,0E0,0E0,0E0,0E0,0E0,0E0,0E0,0E0,0E0,0E0,0E0,0E0,0E0,0E0,0E0,0E0,0E0,0E0,0E0,0E0,0E0,0E0,0E0,0E0,0E0,0E0,0E0,0E0,0E0,0E0,0E0,0E0,0E0,0E0,0E0,0E0,0E0,0E0,0E0,0E0,0E0,0E0,0E0,0E0,0E0,0E0],"parents":[2147483647,0,0,1,1,2,2,3,3,4,4,5,5,6,6,7,7,8,8,9,9,10,10,11,11,12,12,13,13,14,14,15,15,17,17,18,18,19,19,20,20,21,21,22,22,23,23,24,24,25,25,26,26,27,27,28,28,29,29,30,30,34,34,36,36,38,38,39,39,40,40,41,41,42,42,43,43,44,44,45,45,46,46,47,47,48,48,49,49,50,50,51,51,53,53,54,54,55,55,56,56,58,58,59,59,60,60],"right_children":[2,4,6,8,10,12,14,16,18,20,22,24,26,28,30,32,-1,34,36,38,40,42,44,46,48,50,52,54,56,58,60,-1,-1,-1,62,-1,64,-1,66,68,70,72,74,76,78,80,82,84,86,88,90,92,-1,94,96,98,100,-1,102,104,106,-1,-1,-1,-1,-1,-1,-1,-1,-1,-1,-1,-1,-1,-1,-1,-1,-1,-1,-1,-1,-1,-1,-1,-1,-1,-1,-1,-1,-1,-1,-1,-1,-1,-1,-1,-1,-1,-1,-1,-1,-1,-1,-1,-1,-1,-1],"split_conditions":[8.576642E0,6.669064E0,9.6E0,5.481125E0,7.542298E0,7.609881E0,1.1176149E1,4.5254393E0,9.260639E-2,9.194074E-2,-3.6327229E0,1.1036287E1,3.0506088E2,9.61855E0,1.2689445E1,3.547514E0,-2.0976987E2,8.347164E0,5.9204545E0,8.385719E0,7.3386717E0,8.6E0,3.4221155E2,-2.166759E-1,1.3150147E1,9.4E0,1.3754382E1,9.045393E0,9.9E0,-1.6902044E-3,1.03E1,-2.5245259E2,-2.2970949E2,-2.5230238E2,1.0260646E1,-1.8676001E2,-3.5503783E0,-1.9703249E2,9.7492075E0,8.950091E0,1.62E1,8.243915E0,9.29773E0,7.886114E0,-3.4631226E0,9.871815E0,5.5710053E0,5.869322E0,2.9184723E2,6.5E0,1.1172538E-3,1.1656047E1,1.9040678E2,-3.82279E0,8.9E1,-3.4491775E0,8.627856E-2,-1.12116264E2,9.7E0,4.6124797E0,1.9777388E1,-1.4837048E2,-1.180387E2,-4.43051E1,-1.6855661E2,-1.0663528E2,-7.882625E1,-1.5132686E2,-1.2895078E2,-1.0274363E2,-4.0339344E1,-2.5522352E1,-1.0328733E2,-2.5963007E1,-4.7933548E1,-8.137445E1,-6.2872883E1,-8.3501564E1,-1.4135567E2,3.1202824E1,1.5260434E2,-6.0198444E1,-8.990483E1,1.8506136E2,-6.3277233E1,4.4100247E2,1.7533034E2,1.3154437E1,-5.69151E1,-2.3914548E2,-6.460071E1,-1.1782251E1,-1.3439426E2,2.6660023E1,-6.458326E0,4.544292E1,2.2478668E1,8.777028E1,1.6005219E2,9.913938E1,7.435523E1,3.082165E2,1.9527364E2,-1.9852596E1,-2.9946146E2,1.9317998E2,-9.9022316E1],"split_indices":[1,1,5,1,1,0,1,1,6,6,0,1,2,1,0,1,0,7,1,7,1,5,2,0,1,5,1,1,5,8,5,0,0,0,7,0,0,0,7,7,5,1,7,1,0,1,0,0,2,5,8,1,0,0,3,0,6,0,5,7,0,0,0,0,0,0,0,0,0,0,0,0,0,0,0,0,0,0,0,0,0,0,0,0,0,0,0,0,0,0,0,0,0,0,0,0,0,0,0,0,0,0,0,0,0,0,0],"split_type":[0,0,0,0,0,0,0,0,0,0,0,0,0,0,0,0,0,0,0,0,0,0,0,0,0,0,0,0,0,0,0,0,0,0,0,0,0,0,0,0,0,0,0,0,0,0,0,0,0,0,0,0,0,0,0,0,0,0,0,0,0,0,0,0,0,0,0,0,0,0,0,0,0,0,0,0,0,0,0,0,0,0,0,0,0,0,0,0,0,0,0,0,0,0,0,0,0,0,0,0,0,0,0,0,0,0,0],"sum_hessian":[8.983E3,2.879E3,6.104E3,1.826E3,1.053E3,2.868E3,3.236E3,1.088E3,7.38E2,4.92E2,5.61E2,8.66E2,2.002E3,8.22E2,2.414E3,6.68E2,4.2E2,1.85E2,5.53E2,2.08E2,2.84E2,1.56E2,4.05E2,5.61E2,3.05E2,1.886E3,1.16E2,3.14E2,5.08E2,1.966E3,4.48E2,2.47E2,4.21E2,4E0,1.81E2,2.81E2,2.72E2,3E0,2.05E2,2.53E2,3.1E1,2.4E1,1.32E2,3.86E2,1.9E1,2.57E2,3.04E2,2.56E2,4.9E1,1.841E3,4.5E1,5E0,1.11E2,1.47E2,1.67E2,6.6E1,4.42E2,5E0,1.961E3,1.16E2,3.32E2,1.45E2,3.6E1,1E0,2.71E2,1.56E2,4.9E1,5.5E1,1.98E2,2.8E1,3E0,5E0,1.9E1,9.5E1,3.7E1,1.96E2,1.9E2,1.1E1,8E0,1.21E2,1.36E2,1.65E2,1.39E2,2.49E2,7E0,3.4E1,1.5E1,1.18E2,1.723E3,3.3E1,1.2E1,2E0,3E0,3.8E1,1.09E2,1.29E2,3.8E1,2.2E1,4.4E1,2.48E2,1.94E2,3.4E1,1.927E3,6.2E1,5.4E1,3.26E2,6E0],"tree_param":{"num_deleted":"0","num_feature":"9","num_nodes":"107","size_leaf_vector":"1"}},{"base_weights":[-4.9337494E-1,-3.8129483E2,1.7914769E2,-4.8610995E2,-2.2523535E2,-1.4997277E1,3.5116583E2,-5.409673E2,-4.180626E2,-3.0185654E2,-1.613111E2,1.7887317E2,-9.890675E1,1.6068661E2,4.1914386E2,-1.7884355E2,-5.244062E2,-1.3818085E2,-3.9296756E2,-3.782295E2,-2.8501016E2,-1.19392746E2,-1.9836838E2,8.919619E0,4.9042554E2,-1.3903001E2,3.2632214E2,5.8019894E1,2.2697104E2,4.341625E2,-2.6302206E2,-1.6693973E2,-5.0707986E2,-1.2827489E2,-3.662041E2,-3.5837625E2,-1.9560014E2,-2.280121E2,-3.0336838E2,-1.920393E2,-1.0682222E2,-1.8421854E2,-3.311856E2,2.2421979E2,-1.7323239E2,4.3151605E2,1.018009E3,-1.3064304E2,-4.6164148E2,-2.4003177E2,4.7689716E2,1.4503923E1,1.11883E2,2.3035336E2,-7.957409E1,4.4780157E2,-5.659508E1,-5.179031E2,1.3973726E2,-1.5678055E2,-1.3945314E2,-1.0708747E2,-1.333735E2,-5.9282604E1,-1.1094904E2,-6.917123E1,7.632129E0,-9.299862E1,-6.2118523E1,-3.0329445E1,-7.79466E1,-1.7313229E1,-3.9971397E1,-6.1305218E1,-3.592655E1,-4.7761253E1,-1.3396494E2,-1.6542423E1,9.3861145E1,-7.104647E1,-4.4636353E1,1.3419379E2,-4.666693E1,4.1642642E2,1.2818503E2,9.9834816E1,-4.050606E1,-1.6951193E2,-4.6711315E1,-2.5458531E2,-3.552628E1,-1.3999982E2,1.640662E2,1.3817884E1,-9.055092E0,3.7879555E1,1.647089E1,1.0062422E2,6.408618E1,-7.344243E1,1.3575456E2,2.912467E2,-4.7866336E2,-2.708623E2,-7.986128E1],"categories":[],"categories_nodes":[],"categories_segments":[],"categories_sizes":[],"default_left":[0,0,0,0,0,0,0,0,0,0,0,0,0,0,0,0,0,0,0,0,0,0,0,0,0,0,0,0,0,0,0,0,0,0,0,0,0,0,0,0,0,0,0,0,0,0,0,0,0,0,0,0,0,0,0,0,0,0,0,0,0,0,0,0,0,0,0,0,0,0,0,0,0,0,0,0,0,0,0,0,0,0,0,0,0,0,0,0,0,0,0,0,0,0,0,0,0,0,0,0,0,0,0,0,0],"id":5,"left_children":[1,3,5,7,9,11,13,15,17,19,21,23,25,27,29,-1,31,-1,33,35,37,39,41,43,45,47,49,51,53,55,57,-1,59,-1,61,63,-1,65,67,69,71,73,75,77,79,81,83,85,87,89,91,93,95,97,-1,99,101,103,-1,-1,-1,-1,-1,-1,-1,-1,-1,-1,-1,-1,-1,-1,-1,-1,-1,-1,-1,-1,-1,-1,-1,-1,-1,-1,-1,-1,-1,-1,-1,-1,-1,-1,-1,-1,-1,-1,-1,-1,-1,-1,-1,-1,-1,-1,-1],"loss_changes":[6.1464205E8,4.6999776E7,2.0389066E8,6.201888E6,5.628032E6,4.6689344E7,4.184659E7,5.55488E5,6.44208E5,5.68956E5,9.61159E5,4.590278E7,3.4219696E7,5.79167E6,2.4548992E7,0E0,1.2832E5,0E0,3.00144E5,2.6638E5,3.86008E5,2.534475E5,5.68569E5,2.2078996E7,9.071096E6,4.893896E6,1.486769E7,7.859295E5,9.23492E5,1.5647904E7,9.900784E6,0E0,7.896E4,0E0,4.7828E4,8.8964E4,0E0,7.72E4,1.43874E5,2.3879462E5,3.270185E5,3.71353E5,5.43963E5,6.406767E6,4.38858E5,2.638404E6,5.965348E6,3.667822E6,1.367155E6,2.6378998E6,9.302706E6,2.650877E5,1.15992125E5,8.33694E5,0E0,7.52496E6,1.0274216E8,3.538627E6,0E0,0E0,0E0,0E0,0E0,0E0,0E0,0E0,0E0,0E0,0E0,0E0,0E0,0E0,0E0,0E0,0E0,0E0,0E0,0E0,0E0,0E0,0E0,0E0,0E0,0E0,0E0,0E0,0E0,0E0,0E0,0E0,0E0,0E0,0E0,0E0,0E0,0E0,0E0,0E0,0E0,0E0,0E0,0E0,0E0,0E0,0E0],"parents":[2147483647,0,0,1,1,2,2,3,3,4,4,5,5,6,6,7,7,8,8,9,9,10,10,11,11,12,12,13,13,14,14,16,16,18,18,19,19,20,20,21,21,22,22,23,23,24,24,25,25,26,26,27,27,28,28,29,29,30,30,32,32,34,34,35,35,37,37,38,38,39,39,40,40,41,41,42,42,43,43,44,44,45,45,46,46,47,47,48,48,49,49,50,50,51,51,52,52,53,53,55,55,56,56,57,57],"right_children":[2,4,6,8,10,12,14,16,18,20,22,24,26,28,30,-1,32,-1,34,36,38,40,42,44,46,48,50,52,54,56,58,-1,60,-1,62,64,-1,66,68,70,72,74,76,78,80,82,84,86,88,90,92,94,96,98,-1,100,102,104,-1,-1,-1,-1,-1,-1,-1,-1,-1,-1,-1,-1,-1,-1,-1,-1,-1,-1,-1,-1,-1,-1,-1,-1,-1,-1,-1,-1,-1,-1,-1,-1,-1,-1,-1,-1,-1,-1,-1,-1,-1,-1,-1,-1,-1,-1,-1],"split_conditions":[8.576642E0,6.5114183E0,9.6E0,5.2029166E0,7.4186063E0,7.609881E0,1.1286216E1,3.4608889E0,5.71009E0,8.990603E0,-3.5287879E0,1.1036287E1,2.8782297E2,9.674982E0,1.7956865E1,-1.7884355E2,8.9E0,-1.3818085E2,9.152939E0,-3.2670908E0,9.1816485E-2,8.6E0,1.62E1,-2.166759E-1,1.3381771E1,9.4E0,1.005E3,9.218926E0,-2.166759E-1,9.5E1,1.05E1,-1.6693973E2,4.595398E0,-1.2827489E2,3.4221155E2,5.7674017E0,-1.9560014E2,-3.1038494E0,1.0885795E1,8.243915E0,-3.6629486E0,1.018E3,2.227625E2,9.280964E0,8.627856E-2,6.5169554E0,2.9184723E2,5.9E0,1.1172538E-3,7.7E1,1.3754382E1,8.691957E0,8.9E1,9.9E0,-7.957409E1,-1.6902044E-3,2.2315036E2,9.3E1,1.3973726E2,-1.5678055E2,-1.3945314E2,-1.0708747E2,-1.333735E2,-5.9282604E1,-1.1094904E2,-6.917123E1,7.632129E0,-9.299862E1,-6.2118523E1,-3.0329445E1,-7.79466E1,-1.7313229E1,-3.9971397E1,-6.1305218E1,-3.592655E1,-4.7761253E1,-1.3396494E2,-1.6542423E1,9.3861145E1,-7.104647E1,-4.4636353E1,1.3419379E2,-4.666693E1,4.1642642E2,1.2818503E2,9.9834816E1,-4.050606E1,-1.6951193E2,-4.6711315E1,-2.5458531E2,-3.552628E1,-1.3999982E2,1.640662E2,1.3817884E1,-9.055092E0,3.7879555E1,1.647089E1,1.0062422E2,6.408618E1,-7.344243E1,1.3575456E2,2.912467E2,-4.7866336E2,-2.708623E2,-7.986128E1],"split_indices":[1,1,5,1,1,0,1,1,1,7,0,1,2,1,0,0,5,0,7,0,6,5,5,0,1,5,4,1,0,3,5,0,1,0,2,2,0,0,7,1,0,4,2,1,6,0,2,5,8,3,1,7,3,5,0,8,2,3,0,0,0,0,0,0,0,0,0,0,0,0,0,0,0,0,0,0,0,0,0,0,0,0,0,0,0,0,0,0,0,0,0,0,0,0,0,0,0,0,0,0,0,0,0,0,0],"split_type":[0,0,0,0,0,0,0,0,0,0,0,0,0,0,0,0,0,0,0,0,0,0,0,0,0,0,0,0,0,0,0,0,0,0,0,0,0,0,0,0,0,0,0,0,0,0,0,0,0,0,0,0,0,0,0,0,0,0,0,0,0,0,0,0,0,0,0,0,0,0,0,0,0,0,0,0,0,0,0,0,0,0,0,0,0,0,0,0,0,0,0,0,0,0,0,0,0,0,0,0,0,0,0,0,0],"sum_hessian":[8.983E3,2.879E3,6.104E3,1.721E3,1.158E3,2.868E3,3.236E3,9.49E2,7.72E2,5.25E2,6.33E2,8.66E2,2.002E3,8.52E2,2.384E3,2.11E2,7.38E2,2.8E2,4.92E2,9.1E1,4.34E2,2.99E2,3.34E2,5.61E2,3.05E2,1.83E3,1.72E2,3.35E2,5.17E2,2.333E3,5.1E1,2.48E2,4.9E2,2.08E2,2.84E2,8.7E1,4E0,1.09E2,3.25E2,4.2E1,2.57E2,3.04E2,3E1,2.57E2,3.04E2,2.76E2,2.9E1,1.785E3,4.5E1,3.6E1,1.36E2,1.86E2,1.49E2,5.14E2,3E0,2.27E3,6.3E1,3.8E1,1.3E1,3.5E2,1.4E2,2.59E2,2.5E1,7E0,8E1,1.08E2,1E0,3.02E2,2.3E1,1.9E1,2.3E1,9.1E1,1.66E2,2.3E2,7.4E1,1.3E1,1.7E1,6.2E1,1.95E2,8.2E1,2.22E2,2.69E2,7E0,1.7E1,1.2E1,1.6E1,1.769E3,3.3E1,1.2E1,5E0,3.1E1,9E0,1.27E2,1.09E2,7.7E1,1.18E2,3.1E1,6.8E1,4.46E2,1.5E1,2.255E3,3.8E1,2.5E1,1.4E1,2.4E1],"tree_param":{"num_deleted":"0","num_feature":"9","num_nodes":"105","size_leaf_vector":"1"}},{"base_weights":[-5.8985406E-1,-2.6095587E2,1.2887737E2,-3.342752E2,-1.393293E2,-8.406354E0,2.5148259E2,-3.7641443E2,-2.8305243E2,-1.7860292E2,-8.833378E1,1.4076343E2,-6.9062584E1,1.2616899E2,2.9458203E2,-4.004029E2,-3.533049E2,-2.4762993E2,-3.027395E2,-1.4592885E2,-2.0322531E2,-8.26221E1,-2.4272882E2,4.2096E1,4.108929E2,-9.705036E1,2.2745789E2,1.849591E2,7.785794E1,3.1608038E2,-1.30113325E1,-1.288072E2,-1.1630015E2,-1.1781364E2,-3.408486E2,-3.5135724E2,-2.3255412E2,-3.1285037E2,-2.5032332E2,-1.7501736E2,-1.03057274E2,-1.9690152E2,-2.911444E2,-1.5441684E2,-7.1268974E1,-3.1730338E2,-1.4118439E2,1.9796101E2,-1.2462605E2,3.6495645E2,1.0574657E3,-9.161794E1,-3.0245752E2,9.954752E2,1.433835E2,2.887027E2,1.6488763E2,8.176877E1,-2.849952E2,3.2618326E2,-3.2434452E1,-5.2694635E2,1.00583435E2,-1.0662731E2,-9.623885E1,-1.4910869E2,-9.2138855E1,-7.374674E1,-5.795959E1,-9.458072E1,-5.967006E1,-2.159621E1,-7.544759E1,-1.4130762E2,-5.052439E1,-2.776028E1,-6.466326E1,-6.482011E1,-5.3663425E1,-2.7720022E1,-9.905294E1,-6.3111206E1,-3.536914E1,-1.5241908E1,-3.156618E1,-5.889351E1,-1.2583953E2,-4.7412445E1,-1.6436914E1,8.427502E1,2.9176136E1,-3.529128E1,-9.91581E1,9.533861E1,1.5061737E2,3.027422E1,3.9275085E2,6.987063E1,-2.8455532E1,1.2983577E2,-9.835484E1,3.4153253E2,7.386706E1,-5.647646E1,7.9524704E1,7.2799255E1,1.11129295E2,5.0757397E1,-6.1669888E1,1.1828609E1,3.2145824E1,-3.3421143E1,-1.0907647E2,9.633286E1,2.0543788E2,2.0611308E2,-3.4605685E2,-9.155395E1,-3.3272067E2],"categories":[],"categories_nodes":[],"categories_segments":[],"categories_sizes":[],"default_left":[0,0,0,0,0,0,0,0,0,0,0,0,0,0,0,0,0,0,0,0,0,0,0,0,0,0,0,0,0,0,0,0,0,0,0,0,0,0,0,0,0,0,0,0,0,0,0,0,0,0,0,0,0,0,0,0,0,0,0,0,0,0,0,0,0,0,0,0,0,0,0,0,0,0,0,0,0,0,0,0,0,0,0,0,0,0,0,0,0,0,0,0,0,0,0,0,0,0,0,0,0,0,0,0,0,0,0,0,0,0,0,0,0,0,0,0,0,0,0],"id":6,"left_children":[1,3,5,7,9,11,13,15,17,19,21,23,25,27,29,31,33,35,37,39,41,43,45,47,49,51,53,55,57,59,61,-1,-1,-1,63,65,67,69,71,73,75,77,79,81,83,85,87,89,91,93,95,97,99,101,103,105,107,109,111,113,115,117,-1,-1,-1,-1,-1,-1,-1,-1,-1,-1,-1,-1,-1,-1,-1,-1,-1,-1,-1,-1,-1,-1,-1,-1,-1,-1,-1,-1,-1,-1,-1,-1,-1,-1,-1,-1,-1,-1,-1,-1,-1,-1,-1,-1,-1,-1,-1,-1,-1,-1,-1,-1,-1,-1,-1,-1,-1],"loss_changes":[3.0287405E8,2.6563472E7,1.0100917E8,3.910416E6,2.235346E6,2.5633874E7,1.7083824E7,4.22864E5,5.13608E5,4.80404E5,4.1293625E5,2.1811494E7,1.6736158E7,2.294693E6,1.5596992E7,1.4976E4,1.24828E5,3.98368E5,2.06816E5,3.26155E5,1.4227E5,3.7616475E5,8.39365E4,1.5642339E7,6.118648E6,2.026582E6,1.1092546E7,7.14514E5,6.5904075E5,7.770864E6,2.7921388E7,0E0,0E0,0E0,5.232E3,8.5729E4,9.4019E4,6.0488E4,1.07E3,2.3925E5,1.14996625E5,7.8106E4,1.401545E5,1.0597675E5,2.808865E5,2.8900562E4,4.4482188E3,2.570847E6,3.798465E5,1.172414E6,3.238633E6,1.905838E6,1.019344E6,1.540694E6,6.426784E6,1.28343E5,5.27424E5,4.729685E5,2.771025E4,3.677456E6,5.160822E7,7.79454E6,0E0,0E0,0E0,0E0,0E0,0E0,0E0,0E0,0E0,0E0,0E0,0E0,0E0,0E0,0E0,0E0,0E0,0E0,0E0,0E0,0E0,0E0,0E0,0E0,0E0,0E0,0E0,0E0,0E0,0E0,0E0,0E0,0E0,0E0,0E0,0E0,0E0,0E0,0E0,0E0,0E0,0E0,0E0,0E0,0E0,0E0,0E0,0E0,0E0,0E0,0E0,0E0,0E0,0E0,0E0,0E0,0E0],"parents":[2147483647,0,0,1,1,2,2,3,3,4,4,5,5,6,6,7,7,8,8,9,9,10,10,11,11,12,12,13,13,14,14,15,15,16,16,17,17,18,18,19,19,20,20,21,21,22,22,23,23,24,24,25,25,26,26,27,27,28,28,29,29,30,30,34,34,35,35,36,36,37,37,38,38,39,39,40,40,41,41,42,42,43,43,44,44,45,45,46,46,47,47,48,48,49,49,50,50,51,51,52,52,53,53,54,54,55,55,56,56,57,57,58,58,59,59,60,60,61,61],"right_children":[2,4,6,8,10,12,14,16,18,20,22,24,26,28,30,32,34,36,38,40,42,44,46,48,50,52,54,56,58,60,62,-1,-1,-1,64,66,68,70,72,74,76,78,80,82,84,86,88,90,92,94,96,98,100,102,104,106,108,110,112,114,116,118,-1,-1,-1,-1,-1,-1,-1,-1,-1,-1,-1,-1,-1,-1,-1,-1,-1,-1,-1,-1,-1,-1,-1,-1,-1,-1,-1,-1,-1,-1,-1,-1,-1,-1,-1,-1,-1,-1,-1,-1,-1,-1,-1,-1,-1,-1,-1,-1,-1,-1,-1,-1,-1,-1,-1,-1,-1],"split_conditions":[8.776363E0,6.714566E0,9.6E0,5.3475E0,7.8465815E0,7.4574904E0,1.1336254E1,4.1175046E0,9.274067E-2,9.173888E-2,3.4221155E2,1.1564615E1,2.8782297E2,8.6476445E-2,1.522424E1,3.2725985E0,6.9E0,8.691957E0,1.41E1,9.555362E0,3.3860675E2,6.5775444E1,8.3E0,2.7054113E-1,6.756844E0,9.4E0,6.5E0,9.9E0,-6.9006634E-1,9.5E1,1.05E1,-1.288072E2,-1.1630015E2,-1.1781364E2,4.7579727E0,8.135303E0,-3.34E0,1.1265226E1,-3.5503783E0,8.135303E0,2.9866965E2,9.389021E0,-3.4804945E0,-3.5961905E0,2.4464972E2,8.168851E0,-3.5287879E0,8.677644E-2,9.3E0,5.006827E0,5.9E0,5.9E0,7.609881E0,2.9484622E2,3.0506088E2,-2.356036E0,-2.166759E-1,9.356056E0,-2.166759E-1,1.025E3,2.2315036E2,4.401103E0,1.00583435E2,-1.0662731E2,-9.623885E1,-1.4910869E2,-9.2138855E1,-7.374674E1,-5.795959E1,-9.458072E1,-5.967006E1,-2.159621E1,-7.544759E1,-1.4130762E2,-5.052439E1,-2.776028E1,-6.466326E1,-6.482011E1,-5.3663425E1,-2.7720022E1,-9.905294E1,-6.3111206E1,-3.536914E1,-1.5241908E1,-3.156618E1,-5.889351E1,-1.2583953E2,-4.7412445E1,-1.6436914E1,8.427502E1,2.9176136E1,-3.529128E1,-9.91581E1,9.533861E1,1.5061737E2,3.027422E1,3.9275085E2,6.987063E1,-2.8455532E1,1.2983577E2,-9.835484E1,3.4153253E2,7.386706E1,-5.647646E1,7.9524704E1,7.2799255E1,1.11129295E2,5.0757397E1,-6.1669888E1,1.1828609E1,3.2145824E1,-3.3421143E1,-1.0907647E2,9.633286E1,2.0543788E2,2.0611308E2,-3.4605685E2,-9.155395E1,-3.3272067E2],"split_indices":[1,1,5,1,1,0,1,1,6,6,2,1,2,6,0,1,5,7,5,7,2,2,5,0,0,5,5,5,0,3,5,0,0,0,1,7,0,7,0,7,2,7,0,0,2,1,0,6,5,0,5,5,0,2,2,0,0,1,0,4,2,7,0,0,0,0,0,0,0,0,0,0,0,0,0,0,0,0,0,0,0,0,0,0,0,0,0,0,0,0,0,0,0,0,0,0,0,0,0,0,0,0,0,0,0,0,0,0,0,0,0,0,0,0,0,0,0,0,0],"split_type":[0,0,0,0,0,0,0,0,0,0,0,0,0,0,0,0,0,0,0,0,0,0,0,0,0,0,0,0,0,0,0,0,0,0,0,0,0,0,0,0,0,0,0,0,0,0,0,0,0,0,0,0,0,0,0,0,0,0,0,0,0,0,0,0,0,0,0,0,0,0,0,0,0,0,0,0,0,0,0,0,0,0,0,0,0,0,0,0,0,0,0,0,0,0,0,0,0,0,0,0,0,0,0,0,0,0,0,0,0,0,0,0,0,0,0,0,0,0,0],"sum_hessian":[8.983E3,2.983E3,6E3,1.86E3,1.123E3,2.831E3,3.169E3,1.017E3,8.43E2,6.33E2,4.9E2,8.18E2,2.013E3,8.12E2,2.357E3,4.91E2,5.26E2,3.06E2,5.37E2,2.75E2,3.58E2,4.74E2,1.6E1,6E2,2.18E2,1.84E3,1.73E2,3.65E2,4.47E2,2.203E3,1.54E2,1.4E2,3.51E2,1.19E2,4.07E2,3.6E1,2.7E2,4.46E2,9.1E1,1.62E2,1.13E2,3.37E2,2.1E1,6.3E1,4.11E2,8E0,8E0,3.1E2,2.9E2,2.05E2,1.3E1,1.794E3,4.6E1,1.6E1,1.57E2,5.7E1,3.08E2,4.43E2,4E0,2.141E3,6.2E1,6.2E1,9.2E1,2.26E2,1.81E2,6E0,3E1,1.98E2,7.2E1,4.35E2,1.1E1,1E0,9E1,2E0,1.6E2,1.05E2,8E0,1.58E2,1.79E2,4E0,1.7E1,2.3E1,4E1,2.58E2,1.53E2,5E0,3E0,6E0,2E0,1.69E2,1.41E2,2.82E2,8E0,1.55E2,5E1,3E0,1E1,1.7E1,1.777E3,1E0,4.5E1,1.3E1,3E0,4.2E1,1.15E2,3.9E1,1.8E1,3.05E2,3E0,1.67E2,2.76E2,2E0,2E0,2.113E3,2.8E1,3.8E1,2.4E1,4.6E1,1.6E1],"tree_param":{"num_deleted":"0","num_feature":"9","num_nodes":"119","size_leaf_vector":"1"}},{"base_weights":[-5.288497E-1,-1.9371977E2,8.557564E1,-2.494431E2,-1.301506E2,-1.3720914E1,1.6510893E2,-2.733932E2,-2.2275339E2,-1.6835043E2,-9.3425354E1,6.5011734E1,-4.6090706E1,2.0060777E2,5.759247E1,-7.9635666E1,-8.999966E1,-7.574293E1,-2.1149239E2,-1.6525357E2,-1.5746573E2,-6.481776E1,-1.1508908E2,-1.5561934E0,2.6806845E2,-6.410945E1,1.4902821E2,2.1843997E2,-6.153097E1,6.2008102E1,-2.8804834E2,-2.1788156E2,-1.7882932E2,-1.9426509E2,-1.5110733E2,-6.0542152E1,-1.9063458E2,-1.0431585E2,-2.1393857E2,9.139013E1,-7.707045E1,2.3371329E2,7.4163354E2,-4.7350594E1,-1.0915059E2,7.2126776E2,8.318088E1,2.248251E2,-2.4925552E1,-5.548714E2,1.0472366E2,9.8385895E1,1.6516176E1,-1.0347712E2,-1.4665152E2,-6.744895E1,-5.747478E1,-5.658928E1,-3.364411E1,-6.1390266E1,-3.9039597E1,-6.071341E1,-4.2511024E1,-1.4251982E1,-2.4744545E1,-2.3274416E1,-6.3555733E1,-3.6370914E1,-1.2160763E1,-1.01290634E2,-4.380196E1,-4.0439137E1,4.1707657E1,-1.8109495E1,-3.6216038E1,5.87561E1,1.01780464E2,3.2436758E2,-5.3874607E0,2.677017E2,-1.6361109E1,-5.712643E1,-2.9818138E1,2.4639128E2,5.7246937E1,-4.967096E1,4.8955837E1,6.868508E1,-5.1233257E1,1.4586458E2,-2.4639246E2,-1.2912349E2,-4.8889096E2,-6.961585E1,6.2662636E1,3.7891384E1,2.386742E1,1.7094973E1,-6.2064385E-1,-1.5978937E1,-3.8346554E1],"categories":[],"categories_nodes":[],"categories_segments":[],"categories_sizes":[],"default_left":[0,0,0,0,0,0,0,0,0,0,0,0,0,0,0,0,0,0,0,0,0,0,0,0,0,0,0,0,0,0,0,0,0,0,0,0,0,0,0,0,0,0,0,0,0,0,0,0,0,0,0,0,0,0,0,0,0,0,0,0,0,0,0,0,0,0,0,0,0,0,0,0,0,0,0,0,0,0,0,0,0,0,0,0,0,0,0,0,0,0,0,0,0,0,0,0,0,0,0,0,0],"id":7,"left_children":[1,3,5,7,9,11,13,15,17,19,21,23,25,27,29,-1,-1,-1,31,33,-1,35,37,39,41,43,45,47,49,51,53,55,57,59,61,63,65,67,69,71,73,75,77,79,81,83,85,87,89,91,93,95,97,99,-1,-1,-1,-1,-1,-1,-1,-1,-1,-1,-1,-1,-1,-1,-1,-1,-1,-1,-1,-1,-1,-1,-1,-1,-1,-1,-1,-1,-1,-1,-1,-1,-1,-1,-1,-1,-1,-1,-1,-1,-1,-1,-1,-1,-1,-1,-1],"loss_changes":[1.4946187E8,9.779672E6,4.9084496E7,8.81952E5,1.802428E6,7.0497625E6,1.3159912E7,8.3684E4,1.81904E5,6.13288E5,4.034325E5,1.089517E7,6.900518E6,1.2139128E7,1.3273605E6,0E0,0E0,0E0,6.8722E4,2.292E5,0E0,1.4338612E5,3.78096E5,4.274457E6,3.064283E6,1.3497665E6,6.19496E6,3.780072E6,1.367345E7,1.401727E6,3.5707712E5,3.4952E4,3.7669E4,1.08367E5,1.77681E5,7.616025E4,5.1529375E3,3.6308975E5,2.5321038E5,2.9601835E6,2.3772E5,6.80856E5,3.372779E6,8.895111E6,3.66444E5,7.45361E5,3.012223E6,3.901856E6,2.6044344E7,4.916717E6,4.4329545E6,2.37532E5,2.844041E5,1.7489297E3,0E0,0E0,0E0,0E0,0E0,0E0,0E0,0E0,0E0,0E0,0E0,0E0,0E0,0E0,0E0,0E0,0E0,0E0,0E0,0E0,0E0,0E0,0E0,0E0,0E0,0E0,0E0,0E0,0E0,0E0,0E0,0E0,0E0,0E0,0E0,0E0,0E0,0E0,0E0,0E0,0E0,0E0,0E0,0E0,0E0,0E0,0E0],"parents":[2147483647,0,0,1,1,2,2,3,3,4,4,5,5,6,6,7,7,8,8,9,9,10,10,11,11,12,12,13,13,14,14,18,18,19,19,21,21,22,22,23,23,24,24,25,25,26,26,27,27,28,28,29,29,30,30,31,31,32,32,33,33,34,34,35,35,36,36,37,37,38,38,39,39,40,40,41,41,42,42,43,43,44,44,45,45,46,46,47,47,48,48,49,49,50,50,51,51,52,52,53,53],"right_children":[2,4,6,8,10,12,14,16,18,20,22,24,26,28,30,-1,-1,-1,32,34,-1,36,38,40,42,44,46,48,50,52,54,56,58,60,62,64,66,68,70,72,74,76,78,80,82,84,86,88,90,92,94,96,98,100,-1,-1,-1,-1,-1,-1,-1,-1,-1,-1,-1,-1,-1,-1,-1,-1,-1,-1,-1,-1,-1,-1,-1,-1,-1,-1,-1,-1,-1,-1,-1,-1,-1,-1,-1,-1,-1,-1,-1,-1,-1,-1,-1,-1,-1,-1,-1],"split_conditions":[8.371461E0,6.1021414E0,9.4E0,4.7579727E0,7.1616044E0,7.4574904E0,7.126738E0,-3.4336362E0,8.1E1,-2.7766347E0,-3.496941E0,1.1564615E1,2.8782297E2,1.5457656E1,1.4566182E0,-7.9635666E1,-8.999966E1,-7.574293E1,-3.422909E0,6.9E0,-1.5746573E2,9.4E1,1.64E1,-2.166759E-1,6.756844E0,5.637749E0,6.5E0,9.5E1,1.838032E1,8.803303E-2,2.7284955E2,1.41E1,1.1148946E1,1.0531827E1,8.990603E0,2.32487E2,-3.6135802E0,1.018E3,8.950091E0,8.988566E0,1.04625E1,5.006827E0,1.013E3,1.0429902E1,6.4E0,2.9484622E2,2.970249E2,1.1172538E-3,2.2315036E2,4.9092216E0,9.9E0,7.487158E0,-3.83658E0,3.579882E0,-1.4665152E2,-6.744895E1,-5.747478E1,-5.658928E1,-3.364411E1,-6.1390266E1,-3.9039597E1,-6.071341E1,-4.2511024E1,-1.4251982E1,-2.4744545E1,-2.3274416E1,-6.3555733E1,-3.6370914E1,-1.2160763E1,-1.01290634E2,-4.380196E1,-4.0439137E1,4.1707657E1,-1.8109495E1,-3.6216038E1,5.87561E1,1.01780464E2,3.2436758E2,-5.3874607E0,2.677017E2,-1.6361109E1,-5.712643E1,-2.9818138E1,2.4639128E2,5.7246937E1,-4.967096E1,4.8955837E1,6.868508E1,-5.1233257E1,1.4586458E2,-2.4639246E2,-1.2912349E2,-4.8889096E2,-6.961585E1,6.2662636E1,3.7891384E1,2.386742E1,1.7094973E1,-6.2064385E-1,-1.5978937E1,-3.8346554E1],"split_indices":[1,1,5,1,1,0,7,0,3,0,0,1,2,0,0,0,0,0,0,5,0,3,5,0,0,7,5,3,1,6,2,5,7,7,7,2,0,4,7,1,1,0,4,0,5,2,2,8,2,7,5,7,0,0,0,0,0,0,0,0,0,0,0,0,0,0,0,0,0,0,0,0,0,0,0,0,0,0,0,0,0,0,0,0,0,0,0,0,0,0,0,0,0,0,0,0,0,0,0,0,0],"split_type":[0,0,0,0,0,0,0,0,0,0,0,0,0,0,0,0,0,0,0,0,0,0,0,0,0,0,0,0,0,0,0,0,0,0,0,0,0,0,0,0,0,0,0,0,0,0,0,0,0,0,0,0,0,0,0,0,0,0,0,0,0,0,0,0,0,0,0,0,0,0,0,0,0,0,0,0,0,0,0,0,0,0,0,0,0,0,0,0,0,0,0,0,0,0,0,0,0,0,0,0,0],"sum_hessian":[8.983E3,2.769E3,6.214E3,1.474E3,1.295E3,2.764E3,3.45E3,7.72E2,7.02E2,6.33E2,6.62E2,8.05E2,1.959E3,2.593E3,8.57E2,6.03E2,1.69E2,1.87E2,5.15E2,6.29E2,4E0,2.87E2,3.75E2,6.07E2,1.98E2,1.794E3,1.65E2,2.428E3,1.65E2,8.47E2,1E1,4.26E2,8.9E1,2.02E2,4.27E2,2.79E2,8E0,3.4E2,3.5E1,2.72E2,3.35E2,1.86E2,1.2E1,1.309E3,4.85E2,1.6E1,1.49E2,2.366E3,6.2E1,4.1E1,1.24E2,4.7E2,3.77E2,6E0,4E0,3.31E2,9.5E1,7.6E1,1.3E1,1.72E2,3E1,6.3E1,3.64E2,1.77E2,1.02E2,2E0,6E0,2.68E2,7.2E1,1.1E1,2.4E1,4.7E1,2.25E2,2.44E2,9.1E1,1.39E2,4.7E1,8E0,4E0,9E0,1.3E3,5E1,4.35E2,1.3E1,3E0,3.6E1,1.13E2,2.342E3,2.4E1,3.8E1,2.4E1,3.8E1,3E0,2.9E1,9.5E1,1.87E2,2.83E2,1.18E2,2.59E2,3E0,3E0],"tree_param":{"num_deleted":"0","num_feature":"9","num_nodes":"101","size_leaf_vector":"1"}},{"base_weights":[-4.901976E-1,-1.291329E2,6.3477528E1,-1.650624E2,-6.952977E1,-7.323847E0,1.2076972E2,-1.8300716E2,-1.3524298E2,-8.6601494E1,-4.0925632E1,7.504128E1,-2.7806423E1,1.2955838E2,-4.6836494E1,-2.0525635E2,-1.7442352E2,-1.3316345E2,-1.19673965E2,-8.26536E1,-1.7550569E2,-3.6909046E1,-2.0271799E2,1.515788E2,7.371268E0,-3.990589E1,9.3083206E1,6.2828213E1,1.6067404E2,-2.5095122E2,1.7045613E2,-6.661967E1,-5.8727848E1,-1.9572926E2,-1.6546849E2,-1.4330476E2,-1.1028155E2,-8.629428E1,-1.1478103E1,-6.971226E1,-2.1962712E2,-1.2469562E2,-3.2124245E1,-3.3979275E1,-2.695189E2,-9.884277E0,1.6791008E2,3.8585167E1,-6.2943768E1,-8.848387E1,-2.6846144E1,4.651931E2,4.8154846E1,6.957833E1,-3.5834003E2,1.5595222E2,4.681775E2,-1.991558E2,-3.7889044E2,4.941279E1,9.453055E1,-5.9339657E1,-2.9220644E1,-3.8315174E1,-5.055595E1,-4.9633976E1,-4.022905E1,-3.564565E1,-1.7568539E1,-3.127753E1,-2.2371477E1,-3.5309887E1,-3.4834328E-1,-2.6510584E1,9.826295E-1,-1.9205475E1,-6.7334305E1,-1.606421E0,-5.5195072E1,-3.1043972E1,-8.098657E0,-1.8586634E1,-9.1776276E1,2.4606184E1,-4.4025955E1,4.6851013E1,1.09865036E2,2.5803366E1,2.3082345E0,1.2624976E1,-2.1761919E1,-3.0091686E1,-2.2328201E1,1.3832376E2,-1.1841665E1,1.6945157E2,3.6581936E1,-2.9733885E1,3.1726538E1,4.040919E1,1.6565338E1,-3.0781961E1,-1.6375293E2,4.806877E1,-3.327475E1,3.7286133E2,4.7447998E1,-1.09607376E2,-1.7258686E1],"categories":[],"categories_nodes":[],"categories_segments":[],"categories_sizes":[],"default_left":[0,0,0,0,0,0,0,0,0,0,0,0,0,0,0,0,0,0,0,0,0,0,0,0,0,0,0,0,0,0,0,0,0,0,0,0,0,0,0,0,0,0,0,0,0,0,0,0,0,0,0,0,0,0,0,0,0,0,0,0,0,0,0,0,0,0,0,0,0,0,0,0,0,0,0,0,0,0,0,0,0,0,0,0,0,0,0,0,0,0,0,0,0,0,0,0,0,0,0,0,0,0,0,0,0,0,0,0,0],"id":8,"left_children":[1,3,5,7,9,11,13,15,17,19,21,23,25,27,29,31,33,35,-1,37,39,41,43,45,47,49,51,53,55,57,59,-1,-1,61,63,65,67,69,71,73,75,77,79,-1,81,83,85,87,89,91,93,95,97,99,101,103,105,107,-1,-1,-1,-1,-1,-1,-1,-1,-1,-1,-1,-1,-1,-1,-1,-1,-1,-1,-1,-1,-1,-1,-1,-1,-1,-1,-1,-1,-1,-1,-1,-1,-1,-1,-1,-1,-1,-1,-1,-1,-1,-1,-1,-1,-1,-1,-1,-1,-1,-1,-1],"loss_changes":[7.393736E7,6.378788E6,2.434314E7,9.71076E5,5.4533E5,4.531816E6,4.89212E6,1.8554E5,3.32343E5,2.32235E5,2.667557E5,2.7698055E6,3.149983E6,6.534572E6,7.4053115E6,7.132E3,1.28454E5,1.464E5,0E0,1.739205E5,1.2005425E5,1.6947131E5,2.9229062E4,6.63522E5,6.279485E5,1.2385428E6,3.2543832E6,2.879238E6,3.047272E6,4.256406E6,1.54315E4,0E0,0E0,3.0386E4,4.7591E4,7.5881E4,8.974025E4,1.274225E5,3.712336E4,1.3906281E4,6.3375E2,1.4759978E5,1.4103025E5,0E0,1.8825156E4,3.1393088E5,4.73621E5,2.8941625E5,9.1742125E4,6.133E4,9.523977E6,6.494E5,1.5034308E6,9.17419E5,7.11206E5,2.435252E6,7.488822E6,1.9326915E6,0E0,0E0,0E0,0E0,0E0,0E0,0E0,0E0,0E0,0E0,0E0,0E0,0E0,0E0,0E0,0E0,0E0,0E0,0E0,0E0,0E0,0E0,0E0,0E0,0E0,0E0,0E0,0E0,0E0,0E0,0E0,0E0,0E0,0E0,0E0,0E0,0E0,0E0,0E0,0E0,0E0,0E0,0E0,0E0,0E0,0E0,0E0,0E0,0E0,0E0,0E0],"parents":[2147483647,0,0,1,1,2,2,3,3,4,4,5,5,6,6,7,7,8,8,9,9,10,10,11,11,12,12,13,13,14,14,15,15,16,16,17,17,19,19,20,20,21,21,22,22,23,23,24,24,25,25,26,26,27,27,28,28,29,29,30,30,33,33,34,34,35,35,36,36,37,37,38,38,39,39,40,40,41,41,42,42,44,44,45,45,46,46,47,47,48,48,49,49,50,50,51,51,52,52,53,53,54,54,55,55,56,56,57,57],"right_children":[2,4,6,8,10,12,14,16,18,20,22,24,26,28,30,32,34,36,-1,38,40,42,44,46,48,50,52,54,56,58,60,-1,-1,62,64,66,68,70,72,74,76,78,80,-1,82,84,86,88,90,92,94,96,98,100,102,104,106,108,-1,-1,-1,-1,-1,-1,-1,-1,-1,-1,-1,-1,-1,-1,-1,-1,-1,-1,-1,-1,-1,-1,-1,-1,-1,-1,-1,-1,-1,-1,-1,-1,-1,-1,-1,-1,-1,-1,-1,-1,-1,-1,-1,-1,-1,-1,-1,-1,-1,-1,-1],"split_conditions":[8.776363E0,6.714566E0,9.4E0,5.6043825E0,7.949512E0,5.4434423E0,1.5457656E1,3.6920335E0,-3.1038494E0,3.4498398E2,3.4221155E2,8.691727E-2,2.8782297E2,1.1656047E1,1.05E1,3.1723475E0,7.8E0,1.017E3,-1.19673965E2,1.023E3,-3.443919E0,8.306295E0,8.243915E0,7.8E1,2.3025E2,1.2722677E1,6.7E0,1.215529E0,1.025E3,4.9092216E0,1.9221601E1,-6.661967E1,-5.8727848E1,9.2E1,-3.514417E0,6E0,-3.362613E0,9.29773E0,9.026594E0,9.495626E0,1.009E3,-3.6327229E0,7.8E1,-3.3979275E1,-3.6629486E0,6.8642287E0,5.006827E0,-3.002082E0,5.039438E0,1.1607807E1,1.0082156E1,2.9484622E2,3.0019998E2,9.9E0,9.935437E0,8.526513E-14,9.7E0,7.449406E-2,-3.7889044E2,4.941279E1,9.453055E1,-5.9339657E1,-2.9220644E1,-3.8315174E1,-5.055595E1,-4.9633976E1,-4.022905E1,-3.564565E1,-1.7568539E1,-3.127753E1,-2.2371477E1,-3.5309887E1,-3.4834328E-1,-2.6510584E1,9.826295E-1,-1.9205475E1,-6.7334305E1,-1.606421E0,-5.5195072E1,-3.1043972E1,-8.098657E0,-1.8586634E1,-9.1776276E1,2.4606184E1,-4.4025955E1,4.6851013E1,1.09865036E2,2.5803366E1,2.3082345E0,1.2624976E1,-2.1761919E1,-3.0091686E1,-2.2328201E1,1.3832376E2,-1.1841665E1,1.6945157E2,3.6581936E1,-2.9733885E1,3.1726538E1,4.040919E1,1.6565338E1,-3.0781961E1,-1.6375293E2,4.806877E1,-3.327475E1,3.7286133E2,4.7447998E1,-1.09607376E2,-1.7258686E1],"split_indices":[1,1,5,1,1,0,0,1,0,2,2,6,2,1,5,1,5,4,0,4,0,7,1,3,2,1,5,0,4,7,0,0,0,3,0,5,0,7,7,7,4,0,3,0,0,7,0,0,7,1,0,2,2,5,1,8,5,6,0,0,0,0,0,0,0,0,0,0,0,0,0,0,0,0,0,0,0,0,0,0,0,0,0,0,0,0,0,0,0,0,0,0,0,0,0,0,0,0,0,0,0,0,0,0,0,0,0,0,0],"split_type":[0,0,0,0,0,0,0,0,0,0,0,0,0,0,0,0,0,0,0,0,0,0,0,0,0,0,0,0,0,0,0,0,0,0,0,0,0,0,0,0,0,0,0,0,0,0,0,0,0,0,0,0,0,0,0,0,0,0,0,0,0,0,0,0,0,0,0,0,0,0,0,0,0,0,0,0,0,0,0,0,0,0,0,0,0,0,0,0,0,0,0,0,0,0,0,0,0,0,0,0,0,0,0,0,0,0,0,0,0],"sum_hessian":[8.983E3,2.983E3,6E3,1.86E3,1.123E3,2.684E3,3.316E3,1.158E3,7.02E2,7.02E2,4.21E2,5.34E2,2.15E3,3.151E3,1.65E2,3.16E2,8.42E2,6.98E2,4E0,6.74E2,2.8E1,4.12E2,9E0,2.5E2,2.84E2,1.955E3,1.95E2,1.003E3,2.148E3,8.5E1,8E1,1.06E2,2.1E2,2.43E2,5.99E2,4.8E2,2.18E2,6.41E2,3.3E1,9E0,1.9E1,2E1,3.92E2,5E0,4E0,2.3E1,2.27E2,1.97E2,8.7E1,4.13E2,1.542E3,2E1,1.75E2,9.88E2,1.5E1,2.117E3,3.1E1,8.2E1,3E0,7.9E1,1E0,2.37E2,6E0,4.8E1,5.51E2,1.36E2,3.44E2,1.86E2,3.2E1,2.5E2,3.91E2,2E0,3.1E1,7E0,2E0,1E0,1.8E1,7E0,1.3E1,2.5E1,3.67E2,1E0,3E0,1.4E1,9E0,2.16E2,1.1E1,7.7E1,1.2E2,7E0,8E1,2.21E2,1.92E2,3.8E1,1.504E3,1.5E1,5E0,4.9E1,1.26E2,1.77E2,8.11E2,7E0,8E0,2.084E3,3.3E1,8E0,2.3E1,3.7E1,4.5E1],"tree_param":{"num_deleted":"0","num_feature":"9","num_nodes":"109","size_leaf_vector":"1"}},{"base_weights":[-4.1364852E-1,-9.1645676E1,4.409206E1,-1.1997109E2,-5.549065E1,-5.3654685E0,8.408627E1,-1.3589824E2,-1.0582814E2,-7.591355E1,-3.7993565E1,4.9172554E1,-1.933343E1,9.0888565E1,-6.113634E1,-1.5174586E2,-1.2894815E2,-1.0383611E2,-1.5697002E2,-7.4067665E1,-9.931488E1,-3.5126972E1,-1.0553729E2,-1.4455486E1,9.941953E1,-2.7896341E1,6.6219574E1,1.0919397E2,3.1808481E1,-3.44034E2,1.9069954E2,-1.6269997E2,-1.4141312E2,-4.4743256E1,-1.2224615E2,-1.2539891E2,-9.9691505E1,-1.6597693E2,-7.69387E1,-7.015553E1,-1.2649673E2,-1.9115873E1,-4.574051E1,-1.4530896E2,-4.8469296E1,-2.836764E1,5.5118526E1,9.219532E1,2.5626157E2,-5.2479404E1,-2.4499876E1,3.3544623E2,3.3719696E1,6.670773E1,1.3646973E2,3.3612713E1,-2.4591006E2,-1.6959633E2,-7.803703E2,1.0075291E2,2.620024E2,-1.1995419E1,-4.9048637E1,-4.3433414E1,-2.7921825E1,-4.3510498E1,-3.5658356E1,-4.950981E1,-3.269643E1,-3.1985771E1,-2.75992E1,-9.557373E0,-5.097302E1,-2.8143705E1,-1.4166138E0,-2.2506413E1,-1.0438755E1,-8.154757E0,-4.103297E1,-1.2451297E1,3.2893558E0,-4.761044E1,-1.2383573E1,-1.0738148E1,-4.5067116E1,3.6272461E0,-2.0353924E1,-1.5890061E1,8.258558E0,2.7776045E1,-7.1265283E0,5.4223946E1,2.3654188E1,2.897687E1,1.1379743E2,2.4905397E1,-8.752951E0,1.217933E2,2.7436426E1,-3.2671497E1,2.174041E1,2.9006094E1,-2.7632488E1,1.143721E2,3.4854305E1,4.8159785E0,1.7917294E1,-1.840686E1,-8.301285E1,4.5597195E1,-7.213197E1,-3.0742237E1,-2.6819135E2,3.473394E1,1.1451905E0,9.1526855E1,-2.7983851E0],"categories":[],"categories_nodes":[],"categories_segments":[],"categories_sizes":[],"default_left":[0,0,0,0,0,0,0,0,0,0,0,0,0,0,0,0,0,0,0,0,0,0,0,0,0,0,0,0,0,0,0,0,0,0,0,0,0,0,0,0,0,0,0,0,0,0,0,0,0,0,0,0,0,0,0,0,0,0,0,0,0,0,0,0,0,0,0,0,0,0,0,0,0,0,0,0,0,0,0,0,0,0,0,0,0,0,0,0,0,0,0,0,0,0,0,0,0,0,0,0,0,0,0,0,0,0,0,0,0,0,0,0,0,0,0,0,0],"id":9,"left_children":[1,3,5,7,9,11,13,15,17,19,21,23,25,27,29,31,33,35,37,39,-1,41,43,45,47,49,51,53,55,57,59,61,63,-1,65,67,69,71,73,75,77,79,81,83,85,87,89,91,93,-1,95,97,99,101,103,105,107,109,111,113,115,-1,-1,-1,-1,-1,-1,-1,-1,-1,-1,-1,-1,-1,-1,-1,-1,-1,-1,-1,-1,-1,-1,-1,-1,-1,-1,-1,-1,-1,-1,-1,-1,-1,-1,-1,-1,-1,-1,-1,-1,-1,-1,-1,-1,-1,-1,-1,-1,-1,-1,-1,-1,-1,-1,-1,-1],"loss_changes":[3.6482188E7,3.010362E6,1.1945684E7,3.57516E5,4.6022975E5,2.058532E6,3.303976E6,6.5573E4,7.3249E4,2.5663875E5,1.3182719E5,1.7630484E6,1.577633E6,3.446466E6,1.0752174E7,3.025E3,5.54E4,6.3374E4,9.5758125E3,1.129605E5,0E0,1.1349144E5,5.650828E4,2.3773712E5,3.253565E5,9.725389E5,1.7036564E6,2.81268E6,3.8707412E5,5.271711E6,4.8667875E5,3.71275E3,7.0205E3,0E0,1.46965E4,6.85195E4,2.841E4,8.8296875E3,5.6498047E3,9.287975E4,3.7119438E4,1.8228747E5,1.9707494E5,3.2347812E3,1.60755625E4,2.8195862E5,1.23365055E5,3.3561575E5,2.1880781E5,0E0,9.643181E5,3.2426175E5,9.805506E5,4.5510745E6,7.315442E6,3.4383712E5,1.1442906E4,1.2212278E6,1.448583E6,5.345375E4,5.172425E5,0E0,0E0,0E0,0E0,0E0,0E0,0E0,0E0,0E0,0E0,0E0,0E0,0E0,0E0,0E0,0E0,0E0,0E0,0E0,0E0,0E0,0E0,0E0,0E0,0E0,0E0,0E0,0E0,0E0,0E0,0E0,0E0,0E0,0E0,0E0,0E0,0E0,0E0,0E0,0E0,0E0,0E0,0E0,0E0,0E0,0E0,0E0,0E0,0E0,0E0,0E0,0E0,0E0,0E0,0E0,0E0],"parents":[2147483647,0,0,1,1,2,2,3,3,4,4,5,5,6,6,7,7,8,8,9,9,10,10,11,11,12,12,13,13,14,14,15,15,16,16,17,17,18,18,19,19,21,21,22,22,23,23,24,24,25,25,26,26,27,27,28,28,29,29,30,30,31,31,32,32,34,34,35,35,36,36,37,37,38,38,39,39,40,40,41,41,42,42,43,43,44,44,45,45,46,46,47,47,48,48,50,50,51,51,52,52,53,53,54,54,55,55,56,56,57,57,58,58,59,59,60,60],"right_children":[2,4,6,8,10,12,14,16,18,20,22,24,26,28,30,32,34,36,38,40,-1,42,44,46,48,50,52,54,56,58,60,62,64,-1,66,68,70,72,74,76,78,80,82,84,86,88,90,92,94,-1,96,98,100,102,104,106,108,110,112,114,116,-1,-1,-1,-1,-1,-1,-1,-1,-1,-1,-1,-1,-1,-1,-1,-1,-1,-1,-1,-1,-1,-1,-1,-1,-1,-1,-1,-1,-1,-1,-1,-1,-1,-1,-1,-1,-1,-1,-1,-1,-1,-1,-1,-1,-1,-1,-1,-1,-1,-1,-1,-1,-1,-1,-1,-1],"split_conditions":[8.707573E0,6.3954716E0,9.4E0,4.7579727E0,7.4186063E0,5.4434423E0,9.4E1,8.9E0,3.4498398E2,-2.024137E0,2.3792383E-1,9.997312E0,2.8782297E2,7.082865E0,1.05E1,7.9E1,3.3665478E0,5.7827744E1,2.3792383E-1,3.4221155E2,-9.931488E1,1.9096436E2,8.5E1,8.6E0,1.2975992E1,7.6E1,6.7E0,1.004E3,3.579882E0,5.3216777E0,9.5E1,9.94E2,4.673695E0,-4.4743256E1,8.495946E0,5.6E0,5.71009E0,8.990603E0,-3.4154687E0,9.2E1,-3.443919E0,1.2516598E2,8.306295E0,-3.6491578E0,-3.5795534E0,9.2E1,2.2938159E2,-2.7766347E0,5.006827E0,-5.2479404E1,4.9866318E1,2.9484622E2,1.3754382E1,1.3293183E1,9.9E0,-3.4855807E0,5.4434423E0,-8.526513E-14,3.9392338E0,2.0262732E2,2.0952153E-1,-1.1995419E1,-4.9048637E1,-4.3433414E1,-2.7921825E1,-4.3510498E1,-3.5658356E1,-4.950981E1,-3.269643E1,-3.1985771E1,-2.75992E1,-9.557373E0,-5.097302E1,-2.8143705E1,-1.4166138E0,-2.2506413E1,-1.0438755E1,-8.154757E0,-4.103297E1,-1.2451297E1,3.2893558E0,-4.761044E1,-1.2383573E1,-1.0738148E1,-4.5067116E1,3.6272461E0,-2.0353924E1,-1.5890061E1,8.258558E0,2.7776045E1,-7.1265283E0,5.4223946E1,2.3654188E1,2.897687E1,1.1379743E2,2.4905397E1,-8.752951E0,1.217933E2,2.7436426E1,-3.2671497E1,2.174041E1,2.9006094E1,-2.7632488E1,1.143721E2,3.4854305E1,4.8159785E0,1.7917294E1,-1.840686E1,-8.301285E1,4.5597195E1,-7.213197E1,-3.0742237E1,-2.6819135E2,3.473394E1,1.1451905E0,9.1526855E1,-2.7983851E0],"split_indices":[1,1,5,1,1,0,3,5,2,0,6,1,2,7,5,3,1,2,6,2,0,2,3,5,1,3,5,4,0,7,3,4,1,0,7,5,1,7,0,3,0,2,7,0,0,3,2,0,0,0,2,2,1,0,5,0,0,8,0,2,6,0,0,0,0,0,0,0,0,0,0,0,0,0,0,0,0,0,0,0,0,0,0,0,0,0,0,0,0,0,0,0,0,0,0,0,0,0,0,0,0,0,0,0,0,0,0,0,0,0,0,0,0,0,0,0,0],"split_type":[0,0,0,0,0,0,0,0,0,0,0,0,0,0,0,0,0,0,0,0,0,0,0,0,0,0,0,0,0,0,0,0,0,0,0,0,0,0,0,0,0,0,0,0,0,0,0,0,0,0,0,0,0,0,0,0,0,0,0,0,0,0,0,0,0,0,0,0,0,0,0,0,0,0,0,0,0,0,0,0,0,0,0,0,0,0,0,0,0,0,0,0,0,0,0,0,0,0,0,0,0,0,0,0,0,0,0,0,0,0,0,0,0,0,0,0,0],"sum_hessian":[8.983E3,2.945E3,6.038E3,1.65E3,1.295E3,2.7E3,3.338E3,7.72E2,8.78E2,5.96E2,6.99E2,5.5E2,2.15E3,3.189E3,1.49E2,2.29E2,5.43E2,8.48E2,3E1,5.93E2,3E0,6.72E2,2.7E1,2.43E2,3.07E2,1.955E3,1.95E2,2.434E3,7.55E2,7E1,7.9E1,1.04E2,1.25E2,1.3E2,4.13E2,1.32E2,7.16E2,2.6E1,4E0,5.54E2,3.9E1,2.69E2,4.03E2,1.5E1,1.2E1,2.03E2,4E1,2.95E2,1.2E1,4.3E1,1.912E3,2E1,1.75E2,9.53E2,1.481E3,7.51E2,4E0,5.1E1,1.9E1,3.6E1,4.3E1,1E0,1.03E2,1.15E2,1E1,4.8E1,3.65E2,3.6E1,9.6E1,3.7E2,3.46E2,1E0,2.5E1,3E0,1E0,4.86E2,6.8E1,4E0,3.5E1,1.54E2,1.15E2,1.4E1,3.89E2,1E0,1.4E1,3E0,9E0,1.41E2,6.2E1,2.7E1,1.3E1,3.7E1,2.58E2,6E0,6E0,7.9E1,1.833E3,1.5E1,5E0,3.7E1,1.38E2,8.02E2,1.51E2,1.12E2,1.369E3,4.5E2,3.01E2,1E0,3E0,9E0,4.2E1,3E0,1.6E1,3.1E1,5E0,3.7E1,6E0],"tree_param":{"num_deleted":"0","num_feature":"9","num_nodes":"117","size_leaf_vector":"1"}},{"base_weights":[-3.568675E-1,-7.070627E1,2.8258774E1,-8.781106E1,-5.0488297E1,-4.815176E0,5.444096E1,-9.546035E1,-7.834621E1,-1.8559792E2,-4.9189316E1,2.171485E1,-1.6507587E1,4.472179E0,6.770762E1,-1.106716E2,-9.1711586E1,-7.094349E1,-9.606512E1,5.7388336E1,-2.838913E2,-3.7068924E1,-6.40018E1,1.6211418E1,4.9008682E2,-5.5639687E1,-1.3578242E0,7.3676906E0,-8.33034E1,7.141336E1,-1.1627399E2,-1.1117133E2,-5.581618E0,-3.5060688E1,-8.863874E1,-9.436751E1,-6.843417E1,-1.1649691E2,-8.5977646E1,2.4035988E1,-1.6209779E0,-1.29675665E1,-9.362914E1,-8.914032E0,-4.5016644E1,-6.2475605E1,-5.6139416E1,-4.8441415E0,9.575556E1,8.5391016E2,-4.4518555E1,-5.080107E1,-2.504874E2,2.9321017E2,-1.1923326E1,-6.1007032E0,2.8109627E1,-6.217261E1,-4.8153564E1,-2.161955E2,7.348437E1,-2.8963596E2,1.3330892E1,-3.1003471E1,-3.6930687E1,-2.9241503E1,-2.5234974E1,-3.1083128E1,-1.9018879E1,-2.1189743E1,-1.1112487E1,-2.1983995E1,-3.7853355E1,-2.6410442E1,-8.945728E0,-1.5860065E1,4.869065E0,-1.620028E1,-5.522584E0,-2.0994846E1,-1.30630455E1,-5.29442E0,1.8180998E1,-1.5031393E1,3.5927856E1,-5.2200443E1,3.2828784E2,2.6515138E0,-1.8020216E1,-9.310551E1,-1.4330073E1,1.47969E1,-1.0360885E2,4.177407E2,7.238976E1,-4.028055E1,-2.0064595E0,-2.527956E1,-5.3864723E-1,1.4679166E1,-6.762671E0,5.362256E0,-2.8098476E1,3.703651E1,-9.2647224E1,2.350898E1,-9.323183E0,-1.08987465E2,1.8874073E1,-1.413309E2,2.3243313E1],"categories":[],"categories_nodes":[],"categories_segments":[],"categories_sizes":[],"default_left":[0,0,0,0,0,0,0,0,0,0,0,0,0,0,0,0,0,0,0,0,0,0,0,0,0,0,0,0,0,0,0,0,0,0,0,0,0,0,0,0,0,0,0,0,0,0,0,0,0,0,0,0,0,0,0,0,0,0,0,0,0,0,0,0,0,0,0,0,0,0,0,0,0,0,0,0,0,0,0,0,0,0,0,0,0,0,0,0,0,0,0,0,0,0,0,0,0,0,0,0,0,0,0,0,0,0,0,0,0,0,0],"id":10,"left_children":[1,3,5,7,9,11,13,15,17,19,21,23,25,27,29,31,33,35,37,39,41,43,45,47,49,51,53,55,57,59,61,63,-1,-1,65,67,69,71,73,-1,-1,-1,-1,75,77,79,-1,81,83,85,87,89,91,93,95,97,99,-1,101,103,105,107,109,-1,-1,-1,-1,-1,-1,-1,-1,-1,-1,-1,-1,-1,-1,-1,-1,-1,-1,-1,-1,-1,-1,-1,-1,-1,-1,-1,-1,-1,-1,-1,-1,-1,-1,-1,-1,-1,-1,-1,-1,-1,-1,-1,-1,-1,-1,-1,-1],"loss_changes":[1.8087628E7,8.94018E5,5.531074E6,9.4315E4,2.0024775E5,8.76053E5,2.363003E6,3.3929E4,7.63455E4,2.790154E5,2.1001525E5,2.2191472E6,1.1618949E6,1.9097602E5,1.928902E6,4.741E3,3.8034E4,2.0051E4,2.7907125E4,6.142327E3,4.0815062E4,1.4571869E5,8.809425E4,1.4324575E6,1.9830342E6,5.02983E5,4.40423E6,2.0298727E5,9.45747E4,1.661042E6,1.2621001E6,1.00425E3,0E0,0E0,1.42495E4,5.1683125E3,2.5746875E4,1.501975E4,1.20469375E4,0E0,0E0,0E0,0E0,1.6110644E5,1.2068444E5,7.171175E4,0E0,5.6838494E5,6.327191E5,1.6729605E6,4.679087E3,4.064975E5,3.8681462E5,2.460115E6,8.740148E5,1.4825172E5,3.0272388E5,0E0,6.1769957E4,6.673528E5,1.401765E6,6.460695E5,1.0619714E6,0E0,0E0,0E0,0E0,0E0,0E0,0E0,0E0,0E0,0E0,0E0,0E0,0E0,0E0,0E0,0E0,0E0,0E0,0E0,0E0,0E0,0E0,0E0,0E0,0E0,0E0,0E0,0E0,0E0,0E0,0E0,0E0,0E0,0E0,0E0,0E0,0E0,0E0,0E0,0E0,0E0,0E0,0E0,0E0,0E0,0E0,0E0,0E0],"parents":[2147483647,0,0,1,1,2,2,3,3,4,4,5,5,6,6,7,7,8,8,9,9,10,10,11,11,12,12,13,13,14,14,15,15,16,16,17,17,18,18,19,19,20,20,21,21,22,22,23,23,24,24,25,25,26,26,27,27,28,28,29,29,30,30,31,31,34,34,35,35,36,36,37,37,38,38,43,43,44,44,45,45,47,47,48,48,49,49,50,50,51,51,52,52,53,53,54,54,55,55,56,56,58,58,59,59,60,60,61,61,62,62],"right_children":[2,4,6,8,10,12,14,16,18,20,22,24,26,28,30,32,34,36,38,40,42,44,46,48,50,52,54,56,58,60,62,64,-1,-1,66,68,70,72,74,-1,-1,-1,-1,76,78,80,-1,82,84,86,88,90,92,94,96,98,100,-1,102,104,106,108,110,-1,-1,-1,-1,-1,-1,-1,-1,-1,-1,-1,-1,-1,-1,-1,-1,-1,-1,-1,-1,-1,-1,-1,-1,-1,-1,-1,-1,-1,-1,-1,-1,-1,-1,-1,-1,-1,-1,-1,-1,-1,-1,-1,-1,-1,-1,-1,-1],"split_conditions":[8.0235E0,5.9777856E0,9.4E0,4.7579727E0,8.135303E0,7.4574904E0,1.0361232E1,7.7E0,1.0497017E-1,2.1148512E2,9.249823E-2,1.380823E1,1.4249425E1,-2.8941483E0,1.8178074E1,9.1E1,3.0397468E0,7.5E1,6.3E0,-3.4661193E0,6.0468307E0,1.9377779E2,-8.728467E-1,1.1656047E1,1.013E3,2.8967285E2,1.1583588E1,9.417491E0,-2.7766347E0,-1.6902044E-3,9.3E1,4.2731743E0,-5.581618E0,-3.5060688E1,9.29773E0,1.015E3,-3.4030726E0,2.0962025E1,9.3E1,2.4035988E1,-1.6209779E0,-1.29675665E1,-9.362914E1,1.7103116E2,9.811394E0,7.0965652E0,-5.6139416E1,8.6E0,5.8E0,5.6E0,6.756844E0,5.6E0,7.7879276E0,4.470937E1,6.5E0,8.135303E0,1.0068111E1,-6.217261E1,-2.4901397E0,9.6E0,9.4E1,1.001E3,1.838032E1,-3.1003471E1,-3.6930687E1,-2.9241503E1,-2.5234974E1,-3.1083128E1,-1.9018879E1,-2.1189743E1,-1.1112487E1,-2.1983995E1,-3.7853355E1,-2.6410442E1,-8.945728E0,-1.5860065E1,4.869065E0,-1.620028E1,-5.522584E0,-2.0994846E1,-1.30630455E1,-5.29442E0,1.8180998E1,-1.5031393E1,3.5927856E1,-5.2200443E1,3.2828784E2,2.6515138E0,-1.8020216E1,-9.310551E1,-1.4330073E1,1.47969E1,-1.0360885E2,4.177407E2,7.238976E1,-4.028055E1,-2.0064595E0,-2.527956E1,-5.3864723E-1,1.4679166E1,-6.762671E0,5.362256E0,-2.8098476E1,3.703651E1,-9.2647224E1,2.350898E1,-9.323183E0,-1.08987465E2,1.8874073E1,-1.413309E2,2.3243313E1],"split_indices":[1,1,5,1,7,0,1,5,6,2,6,1,1,0,0,3,1,3,5,0,1,2,0,1,4,2,0,1,0,8,3,1,0,0,7,4,0,2,3,0,0,0,0,2,7,1,0,5,5,5,0,5,0,2,5,7,1,0,0,5,3,4,1,0,0,0,0,0,0,0,0,0,0,0,0,0,0,0,0,0,0,0,0,0,0,0,0,0,0,0,0,0,0,0,0,0,0,0,0,0,0,0,0,0,0,0,0,0,0,0,0],"split_type":[0,0,0,0,0,0,0,0,0,0,0,0,0,0,0,0,0,0,0,0,0,0,0,0,0,0,0,0,0,0,0,0,0,0,0,0,0,0,0,0,0,0,0,0,0,0,0,0,0,0,0,0,0,0,0,0,0,0,0,0,0,0,0,0,0,0,0,0,0,0,0,0,0,0,0,0,0,0,0,0,0,0,0,0,0,0,0,0,0,0,0,0,0,0,0,0,0,0,0,0,0,0,0,0,0,0,0,0,0,0,0],"sum_hessian":[8.983E3,2.597E3,6.386E3,1.405E3,1.192E3,2.822E3,3.564E3,7.72E2,6.33E2,1E1,1.182E3,8.63E2,1.959E3,7.48E2,2.816E3,1.47E2,6.25E2,4.5E2,1.83E2,3E0,7E0,6.52E2,5.3E2,8.54E2,9E0,5.46E2,1.413E3,7.25E2,2.3E1,2.761E3,5.5E1,1.46E2,1E0,6.4E1,5.61E2,4E1,4.1E2,5.7E1,1.26E2,2E0,1E0,1E0,6E0,1.44E2,5.08E2,5.25E2,5E0,6.76E2,1.78E2,5E0,4E0,5.34E2,1.2E1,4.8E1,1.365E3,4.4E2,2.85E2,4E0,1.9E1,1.9E1,2.742E3,2.3E1,3.2E1,9.4E1,5.2E1,1.83E2,3.78E2,2.9E1,1.1E1,3.82E2,2.8E1,1.2E1,4.5E1,1.21E2,5E0,5.2E1,9.2E1,3.79E2,1.29E2,3.74E2,1.51E2,5.66E2,1.1E2,2.5E1,1.53E2,1E0,4E0,1E0,3E0,5E0,5.29E2,3E0,9E0,1E0,4.7E1,5.5E1,1.31E3,2.2E1,4.18E2,2.02E2,8.3E1,8E0,1.1E1,4E0,1.5E1,2.62E3,1.22E2,1.9E1,4E0,3E0,2.9E1],"tree_param":{"num_deleted":"0","num_feature":"9","num_nodes":"111","size_leaf_vector":"1"}},{"base_weights":[-2.891807E-1,-4.3202747E1,2.3402658E1,-5.606992E1,-1.9465878E1,-1.1139481E0,4.340542E1,-6.629986E1,-4.899902E1,-1.7356861E1,-9.095958E1,7.4213974E1,-5.817645E0,4.1403095E1,2.3959102E2,-2.7923374E1,-6.7245155E1,-4.8398994E1,-5.5861595E1,-6.3541252E1,-1.5498266E1,-1.0678962E2,5.9965763E1,1.8071913E1,9.671102E1,-4.0307995E1,1.6273547E0,4.3673664E1,-8.510964E1,7.8887805E2,2.3625427E1,-3.809284E1,1.4754254E1,-6.506652E1,-7.934713E1,-5.487177E1,-3.9124195E1,-9.163396E1,-3.635015E1,-6.2309765E1,-1.3491942E1,-6.4729294E1,-1.4733868E2,8.47012E1,-4.3757935E1,4.4923176E1,1.5058264E2,-2.1254795E1,-8.533919E1,8.891399E1,-9.387947E0,7.802127E1,3.476598E1,-3.0006787E2,-1.966495E1,-1.5344972E1,2.7008258E2,1.1086985E2,-1.3983389E1,-1.4893385E1,-2.8642344E0,-2.4373941E1,-1.9045685E1,-2.2969114E1,-3.4121838E1,-2.1718872E1,-1.501385E1,-1.0380618E1,-2.3663677E1,-7.859122E0,-3.1906761E1,7.26371E-1,-2.3659899E1,2.7914011E0,-2.8095854E1,-1.5579066E0,-7.8782706E0,-1.0550993E1,-2.612894E1,-6.493985E1,-3.0756805E1,1.3605414E1,4.876305E1,-5.0195698E1,2.0173748E0,-9.107648E0,2.500893E1,6.0366016E1,3.1515993E1,1.4302222E1,-8.667638E0,-2.1884872E1,-8.725537E1,1.70945E1,8.638214E1,-4.114029E0,2.3602589E1,4.1576317E1,2.0385069E1,1.3824859E1,-8.4794655E1,-1.10191826E2,1.3948439E1,-4.4239574E1,1.7589123E1,8.006324E0,3.4985786E1],"categories":[],"categories_nodes":[],"categories_segments":[],"categories_sizes":[],"default_left":[0,0,0,0,0,0,0,0,0,0,0,0,0,0,0,0,0,0,0,0,0,0,0,0,0,0,0,0,0,0,0,0,0,0,0,0,0,0,0,0,0,0,0,0,0,0,0,0,0,0,0,0,0,0,0,0,0,0,0,0,0,0,0,0,0,0,0,0,0,0,0,0,0,0,0,0,0,0,0,0,0,0,0,0,0,0,0,0,0,0,0,0,0,0,0,0,0,0,0,0,0,0,0,0,0,0,0],"id":11,"left_children":[1,3,5,7,9,11,13,15,17,19,21,23,25,27,29,31,33,35,-1,37,39,41,-1,43,45,47,49,51,53,55,57,59,-1,61,63,65,67,69,71,73,75,77,79,81,83,85,87,89,91,93,95,97,99,101,103,-1,-1,105,-1,-1,-1,-1,-1,-1,-1,-1,-1,-1,-1,-1,-1,-1,-1,-1,-1,-1,-1,-1,-1,-1,-1,-1,-1,-1,-1,-1,-1,-1,-1,-1,-1,-1,-1,-1,-1,-1,-1,-1,-1,-1,-1,-1,-1,-1,-1,-1,-1],"loss_changes":[9.135056E6,9.75051E5,2.8389735E6,1.466295E5,1.6805034E5,9.223717E5,1.2424145E6,2.87405E4,9.2168E4,9.292209E4,1.6867678E5,1.91496E5,6.291782E5,9.10584E5,3.7774295E6,1.9123828E4,1.6536E4,7.13945E4,0E0,2.8751703E4,9.8056016E4,4.3333594E4,0E0,1.890919E5,2.9733394E5,3.71411E5,1.9391955E6,9.46369E5,7.8190025E5,8.8824E5,1.5223408E5,6.1210215E3,0E0,1.2824E4,2.87475E3,5.717975E4,8.841719E4,1.6480906E4,3.810441E4,9.738991E4,1.0699784E5,8.1765156E3,2.4277562E4,6.001622E4,1.5082928E5,1.6747933E5,1.01052E5,1.6299216E5,3.0724444E5,1.4199079E6,6.832995E5,3.79742E5,8.867664E6,3.2000688E5,4.489174E5,0E0,0E0,2.2117031E3,0E0,0E0,0E0,0E0,0E0,0E0,0E0,0E0,0E0,0E0,0E0,0E0,0E0,0E0,0E0,0E0,0E0,0E0,0E0,0E0,0E0,0E0,0E0,0E0,0E0,0E0,0E0,0E0,0E0,0E0,0E0,0E0,0E0,0E0,0E0,0E0,0E0,0E0,0E0,0E0,0E0,0E0,0E0,0E0,0E0,0E0,0E0,0E0,0E0],"parents":[2147483647,0,0,1,1,2,2,3,3,4,4,5,5,6,6,7,7,8,8,9,9,10,10,11,11,12,12,13,13,14,14,15,15,16,16,17,17,19,19,20,20,21,21,23,23,24,24,25,25,26,26,27,27,28,28,29,29,30,30,31,31,33,33,34,34,35,35,36,36,37,37,38,38,39,39,40,40,41,41,42,42,43,43,44,44,45,45,46,46,47,47,48,48,49,49,50,50,51,51,52,52,53,53,54,54,57,57],"right_children":[2,4,6,8,10,12,14,16,18,20,22,24,26,28,30,32,34,36,-1,38,40,42,-1,44,46,48,50,52,54,56,58,60,-1,62,64,66,68,70,72,74,76,78,80,82,84,86,88,90,92,94,96,98,100,102,104,-1,-1,106,-1,-1,-1,-1,-1,-1,-1,-1,-1,-1,-1,-1,-1,-1,-1,-1,-1,-1,-1,-1,-1,-1,-1,-1,-1,-1,-1,-1,-1,-1,-1,-1,-1,-1,-1,-1,-1,-1,-1,-1,-1,-1,-1,-1,-1,-1,-1,-1,-1],"split_conditions":[9.218926E0,7.0965652E0,9.4E0,4.9466195E0,3.4221155E2,-1.639659E0,1.025E3,-3.5287879E0,-2.7766347E0,9.67E2,8.988566E0,8.3E1,1.1776643E1,1.8178074E1,9.7E0,4.829735E0,-3.4261136E0,1.015E3,-5.5861595E1,-3.6802857E0,8.188268E0,-3.3101149E0,5.9965763E1,2.8434814E2,1.0138651E1,7.2947345E0,9.101155E0,4.8015203E0,1.9391747E1,4.722387E0,9.9E0,1.1878262E1,1.4754254E1,7.5E1,4.1928573E0,6E0,3.3360992E2,1.9377779E2,-3.4763563E0,6.896345E0,9.14436E-2,7.886114E0,-3.1989071E0,1.6052567E2,-3.1038494E0,1.006E3,1.04625E1,6.750595E0,2.8878662E2,1.380823E1,3.1151385E2,1.02E1,1.2159065E1,2.842171E-14,9E1,-1.5344972E1,2.7008258E2,1.4566182E0,-1.3983389E1,-1.4893385E1,-2.8642344E0,-2.4373941E1,-1.9045685E1,-2.2969114E1,-3.4121838E1,-2.1718872E1,-1.501385E1,-1.0380618E1,-2.3663677E1,-7.859122E0,-3.1906761E1,7.26371E-1,-2.3659899E1,2.7914011E0,-2.8095854E1,-1.5579066E0,-7.8782706E0,-1.0550993E1,-2.612894E1,-6.493985E1,-3.0756805E1,1.3605414E1,4.876305E1,-5.0195698E1,2.0173748E0,-9.107648E0,2.500893E1,6.0366016E1,3.1515993E1,1.4302222E1,-8.667638E0,-2.1884872E1,-8.725537E1,1.70945E1,8.638214E1,-4.114029E0,2.3602589E1,4.1576317E1,2.0385069E1,1.3824859E1,-8.4794655E1,-1.10191826E2,1.3948439E1,-4.4239574E1,1.7589123E1,8.006324E0,3.4985786E1],"split_indices":[1,1,5,1,2,0,4,0,0,4,1,3,1,0,5,1,0,4,0,0,7,0,0,2,1,0,0,7,1,0,5,7,0,3,1,5,2,2,0,7,6,1,0,2,0,4,1,7,2,1,2,5,0,8,3,0,0,0,0,0,0,0,0,0,0,0,0,0,0,0,0,0,0,0,0,0,0,0,0,0,0,0,0,0,0,0,0,0,0,0,0,0,0,0,0,0,0,0,0,0,0,0,0,0,0,0,0],"split_type":[0,0,0,0,0,0,0,0,0,0,0,0,0,0,0,0,0,0,0,0,0,0,0,0,0,0,0,0,0,0,0,0,0,0,0,0,0,0,0,0,0,0,0,0,0,0,0,0,0,0,0,0,0,0,0,0,0,0,0,0,0,0,0,0,0,0,0,0,0,0,0,0,0,0,0,0,0,0,0,0,0,0,0,0,0,0,0,0,0,0,0,0,0,0,0,0,0,0,0,0,0,0,0,0,0,0,0],"sum_hessian":[8.983E3,3.195E3,5.788E3,2.071E3,1.124E3,2.601E3,3.187E3,8.43E2,1.228E3,1.093E3,3.1E1,1.52E2,2.449E3,3.156E3,3.1E1,2.1E1,8.22E2,1.224E3,4E0,4.1E1,1.052E3,3E1,1E0,4.4E1,1.08E2,4.34E2,2.015E3,3.101E3,5.5E1,8E0,2.3E1,1.9E1,2E0,7.02E2,1.2E2,7.18E2,5.06E2,1.9E1,2.2E1,4.2E1,1.01E3,1.6E1,1.4E1,2.1E1,2.3E1,5.6E1,5.2E1,3.06E2,1.28E2,2.25E2,1.79E3,6.37E2,2.464E3,1.2E1,4.3E1,1E0,7E0,1E1,1.3E1,1.3E1,6E0,5.8E1,6.44E2,1.14E2,6E0,1.52E2,5.66E2,4.56E2,5E1,4E0,1.5E1,1.2E1,1E1,1.3E1,2.9E1,6.13E2,3.97E2,8E0,8E0,4E0,1E1,1.5E1,6E0,6E0,1.7E1,1.9E1,3.7E1,2.3E1,2.9E1,3E1,2.76E2,1.22E2,6E0,1.95E2,3E1,1.707E3,8.3E1,8.9E1,5.48E2,2.38E3,8.4E1,1E1,2E0,1.6E1,2.7E1,1E0,9E0],"tree_param":{"num_deleted":"0","num_feature":"9","num_nodes":"107","size_leaf_vector":"1"}},{"base_weights":[-2.1429473E-1,-2.902543E1,1.7383366E1,-3.9360027E1,-1.2975796E1,-5.6057185E-1,3.2181282E1,-4.4281883E1,-2.9712374E1,-1.1521407E1,-7.0052986E1,3.6161533E1,-6.9311695E0,3.5655926E1,-3.784503E1,-4.328791E1,-7.544529E1,-4.8738197E1,-2.3879137E1,-1.0274497E1,-8.052218E1,-5.861578E1,-3.6713455E1,-3.3212955E1,4.2106514E1,-1.9484747E2,-4.9860826E0,7.641283E0,4.727169E1,1.0209243E2,-2.826816E2,-5.3949368E1,-4.073332E1,-8.144312E1,-2.6884073E1,-5.6328354E1,-4.5862846E1,-1.5293627E1,-3.610841E1,1.6288681E0,-1.5234936E1,-9.9628E1,5.097089E1,-3.0164152E1,-7.200274E1,2.3480427E0,-1.5039168E2,7.227741E0,5.677762E1,4.899821E1,-2.6944904E2,3.229156E2,-6.064898E0,1.1818622E1,-4.3611172E2,2.4100965E1,6.0612774E1,-8.082572E1,1.4407184E2,-4.1681192E2,8.490257E1,-2.1453594E1,-1.5129293E1,-1.4837207E1,-1.0777645E1,-2.5291435E1,-6.5589848E0,-1.01857E0,-1.4772351E1,-1.2619648E1,-4.1274944E1,-8.034973E0,-6.0147494E-1,-1.5539874E1,-6.774818E0,1.9212715E1,-1.2985722E0,-2.9400373E0,-1.04533615E1,-1.3853654E1,-3.9923714E1,-4.5796874E-1,-1.3893123E1,-2.8057795E1,-1.29837675E1,1.12217045E1,-2.6440683E1,-5.516502E1,-1.3332472E1,-1.1574186E0,3.703244E1,2.4809662E1,1.2265632E1,-6.405674E1,7.009175E1,-3.0530293E1,-8.94335E1,-1.2823829E1,1.1729507E2,-1.1961863E1,1.348598E-1,-1.2925881E1,8.034735E0,-6.0493553E1,-1.8605011E2,-3.0777176E1,1.55692E1,7.101459E1,1.4027805E1,-8.06041E1,-1.2165414E1,2.2507595E1,5.6990997E1,2.4470222E1,-1.7744385E2,5.621248E1,-1.7692959E1],"categories":[],"categories_nodes":[],"categories_segments":[],"categories_sizes":[],"default_left":[0,0,0,0,0,0,0,0,0,0,0,0,0,0,0,0,0,0,0,0,0,0,0,0,0,0,0,0,0,0,0,0,0,0,0,0,0,0,0,0,0,0,0,0,0,0,0,0,0,0,0,0,0,0,0,0,0,0,0,0,0,0,0,0,0,0,0,0,0,0,0,0,0,0,0,0,0,0,0,0,0,0,0,0,0,0,0,0,0,0,0,0,0,0,0,0,0,0,0,0,0,0,0,0,0,0,0,0,0,0,0,0,0,0,0,0,0],"id":12,"left_children":[1,3,5,7,9,11,13,15,17,19,21,23,25,27,29,31,33,35,37,39,41,43,-1,45,47,49,51,53,55,57,59,61,63,65,67,-1,69,71,73,75,77,79,-1,81,83,85,87,89,91,93,95,97,99,101,103,105,107,109,111,113,115,-1,-1,-1,-1,-1,-1,-1,-1,-1,-1,-1,-1,-1,-1,-1,-1,-1,-1,-1,-1,-1,-1,-1,-1,-1,-1,-1,-1,-1,-1,-1,-1,-1,-1,-1,-1,-1,-1,-1,-1,-1,-1,-1,-1,-1,-1,-1,-1,-1,-1,-1,-1,-1,-1,-1,-1],"loss_changes":[4.55547E6,5.645965E5,1.4811604E6,9.70715E4,1.100975E5,5.9025175E5,7.4516775E5,3.917075E4,7.6856625E4,1.1136592E5,1.2575672E4,1.5523488E5,7.848827E5,9.475625E5,4.9968225E6,3.4026E4,9.752219E3,5.6946125E4,5.6144812E4,7.572169E4,1.2697239E5,8.873641E3,0E0,1.2536289E5,1.7561788E5,4.1341044E5,7.5508256E5,1.5900732E6,6.35023E5,7.2577256E5,2.6485095E6,1.20888125E4,4.3396625E4,4.2947188E3,2.983668E3,0E0,5.0636188E4,4.865192E4,4.5946125E4,1.4082703E5,9.610841E4,3.318903E4,0E0,5.015593E3,7.698508E3,7.9428195E4,1.6667094E4,1.3317345E5,9.630956E4,3.4071962E5,5.1367125E4,1.9094188E5,4.6758684E5,6.978599E5,2.2018475E5,2.6605838E6,3.1750785E6,1.2528764E5,2.265995E5,3.4432235E6,2.3220517E5,0E0,0E0,0E0,0E0,0E0,0E0,0E0,0E0,0E0,0E0,0E0,0E0,0E0,0E0,0E0,0E0,0E0,0E0,0E0,0E0,0E0,0E0,0E0,0E0,0E0,0E0,0E0,0E0,0E0,0E0,0E0,0E0,0E0,0E0,0E0,0E0,0E0,0E0,0E0,0E0,0E0,0E0,0E0,0E0,0E0,0E0,0E0,0E0,0E0,0E0,0E0,0E0,0E0,0E0,0E0,0E0],"parents":[2147483647,0,0,1,1,2,2,3,3,4,4,5,5,6,6,7,7,8,8,9,9,10,10,11,11,12,12,13,13,14,14,15,15,16,16,17,17,18,18,19,19,20,20,21,21,23,23,24,24,25,25,26,26,27,27,28,28,29,29,30,30,31,31,32,32,33,33,34,34,36,36,37,37,38,38,39,39,40,40,41,41,43,43,44,44,45,45,46,46,47,47,48,48,49,49,50,50,51,51,52,52,53,53,54,54,55,55,56,56,57,57,58,58,59,59,60,60],"right_children":[2,4,6,8,10,12,14,16,18,20,22,24,26,28,30,32,34,36,38,40,42,44,-1,46,48,50,52,54,56,58,60,62,64,66,68,-1,70,72,74,76,78,80,-1,82,84,86,88,90,92,94,96,98,100,102,104,106,108,110,112,114,116,-1,-1,-1,-1,-1,-1,-1,-1,-1,-1,-1,-1,-1,-1,-1,-1,-1,-1,-1,-1,-1,-1,-1,-1,-1,-1,-1,-1,-1,-1,-1,-1,-1,-1,-1,-1,-1,-1,-1,-1,-1,-1,-1,-1,-1,-1,-1,-1,-1,-1,-1,-1,-1,-1,-1,-1],"split_conditions":[9.61855E0,7.0965652E0,9.4E0,5.9204545E0,4.266373E0,5.4434423E0,9.4E1,3.4498398E2,8.972792E0,3.498146E2,5.17423E0,7.8E1,5.8E0,1.1947717E1,2.3025E2,9.011408E0,2.3792383E-1,-3.5220232E0,2.2938159E2,8.967348E-2,1.63E1,7.7E0,-3.6713455E1,7.7E1,1.4902058E2,1.701875E2,5.9E0,3.4502616E0,1.004E3,7.600204E-2,1.1172538E-3,7.5E1,4.1175046E0,1.1621665E1,-3.443919E0,-5.6328354E1,-3.2670908E0,1.6432253E2,1.015E3,6.5E0,1.45E1,-3.362613E0,5.097089E1,8.786213E-2,1.025E3,6.923062E0,3.9392338E0,1.2975992E1,-1.639659E0,7.609881E0,5.734549E0,7.4574904E0,1.21567745E1,9.88E2,1.1230829E1,1.03E1,9.9E0,1.4368577E1,9.5E1,-8.526513E-14,2.4553125E2,-2.1453594E1,-1.5129293E1,-1.4837207E1,-1.0777645E1,-2.5291435E1,-6.5589848E0,-1.01857E0,-1.4772351E1,-1.2619648E1,-4.1274944E1,-8.034973E0,-6.0147494E-1,-1.5539874E1,-6.774818E0,1.9212715E1,-1.2985722E0,-2.9400373E0,-1.04533615E1,-1.3853654E1,-3.9923714E1,-4.5796874E-1,-1.3893123E1,-2.8057795E1,-1.29837675E1,1.12217045E1,-2.6440683E1,-5.516502E1,-1.3332472E1,-1.1574186E0,3.703244E1,2.4809662E1,1.2265632E1,-6.405674E1,7.009175E1,-3.0530293E1,-8.94335E1,-1.2823829E1,1.1729507E2,-1.1961863E1,1.348598E-1,-1.2925881E1,8.034735E0,-6.0493553E1,-1.8605011E2,-3.0777176E1,1.55692E1,7.101459E1,1.4027805E1,-8.06041E1,-1.2165414E1,2.2507595E1,5.6990997E1,2.4470222E1,-1.7744385E2,5.621248E1,-1.7692959E1],"split_indices":[1,1,5,1,0,0,3,2,7,2,0,3,5,1,2,7,6,0,2,6,5,5,0,3,2,2,5,0,4,6,8,3,1,7,0,0,0,2,4,5,5,0,0,6,4,7,0,1,0,0,0,0,1,4,1,5,5,0,3,8,2,0,0,0,0,0,0,0,0,0,0,0,0,0,0,0,0,0,0,0,0,0,0,0,0,0,0,0,0,0,0,0,0,0,0,0,0,0,0,0,0,0,0,0,0,0,0,0,0,0,0,0,0,0,0,0,0],"split_type":[0,0,0,0,0,0,0,0,0,0,0,0,0,0,0,0,0,0,0,0,0,0,0,0,0,0,0,0,0,0,0,0,0,0,0,0,0,0,0,0,0,0,0,0,0,0,0,0,0,0,0,0,0,0,0,0,0,0,0,0,0,0,0,0,0,0,0,0,0,0,0,0,0,0,0,0,0,0,0,0,0,0,0,0,0,0,0,0,0,0,0,0,0,0,0,0,0,0,0,0,0,0,0,0,0,0,0,0,0,0,0,0,0,0,0,0,0],"sum_hessian":[8.983E3,3.406E3,5.577E3,2.071E3,1.335E3,2.521E3,3.056E3,1.369E3,7.02E2,1.303E3,3.2E1,3.72E2,2.149E3,2.912E3,1.44E2,1.329E3,4E1,1.63E2,5.39E2,1.281E3,2.2E1,2.8E1,4E0,2.9E1,3.43E2,2.1E1,2.128E3,8.54E2,2.058E3,9.2E1,5.2E1,2.53E2,1.076E3,3.5E1,5E0,2E0,1.61E2,3.18E2,2.21E2,3.77E2,9.04E2,2.1E1,1E0,1E1,1.8E1,2.3E1,6E0,1.02E2,2.41E2,5E0,1.6E1,6E0,2.122E3,8.47E2,7E0,7.53E2,1.305E3,1.7E1,7.5E1,3.8E1,1.4E1,3.9E1,2.14E2,3.79E2,6.97E2,3.3E1,2E0,3E0,2E0,1.56E2,5E0,1.7E2,1.48E2,1.01E2,1.2E2,3.2E1,3.45E2,7.09E2,1.95E2,9E0,1.2E1,4E0,6E0,9E0,9E0,1.7E1,6E0,4E0,2E0,9.4E1,8E0,9E1,1.51E2,2E0,3E0,3E0,1.3E1,1E0,5E0,3.42E2,1.78E3,1.81E2,6.66E2,4E0,3E0,1.35E2,6.18E2,9.4E1,1.211E3,2E0,1.5E1,3.1E1,4.4E1,1E1,2.8E1,8E0,6E0],"tree_param":{"num_deleted":"0","num_feature":"9","num_nodes":"117","size_leaf_vector":"1"}},{"base_weights":[-2.2600433E-1,-2.02949E1,1.2212627E1,-2.7673168E1,-9.096608E0,2.5970121E1,9.3280184E-1,-4.2778988E1,-2.594653E1,-2.2435124E0,-1.7157427E1,3.5602584E0,5.2595886E1,-1.3939448E1,3.929932E1,-4.4455795E1,1.6532923E1,-2.9748909E1,-1.8074392E1,-2.1446875E1,5.0557976E0,-3.6500805E1,-7.966514E0,1.3483944E1,-3.6664192E1,1.3339198E2,3.1850733E1,6.1103244E0,-3.6932167E1,3.8327427E1,9.04707E1,-4.2098743E1,-1.1679348E2,-4.724627E1,-2.8674534E1,-1.3737654E1,-4.001102E1,2.3015454E0,-3.8089947E1,-1.3995093E1,1.7142668E1,-1.6040289E1,-1.1645454E2,-1.5538827E1,3.77221E1,4.118623E1,-1.7026758E0,-2.5759735E1,-2.9008148E2,8.441121E1,3.3067447E2,2.7963621E1,1.57938E2,7.687971E1,-4.2420316E0,-1.8377434E1,-1.8343542E2,9.4017044E1,3.7634315E1,7.619864E-1,-1.3254811E1,-4.2509365E1,-1.3396934E1,-8.944612E0,-1.4788701E1,-8.202717E0,-1.2673633E1,1.7889688E0,-5.0656314E0,-1.0135553E1,-2.7799532E1,-1.6911867E1,2.9974747E0,-1.6949758E-1,-1.4851335E1,-2.1962778E1,-1.6655443E0,6.080891E0,-2.5390375E1,-1.5957532E0,-1.563495E1,-1.8912064E1,-6.799546E1,-3.6285832E0,-2.2403898E1,6.9036316E1,4.9302945E0,1.9903652E1,1.7965671E0,1.3652575E1,-3.1804786E0,-4.3073688E0,-1.6724491E1,-1.8657788E2,-5.8411316E1,1.4078873E1,6.291342E1,3.1695786E2,5.8615074E1,8.575778E0,-1.312555E1,1.4091601E1,4.9480923E1,8.417173E1,2.0376251E1,-4.0804203E1,2.8913614E-1,-5.927886E1,-5.2104254E0,-2.775736E2,-4.0234013E1,1.548755E1,8.696361E0],"categories":[],"categories_nodes":[],"categories_segments":[],"categories_sizes":[],"default_left":[0,0,0,0,0,0,0,0,0,0,0,0,0,0,0,0,0,0,0,0,0,0,0,0,0,0,0,0,0,0,0,0,0,0,0,0,0,0,0,0,0,0,0,0,0,0,0,0,0,0,0,0,0,0,0,0,0,0,0,0,0,0,0,0,0,0,0,0,0,0,0,0,0,0,0,0,0,0,0,0,0,0,0,0,0,0,0,0,0,0,0,0,0,0,0,0,0,0,0,0,0,0,0,0,0,0,0,0,0,0,0,0,0],"id":13,"left_children":[1,3,5,7,9,11,13,15,17,19,21,23,25,27,29,31,-1,33,35,37,39,41,43,45,47,49,51,53,55,57,-1,59,61,63,65,67,69,71,73,75,77,79,81,83,85,87,89,91,93,95,97,99,101,103,105,107,109,-1,111,-1,-1,-1,-1,-1,-1,-1,-1,-1,-1,-1,-1,-1,-1,-1,-1,-1,-1,-1,-1,-1,-1,-1,-1,-1,-1,-1,-1,-1,-1,-1,-1,-1,-1,-1,-1,-1,-1,-1,-1,-1,-1,-1,-1,-1,-1,-1,-1,-1,-1,-1,-1,-1,-1],"loss_changes":[2.24292E6,2.8380962E5,8.6077106E5,5.29325E4,7.547671E4,1.4909152E6,1.7402965E6,3.7083562E4,5.5197375E4,1.0383519E5,1.11357125E5,5.4257375E5,1.909889E6,1.013501E6,2.0561462E5,3.0547969E4,0E0,2.2218875E4,5.738661E4,8.0717984E4,1.2389257E5,3.2858275E5,1.483147E5,4.5863762E5,7.3587625E5,2.223578E6,4.415885E5,8.611662E5,2.780198E6,1.5025788E5,0E0,1.8996344E4,4.451453E3,1.0665469E3,2.024975E4,3.1727898E4,2.965089E4,3.891598E4,5.1371453E4,1.0408555E5,1.0642115E5,6.2380664E4,2.2704188E5,7.38379E4,2.4605867E5,3.414242E5,2.9667347E5,8.775806E4,2.2706256E5,8.73092E5,4.310824E6,4.0702562E4,1.32204375E4,2.5467175E5,7.039476E5,1.6118212E5,4.0834848E6,0E0,1.01208E5,0E0,0E0,0E0,0E0,0E0,0E0,0E0,0E0,0E0,0E0,0E0,0E0,0E0,0E0,0E0,0E0,0E0,0E0,0E0,0E0,0E0,0E0,0E0,0E0,0E0,0E0,0E0,0E0,0E0,0E0,0E0,0E0,0E0,0E0,0E0,0E0,0E0,0E0,0E0,0E0,0E0,0E0,0E0,0E0,0E0,0E0,0E0,0E0,0E0,0E0,0E0,0E0,0E0,0E0],"parents":[2147483647,0,0,1,1,2,2,3,3,4,4,5,5,6,6,7,7,8,8,9,9,10,10,11,11,12,12,13,13,14,14,15,15,17,17,18,18,19,19,20,20,21,21,22,22,23,23,24,24,25,25,26,26,27,27,28,28,29,29,31,31,32,32,33,33,34,34,35,35,36,36,37,37,38,38,39,39,40,40,41,41,42,42,43,43,44,44,45,45,46,46,47,47,48,48,49,49,50,50,51,51,52,52,53,53,54,54,55,55,56,56,58,58],"right_children":[2,4,6,8,10,12,14,16,18,20,22,24,26,28,30,32,-1,34,36,38,40,42,44,46,48,50,52,54,56,58,-1,60,62,64,66,68,70,72,74,76,78,80,82,84,86,88,90,92,94,96,98,100,102,104,106,108,110,-1,112,-1,-1,-1,-1,-1,-1,-1,-1,-1,-1,-1,-1,-1,-1,-1,-1,-1,-1,-1,-1,-1,-1,-1,-1,-1,-1,-1,-1,-1,-1,-1,-1,-1,-1,-1,-1,-1,-1,-1,-1,-1,-1,-1,-1,-1,-1,-1,-1,-1,-1,-1,-1,-1,-1],"split_conditions":[9.674982E0,7.0965652E0,8.562718E0,8.691957E0,2.2519318E2,1.2000699E1,1.05E1,6.9662547E0,5.9777856E0,8.3508E1,2.57125E2,2.4347582E0,9.9E0,4.9564075E0,8.526513E-14,8.100219E0,1.6532923E1,3.0397468E0,6.897271E0,2.0962025E1,9.97E2,1.65E1,1.52E1,9.9E0,9.3E0,6.756844E0,9.5E1,1.4129903E1,9.5E0,-8.526513E-14,9.04707E1,6.5748224E0,1.001E3,9.404023E0,5.82075E0,9.222073E-2,1.93052E-1,4.9E0,1E3,1.2906958E2,2.579324E-1,2.468125E2,-3.4683063E0,3.498146E2,1.53E1,8.578157E-2,1.0068111E1,7.7879276E0,1.4514583E2,9.5E0,1.4647874E2,1.024E3,1.052357E0,6.4E0,7.7E1,5.5E0,9.92E2,9.4017044E1,1.004E3,7.619864E-1,-1.3254811E1,-4.2509365E1,-1.3396934E1,-8.944612E0,-1.4788701E1,-8.202717E0,-1.2673633E1,1.7889688E0,-5.0656314E0,-1.0135553E1,-2.7799532E1,-1.6911867E1,2.9974747E0,-1.6949758E-1,-1.4851335E1,-2.1962778E1,-1.6655443E0,6.080891E0,-2.5390375E1,-1.5957532E0,-1.563495E1,-1.8912064E1,-6.799546E1,-3.6285832E0,-2.2403898E1,6.9036316E1,4.9302945E0,1.9903652E1,1.7965671E0,1.3652575E1,-3.1804786E0,-4.3073688E0,-1.6724491E1,-1.8657788E2,-5.8411316E1,1.4078873E1,6.291342E1,3.1695786E2,5.8615074E1,8.575778E0,-1.312555E1,1.4091601E1,4.9480923E1,8.417173E1,2.0376251E1,-4.0804203E1,2.8913614E-1,-5.927886E1,-5.2104254E0,-2.775736E2,-4.0234013E1,1.548755E1,8.696361E0],"split_indices":[1,1,0,7,2,1,5,1,1,2,2,0,5,7,8,0,0,1,1,2,4,5,5,5,5,0,3,0,5,8,0,7,4,7,1,6,6,5,4,2,6,2,0,2,5,6,1,0,2,5,2,4,0,5,3,5,4,0,4,0,0,0,0,0,0,0,0,0,0,0,0,0,0,0,0,0,0,0,0,0,0,0,0,0,0,0,0,0,0,0,0,0,0,0,0,0,0,0,0,0,0,0,0,0,0,0,0,0,0,0,0,0,0],"split_type":[0,0,0,0,0,0,0,0,0,0,0,0,0,0,0,0,0,0,0,0,0,0,0,0,0,0,0,0,0,0,0,0,0,0,0,0,0,0,0,0,0,0,0,0,0,0,0,0,0,0,0,0,0,0,0,0,0,0,0,0,0,0,0,0,0,0,0,0,0,0,0,0,0,0,0,0,0,0,0,0,0,0,0,0,0,0,0,0,0,0,0,0,0,0,0,0,0,0,0,0,0,0,0,0,0,0,0,0,0,0,0,0,0],"sum_hessian":[8.983E3,3.437E3,5.546E3,2.071E3,1.366E3,2.498E3,3.048E3,2.1E2,1.861E3,7.39E2,6.27E2,1.357E3,1.141E3,2.197E3,8.51E2,2.07E2,3E0,1.253E3,6.08E2,2.03E2,5.36E2,2.01E2,4.26E2,1.089E3,2.68E2,2.32E2,9.09E2,1.174E3,1.023E3,8.49E2,2E0,2.02E2,5E0,7E1,1.183E3,5.09E2,9.9E1,8.4E1,1.19E2,2.08E2,3.28E2,1.61E2,4E1,3.66E2,6E1,3.85E2,7.04E2,2.58E2,1E1,1.87E2,4.5E1,8.83E2,2.6E1,1.49E2,1.025E3,9.09E2,1.14E2,1E0,8.48E2,9E0,1.93E2,3E0,2E0,9E0,6.1E1,1.08E3,1.03E2,7E1,4.39E2,9E1,9E0,9E0,7.5E1,2.8E1,9.1E1,2.5E1,1.83E2,3.19E2,9E0,1.25E2,3.6E1,2.8E1,1.2E1,3.47E2,1.9E1,5E0,5.5E1,2.24E2,1.61E2,1.11E2,5.93E2,1.88E2,7E1,1E0,9E0,1.45E2,4.2E1,6E0,3.9E1,8.76E2,7E0,2E0,2.4E1,5E0,1.44E2,3.8E1,9.87E2,4E0,9.05E2,6E0,1.08E2,3.22E2,5.26E2],"tree_param":{"num_deleted":"0","num_feature":"9","num_nodes":"113","size_leaf_vector":"1"}},{"base_weights":[-1.6904303E-1,-1.4146586E1,8.7961235E0,-1.9064062E1,-5.76843E0,1.671977E1,-2.625197E0,-5.1725742E1,-1.8377329E1,-4.0085075E1,-4.306451E0,3.9441868E1,5.5657687E0,1.415475E1,-2.9728205E1,-1.4133195E1,-6.2062664E1,-3.25567E1,-1.6855967E1,-7.6941996E0,-5.3883987E1,-2.822138E0,-3.4711796E1,3.1097128E2,3.447198E1,1.3607557E1,-3.138277E1,3.621007E1,1.1930387E0,-1.840015E1,-9.418977E1,-4.532201E1,1.0163557E1,-8.9726265E1,-4.7408173E1,-4.8151333E1,-2.7860357E1,-2.1208147E1,-1.1287636E1,4.712332E1,-5.0778797E1,-3.1439356E1,-6.617901E1,-1.319362E0,-3.571334E1,-4.169098E1,1.4119476E1,7.11891E2,1.7777222E1,8.635129E1,2.5005795E1,-6.8903564E1,1.6921244E1,-2.0090677E1,-1.8783075E2,6.537352E1,2.4541397E1,-1.3849356E2,4.9625206E0,-8.168721E1,-1.2722138E1,-1.8312775E2,5.293734E1,-2.075409E-1,-1.6891983E1,5.3636904E0,-5.4193363E0,-2.8808643E1,-4.005121E0,-1.5428034E1,-2.3884888E-1,-2.7791953E0,-1.7523315E1,-9.219754E0,-2.4166582E0,-6.1425667E0,-1.3069125E1,-1.3766126E1,-2.982511E0,4.330042E0,1.915516E1,-2.2972498E1,-2.900281E0,-1.8118965E1,-5.750104E0,-2.2304234E1,-9.193165E0,-1.2939495E0,4.5309057E0,-6.390817E0,-3.7592934E1,7.691773E0,-1.3488721E1,1.316836E1,-1.5041139E1,1.1895557E1,2.4067818E2,-7.8391556E1,2.007101E1,3.842852E1,-7.230433E0,6.8716254E0,3.7505463E1,-2.3397686E1,8.2369484E1,1.0114131E1,1.4258591E0,-5.0466213E0,-3.6947037E1,3.0275955E0,-1.074599E2,4.6201277E0,3.6740738E1,6.8094E0,7.2376564E1,-1.4715313E1,-1.15121666E2,3.5440671E0,-1.4733734E1,-5.1255005E1,-2.0006222E1,-2.9996346E1,-2.5465677E0,-2.0619753E2,-3.9887615E1,5.4768066E0,3.0693737E1],"categories":[],"categories_nodes":[],"categories_segments":[],"categories_sizes":[],"default_left":[0,0,0,0,0,0,0,0,0,0,0,0,0,0,0,0,0,0,0,0,0,0,0,0,0,0,0,0,0,0,0,0,0,0,0,0,0,0,0,0,0,0,0,0,0,0,0,0,0,0,0,0,0,0,0,0,0,0,0,0,0,0,0,0,0,0,0,0,0,0,0,0,0,0,0,0,0,0,0,0,0,0,0,0,0,0,0,0,0,0,0,0,0,0,0,0,0,0,0,0,0,0,0,0,0,0,0,0,0,0,0,0,0,0,0,0,0,0,0,0,0,0,0,0,0,0,0],"id":14,"left_children":[1,3,5,7,9,11,13,15,17,19,21,23,25,27,29,31,33,35,37,39,41,43,45,47,49,51,53,55,57,59,61,63,65,67,69,71,73,75,77,79,81,83,85,87,89,91,93,95,97,99,101,103,105,107,109,111,113,115,117,119,121,123,125,-1,-1,-1,-1,-1,-1,-1,-1,-1,-1,-1,-1,-1,-1,-1,-1,-1,-1,-1,-1,-1,-1,-1,-1,-1,-1,-1,-1,-1,-1,-1,-1,-1,-1,-1,-1,-1,-1,-1,-1,-1,-1,-1,-1,-1,-1,-1,-1,-1,-1,-1,-1,-1,-1,-1,-1,-1,-1,-1,-1,-1,-1,-1,-1],"loss_changes":[1.1259185E6,1.4454106E5,4.9543275E5,4.8664375E4,6.504868E4,8.1890606E5,1.0205081E6,1.6609453E4,4.621925E4,2.3274234E4,5.6225582E4,1.4251165E6,6.449071E5,3.9617916E5,6.2479925E5,8.796289E3,9.935094E3,1.3965172E4,4.7259938E4,4.254331E4,8.129789E3,5.882176E4,2.0355195E4,2.2207425E6,5.115305E5,4.8839334E5,6.816769E5,1.72969E5,4.6088856E5,2.6164172E5,1.6845985E6,2.4122715E3,1.8475085E3,4.0129688E3,4.6419336E3,1.8210617E4,9.024281E3,1.7115125E4,3.9685867E4,3.4528965E3,9.864826E3,4.172967E3,4.397828E3,5.611366E4,6.4469844E4,1.2386344E4,1.7506695E4,4.541885E5,1.8200511E5,7.4541225E5,1.83253E5,2.3681062E5,3.5007478E5,1.2021658E5,8.803318E5,4.146875E5,1.4153606E5,4.8569038E5,3.1622022E5,6.885191E4,2.4741906E5,1.932222E6,8.2039484E4,0E0,0E0,0E0,0E0,0E0,0E0,0E0,0E0,0E0,0E0,0E0,0E0,0E0,0E0,0E0,0E0,0E0,0E0,0E0,0E0,0E0,0E0,0E0,0E0,0E0,0E0,0E0,0E0,0E0,0E0,0E0,0E0,0E0,0E0,0E0,0E0,0E0,0E0,0E0,0E0,0E0,0E0,0E0,0E0,0E0,0E0,0E0,0E0,0E0,0E0,0E0,0E0,0E0,0E0,0E0,0E0,0E0,0E0,0E0,0E0,0E0,0E0,0E0,0E0],"parents":[2147483647,0,0,1,1,2,2,3,3,4,4,5,5,6,6,7,7,8,8,9,9,10,10,11,11,12,12,13,13,14,14,15,15,16,16,17,17,18,18,19,19,20,20,21,21,22,22,23,23,24,24,25,25,26,26,27,27,28,28,29,29,30,30,31,31,32,32,33,33,34,34,35,35,36,36,37,37,38,38,39,39,40,40,41,41,42,42,43,43,44,44,45,45,46,46,47,47,48,48,49,49,50,50,51,51,52,52,53,53,54,54,55,55,56,56,57,57,58,58,59,59,60,60,61,61,62,62],"right_children":[2,4,6,8,10,12,14,16,18,20,22,24,26,28,30,32,34,36,38,40,42,44,46,48,50,52,54,56,58,60,62,64,66,68,70,72,74,76,78,80,82,84,86,88,90,92,94,96,98,100,102,104,106,108,110,112,114,116,118,120,122,124,126,-1,-1,-1,-1,-1,-1,-1,-1,-1,-1,-1,-1,-1,-1,-1,-1,-1,-1,-1,-1,-1,-1,-1,-1,-1,-1,-1,-1,-1,-1,-1,-1,-1,-1,-1,-1,-1,-1,-1,-1,-1,-1,-1,-1,-1,-1,-1,-1,-1,-1,-1,-1,-1,-1,-1,-1,-1,-1,-1,-1,-1,-1,-1,-1],"split_conditions":[9.796068E0,7.3386717E0,1.13863735E1,9.79E2,9.67E2,5.876481E0,4.78257E0,9.5E0,7.5E1,8.168851E0,4.102321E0,4.9866318E1,7.609881E0,1.5457656E1,9.5E0,9.185966E0,9.237343E-2,5.7827744E1,5.71009E0,-3.4763563E0,1.9377779E2,2.3792383E-1,9.4E1,8.786213E-2,9.9E0,9.73E2,9.3E0,1.03E1,7.7E1,6.5E0,1.03E1,-3.461603E0,7.0965652E0,-3.3101149E0,9.78E2,4.2731743E0,-3.34E0,3.4498398E2,-3.5002933E0,8.9E1,2.129375E2,1.574659E2,-3.6802857E0,9.2E1,1.68E1,4.6951265E0,8.188268E0,2.0962025E1,1.3415003E1,3.0345E2,9.5E1,5.684342E-14,8.356665E-2,2.8878662E2,8.263242E0,1.6589983E1,8.526513E-14,2.8023718E2,9.4E1,5.6E0,7.7E1,9.92E2,1.2159065E1,-2.075409E-1,-1.6891983E1,5.3636904E0,-5.4193363E0,-2.8808643E1,-4.005121E0,-1.5428034E1,-2.3884888E-1,-2.7791953E0,-1.7523315E1,-9.219754E0,-2.4166582E0,-6.1425667E0,-1.3069125E1,-1.3766126E1,-2.982511E0,4.330042E0,1.915516E1,-2.2972498E1,-2.900281E0,-1.8118965E1,-5.750104E0,-2.2304234E1,-9.193165E0,-1.2939495E0,4.5309057E0,-6.390817E0,-3.7592934E1,7.691773E0,-1.3488721E1,1.316836E1,-1.5041139E1,1.1895557E1,2.4067818E2,-7.8391556E1,2.007101E1,3.842852E1,-7.230433E0,6.8716254E0,3.7505463E1,-2.3397686E1,8.2369484E1,1.0114131E1,1.4258591E0,-5.0466213E0,-3.6947037E1,3.0275955E0,-1.074599E2,4.6201277E0,3.6740738E1,6.8094E0,7.2376564E1,-1.4715313E1,-1.15121666E2,3.5440671E0,-1.4733734E1,-5.1255005E1,-2.0006222E1,-2.9996346E1,-2.5465677E0,-2.0619753E2,-3.9887615E1,5.4768066E0,3.0693737E1],"split_indices":[1,1,0,4,4,7,7,5,3,1,0,2,0,0,5,7,6,2,1,0,2,6,3,6,5,4,5,5,3,5,5,0,1,0,4,1,0,2,0,3,2,2,0,3,5,7,7,2,2,2,3,8,6,2,0,1,8,2,3,5,3,4,0,0,0,0,0,0,0,0,0,0,0,0,0,0,0,0,0,0,0,0,0,0,0,0,0,0,0,0,0,0,0,0,0,0,0,0,0,0,0,0,0,0,0,0,0,0,0,0,0,0,0,0,0,0,0,0,0,0,0,0,0,0,0,0,0],"split_type":[0,0,0,0,0,0,0,0,0,0,0,0,0,0,0,0,0,0,0,0,0,0,0,0,0,0,0,0,0,0,0,0,0,0,0,0,0,0,0,0,0,0,0,0,0,0,0,0,0,0,0,0,0,0,0,0,0,0,0,0,0,0,0,0,0,0,0,0,0,0,0,0,0,0,0,0,0,0,0,0,0,0,0,0,0,0,0,0,0,0,0,0,0,0,0,0,0,0,0,0,0,0,0,0,0,0,0,0,0,0,0,0,0,0,0,0,0,0,0,0,0,0,0,0,0,0,0],"sum_hessian":[8.983E3,3.51E3,5.473E3,2.211E3,1.299E3,3.231E3,2.242E3,4.4E1,2.167E3,5.2E1,1.247E3,1.063E3,2.168E3,1.385E3,8.57E2,1E1,3.4E1,2.08E2,1.959E3,1.6E1,3.6E1,1.19E3,5.7E1,1.8E1,1.045E3,1.781E3,3.87E2,5.12E2,8.73E2,7.3E2,1.27E2,4E0,6E0,1E1,2.4E1,4.6E1,1.62E2,1.098E3,8.61E2,7E0,9E0,1.4E1,2.2E1,1.139E3,5.1E1,5E1,7E0,7E0,1.1E1,1.6E2,8.85E2,6.8E1,1.713E3,3.62E2,2.5E1,1.45E2,3.67E2,2.2E1,8.51E2,5.9E1,6.71E2,7.9E1,4.8E1,1E0,3E0,5E0,1E0,9E0,1E0,2.2E1,2E0,1E1,3.6E1,1.41E2,2.1E1,1.065E3,3.3E1,3.1E1,8.3E2,3E0,4E0,5E0,4E0,3E0,1.1E1,1.7E1,5E0,9.64E2,1.75E2,4.5E1,6E0,2E0,4.8E1,5E0,2E0,1E0,6E0,1E0,1E1,1.16E2,4.4E1,8.68E2,1.7E1,6.7E1,1E0,7.19E2,9.94E2,3.52E2,1E1,1.2E1,1.3E1,7.8E1,6.7E1,3.65E2,2E0,1.7E1,5E0,7.56E2,9.5E1,7E0,5.2E1,3E1,6.41E2,6E0,7.3E1,2.9E1,1.9E1],"tree_param":{"num_deleted":"0","num_feature":"9","num_nodes":"127","size_leaf_vector":"1"}},{"base_weights":[-1.6062045E-1,8.173011E0,-7.751599E0,2.4040106E1,-3.6147678E-1,1.2575182E0,-1.2190776E1,5.6152805E1,1.2881488E1,-3.2084167E1,6.591029E0,6.6492224E0,-2.0736286E1,-5.0921043E1,-1.1151978E1,2.3368221E1,1.3716534E2,1.0209238E1,9.738587E1,-1.8201363E1,-3.4853867E2,2.3755177E1,-4.2483864E0,3.1968675E0,5.212121E1,-1.4994037E1,-1.1747254E2,-1.5594179E2,-3.2453857E1,-1.0213895E1,-3.2112843E1,5.9082123E1,-1.2773812E1,-5.4317654E1,1.5256517E2,1.0928962E1,-1.2044287E2,3.061503E1,1.51722E1,-9.367647E1,-1.2973136E1,-4.2802054E2,-1.9500504E2,8.23575E1,2.2018387E1,1.1752278E1,-2.5407795E1,1.6597258E1,-5.8120236E0,7.40887E1,-2.5307506E-1,-7.7881424E1,-1.1999324E1,-6.332438E0,-1.6325322E2,1.2868652E0,-2.0849432E2,3.0852032E1,-4.9961723E1,-2.4674759E1,-9.069198E0,-4.301552E1,-1.171199E1,-1.0838423E0,6.59793E1,-2.9900259E1,8.395727E-1,-2.0860016E1,1.0111231E1,7.645241E1,3.149704E1,3.1513615E0,7.001404E1,-3.9132812E0,-5.126433E1,1.1688501E1,-4.861011E0,-1.4728544E1,-1.4802112E2,-3.3864982E0,-7.8242584E1,-1.8886158E1,-1.3595898E2,-6.1875553E0,-6.426731E1,2.6377825E1,5.972662E0,1.2551992E1,1.0111412E0,-4.6813645E0,-1.227925E2,-2.3799517E0,9.602952E0,3.3807724E0,-5.7131677E0,3.9888058E1,1.763516E1,1.1045069E1,-7.267392E0,-6.403418E-1,-7.4333534E1,-4.5962863E0,9.484728E0,-8.969507E0,3.8775332E0,-2.6162012E1,-8.806337E1,-2.2503077E1,1.5516797E1,-8.471603E0,-7.678855E1,-9.3357315E0,1.6230701E1,-3.1239607E1,-5.7990494E0,-3.541943E1,-6.5666924E0,-4.302841E0,-1.7109641E0,-1.0941195E1,-4.992946E1,-1.810373E0,-4.0930958E1],"categories":[],"categories_nodes":[],"categories_segments":[],"categories_sizes":[],"default_left":[0,0,0,0,0,0,0,0,0,0,0,0,0,0,0,0,0,0,0,0,0,0,0,0,0,0,0,0,0,0,0,0,0,0,0,0,0,0,0,0,0,0,0,0,0,0,0,0,0,0,0,0,0,0,0,0,0,0,0,0,0,0,0,0,0,0,0,0,0,0,0,0,0,0,0,0,0,0,0,0,0,0,0,0,0,0,0,0,0,0,0,0,0,0,0,0,0,0,0,0,0,0,0,0,0,0,0,0,0,0,0,0,0,0,0,0,0,0,0,0,0,0,0],"id":15,"left_children":[1,3,5,7,9,11,13,15,17,19,21,23,25,27,29,31,33,35,37,39,41,43,45,47,49,51,53,55,57,59,61,63,65,67,69,71,73,-1,75,77,79,81,83,-1,85,87,89,91,93,95,97,99,101,103,105,107,109,111,113,115,117,119,121,-1,-1,-1,-1,-1,-1,-1,-1,-1,-1,-1,-1,-1,-1,-1,-1,-1,-1,-1,-1,-1,-1,-1,-1,-1,-1,-1,-1,-1,-1,-1,-1,-1,-1,-1,-1,-1,-1,-1,-1,-1,-1,-1,-1,-1,-1,-1,-1,-1,-1,-1,-1,-1,-1,-1,-1,-1,-1,-1,-1],"loss_changes":[5.68395E5,5.800019E5,1.8806272E5,5.3606E5,6.146698E5,1.8429897E5,1.2616594E5,1.02199625E6,2.5033992E5,2.1946875E6,4.2540966E5,1.957512E5,1.6821664E5,1.5397297E5,6.0017812E4,3.5700806E5,3.3560438E5,1.0287247E5,1.14894375E4,1.8858772E5,1.7279975E5,3.7940306E5,4.7496616E5,1.4025547E5,1.012655E5,5.3681062E4,8.5463375E4,9.94215E4,8.0234336E4,4.8426406E4,2.8633734E4,1.4025274E6,1.870126E5,1.4397398E4,4.74421E5,9.904306E4,3.0272953E4,0E0,2.870535E3,5.2820775E5,1.8537347E5,9.095175E4,2.574475E4,0E0,1.2059875E5,2.0135822E5,2.2667502E6,1.7681602E5,1.5729647E5,4.804725E4,2.4884756E4,1.6677048E5,4.0759137E4,3.1093704E3,9.3299375E4,1.927215E4,6.977856E4,2.473718E4,9.090906E4,5.335104E4,4.8289312E4,6.2588203E4,3.2457969E4,0E0,0E0,0E0,0E0,0E0,0E0,0E0,0E0,0E0,0E0,0E0,0E0,0E0,0E0,0E0,0E0,0E0,0E0,0E0,0E0,0E0,0E0,0E0,0E0,0E0,0E0,0E0,0E0,0E0,0E0,0E0,0E0,0E0,0E0,0E0,0E0,0E0,0E0,0E0,0E0,0E0,0E0,0E0,0E0,0E0,0E0,0E0,0E0,0E0,0E0,0E0,0E0,0E0,0E0,0E0,0E0,0E0,0E0,0E0,0E0],"parents":[2147483647,0,0,1,1,2,2,3,3,4,4,5,5,6,6,7,7,8,8,9,9,10,10,11,11,12,12,13,13,14,14,15,15,16,16,17,17,18,18,19,19,20,20,21,21,22,22,23,23,24,24,25,25,26,26,27,27,28,28,29,29,30,30,31,31,32,32,33,33,34,34,35,35,36,36,38,38,39,39,40,40,41,41,42,42,44,44,45,45,46,46,47,47,48,48,49,49,50,50,51,51,52,52,53,53,54,54,55,55,56,56,57,57,58,58,59,59,60,60,61,61,62,62],"right_children":[2,4,6,8,10,12,14,16,18,20,22,24,26,28,30,32,34,36,38,40,42,44,46,48,50,52,54,56,58,60,62,64,66,68,70,72,74,-1,76,78,80,82,84,-1,86,88,90,92,94,96,98,100,102,104,106,108,110,112,114,116,118,120,122,-1,-1,-1,-1,-1,-1,-1,-1,-1,-1,-1,-1,-1,-1,-1,-1,-1,-1,-1,-1,-1,-1,-1,-1,-1,-1,-1,-1,-1,-1,-1,-1,-1,-1,-1,-1,-1,-1,-1,-1,-1,-1,-1,-1,-1,-1,-1,-1,-1,-1,-1,-1,-1,-1,-1,-1,-1,-1,-1,-1],"split_conditions":[6.629248E0,9.472281E0,8.967348E-2,1E1,1.4789064E1,4.102321E0,7.1851015E0,9.4E0,9.5E1,9.8E0,1.4003215E1,9.3E1,8.8E0,9.92E2,3.4221155E2,1.007E3,2.0962025E1,1.93052E-1,2.0952153E-1,9.88E2,1E1,5.9E0,4.5241747E0,1.03E1,8.539362E0,1.474585E2,5.4434423E0,1.0154926E2,-6.9006634E-1,7.5E1,8.3E0,1.2929513E1,5.6E0,5.869322E0,9.7E0,8.526513E-14,6.242129E-1,3.061503E1,-8.728467E-1,2.336792E2,2.9484622E2,-1.6902044E-3,2.2379195E2,8.23575E1,7.6E1,1.673183E1,1E1,1.0222792E1,1.0068111E1,1.6210225E2,9.96E2,8.6E1,2.9184723E2,9.548879E0,1.1286216E1,-2.8941483E0,1.0982991E1,9.045393E0,6.003904E0,-3.6629486E0,5.71009E0,8.463137E0,-3.3039284E0,-1.0838423E0,6.59793E1,-2.9900259E1,8.395727E-1,-2.0860016E1,1.0111231E1,7.645241E1,3.149704E1,3.1513615E0,7.001404E1,-3.9132812E0,-5.126433E1,1.1688501E1,-4.861011E0,-1.4728544E1,-1.4802112E2,-3.3864982E0,-7.8242584E1,-1.8886158E1,-1.3595898E2,-6.1875553E0,-6.426731E1,2.6377825E1,5.972662E0,1.2551992E1,1.0111412E0,-4.6813645E0,-1.227925E2,-2.3799517E0,9.602952E0,3.3807724E0,-5.7131677E0,3.9888058E1,1.763516E1,1.1045069E1,-7.267392E0,-6.403418E-1,-7.4333534E1,-4.5962863E0,9.484728E0,-8.969507E0,3.8775332E0,-2.6162012E1,-8.806337E1,-2.2503077E1,1.5516797E1,-8.471603E0,-7.678855E1,-9.3357315E0,1.6230701E1,-3.1239607E1,-5.7990494E0,-3.541943E1,-6.5666924E0,-4.302841E0,-1.7109641E0,-1.0941195E1,-4.992946E1,-1.810373E0,-4.0930958E1],"split_indices":[7,0,6,5,1,0,7,5,3,5,0,3,5,4,2,4,2,6,6,4,5,5,7,5,7,2,0,2,0,3,5,1,5,0,5,8,0,0,0,2,2,8,2,0,3,0,5,1,1,2,4,3,2,1,1,0,1,1,0,0,1,1,0,0,0,0,0,0,0,0,0,0,0,0,0,0,0,0,0,0,0,0,0,0,0,0,0,0,0,0,0,0,0,0,0,0,0,0,0,0,0,0,0,0,0,0,0,0,0,0,0,0,0,0,0,0,0,0,0,0,0,0,0],"split_type":[0,0,0,0,0,0,0,0,0,0,0,0,0,0,0,0,0,0,0,0,0,0,0,0,0,0,0,0,0,0,0,0,0,0,0,0,0,0,0,0,0,0,0,0,0,0,0,0,0,0,0,0,0,0,0,0,0,0,0,0,0,0,0,0,0,0,0,0,0,0,0,0,0,0,0,0,0,0,0,0,0,0,0,0,0,0,0,0,0,0,0,0,0,0,0,0,0,0,0,0,0,0,0,0,0,0,0,0,0,0,0,0,0,0,0,0,0,0,0,0,0,0,0],"sum_hessian":[8.983E3,4.282E3,4.701E3,1.497E3,2.785E3,1.552E3,3.149E3,3.85E2,1.112E3,5E2,2.285E3,1.247E3,3.05E2,8.1E1,3.068E3,2.75E2,1.1E2,1.079E3,3.3E1,4.8E2,2E1,8.84E2,1.401E3,1.16E3,8.7E1,2.89E2,1.6E1,1.1E1,7E1,2.938E3,1.3E2,1.38E2,1.37E2,8E0,1.02E2,1.074E3,5E0,3.1E1,2E0,3E1,4.5E2,1.2E1,8E0,5E0,8.79E2,7.98E2,6.03E2,4.66E2,6.94E2,6.1E1,2.6E1,1.2E1,2.77E2,5E0,1.1E1,3E0,8E0,1.5E1,5.5E1,2.14E2,2.724E3,8.4E1,4.6E1,1E2,3.8E1,2E1,1.17E2,7E0,1E0,3.1E1,7.1E1,1.073E3,1E0,2E0,3E0,1E0,1E0,2.8E1,2E0,4.48E2,2E0,1E0,1.1E1,1E0,7E0,2.6E1,8.53E2,1.73E2,6.25E2,5.89E2,1.4E1,1.8E2,2.86E2,3.03E2,3.91E2,1.1E1,5E1,1E1,1.6E1,9E0,3E0,2.58E2,1.9E1,2E0,3E0,8E0,3E0,1E0,2E0,2E0,6E0,4E0,1.1E1,1.9E1,3.6E1,5E0,2.09E2,1.06E3,1.664E3,8.1E1,3E0,4.5E1,1E0],"tree_param":{"num_deleted":"0","num_feature":"9","num_nodes":"123","size_leaf_vector":"1"}},{"base_weights":[-1.8786718E-1,-5.5307655E0,6.1524005E0,-3.5326687E1,-4.3481665E0,2.0170544E1,-1.5422557E-1,-2.511095E1,-1.20034225E2,-1.1177256E1,1.2261521E-1,5.3614235E1,1.1132324E1,-2.2086796E1,4.3929505E0,-7.771068E1,-1.6240227E1,-1.4065482E1,4.859214E0,8.9835495E-1,-9.914239E1,2.6646109E1,1.2920549E2,9.055476E0,5.5237186E1,-9.474952E0,-1.898424E2,-7.8406134E0,1.4085002E1,-4.261724E1,-1.5134375E2,5.9511917E1,-1.8887575E1,-1.8308393E1,2.803308E0,1.689204E1,-1.3770591E1,1.9342407E1,-2.480849E0,-5.160035E1,-1.6208084E2,4.7385918E1,-4.843426E1,2.7434708E2,8.199436E1,9.559164E0,-3.531383E1,1.0141329E1,6.5896484E1,-8.132052E0,-6.2594044E1,-2.7830283E2,8.680352E1,-1.3361391E1,8.089188E1,1.7104083E2,1.2747108E1,-1.7440975E1,-7.8135905E0,-5.718018E1,-1.9331032E1,8.635201E0,-6.704971E0,-4.8482E0,-1.1613413E1,-1.0600292E1,2.7238379E0,8.255973E0,-1.9229796E0,-1.0063573E0,-7.985827E0,2.4728695E1,4.5757264E-1,-1.1497086E0,8.60918E0,-1.827875E1,-3.9138062E0,-5.185786E1,-1.1377703E1,6.286635E0,6.294653E1,1.685543E1,-1.8090235E1,1.8749136E1,1.5145985E2,6.4758514E1,1.1884798E1,-4.917412E0,3.1354203E0,-1.2311133E1,-4.511646E0,6.757715E0,2.0482456E1,-1.6284986E1,-1.5563656E0,-9.739647E1,-5.607964E0,4.387246E1,-2.4245901E1,-8.88058E0,6.8389196E0,-6.8587387E-1,4.41037E1,5.5240166E1,6.016553E0,2.6284027E0,1.1763792E1],"categories":[],"categories_nodes":[],"categories_segments":[],"categories_sizes":[],"default_left":[0,0,0,0,0,0,0,0,0,0,0,0,0,0,0,0,0,0,0,0,0,0,0,0,0,0,0,0,0,0,0,0,0,0,0,0,0,0,0,0,0,0,0,0,0,0,0,0,0,0,0,0,0,0,0,0,0,0,0,0,0,0,0,0,0,0,0,0,0,0,0,0,0,0,0,0,0,0,0,0,0,0,0,0,0,0,0,0,0,0,0,0,0,0,0,0,0,0,0,0,0,0,0,0,0,0,0],"id":16,"left_children":[1,3,5,7,9,11,13,15,-1,17,19,21,23,25,27,29,31,33,35,37,39,41,43,45,47,49,51,53,55,57,59,-1,61,63,65,67,69,71,73,75,77,79,81,83,85,87,89,-1,91,93,-1,95,97,99,101,103,105,-1,-1,-1,-1,-1,-1,-1,-1,-1,-1,-1,-1,-1,-1,-1,-1,-1,-1,-1,-1,-1,-1,-1,-1,-1,-1,-1,-1,-1,-1,-1,-1,-1,-1,-1,-1,-1,-1,-1,-1,-1,-1,-1,-1,-1,-1,-1,-1,-1,-1],"loss_changes":[3.0437066E5,1.7166017E5,3.6326828E5,6.830949E5,1.4322402E5,3.8479928E5,2.8283512E5,8.365873E4,0E0,8.603261E4,2.1847188E5,5.4900544E5,9.155689E4,1.028551E6,2.7862744E5,6.0735125E4,9.29473E4,1.1263531E5,6.389667E4,1.7549627E5,5.7465438E4,3.1528278E5,4.6401825E5,2.1814258E4,8.0530312E3,1.1973364E5,8.562129E5,5.100582E5,2.7311684E5,3.3723398E3,1.5011859E4,0E0,2.6391832E4,5.445625E4,7.6197125E4,4.30199E4,1.4900145E4,4.8994875E5,1.0039754E5,4.2404414E3,5.4882656E3,6.739375E5,5.80124E4,7.986501E5,3.0346778E5,2.2190797E4,6.592842E2,0E0,1.4534531E3,6.1134766E4,0E0,3.068005E5,1.0148789E5,5.7556525E5,3.358224E5,1.8052625E4,1.3689297E5,0E0,0E0,0E0,0E0,0E0,0E0,0E0,0E0,0E0,0E0,0E0,0E0,0E0,0E0,0E0,0E0,0E0,0E0,0E0,0E0,0E0,0E0,0E0,0E0,0E0,0E0,0E0,0E0,0E0,0E0,0E0,0E0,0E0,0E0,0E0,0E0,0E0,0E0,0E0,0E0,0E0,0E0,0E0,0E0,0E0,0E0,0E0,0E0,0E0,0E0],"parents":[2147483647,0,0,1,1,2,2,3,3,4,4,5,5,6,6,7,7,9,9,10,10,11,11,12,12,13,13,14,14,15,15,16,16,17,17,18,18,19,19,20,20,21,21,22,22,23,23,24,24,25,25,26,26,27,27,28,28,29,29,30,30,32,32,33,33,34,34,35,35,36,36,37,37,38,38,39,39,40,40,41,41,42,42,43,43,44,44,45,45,46,46,48,48,49,49,51,51,52,52,53,53,54,54,55,55,56,56],"right_children":[2,4,6,8,10,12,14,16,-1,18,20,22,24,26,28,30,32,34,36,38,40,42,44,46,48,50,52,54,56,58,60,-1,62,64,66,68,70,72,74,76,78,80,82,84,86,88,90,-1,92,94,-1,96,98,100,102,104,106,-1,-1,-1,-1,-1,-1,-1,-1,-1,-1,-1,-1,-1,-1,-1,-1,-1,-1,-1,-1,-1,-1,-1,-1,-1,-1,-1,-1,-1,-1,-1,-1,-1,-1,-1,-1,-1,-1,-1,-1,-1,-1,-1,-1,-1,-1,-1,-1,-1,-1],"split_conditions":[1.2000699E1,9.78E2,9.335404E0,1.215529E0,8.9E0,9.9E0,1.4613406E1,1.3186496E2,-1.20034225E2,