{"learner":{"attributes":{"scikit_learn":"{\"_estimator_type\": \"regressor\"}"},"feature_names":["Pitch","WindSpeed","WindDirection","AirHumidity","AirPressure","AirTemp","TI","TSR","YawOffset"],"feature_types":["float","float","float","float","float","float","float","float","float"],"gradient_booster":{"model":{"gbtree_model_param":{"num_parallel_tree":"1","num_trees":"100"},"iteration_indptr":[0,1,2,3,4,5,6,7,8,9,10,11,12,13,14,15,16,17,18,19,20,21,22,23,24,25,26,27,28,29,30,31,32,33,34,35,36,37,38,39,40,41,42,43,44,45,46,47,48,49,50,51,52,53,54,55,56,57,58,59,60,61,62,63,64,65,66,67,68,69,70,71,72,73,74,75,76,77,78,79,80,81,82,83,84,85,86,87,88,89,90,91,92,93,94,95,96,97,98,99,100],"tree_info":[0,0,0,0,0,0,0,0,0,0,0,0,0,0,0,0,0,0,0,0,0,0,0,0,0,0,0,0,0,0,0,0,0,0,0,0,0,0,0,0,0,0,0,0,0,0,0,0,0,0,0,0,0,0,0,0,0,0,0,0,0,0,0,0,0,0,0,0,0,0,0,0,0,0,0,0,0,0,0,0,0,0,0,0,0,0,0,0,0,0,0,0,0,0,0,0,0,0,0,0],"trees":[{"base_weights":[-1.9983658E-4,-2.8685544E3,1.4784236E3,-3.6040198E3,-1.872119E3,1.4514395E2,1.6884681E3,-3.9188767E3,-3.1269949E3,-2.325346E3,-1.3365963E3,-3.002893E2,5.517745E2,1.2320685E3,1.7286208E3,-1.2267716E3,-1.1146486E3,-9.93205E2,-8.807777E2,-2.5065664E3,-6.142362E2,-1.6332146E3,-1.068876E3,-5.2927374E2,-1.0729133E2,3.2703784E2,7.717432E2,1.1141931E3,1.3456587E3,4.7371634E2,5.220794E2,-7.9408246E2,-7.1858344E2,-5.20959E2,-4.552219E2,-1.2108135E3,-8.848331E2,-6.200382E2,-4.6519806E2,-1.8901906E2,-2.532014E1,2.1932117E2,4.3061398E2,7.778171E2,-7.465269E1,1.121874E3,1.3259839E2,4.0634872E2,2.1638371E2,-3.1116348E2,-3.774579E2,-2.779765E2,-2.2306592E2,-4.5216248E1,-1.8741704E2,-9.1960365E1,-1.4522423E2,-7.9693306E1,-4.440184E1,2.8618605E1,-2.3153782E1,-1.0684717E1,6.896244E1,1.5038297E2,9.872528E1,2.0464479E2,2.5731503E2,7.775567E1,3.3744974E2],"categories":[],"categories_nodes":[],"categories_segments":[],"categories_sizes":[],"default_left":[0,0,0,0,0,0,0,0,0,0,0,0,0,0,0,0,0,0,0,0,0,0,0,0,0,0,0,0,0,0,0,0,0,0,0,0,0,0,0,0,0,0,0,0,0,0,0,0,0,0,0,0,0,0,0,0,0,0,0,0,0,0,0,0,0,0,0,0,0],"id":0,"left_children":[1,3,5,7,9,11,13,15,17,19,21,23,25,27,29,-1,-1,-1,-1,31,-1,33,35,37,39,41,43,45,47,-1,-1,-1,-1,-1,-1,49,51,53,55,57,59,61,63,65,-1,67,-1,-1,-1,-1,-1,-1,-1,-1,-1,-1,-1,-1,-1,-1,-1,-1,-1,-1,-1,-1,-1,-1,-1],"loss_changes":[3.75832E10,2.2020403E9,1.6374784E9,2.4803533E8,3.0805043E8,1.4452371E8,9.045094E7,2.0841472E7,1.4637568E7,2.9767168E7,4.510669E7,1.6780948E7,2.0362016E7,4.017152E6,5.334016E6,0E0,0E0,0E0,0E0,1.43104E5,0E0,6.912E5,7.104992E6,7.23508E5,1.3886725E6,2.226188E6,1.49532E6,5.78096E5,1.54176E5,0E0,0E0,0E0,0E0,0E0,0E0,1.2616E5,1.36912E5,5.7562E4,1.6919E5,2.8751625E5,6.646835E5,2.88E5,5.88346E5,1.012464E6,0E0,2.31648E5,0E0,0E0,0E0,0E0,0E0,0E0,0E0,0E0,0E0,0E0,0E0,0E0,0E0,0E0,0E0,0E0,0E0,0E0,0E0,0E0,0E0,0E0,0E0],"parents":[2147483647,0,0,1,1,2,2,3,3,4,4,5,5,6,6,7,7,8,8,9,9,10,10,11,11,12,12,13,13,14,14,19,19,21,21,22,22,23,23,24,24,25,25,26,26,27,27,28,28,35,35,36,36,37,37,38,38,39,39,40,40,41,41,42,42,43,43,45,45],"right_children":[2,4,6,8,10,12,14,16,18,20,22,24,26,28,30,-1,-1,-1,-1,32,-1,34,36,38,40,42,44,46,48,-1,-1,-1,-1,-1,-1,50,52,54,56,58,60,62,64,66,-1,68,-1,-1,-1,-1,-1,-1,-1,-1,-1,-1,-1,-1,-1,-1,-1,-1,-1,-1,-1,-1,-1,-1,-1],"split_conditions":[8.964934E0,6.7708187E0,1.0606733E1,5.5013742E0,7.8644323E0,9.791676E0,1.1225819E1,4.4383965E0,6.197061E0,7.409844E0,8.3433695E0,9.3782835E0,1.0220816E1,1.0920884E1,1.1752798E1,-1.2267716E3,-1.1146486E3,-9.93205E2,-8.807777E2,7.0510807E0,-6.142362E2,8.087341E0,8.692749E0,9.136734E0,9.582852E0,9.97709E0,-1.9961318E-2,-5.5115384E-1,-1.9961318E-2,4.7371634E2,5.220794E2,-7.9408246E2,-7.1858344E2,-5.20959E2,-4.552219E2,-3.7273333E0,8.890864E0,-3.9335663E0,-3.9035943E0,9.46946E0,9.7E0,7.8E1,1.03E1,1.0405768E1,-7.465269E1,-3.9335663E0,1.3259839E2,4.0634872E2,2.1638371E2,-3.1116348E2,-3.774579E2,-2.779765E2,-2.2306592E2,-4.5216248E1,-1.8741704E2,-9.1960365E1,-1.4522423E2,-7.9693306E1,-4.440184E1,2.8618605E1,-2.3153782E1,-1.0684717E1,6.896244E1,1.5038297E2,9.872528E1,2.0464479E2,2.5731503E2,7.775567E1,3.3744974E2],"split_indices":[1,1,1,1,1,1,1,1,1,1,1,1,1,1,1,0,0,0,0,1,0,1,1,1,1,1,0,0,0,0,0,0,0,0,0,0,1,0,0,1,5,3,5,1,0,0,0,0,0,0,0,0,0,0,0,0,0,0,0,0,0,0,0,0,0,0,0,0,0],"split_type":[0,0,0,0,0,0,0,0,0,0,0,0,0,0,0,0,0,0,0,0,0,0,0,0,0,0,0,0,0,0,0,0,0,0,0,0,0,0,0,0,0,0,0,0,0,0,0,0,0,0,0,0,0,0,0,0,0,0,0,0,0,0,0,0,0,0,0,0,0],"sum_hessian":[8.86E3,3.013E3,5.847E3,1.732E3,1.281E3,7.96E2,5.051E3,1.039E3,6.93E2,6.92E2,5.89E2,3.8E2,4.16E2,4.11E2,4.64E3,5.55E2,4.84E2,3.45E2,3.48E2,4.14E2,2.78E2,2.77E2,3.12E2,1.73E2,2.07E2,2.07E2,2.09E2,2.07E2,2.04E2,3.45E2,4.295E3,1.73E2,2.41E2,1.39E2,1.38E2,1.73E2,1.39E2,6.8E1,1.05E2,1.03E2,1.04E2,1.03E2,1.04E2,2.08E2,1E0,2.04E2,3E0,2E2,4E0,4.2E1,1.31E2,1.03E2,3.6E1,1E0,6.7E1,1.3E1,9.2E1,3.4E1,6.9E1,3.1E1,7.3E1,4E0,9.9E1,5.9E1,4.5E1,9.9E1,1.09E2,1E0,2.03E2],"tree_param":{"num_deleted":"0","num_feature":"9","num_nodes":"69","size_leaf_vector":"1"}},{"base_weights":[-7.039516E-1,-2.0108109E3,1.0352849E3,-2.5636067E3,-1.3596455E3,7.585898E1,1.1785806E3,-2.7876516E3,-2.2824912E3,-1.7049354E3,-9.7613916E2,-2.1174702E2,3.6326587E2,8.144605E2,1.2078805E3,-8.723799E2,-8.037546E2,-7.2228937E2,-6.4167773E2,-5.514018E2,-1.5236321E3,-1.1368815E3,-6.9808606E2,-3.7319177E2,-7.5674255E1,2.0008762E2,4.994636E2,6.918262E2,8.817623E2,1.0492235E3,1.2162821E3,-4.7561014E2,-4.151194E2,-2.7572797E2,-1.195886E3,-5.956827E2,-7.7371735E2,-4.1867163E2,-3.0131723E2,-1.19671974E2,1.0908289E1,2.538429E2,1.3457109E2,3.849281E2,5.53942E2,7.448044E2,1.7724274E2,9.0587646E2,6.352516E2,3.207276E2,2.4004121E2,3.6535263E2,2.9522424E2,-3.8123743E2,-3.3334964E2,-1.8317924E2,-1.1653726E2,-6.476133E1,-2.3286957E2,-8.489694E1,-1.3257942E2,-7.906126E1,-1.19374954E2,-3.9337254E1,2.4845034E1,1.7047829E1,-3.0337746E1,-6.551397E1,7.990392E1,5.5344925E1,1.1613665E1,1.189913E2,-6.345476E1,1.8264105E2,1.3634093E2,2.3916959E2,1.7673659E2,2.9286404E2,2.4167653E2,1.9458914E2,4.712388E1],"categories":[],"categories_nodes":[],"categories_segments":[],"categories_sizes":[],"default_left":[0,0,0,0,0,0,0,0,0,0,0,0,0,0,0,0,0,0,0,0,0,0,0,0,0,0,0,0,0,0,0,0,0,0,0,0,0,0,0,0,0,0,0,0,0,0,0,0,0,0,0,0,0,0,0,0,0,0,0,0,0,0,0,0,0,0,0,0,0,0,0,0,0,0,0,0,0,0,0,0,0],"id":1,"left_children":[1,3,5,7,9,11,13,15,17,19,21,23,25,27,29,-1,-1,-1,-1,-1,31,33,35,37,39,41,43,45,47,49,51,-1,-1,-1,53,55,57,59,61,63,65,67,69,71,73,75,-1,77,79,-1,-1,-1,-1,-1,-1,-1,-1,-1,-1,-1,-1,-1,-1,-1,-1,-1,-1,-1,-1,-1,-1,-1,-1,-1,-1,-1,-1,-1,-1,-1,-1],"loss_changes":[1.845466E10,1.0814382E9,8.0390246E8,9.623552E7,1.8187085E8,6.2981136E7,5.3298176E7,3.977216E6,7.9296E6,1.4763392E7,2.8660288E7,8.341658E6,8.367604E6,2.5428E6,4.998144E6,0E0,0E0,0E0,0E0,0E0,5.18208E5,4.24672E6,1.428864E6,4.42626E5,7.93668E5,5.821655E5,1.078392E6,3.09204E5,8.69024E5,3.52128E5,4.18304E5,0E0,0E0,0E0,6.44032E5,9.6604E4,2.4608E4,2.03154E5,1.54248E5,3.3087312E5,3.7099612E5,6.190865E5,3.8040325E5,5.72781E5,4.76408E5,2.48592E5,0E0,7.58384E5,5.8048E4,0E0,0E0,0E0,0E0,0E0,0E0,0E0,0E0,0E0,0E0,0E0,0E0,0E0,0E0,0E0,0E0,0E0,0E0,0E0,0E0,0E0,0E0,0E0,0E0,0E0,0E0,0E0,0E0,0E0,0E0,0E0,0E0],"parents":[2147483647,0,0,1,1,2,2,3,3,4,4,5,5,6,6,7,7,8,8,9,9,10,10,11,11,12,12,13,13,14,14,20,20,21,21,22,22,23,23,24,24,25,25,26,26,27,27,28,28,29,29,30,30,34,34,35,35,36,36,37,37,38,38,39,39,40,40,41,41,42,42,43,43,44,44,45,45,47,47,48,48],"right_children":[2,4,6,8,10,12,14,16,18,20,22,24,26,28,30,-1,-1,-1,-1,-1,32,34,36,38,40,42,44,46,48,50,52,-1,-1,-1,54,56,58,60,62,64,66,68,70,72,74,76,-1,78,80,-1,-1,-1,-1,-1,-1,-1,-1,-1,-1,-1,-1,-1,-1,-1,-1,-1,-1,-1,-1,-1,-1,-1,-1,-1,-1,-1,-1,-1,-1,-1,-1],"split_conditions":[8.964934E0,6.59591E0,1.0536296E1,5.1886125E0,7.7549233E0,9.791676E0,1.1115377E1,4.1308246E0,5.9996696E0,7.2658496E0,8.46821E0,9.3782835E0,1.0144414E1,1.0777709E1,1.151E1,-8.723799E2,-8.037546E2,-7.2228937E2,-6.4167773E2,-5.514018E2,7.5843883E0,-3.6632543E0,-3.758E0,9.208603E0,9.659264E0,1.09E1,1.0289274E1,1.06E1,2.930592E2,2.9732846E2,2.0817425E1,-4.7561014E2,-4.151194E2,-2.7572797E2,8.016214E0,1.021E3,7.3002396E0,7.1E0,-3.7163935E0,1.025E3,1.58E1,7.6E1,8.943628E-2,-1.9961318E-2,1.09E1,-2.418545E0,1.7724274E2,1.08E1,2.7778974E-1,3.207276E2,2.4004121E2,3.6535263E2,2.9522424E2,-3.8123743E2,-3.3334964E2,-1.8317924E2,-1.1653726E2,-6.476133E1,-2.3286957E2,-8.489694E1,-1.3257942E2,-7.906126E1,-1.19374954E2,-3.9337254E1,2.4845034E1,1.7047829E1,-3.0337746E1,-6.551397E1,7.990392E1,5.5344925E1,1.1613665E1,1.189913E2,-6.345476E1,1.8264105E2,1.3634093E2,2.3916959E2,1.7673659E2,2.9286404E2,2.4167653E2,1.9458914E2,4.712388E1],"split_indices":[1,1,1,1,1,1,1,1,1,1,1,1,1,1,1,0,0,0,0,0,1,0,0,1,1,5,1,5,2,2,0,0,0,0,1,4,7,5,0,4,5,3,6,0,5,0,0,5,0,0,0,0,0,0,0,0,0,0,0,0,0,0,0,0,0,0,0,0,0,0,0,0,0,0,0,0,0,0,0,0,0],"split_type":[0,0,0,0,0,0,0,0,0,0,0,0,0,0,0,0,0,0,0,0,0,0,0,0,0,0,0,0,0,0,0,0,0,0,0,0,0,0,0,0,0,0,0,0,0,0,0,0,0,0,0,0,0,0,0,0,0,0,0,0,0,0,0,0,0,0,0,0,0,0,0,0,0,0,0,0,0,0,0,0,0],"sum_hessian":[8.86E3,3.013E3,5.847E3,1.628E3,1.385E3,7.6E2,5.087E3,9.01E2,7.27E2,7.27E2,6.58E2,3.8E2,3.8E2,3.81E2,4.706E3,4.15E2,4.86E2,3.8E2,3.47E2,4.14E2,3.13E2,4.15E2,2.43E2,1.73E2,2.07E2,1.74E2,2.06E2,1.39E2,2.42E2,2.43E2,4.463E3,2.1E2,1.03E2,9.2E1,3.23E2,1.07E2,1.36E2,1.03E2,7E1,1.37E2,7E1,9.4E1,8E1,6.9E1,1.37E2,8.7E1,5.2E1,2.18E2,2.4E1,2.22E2,2.1E1,4.429E3,3.4E1,1.64E2,1.59E2,9.8E1,9E0,1E0,1.35E2,1.7E1,8.6E1,5.3E1,1.7E1,1.3E2,7E0,5E1,2E1,2E0,9.2E1,5.2E1,2.8E1,6.8E1,1E0,8.5E1,5.2E1,6.2E1,2.5E1,1.23E2,9.5E1,2.3E1,1E0],"tree_param":{"num_deleted":"0","num_feature":"9","num_nodes":"81","size_leaf_vector":"1"}},{"base_weights":[-8.839825E-1,-1.398134E3,7.312608E2,-1.7557096E3,-8.8057855E2,1.0420696E2,8.3083386E2,-1.9159662E3,-1.4973236E3,-1.0831847E3,-5.952365E2,-1.12344055E2,3.0332916E2,6.4682764E2,8.503337E2,-5.9887866E2,-5.332795E2,-4.7382486E2,-4.1734418E2,-1.1775148E3,-9.244357E2,-7.029949E2,-4.3021927E2,-2.2563052E2,-1.6949446E1,1.9739774E2,4.0831155E2,5.916544E2,7.180668E2,8.0153156E2,8.5688367E2,-3.3070007E2,-3.798863E2,-2.9319223E2,-2.4011308E2,-1.8206358E2,-2.3202547E2,-4.8934705E2,-3.663862E2,-1.6181918E2,-2.600796E2,-7.4698586E0,-2.894361E2,1.3159851E2,2.5655667E2,4.6455957E2,3.587844E2,6.3843463E2,5.271329E2,4.438852E2,2.1805757E2,8.129977E2,1.9628398E2,2.0925665E2,2.5743594E2,-1.3008376E2,-1.6134444E2,-1.1266179E2,-5.5770683E1,-1.8385626E1,-6.618219E1,-8.8404465E1,-6.2873234E1,-1.3533054E1,1.8492346E1,-9.8845375E1,-3.786299E1,4.625179E1,1.9205587E1,8.2043945E1,-8.731893E0,1.4671504E2,1.0019571E2,7.1093895E1,1.1324869E2,1.9695985E2,1.1623803E2,9.824473E1,1.614522E2,5.525391E1,1.4753262E2,2.4511726E2,1.4913673E2],"categories":[],"categories_nodes":[],"categories_segments":[],"categories_sizes":[],"default_left":[0,0,0,0,0,0,0,0,0,0,0,0,0,0,0,0,0,0,0,0,0,0,0,0,0,0,0,0,0,0,0,0,0,0,0,0,0,0,0,0,0,0,0,0,0,0,0,0,0,0,0,0,0,0,0,0,0,0,0,0,0,0,0,0,0,0,0,0,0,0,0,0,0,0,0,0,0,0,0,0,0,0,0],"id":2,"left_children":[1,3,5,7,9,11,13,15,17,19,21,23,25,27,29,-1,-1,-1,-1,31,33,35,37,39,41,43,45,47,49,51,53,-1,-1,-1,-1,-1,-1,55,57,59,61,63,65,67,69,71,73,75,77,79,-1,81,-1,-1,-1,-1,-1,-1,-1,-1,-1,-1,-1,-1,-1,-1,-1,-1,-1,-1,-1,-1,-1,-1,-1,-1,-1,-1,-1,-1,-1,-1,-1],"loss_changes":[9.065731E9,5.623475E8,3.6298854E8,7.170714E7,7.144678E7,3.444393E7,1.7455104E7,8.761856E6,3.851776E6,9.813184E6,8.944176E6,4.1352255E6,4.545712E6,1.48144E6,7.62368E5,0E0,0E0,0E0,0E0,1.627456E6,1.028128E6,1.64928E6,6.05764E5,3.42606E5,5.376976E5,7.79793E5,4.12772E5,5.05576E5,1.76336E5,4.00096E5,1.85856E5,0E0,0E0,0E0,0E0,0E0,0E0,5.0436E4,1.01992E5,3.6473238E5,1.339585E5,5.308569E5,4.1744375E3,1.4421138E5,5.349E5,1.3726E5,1.72639E5,4.5874E5,9.4896E4,2.1361125E4,0E0,2.4528E5,0E0,0E0,0E0,0E0,0E0,0E0,0E0,0E0,0E0,0E0,0E0,0E0,0E0,0E0,0E0,0E0,0E0,0E0,0E0,0E0,0E0,0E0,0E0,0E0,0E0,0E0,0E0,0E0,0E0,0E0,0E0],"parents":[2147483647,0,0,1,1,2,2,3,3,4,4,5,5,6,6,7,7,8,8,9,9,10,10,11,11,12,12,13,13,14,14,19,19,20,20,21,21,22,22,23,23,24,24,25,25,26,26,27,27,28,28,29,29,30,30,37,37,38,38,39,39,40,40,41,41,42,42,43,43,44,44,45,45,46,46,47,47,48,48,49,49,51,51],"right_children":[2,4,6,8,10,12,14,16,18,20,22,24,26,28,30,-1,-1,-1,-1,32,34,36,38,40,42,44,46,48,50,52,54,-1,-1,-1,-1,-1,-1,56,58,60,62,64,66,68,70,72,74,76,78,80,-1,82,-1,-1,-1,-1,-1,-1,-1,-1,-1,-1,-1,-1,-1,-1,-1,-1,-1,-1,-1,-1,-1,-1,-1,-1,-1,-1,-1,-1,-1,-1,-1],"split_conditions":[9.057487E0,6.8916073E0,1.0674909E1,5.655717E0,8.016214E0,9.859257E0,1.1383693E1,4.7576056E0,6.3851175E0,7.5843883E0,8.608131E0,9.46946E0,1.0289274E1,1.1062E1,1.2172888E1,-5.9887866E2,-5.332795E2,-4.7382486E2,-4.1734418E2,-3.5206323E0,9.478938E0,-3.6632543E0,8.809053E0,9.7E0,-2.7123728E0,1.0050116E1,9.6E0,1.08E1,9.74E2,2.9623868E2,3.480871E0,-3.3070007E2,-3.798863E2,-2.9319223E2,-2.4011308E2,-1.8206358E2,-2.3202547E2,1.05E1,1.022E3,-3.8541305E0,9.275891E0,9.73951E0,1.1626125E-1,2.8998438E2,-2.2384503E0,2.930592E2,-3.621951E0,2.9623868E2,-3.3807433E0,8.283297E-2,2.1805757E2,1.8541993E-1,1.9628398E2,2.0925665E2,2.5743594E2,-1.3008376E2,-1.6134444E2,-1.1266179E2,-5.5770683E1,-1.8385626E1,-6.618219E1,-8.8404465E1,-6.2873234E1,-1.3533054E1,1.8492346E1,-9.8845375E1,-3.786299E1,4.625179E1,1.9205587E1,8.2043945E1,-8.731893E0,1.4671504E2,1.0019571E2,7.1093895E1,1.1324869E2,1.9695985E2,1.1623803E2,9.824473E1,1.614522E2,5.525391E1,1.4753262E2,2.4511726E2,1.4913673E2],"split_indices":[1,1,1,1,1,1,1,1,1,1,1,1,1,1,1,0,0,0,0,0,7,0,1,5,0,1,5,5,4,2,7,0,0,0,0,0,0,5,4,0,1,1,6,2,0,2,0,2,0,6,0,6,0,0,0,0,0,0,0,0,0,0,0,0,0,0,0,0,0,0,0,0,0,0,0,0,0,0,0,0,0,0,0],"split_type":[0,0,0,0,0,0,0,0,0,0,0,0,0,0,0,0,0,0,0,0,0,0,0,0,0,0,0,0,0,0,0,0,0,0,0,0,0,0,0,0,0,0,0,0,0,0,0,0,0,0,0,0,0,0,0,0,0,0,0,0,0,0,0,0,0,0,0,0,0,0,0,0,0,0,0,0,0,0,0,0,0,0,0],"sum_hessian":[8.86E3,3.046E3,5.814E3,1.8E3,1.246E3,7.97E2,5.017E3,1.107E3,6.93E2,7.27E2,5.19E2,3.82E2,4.15E2,4.84E2,4.533E3,6.92E2,4.15E2,3.83E2,3.1E2,4.52E2,2.75E2,3.12E2,2.07E2,1.74E2,2.08E2,2.08E2,2.07E2,2.78E2,2.06E2,5.51E2,3.982E3,2.52E2,2E2,1.88E2,8.7E1,1.36E2,1.76E2,1.04E2,1.03E2,6.3E1,1.11E2,2.02E2,6E0,1E2,1.08E2,9.3E1,1.14E2,1.56E2,1.22E2,8E0,1.98E2,5.07E2,4.4E1,3.5E1,3.947E3,5.3E1,5.1E1,9.7E1,6E0,2.4E1,3.9E1,6.3E1,4.8E1,1.31E2,7.1E1,4E0,2E0,7.4E1,2.6E1,1.02E2,6E0,7.6E1,1.7E1,1.7E1,9.7E1,1.44E2,1.2E1,8E0,1.14E2,2E0,6E0,4.99E2,8E0],"tree_param":{"num_deleted":"0","num_feature":"9","num_nodes":"83","size_leaf_vector":"1"}},{"base_weights":[-8.318658E-1,-9.800529E2,5.1227E2,-1.2192163E3,-5.995643E2,7.319861E1,5.819924E2,-1.3380443E3,-1.0309751E3,-7.1924384E2,-3.7779382E2,-5.6040775E1,2.4047955E2,4.43192E2,5.944101E2,-4.373523E2,-1.28399E3,-3.2780597E2,-9.6006805E2,-8.014187E2,-6.1870886E2,-2.9058517E2,-4.401727E2,-1.4437857E2,2.0847567E1,1.785255E2,2.9932486E2,3.983587E2,4.844544E2,5.5067584E2,5.993681E2,-3.9932587E2,-3.6576422E2,-2.9528363E2,-2.5059134E2,-2.8546988E2,-7.725153E2,-1.6234778E2,-6.65905E2,-1.9679485E2,-3.108529E2,-3.911563E2,-4.8000616E2,-1.7391707E2,-8.281707E1,6.771628E1,-2.1423914E1,3.9908436E1,1.9446834E2,2.4336763E2,3.2886374E2,3.784484E2,1.6183667E2,4.8832867E2,5.1769695E1,5.633096E2,1.3277394E2,1.8004407E2,4.9126047E2,-2.3695685E2,-1.9764072E2,-2.1420113E2,-1.7569199E2,-1.3908851E1,-8.001745E1,-1.0895474E2,-8.517805E1,-1.2054353E2,-8.0396545E1,-5.9673286E1,-1.4554836E2,-7.416689E1,-4.6315956E1,3.8020866E0,-3.0837683E1,1.5064908E1,5.711365E1,-6.521197E-1,-4.4096523E1,2.5367662E1,-4.4601124E1,6.642287E1,2.4129097E1,7.857553E1,4.9221115E1,1.0355724E2,5.6625492E1,1.15183075E2,3.180929E1,1.1654879E2,1.5286005E2,1.9259766E0,2.1370386E1,6.347183E1,1.6984067E2,1.5926779E2,6.336687E1],"categories":[],"categories_nodes":[],"categories_segments":[],"categories_sizes":[],"default_left":[0,0,0,0,0,0,0,0,0,0,0,0,0,0,0,0,0,0,0,0,0,0,0,0,0,0,0,0,0,0,0,0,0,0,0,0,0,0,0,0,0,0,0,0,0,0,0,0,0,0,0,0,0,0,0,0,0,0,0,0,0,0,0,0,0,0,0,0,0,0,0,0,0,0,0,0,0,0,0,0,0,0,0,0,0,0,0,0,0,0,0,0,0,0,0,0,0],"id":3,"left_children":[1,3,5,7,9,11,13,15,17,19,21,23,25,27,29,-1,31,-1,33,35,37,39,41,43,45,47,49,51,53,55,57,-1,-1,-1,-1,-1,59,-1,61,63,65,67,69,71,73,75,77,79,81,83,85,87,-1,89,91,93,-1,-1,95,-1,-1,-1,-1,-1,-1,-1,-1,-1,-1,-1,-1,-1,-1,-1,-1,-1,-1,-1,-1,-1,-1,-1,-1,-1,-1,-1,-1,-1,-1,-1,-1,-1,-1,-1,-1,-1,-1],"loss_changes":[4.4526244E9,2.7654298E8,1.7797248E8,4.044928E7,3.0994048E7,1.7265666E7,8.385536E6,5.5296E6,2.136576E6,5.815904E6,2.129684E6,3.0662685E6,1.215268E6,5.76584E5,6.68032E5,0E0,8.05376E5,0E0,2.25952E5,1.074608E6,9.13336E5,2.73386E5,2.80844E5,3.674675E5,4.809035E5,3.723505E5,2.12531E5,3.71748E5,3.30104E5,4.07568E5,5.2352E4,0E0,0E0,0E0,0E0,0E0,1.79648E5,0E0,4.00312E5,3.4530388E5,9.8374E4,4.062E4,8.8972E4,1.637025E5,1.34824E5,2.3729719E5,3.0907434E5,1.7255381E5,4.553295E5,5.264375E4,1.93345E5,2.3324E5,0E0,2.46604E5,2.1908696E3,3.04656E5,0E0,0E0,2.76312E5,0E0,0E0,0E0,0E0,0E0,0E0,0E0,0E0,0E0,0E0,0E0,0E0,0E0,0E0,0E0,0E0,0E0,0E0,0E0,0E0,0E0,0E0,0E0,0E0,0E0,0E0,0E0,0E0,0E0,0E0,0E0,0E0,0E0,0E0,0E0,0E0,0E0,0E0],"parents":[2147483647,0,0,1,1,2,2,3,3,4,4,5,5,6,6,7,7,8,8,9,9,10,10,11,11,12,12,13,13,14,14,16,16,18,18,19,19,20,20,21,21,22,22,23,23,24,24,25,25,26,26,27,27,28,28,29,29,30,30,36,36,38,38,39,39,40,40,41,41,42,42,43,43,44,44,45,45,46,46,47,47,48,48,49,49,50,50,51,51,53,53,54,54,55,55,58,58],"right_children":[2,4,6,8,10,12,14,16,18,20,22,24,26,28,30,-1,32,-1,34,36,38,40,42,44,46,48,50,52,54,56,58,-1,-1,-1,-1,-1,60,-1,62,64,66,68,70,72,74,76,78,80,82,84,86,88,-1,90,92,94,-1,-1,96,-1,-1,-1,-1,-1,-1,-1,-1,-1,-1,-1,-1,-1,-1,-1,-1,-1,-1,-1,-1,-1,-1,-1,-1,-1,-1,-1,-1,-1,-1,-1,-1,-1,-1,-1,-1,-1,-1],"split_conditions":[9.057487E0,6.993095E0,1.0674909E1,5.7458243E0,8.212428E0,9.97709E0,1.1284889E1,3.9486837E0,6.424291E0,7.6388702E0,-3.7273333E0,9.543357E0,1.0355918E1,1.0965534E1,1.1991006E1,-4.373523E2,4.9639335E0,-3.2780597E2,9.589753E0,8.942471E0,-3.6077893E0,-3.8290544E0,1.05E1,9.3782835E0,1.08E1,-3.8541305E0,1.001E3,1.027E3,1.2213636E-1,1.071347E-1,2.0817425E1,-3.9932587E2,-3.6576422E2,-2.9528363E2,-2.5059134E2,-2.8546988E2,1.021E3,-1.6234778E2,9.293836E0,9.9E0,8.692749E0,8.809053E0,8.085964E0,9.97E2,-3.9171429E0,1.027E3,-3.4916582E0,2.4518124E2,2.9228802E2,1.23E1,1.61E1,-5.5115384E-1,1.6183667E2,9.92E2,5.1365906E-1,-2.9131818E0,1.3277394E2,1.8004407E2,8.7575056E-2,-2.3695685E2,-1.9764072E2,-2.1420113E2,-1.7569199E2,-1.3908851E1,-8.001745E1,-1.0895474E2,-8.517805E1,-1.2054353E2,-8.0396545E1,-5.9673286E1,-1.4554836E2,-7.416689E1,-4.6315956E1,3.8020866E0,-3.0837683E1,1.5064908E1,5.711365E1,-6.521197E-1,-4.4096523E1,2.5367662E1,-4.4601124E1,6.642287E1,2.4129097E1,7.857553E1,4.9221115E1,1.0355724E2,5.6625492E1,1.15183075E2,3.180929E1,1.1654879E2,1.5286005E2,1.9259766E0,2.1370386E1,6.347183E1,1.6984067E2,1.5926779E2,6.336687E1],"split_indices":[1,1,1,1,1,1,1,1,1,1,0,1,1,1,1,0,1,0,7,7,0,0,5,1,5,0,4,4,0,6,0,0,0,0,0,0,4,0,7,5,1,1,7,4,0,4,0,2,2,5,5,0,0,4,0,0,0,0,6,0,0,0,0,0,0,0,0,0,0,0,0,0,0,0,0,0,0,0,0,0,0,0,0,0,0,0,0,0,0,0,0,0,0,0,0,0,0],"split_type":[0,0,0,0,0,0,0,0,0,0,0,0,0,0,0,0,0,0,0,0,0,0,0,0,0,0,0,0,0,0,0,0,0,0,0,0,0,0,0,0,0,0,0,0,0,0,0,0,0,0,0,0,0,0,0,0,0,0,0,0,0,0,0,0,0,0,0,0,0,0,0,0,0,0,0,0,0,0,0,0,0,0,0,0,0,0,0,0,0,0,0,0,0,0,0,0,0],"sum_hessian":[8.86E3,3.046E3,5.814E3,1.869E3,1.177E3,7.97E2,5.017E3,1.142E3,7.27E2,7.63E2,4.14E2,4.5E2,3.47E2,4.15E2,4.602E3,3.47E2,7.95E2,3.81E2,3.46E2,4.16E2,3.47E2,1.75E2,2.39E2,2.09E2,2.41E2,1.71E2,1.76E2,2.04E2,2.11E2,4.8E2,4.122E3,4.49E2,3.46E2,2.84E2,6.2E1,6.2E1,3.54E2,1.36E2,2.11E2,3.3E1,1.42E2,1.12E2,1.27E2,1.4E2,6.9E1,1.14E2,1.27E2,1.8E1,1.53E2,6.4E1,1.12E2,1.82E2,2.2E1,2.09E2,2E0,4.26E2,5.4E1,4.088E3,3.4E1,3.02E2,5.2E1,1.27E2,8.4E1,1.1E1,2.2E1,4.4E1,9.8E1,1.01E2,1.1E1,3E0,1.24E2,2.7E1,1.13E2,1.2E1,5.7E1,1.01E2,1.3E1,1.11E2,1.6E1,1.5E1,3E0,1.23E2,3E1,5E1,1.4E1,9.9E1,1.3E1,1.78E2,4E0,4E1,1.69E2,1E0,1E0,4E0,4.22E2,2.9E1,5E0],"tree_param":{"num_deleted":"0","num_feature":"9","num_nodes":"97","size_leaf_vector":"1"}},{"base_weights":[-8.5684216E-1,-6.994737E2,3.5272607E2,-8.790794E2,-4.7166888E2,-2.777093E0,4.0252875E2,-9.697685E2,-7.8744385E2,-5.8287396E2,-3.4721176E2,-9.469768E1,9.791851E1,2.7303546E2,4.1496063E2,-3.1148145E2,-2.801124E2,-8.337962E2,-2.1623174E2,-5.0218488E2,-6.304612E2,-4.0929196E2,-2.6818994E2,-1.4536441E2,-5.1441807E1,5.3124245E1,1.424057E2,3.216859E2,2.3881638E2,4.191021E2,3.7180273E2,-2.5038014E2,-6.667975E1,-1.7171298E2,-4.670288E2,-2.2221924E2,-5.996894E2,-3.6694144E2,-4.576294E2,-2.2560117E2,-3.0540454E2,-1.2103609E2,-2.0327792E2,-4.570451E1,-3.2974915E2,8.958027E1,1.5638562E1,1.0470631E2,1.9027014E2,3.359646E2,1.7054695E2,1.9654964E2,2.656155E2,1.9917436E2,1.2585547E2,3.8533456E2,2.8046838E2,-1.4493155E2,-1.1327363E2,-1.8827808E2,-1.68149E2,-1.1780184E2,-9.69533E1,-1.4893394E2,-1.2276468E2,-7.947967E1,-5.2450348E1,-8.317502E1,-1.0911925E2,-2.3806938E1,-4.4606655E1,-9.120096E1,-5.212584E1,-2.6776655E0,-2.1477339E1,-2.7986794E1,-1.132418E2,-4.0343037E0,3.1807438E1,-1.0298138E1,1.3173338E1,3.481643E1,-3.955664E1,5.2999514E-1,6.478452E1,7.423134E1,1.07220215E2,5.5941105E1,8.631983E0,3.497792E1,6.2131626E1,8.541333E1,4.7665646E1,9.123509E1,-1.028064E1,8.624467E1,1.18658226E2,8.637176E1,1.4443946E1],"categories":[],"categories_nodes":[],"categories_segments":[],"categories_sizes":[],"default_left":[0,0,0,0,0,0,0,0,0,0,0,0,0,0,0,0,0,0,0,0,0,0,0,0,0,0,0,0,0,0,0,0,0,0,0,0,0,0,0,0,0,0,0,0,0,0,0,0,0,0,0,0,0,0,0,0,0,0,0,0,0,0,0,0,0,0,0,0,0,0,0,0,0,0,0,0,0,0,0,0,0,0,0,0,0,0,0,0,0,0,0,0,0,0,0,0,0,0,0],"id":4,"left_children":[1,3,5,7,9,11,13,15,17,19,21,23,25,27,29,-1,-1,31,-1,33,35,37,39,41,43,45,47,49,51,53,55,-1,-1,-1,57,-1,59,61,63,65,67,69,71,73,75,77,79,81,83,85,87,89,91,93,-1,95,97,-1,-1,-1,-1,-1,-1,-1,-1,-1,-1,-1,-1,-1,-1,-1,-1,-1,-1,-1,-1,-1,-1,-1,-1,-1,-1,-1,-1,-1,-1,-1,-1,-1,-1,-1,-1,-1,-1,-1,-1,-1,-1],"loss_changes":[2.189082E9,1.2143014E8,1.0417734E8,1.3064832E7,1.7997568E7,6.710616E6,8.195072E6,1.08576E6,1.973312E6,2.344368E6,2.94648E6,8.23151E5,6.819335E5,6.80648E5,6.85504E5,0E0,0E0,5.3056E4,0E0,3.79212E5,1.021648E6,5.42428E5,3.70124E5,2.205515E5,3.1385575E5,2.3638384E5,2.9224875E5,3.41944E5,2.54759E5,3.088E5,4.12256E5,0E0,0E0,0E0,7.6436E4,0E0,2.3352E4,8.7058E4,9.3772E4,2.192425E5,1.37267E5,1.3227025E5,9.5874875E4,1.9263375E5,9.924625E3,1.5051938E5,1.2440859E5,2.8107888E5,3.6265175E5,2.30372E5,3.5269906E4,6.78495E4,2.86969E5,2.5540303E5,0E0,2.4934E5,8.63555E4,0E0,0E0,0E0,0E0,0E0,0E0,0E0,0E0,0E0,0E0,0E0,0E0,0E0,0E0,0E0,0E0,0E0,0E0,0E0,0E0,0E0,0E0,0E0,0E0,0E0,0E0,0E0,0E0,0E0,0E0,0E0,0E0,0E0,0E0,0E0,0E0,0E0,0E0,0E0,0E0,0E0,0E0],"parents":[2147483647,0,0,1,1,2,2,3,3,4,4,5,5,6,6,7,7,8,8,9,9,10,10,11,11,12,12,13,13,14,14,17,17,19,19,20,20,21,21,22,22,23,23,24,24,25,25,26,26,27,27,28,28,29,29,30,30,34,34,36,36,37,37,38,38,39,39,40,40,41,41,42,42,43,43,44,44,45,45,46,46,47,47,48,48,49,49,50,50,51,51,52,52,53,53,55,55,56,56],"right_children":[2,4,6,8,10,12,14,16,18,20,22,24,26,28,30,-1,-1,32,-1,34,36,38,40,42,44,46,48,50,52,54,56,-1,-1,-1,58,-1,60,62,64,66,68,70,72,74,76,78,80,82,84,86,88,90,92,94,-1,96,98,-1,-1,-1,-1,-1,-1,-1,-1,-1,-1,-1,-1,-1,-1,-1,-1,-1,-1,-1,-1,-1,-1,-1,-1,-1,-1,-1,-1,-1,-1,-1,-1,-1,-1,-1,-1,-1,-1,-1,-1,-1,-1],"split_conditions":[8.890864E0,6.661208E0,1.0405768E1,5.0487804E0,7.7549233E0,9.73951E0,1.1115377E1,3.778388E0,6.079306E0,-3.543023E0,8.3433695E0,9.275891E0,1.0050116E1,7.0972757E0,6.6419353E0,-3.1148145E2,-2.801124E2,1.2029863E1,-2.1623174E2,7.2658496E0,8.883602E0,-3.6009243E0,1.05E1,-3.7789936E0,2.842171E-14,1.08E1,1.008E3,-1.4155076E0,1.002E3,-1.5618142E0,2.911087E2,-2.5038014E2,-6.667975E1,-1.7171298E2,9.613359E0,-2.2221924E2,7.165065E0,1.017E3,9.188983E0,1.015E3,-3.6847825E0,1.07E1,7.977271E0,1.08E1,-3.7070174E0,8E1,1.4E1,1.38781E-1,-3.8541305E0,9.96E2,2.842171E-14,1.570629E2,2.952337E2,8.434477E-2,1.2585547E2,9.82E2,9E1,-1.4493155E2,-1.1327363E2,-1.8827808E2,-1.68149E2,-1.1780184E2,-9.69533E1,-1.4893394E2,-1.2276468E2,-7.947967E1,-5.2450348E1,-8.317502E1,-1.0911925E2,-2.3806938E1,-4.4606655E1,-9.120096E1,-5.212584E1,-2.6776655E0,-2.1477339E1,-2.7986794E1,-1.132418E2,-4.0343037E0,3.1807438E1,-1.0298138E1,1.3173338E1,3.481643E1,-3.955664E1,5.2999514E-1,6.478452E1,7.423134E1,1.07220215E2,5.5941105E1,8.631983E0,3.497792E1,6.2131626E1,8.541333E1,4.7665646E1,9.123509E1,-1.028064E1,8.624467E1,1.18658226E2,8.637176E1,1.4443946E1],"split_indices":[1,1,1,1,1,1,1,1,1,0,1,1,1,7,7,0,0,7,0,1,7,0,5,0,8,5,4,0,4,0,2,0,0,0,7,0,1,4,7,4,0,5,7,5,0,3,5,6,0,4,8,2,2,6,0,4,3,0,0,0,0,0,0,0,0,0,0,0,0,0,0,0,0,0,0,0,0,0,0,0,0,0,0,0,0,0,0,0,0,0,0,0,0,0,0,0,0,0,0],"split_type":[0,0,0,0,0,0,0,0,0,0,0,0,0,0,0,0,0,0,0,0,0,0,0,0,0,0,0,0,0,0,0,0,0,0,0,0,0,0,0,0,0,0,0,0,0,0,0,0,0,0,0,0,0,0,0,0,0,0,0,0,0,0,0,0,0,0,0,0,0,0,0,0,0,0,0,0,0,0,0,0,0,0,0,0,0,0,0,0,0,0,0,0,0,0,0,0,0,0,0],"sum_hessian":[8.86E3,2.977E3,5.883E3,1.663E3,1.314E3,7.23E2,5.16E3,8.31E2,8.32E2,6.92E2,6.22E2,3.78E2,3.45E2,4.54E2,4.706E3,2.77E2,5.54E2,4.84E2,3.48E2,2.61E2,4.31E2,3.46E2,2.76E2,1.73E2,2.05E2,1.73E2,1.72E2,1.84E2,2.7E2,4.286E3,4.2E2,4.83E2,1E0,8.2E1,1.79E2,8.9E1,3.42E2,1.89E2,1.57E2,1.32E2,1.44E2,1.24E2,4.9E1,2.02E2,3E0,8.7E1,8.6E1,9.8E1,7.4E1,1.67E2,1.7E1,1.08E2,1.62E2,9E0,4.277E3,3.63E2,5.7E1,1.48E2,3.1E1,1.91E2,1.51E2,1.14E2,7.5E1,8.2E1,7.5E1,7.2E1,6E1,1.01E2,4.3E1,5.1E1,7.3E1,9E0,4E1,8.4E1,1.18E2,1E0,2E0,1.2E1,7.5E1,3.1E1,5.5E1,9.4E1,4E0,9E0,6.5E1,3.5E1,1.32E2,1.5E1,2E0,1.4E1,9.4E1,1.36E2,2.6E1,6E0,3E0,3.7E1,3.26E2,5.5E1,2E0],"tree_param":{"num_deleted":"0","num_feature":"9","num_nodes":"99","size_leaf_vector":"1"}},{"base_weights":[-8.527282E-1,-4.781017E2,2.5362517E2,-5.937593E2,-2.813793E2,4.729858E1,2.8642438E2,-6.5636115E2,-4.9632965E2,-3.5074142E2,-1.8655244E2,-2.8328272E1,1.17134315E2,2.3259769E2,2.926786E2,-7.061586E2,-1.8614735E2,-5.248689E2,-4.606028E2,-3.0381656E2,-3.9604446E2,-2.3879245E2,-1.4646323E2,-5.922363E1,8.944478E0,1.0789443E2,2.6240195E2,2.4836409E2,1.6574313E2,2.9549554E2,2.735698E2,-2.2551007E2,-2.0350537E2,-1.6805142E2,-1.4758539E2,-4.8664685E2,-4.12818E2,-3.9306454E2,-2.928402E2,-4.5549124E2,-3.695686E2,-2.9525858E2,-2.1296825E2,-1.05289696E2,-1.6323729E2,-5.545827E1,-2.9929224E2,1.6557829E1,-1.7505374E2,7.607852E1,1.3997554E2,1.015734E2,8.1721725E1,2.9269864E2,2.2072183E2,6.688081E1,1.7449716E2,1.6137817E1,2.95544E2,2.7572348E2,8.323224E1,-1.3718483E2,-1.5958528E2,-3.328766E1,-1.2429282E2,-1.343115E2,-9.210826E1,-9.365418E1,-7.7038765E1,-1.3734245E2,-3.4612793E1,-1.1178402E2,-3.0174372E1,-2.6648548E1,-9.122987E1,-8.1857635E1,-5.838324E1,-4.669282E1,-1.6449017E1,-4.3157703E1,-6.2984463E1,-8.541504E-1,-2.0770586E1,-2.3733215E1,-1.10948296E2,2.2768123E0,3.6871685E1,-6.3230312E1,5.884497E0,3.589733E1,1.7671606E1,1.0366077E1,4.3847206E1,3.8136185E1,7.571851E0,9.1562515E1,5.878742E1,4.503171E1,7.013473E1,2.4593523E1,-1.0349634E1,-1.4525391E0,5.3534542E1,2.493003E1,8.867322E1,1.2443174E1,8.318346E1,4.1704933E1,-1.6824074E1],"categories":[],"categories_nodes":[],"categories_segments":[],"categories_sizes":[],"default_left":[0,0,0,0,0,0,0,0,0,0,0,0,0,0,0,0,0,0,0,0,0,0,0,0,0,0,0,0,0,0,0,0,0,0,0,0,0,0,0,0,0,0,0,0,0,0,0,0,0,0,0,0,0,0,0,0,0,0,0,0,0,0,0,0,0,0,0,0,0,0,0,0,0,0,0,0,0,0,0,0,0,0,0,0,0,0,0,0,0,0,0,0,0,0,0,0,0,0,0,0,0,0,0,0,0,0,0,0,0],"id":5,"left_children":[1,3,5,7,9,11,13,15,17,19,21,23,25,27,29,31,-1,33,35,37,39,41,43,45,47,49,51,53,55,57,59,-1,-1,-1,-1,61,63,65,67,69,71,73,75,77,79,81,83,85,87,89,91,93,-1,95,97,99,101,-1,103,105,107,-1,-1,-1,-1,-1,-1,-1,-1,-1,-1,-1,-1,-1,-1,-1,-1,-1,-1,-1,-1,-1,-1,-1,-1,-1,-1,-1,-1,-1,-1,-1,-1,-1,-1,-1,-1,-1,-1,-1,-1,-1,-1,-1,-1,-1,-1,-1,-1],"loss_changes":[1.0762838E9,6.99559E7,3.910173E7,1.1506816E7,7.452528E6,4.196795E6,1.61072E6,1.666048E6,5.36208E5,1.2806E6,9.8074E5,4.4042372E5,5.260405E5,5.1116E5,1.59488E5,1.05536E5,0E0,2.09008E5,2.30944E5,2.0621E5,3.542E5,2.41882E5,1.741225E5,1.7232625E5,2.4664523E5,3.8742E5,1.0944375E4,4.5256E5,7.747025E4,2.9504E4,2.1768E5,0E0,0E0,0E0,0E0,4.8088E4,1.2104E4,1.76785E4,1.26176E5,2.4406E4,1.54986E5,8.79655E4,1.08516E5,2.0235212E5,1.463065E5,1.4984144E5,1.7334438E4,1.5930147E5,5.2800953E4,1.4113338E5,1.2072725E5,2.6418945E3,0E0,1.32613E5,2.08393E5,1.8134035E4,6.74745E4,0E0,2.944E3,1.99724E5,6.996755E4,0E0,0E0,0E0,0E0,0E0,0E0,0E0,0E0,0E0,0E0,0E0,0E0,0E0,0E0,0E0,0E0,0E0,0E0,0E0,0E0,0E0,0E0,0E0,0E0,0E0,0E0,0E0,0E0,0E0,0E0,0E0,0E0,0E0,0E0,0E0,0E0,0E0,0E0,0E0,0E0,0E0,0E0,0E0,0E0,0E0,0E0,0E0,0E0],"parents":[2147483647,0,0,1,1,2,2,3,3,4,4,5,5,6,6,7,7,8,8,9,9,10,10,11,11,12,12,13,13,14,14,15,15,17,17,18,18,19,19,20,20,21,21,22,22,23,23,24,24,25,25,26,26,27,27,28,28,29,29,30,30,35,35,36,36,37,37,38,38,39,39,40,40,41,41,42,42,43,43,44,44,45,45,46,46,47,47,48,48,49,49,50,50,51,51,53,53,54,54,55,55,56,56,58,58,59,59,60,60],"right_children":[2,4,6,8,10,12,14,16,18,20,22,24,26,28,30,32,-1,34,36,38,40,42,44,46,48,50,52,54,56,58,60,-1,-1,-1,-1,62,64,66,68,70,72,74,76,78,80,82,84,86,88,90,92,94,-1,96,98,100,102,-1,104,106,108,-1,-1,-1,-1,-1,-1,-1,-1,-1,-1,-1,-1,-1,-1,-1,-1,-1,-1,-1,-1,-1,-1,-1,-1,-1,-1,-1,-1,-1,-1,-1,-1,-1,-1,-1,-1,-1,-1,-1,-1,-1,-1,-1,-1,-1,-1,-1,-1],"split_conditions":[9.136734E0,7.1167946E0,1.0706252E1,5.808984E0,8.14348E0,9.932273E0,1.151E1,4.294144E0,6.5460935E0,-3.5604615E0,8.53261E0,9.582852E0,1.025E3,8.834225E-2,8.5250475E-2,3.4616606E0,-1.8614735E2,9.233072E0,9.343171E0,7.3127093E0,9.060043E0,1.479375E2,-3.8052866E0,9.5E1,-2.7123728E0,1.0355918E1,-3.6978164E0,9.4E0,-3.1629267E0,-2.9131818E0,2.0817425E1,-2.2551007E2,-2.0350537E2,-1.6805142E2,-1.4758539E2,-3.4794593E0,9.76E2,1.007E3,9.420297E0,1.021E3,-3.4086292E0,8.281453E0,9.88E2,1.006E3,1.41E1,8E0,-3.9035943E0,1.021E3,9.791676E0,2E2,-3.6632543E0,-3.742388E0,8.1721725E1,2.8668594E2,-2.9790373E0,9.3E1,6.671726E0,1.6137817E1,9.59E2,-1.5618142E0,2.7054544E2,-1.3718483E2,-1.5958528E2,-3.328766E1,-1.2429282E2,-1.343115E2,-9.210826E1,-9.365418E1,-7.7038765E1,-1.3734245E2,-3.4612793E1,-1.1178402E2,-3.0174372E1,-2.6648548E1,-9.122987E1,-8.1857635E1,-5.838324E1,-4.669282E1,-1.6449017E1,-4.3157703E1,-6.2984463E1,-8.541504E-1,-2.0770586E1,-2.3733215E1,-1.10948296E2,2.2768123E0,3.6871685E1,-6.3230312E1,5.884497E0,3.589733E1,1.7671606E1,1.0366077E1,4.3847206E1,3.8136185E1,7.571851E0,9.1562515E1,5.878742E1,4.503171E1,7.013473E1,2.4593523E1,-1.0349634E1,-1.4525391E0,5.3534542E1,2.493003E1,8.867322E1,1.2443174E1,8.318346E1,4.1704933E1,-1.6824074E1],"split_indices":[1,1,1,1,1,1,1,1,1,0,1,1,4,6,6,1,0,7,7,1,7,2,0,3,0,1,0,5,0,0,0,0,0,0,0,0,4,4,7,4,0,7,4,4,5,5,0,4,1,2,0,0,0,2,0,3,7,0,4,0,2,0,0,0,0,0,0,0,0,0,0,0,0,0,0,0,0,0,0,0,0,0,0,0,0,0,0,0,0,0,0,0,0,0,0,0,0,0,0,0,0,0,0,0,0,0,0,0,0],"split_type":[0,0,0,0,0,0,0,0,0,0,0,0,0,0,0,0,0,0,0,0,0,0,0,0,0,0,0,0,0,0,0,0,0,0,0,0,0,0,0,0,0,0,0,0,0,0,0,0,0,0,0,0,0,0,0,0,0,0,0,0,0,0,0,0,0,0,0,0,0,0,0,0,0,0,0,0,0,0,0,0,0,0,0,0,0,0,0,0,0,0,0,0,0,0,0,0,0,0,0,0,0,0,0,0,0,0,0,0,0],"sum_hessian":[8.86E3,3.081E3,5.779E3,1.939E3,1.142E3,7.93E2,4.986E3,1.177E3,7.62E2,6.58E2,4.84E2,3.81E2,4.12E2,5.23E2,4.463E3,4.85E2,6.92E2,4.16E2,3.46E2,3.27E2,3.31E2,2.08E2,2.76E2,2.08E2,1.73E2,3.89E2,2.3E1,4.21E2,1.02E2,3.877E3,5.86E2,1.74E2,3.11E2,1.93E2,2.23E2,2.18E2,1.28E2,3.2E1,2.95E2,9.7E1,2.34E2,6.2E1,1.46E2,8.2E1,1.94E2,2.06E2,2E0,1.67E2,6E0,1.97E2,1.92E2,2E0,2.1E1,1.58E2,2.63E2,9E0,9.3E1,1E0,3.876E3,5.79E2,7E0,1.39E2,7.9E1,1E0,1.27E2,1.7E1,1.5E1,1.87E2,1.08E2,9.6E1,1E0,2.31E2,3E0,3E0,5.9E1,3.1E1,1.15E2,4E1,4.2E1,1.4E2,5.4E1,4.3E1,1.63E2,1E0,1E0,1.55E2,1.2E1,5E0,1E0,5.4E1,1.43E2,1.1E1,1.81E2,1E0,1E0,1.38E2,2E1,4.3E1,2.2E2,8E0,1E0,2E0,9.1E1,1E0,3.875E3,4E0,5.75E2,5E0,2E0],"tree_param":{"num_deleted":"0","num_feature":"9","num_nodes":"109","size_leaf_vector":"1"}},{"base_weights":[-8.092227E-1,-3.443918E2,1.7308435E2,-4.301E2,-2.3082562E2,7.792036E0,1.9894223E2,-4.7382166E2,-3.7588757E2,-2.786059E2,-1.6018146E2,-4.26867E1,6.3019962E1,1.47063E2,2.0437659E2,-1.608386E2,-4.6226788E2,-3.915491E2,-3.4061673E2,-2.5011206E2,-3.2779865E2,-1.22611725E2,-1.8584836E2,-6.977523E1,-1.513247E1,5.586145E1,1.6717528E2,1.5611917E2,7.172255E1,2.0779323E2,1.9067772E2,-1.4426906E2,-4.4672375E2,-3.9230225E2,-3.9222366E1,-1.3183968E2,-3.2668372E2,-2.1687831E2,-2.705736E2,-3.212761E2,-1.8551079E2,-9.920497E1,-1.5199896E2,-1.9328192E2,-9.807488E1,-6.710092E1,-9.430606E1,-4.259776E0,-1.11748375E2,2.8640448E1,7.898489E1,1.7596902E2,-5.2621584E0,6.465256E1,1.6629881E2,-1.9954004E1,7.945575E1,1.549424E2,6.247773E1,1.9710895E2,1.4469719E2,-1.3822362E2,-1.2455654E2,-1.1836046E2,-8.507624E1,-9.95017E1,-5.722528E1,-5.4055725E1,-7.0846115E1,-8.606652E1,-7.445292E1,-1.0545083E2,-8.777265E1,-7.7183256E0,-3.4268307E1,-4.953426E1,-3.222387E1,-4.9922787E1,-6.77108E1,-3.6536934E1,3.819214E-1,-4.1620552E1,-1.8010717E1,1.2771972E1,-6.743867E0,2.633152E1,-4.1211018E1,-3.4575367E1,1.0147495E1,2.616929E1,-7.405176E0,6.0460804E1,3.0851679E1,-1.3440361E0,2.2620972E1,3.866402E1,5.773056E1,-2.9448E1,1.9470997E1,2.0794365E1,3.955491E1,6.901491E1,2.5006226E1,4.847307E1,6.1032684E1,4.990833E1,3.2529392E1],"categories":[],"categories_nodes":[],"categories_segments":[],"categories_sizes":[],"default_left":[0,0,0,0,0,0,0,0,0,0,0,0,0,0,0,0,0,0,0,0,0,0,0,0,0,0,0,0,0,0,0,0,0,0,0,0,0,0,0,0,0,0,0,0,0,0,0,0,0,0,0,0,0,0,0,0,0,0,0,0,0,0,0,0,0,0,0,0,0,0,0,0,0,0,0,0,0,0,0,0,0,0,0,0,0,0,0,0,0,0,0,0,0,0,0,0,0,0,0,0,0,0,0,0,0,0,0],"id":6,"left_children":[1,3,5,7,9,11,13,15,17,19,21,23,25,27,29,-1,31,33,35,37,39,41,43,45,47,49,51,53,55,57,59,-1,61,63,-1,-1,65,67,69,71,-1,73,75,77,79,81,-1,83,85,87,89,91,-1,93,95,97,99,101,-1,103,105,-1,-1,-1,-1,-1,-1,-1,-1,-1,-1,-1,-1,-1,-1,-1,-1,-1,-1,-1,-1,-1,-1,-1,-1,-1,-1,-1,-1,-1,-1,-1,-1,-1,-1,-1,-1,-1,-1,-1,-1,-1,-1,-1,-1,-1,-1],"loss_changes":[5.294761E8,2.8887232E7,2.5147296E7,3.841856E6,4.286E6,2.2245952E6,1.4044E6,4.25248E5,2.8756E5,9.88904E5,4.78649E5,3.101945E5,2.7473375E5,3.20399E5,1.75824E5,0E0,1.5664E4,5.104E4,1.89732E5,2.73166E5,3.26318E5,1.32123E5,1.81351E5,1.1626325E5,2.1802278E5,2.230785E5,4.2070875E4,3.92413E5,3.9868938E4,5.816E4,2.46784E5,0E0,6.8E3,1.4088E4,0E0,0E0,8.3208E4,9.2536E4,3.769E4,1.33992E5,0E0,1.3172812E5,3.664675E4,2.08129E5,6.1411734E4,9.744794E4,0E0,1.6137502E5,1.1941006E5,1.2773617E5,1.6714138E5,2.2277688E4,0E0,3.3782844E4,3.55637E5,3.9552664E4,1.7427812E4,1.7438938E5,0E0,1.50308E5,7.466925E4,0E0,0E0,0E0,0E0,0E0,0E0,0E0,0E0,0E0,0E0,0E0,0E0,0E0,0E0,0E0,0E0,0E0,0E0,0E0,0E0,0E0,0E0,0E0,0E0,0E0,0E0,0E0,0E0,0E0,0E0,0E0,0E0,0E0,0E0,0E0,0E0,0E0,0E0,0E0,0E0,0E0,0E0,0E0,0E0,0E0,0E0],"parents":[2147483647,0,0,1,1,2,2,3,3,4,4,5,5,6,6,7,7,8,8,9,9,10,10,11,11,12,12,13,13,14,14,16,16,17,17,18,18,19,19,20,20,21,21,22,22,23,23,24,24,25,25,26,26,27,27,28,28,29,29,30,30,32,32,33,33,36,36,37,37,38,38,39,39,41,41,42,42,43,43,44,44,45,45,47,47,48,48,49,49,50,50,51,51,53,53,54,54,55,55,56,56,57,57,59,59,60,60],"right_children":[2,4,6,8,10,12,14,16,18,20,22,24,26,28,30,-1,32,34,36,38,40,42,44,46,48,50,52,54,56,58,60,-1,62,64,-1,-1,66,68,70,72,-1,74,76,78,80,82,-1,84,86,88,90,92,-1,94,96,98,100,102,-1,104,106,-1,-1,-1,-1,-1,-1,-1,-1,-1,-1,-1,-1,-1,-1,-1,-1,-1,-1,-1,-1,-1,-1,-1,-1,-1,-1,-1,-1,-1,-1,-1,-1,-1,-1,-1,-1,-1,-1,-1,-1,-1,-1,-1,-1,-1,-1],"split_conditions":[8.890864E0,6.7190557E0,1.0536296E1,5.250111E0,7.9139476E0,9.791676E0,1.1284889E1,3.3640847E0,6.3119435E0,-3.5155554E0,-3.6847825E0,9.3782835E0,1.021E3,2.9228802E2,6.1961904E0,-1.608386E2,1.1E1,1.1347869E1,8.814089E0,9.165549E-2,-3.3598528E0,9.0647966E-2,-3.5206323E0,9.5E1,-3.3807433E0,1.0144414E1,1.38781E-1,-3.2868438E0,-5.5067062E-14,3.480871E0,1.04215674E-1,-1.4426906E2,4.603074E0,1.021E3,-3.9222366E1,-1.3183968E2,1.022E3,2.2994318E2,7.460124E0,9.145285E0,-1.8551079E2,7E0,2.683125E2,-3.621951E0,3.1336954E2,8.046989E0,-9.430606E1,8.725644E-2,6.0512825E1,7.8E1,-2.2384503E0,2.5514774E2,-5.2621584E0,7.138371E0,1.002E3,3.0705554E2,3.317714E2,2.6502682E2,6.247773E1,9.88E2,1.23E1,-1.3822362E2,-1.2455654E2,-1.1836046E2,-8.507624E1,-9.95017E1,-5.722528E1,-5.4055725E1,-7.0846115E1,-8.606652E1,-7.445292E1,-1.0545083E2,-8.777265E1,-7.7183256E0,-3.4268307E1,-4.953426E1,-3.222387E1,-4.9922787E1,-6.77108E1,-3.6536934E1,3.819214E-1,-4.1620552E1,-1.8010717E1,1.2771972E1,-6.743867E0,2.633152E1,-4.1211018E1,-3.4575367E1,1.0147495E1,2.616929E1,-7.405176E0,6.0460804E1,3.0851679E1,-1.3440361E0,2.2620972E1,3.866402E1,5.773056E1,-2.9448E1,1.9470997E1,2.0794365E1,3.955491E1,6.901491E1,2.5006226E1,4.847307E1,6.1032684E1,4.990833E1,3.2529392E1],"split_indices":[1,1,1,1,1,1,1,1,1,0,0,1,4,2,7,0,5,7,7,6,0,6,0,3,0,1,6,0,8,7,6,0,1,4,0,0,4,2,1,7,0,5,2,0,2,7,0,6,2,3,0,2,0,7,4,2,2,2,0,4,5,0,0,0,0,0,0,0,0,0,0,0,0,0,0,0,0,0,0,0,0,0,0,0,0,0,0,0,0,0,0,0,0,0,0,0,0,0,0,0,0,0,0,0,0,0,0],"split_type":[0,0,0,0,0,0,0,0,0,0,0,0,0,0,0,0,0,0,0,0,0,0,0,0,0,0,0,0,0,0,0,0,0,0,0,0,0,0,0,0,0,0,0,0,0,0,0,0,0,0,0,0,0,0,0,0,0,0,0,0,0,0,0,0,0,0,0,0,0,0,0,0,0,0,0,0,0,0,0,0,0,0,0,0,0,0,0,0,0,0,0,0,0,0,0,0,0,0,0,0,0,0,0,0,0,0,0],"sum_hessian":[8.86E3,2.977E3,5.883E3,1.695E3,1.282E3,7.96E2,5.087E3,9.34E2,7.61E2,7.63E2,5.19E2,4.16E2,3.8E2,4.85E2,4.602E3,1.39E2,7.95E2,5.2E2,2.41E2,4.87E2,2.76E2,2.13E2,3.06E2,2.09E2,2.07E2,3.57E2,2.3E1,4.32E2,5.3E1,3.672E3,9.3E2,3.48E2,4.47E2,5.18E2,2E0,2.6E1,2.15E2,1.9E2,2.97E2,2.72E2,4E0,1.21E2,9.2E1,2.81E2,2.5E1,2.08E2,1E0,1.87E2,2E1,1.65E2,1.92E2,2.2E1,1E0,4.4E1,3.88E2,4E0,4.9E1,3.5E1,3.637E3,8.13E2,1.17E2,3E2,1.47E2,5.05E2,1.3E1,2.06E2,9E0,6.9E1,1.21E2,1.65E2,1.32E2,1.27E2,1.45E2,2.1E1,1E2,6.9E1,2.3E1,1.57E2,1.24E2,2E1,5E0,1.7E1,1.91E2,5.2E1,1.35E2,2E0,1.8E1,5E0,1.6E2,1.78E2,1.4E1,1.5E1,7E0,6E0,3.8E1,1.62E2,2.26E2,2E0,2E0,4.3E1,6E0,1.6E1,1.9E1,1.27E2,6.86E2,7.1E1,4.6E1],"tree_param":{"num_deleted":"0","num_feature":"9","num_nodes":"107","size_leaf_vector":"1"}},{"base_weights":[-7.477087E-1,-2.439828E2,1.20253456E2,-3.0615295E2,-1.7044974E2,-3.6331208E0,1.3842548E2,-3.39557E2,-2.7515118E2,-2.1850853E2,-1.3312723E2,-3.552211E1,3.4441406E1,8.4480644E1,1.4229634E2,-1.1069675E2,-3.2786176E2,-2.9241638E2,-2.5404713E2,-3.1371143E2,-2.0691556E2,-1.0501067E2,-1.5851424E2,-7.813562E1,-2.583528E1,5.7299786E1,4.191123E0,7.752842E1,1.530718E2,1.2981622E2,1.4522343E2,-1.06544754E2,-9.557801E1,-2.2704493E1,-2.9272983E2,-2.7463235E2,-2.2916762E2,-2.828844E2,-1.4593E2,-6.914152E1,-1.9125151E2,-8.087846E1,-1.2451536E2,-1.7116046E2,-1.2194344E2,-5.7646484E1,-2.4508746E2,2.3701385E1,-3.5337677E1,7.771135E1,8.240342E0,-5.3260426E1,7.846437E0,8.60215E1,3.5352016E1,7.8136475E1,1.8017549E2,1.3434256E2,7.970106E1,1.4550047E2,1.1054568E2,-8.810613E1,-5.1883465E1,-1.01471344E2,-8.0226E1,-6.903603E1,-8.943824E0,-5.5950074E0,-8.6229675E1,-6.032919E1,-4.4959713E1,-1.4383864E1,-3.0321535E1,-3.8353146E1,-1.4547086E1,-5.3262856E1,-2.2453403E1,-3.757359E1,-1.9304811E0,-5.569745E0,-2.3034964E1,-8.537747E1,-2.5315039E1,2.5890059E1,1.8270947E0,-5.2225227E0,-1.846036E1,1.7794844E1,4.0500458E1,-7.1477246E0,1.89758E1,-1.0264964E1,5.6491165E0,7.3272376E0,2.7880762E1,1.7611353E1,1.494252E0,3.3487137E1,6.6973243E0,5.5321053E1,1.3708081E1,3.384091E1,4.430891E1,1.9962152E1,4.9156437E1,4.3668606E1,2.4520632E1,4.089924E1,-3.6211987E0],"categories":[],"categories_nodes":[],"categories_segments":[],"categories_sizes":[],"default_left":[0,0,0,0,0,0,0,0,0,0,0,0,0,0,0,0,0,0,0,0,0,0,0,0,0,0,0,0,0,0,0,0,0,0,0,0,0,0,0,0,0,0,0,0,0,0,0,0,0,0,0,0,0,0,0,0,0,0,0,0,0,0,0,0,0,0,0,0,0,0,0,0,0,0,0,0,0,0,0,0,0,0,0,0,0,0,0,0,0,0,0,0,0,0,0,0,0,0,0,0,0,0,0,0,0,0,0,0,0],"id":7,"left_children":[1,3,5,7,9,11,13,15,17,19,21,23,25,27,29,-1,31,33,35,37,39,41,43,45,47,49,51,53,55,57,59,-1,-1,-1,61,63,65,67,-1,-1,69,71,73,75,77,79,81,83,85,87,89,-1,91,93,95,97,99,101,103,105,107,-1,-1,-1,-1,-1,-1,-1,-1,-1,-1,-1,-1,-1,-1,-1,-1,-1,-1,-1,-1,-1,-1,-1,-1,-1,-1,-1,-1,-1,-1,-1,-1,-1,-1,-1,-1,-1,-1,-1,-1,-1,-1,-1,-1,-1,-1,-1,-1],"loss_changes":[2.6082389E8,1.3406496E7,1.3323512E7,1.557296E6,2.39416E6,9.215554E5,1.065672E6,1.41656E5,2.28868E5,5.85158E5,5.27981E5,1.684636E5,2.3900931E5,1.5408025E5,1.57008E5,0E0,2.7216E4,8.484E3,1.32706E5,1.925145E5,1.50748E5,1.617315E5,1.63657E5,2.4584469E5,1.5993997E5,1.966315E5,1.0103278E5,1.10869E5,4.8883438E4,1.98891E5,2.1288E4,0E0,0E0,0E0,8.08E2,3.132E3,2.7128E4,6.0733E4,0E0,0E0,1.01476E5,1.05546E5,4.441025E4,1.67441E5,3.96215E4,5.0177938E4,2.6772938E4,6.0108164E4,1.3232088E5,1.3847944E5,1.0558482E5,0E0,6.902293E4,1.10169625E5,3.8715953E4,1.6198023E4,4.0829375E3,2.26679E5,7.659022E4,3.24E3,1.1230431E5,0E0,0E0,0E0,0E0,0E0,0E0,0E0,0E0,0E0,0E0,0E0,0E0,0E0,0E0,0E0,0E0,0E0,0E0,0E0,0E0,0E0,0E0,0E0,0E0,0E0,0E0,0E0,0E0,0E0,0E0,0E0,0E0,0E0,0E0,0E0,0E0,0E0,0E0,0E0,0E0,0E0,0E0,0E0,0E0,0E0,0E0,0E0,0E0],"parents":[2147483647,0,0,1,1,2,2,3,3,4,4,5,5,6,6,7,7,8,8,9,9,10,10,11,11,12,12,13,13,14,14,16,16,17,17,18,18,19,19,20,20,21,21,22,22,23,23,24,24,25,25,26,26,27,27,28,28,29,29,30,30,34,34,35,35,36,36,37,37,40,40,41,41,42,42,43,43,44,44,45,45,46,46,47,47,48,48,49,49,50,50,52,52,53,53,54,54,55,55,56,56,57,57,58,58,59,59,60,60],"right_children":[2,4,6,8,10,12,14,16,18,20,22,24,26,28,30,-1,32,34,36,38,40,42,44,46,48,50,52,54,56,58,60,-1,-1,-1,62,64,66,68,-1,-1,70,72,74,76,78,80,82,84,86,88,90,-1,92,94,96,98,100,102,104,106,108,-1,-1,-1,-1,-1,-1,-1,-1,-1,-1,-1,-1,-1,-1,-1,-1,-1,-1,-1,-1,-1,-1,-1,-1,-1,-1,-1,-1,-1,-1,-1,-1,-1,-1,-1,-1,-1,-1,-1,-1,-1,-1,-1,-1,-1,-1,-1,-1],"split_conditions":[8.809053E0,6.5460935E0,1.0405768E1,4.9032516E0,7.460124E0,9.73951E0,1.0965534E1,3.5827205E0,5.884242E0,8.769553E0,-3.621951E0,9.92E2,1.09E1,1.028E3,2.494004E0,-1.1069675E2,7.9E0,8.972637E-2,9.3120985E0,-3.4086292E0,9.220263E0,9.0647966E-2,9.386978E0,-3.7070174E0,-3.9035943E0,2.8668594E2,-5.5067062E-14,-2.1381714E0,-3.1629267E0,2.94095E2,2.0817425E1,-1.06544754E2,-9.557801E1,-2.2704493E1,1.81E1,8.5569315E0,9.6E1,7.8097486E0,-1.4593E2,-6.914152E1,7.3127093E0,8.8E0,3.4696875E2,-3.4634614E0,9.4E1,1.14E1,1.346259E-1,8.3E0,2.458125E2,1.012E3,3.1921875E2,-5.3260426E1,9.87E2,1.2214946E2,2.8561786E2,1.0674909E1,-1.974533E0,1E3,3.317714E2,6.8882723E0,2.8668594E2,-8.810613E1,-5.1883465E1,-1.01471344E2,-8.0226E1,-6.903603E1,-8.943824E0,-5.5950074E0,-8.6229675E1,-6.032919E1,-4.4959713E1,-1.4383864E1,-3.0321535E1,-3.8353146E1,-1.4547086E1,-5.3262856E1,-2.2453403E1,-3.757359E1,-1.9304811E0,-5.569745E0,-2.3034964E1,-8.537747E1,-2.5315039E1,2.5890059E1,1.8270947E0,-5.2225227E0,-1.846036E1,1.7794844E1,4.0500458E1,-7.1477246E0,1.89758E1,-1.0264964E1,5.6491165E0,7.3272376E0,2.7880762E1,1.7611353E1,1.494252E0,3.3487137E1,6.6973243E0,5.5321053E1,1.3708081E1,3.384091E1,4.430891E1,1.9962152E1,4.9156437E1,4.3668606E1,2.4520632E1,4.089924E1,-3.6211987E0],"split_indices":[1,1,1,1,1,1,1,1,1,7,0,4,5,4,0,0,5,6,7,0,7,6,7,0,0,2,8,0,0,2,0,0,0,0,5,7,3,7,0,0,1,5,2,0,3,5,6,5,2,4,2,0,4,2,2,1,0,4,2,7,2,0,0,0,0,0,0,0,0,0,0,0,0,0,0,0,0,0,0,0,0,0,0,0,0,0,0,0,0,0,0,0,0,0,0,0,0,0,0,0,0,0,0,0,0,0,0,0,0],"split_type":[0,0,0,0,0,0,0,0,0,0,0,0,0,0,0,0,0,0,0,0,0,0,0,0,0,0,0,0,0,0,0,0,0,0,0,0,0,0,0,0,0,0,0,0,0,0,0,0,0,0,0,0,0,0,0,0,0,0,0,0,0,0,0,0,0,0,0,0,0,0,0,0,0,0,0,0,0,0,0,0,0,0,0,0,0,0,0,0,0,0,0,0,0,0,0,0,0,0,0,0,0,0,0,0,0,0,0,0,0],"sum_hessian":[8.86E3,2.943E3,5.917E3,1.593E3,1.35E3,7.57E2,5.16E3,7.62E2,8.31E2,5.88E2,7.62E2,4.12E2,3.45E2,3.47E2,4.813E3,2.08E2,5.54E2,4.5E2,3.81E2,6.1E1,5.27E2,3.64E2,3.98E2,7.5E1,3.37E2,1.96E2,1.49E2,3.17E2,3E1,9.23E2,3.89E3,1.31E2,4.23E2,1E0,4.49E2,2.03E2,1.78E2,5.4E1,7E0,2.05E2,3.22E2,1.65E2,1.99E2,2.93E2,1.05E2,6.8E1,7E0,5.4E1,2.83E2,1.38E2,5.8E1,2E0,1.47E2,2.63E2,5.4E1,9E0,2.1E1,8.45E2,7.8E1,3.856E3,3.4E1,4.44E2,5E0,1.6E1,1.87E2,1.77E2,1E0,1E0,5.3E1,2.57E2,6.5E1,6.4E1,1.01E2,1.9E2,9E0,2.74E2,1.9E1,1.02E2,3E0,2.3E1,4.5E1,5E0,2E0,1.1E1,4.3E1,1.69E2,1.14E2,1.06E2,3.2E1,3.7E1,2.1E1,3E1,1.17E2,2.7E1,2.36E2,3E1,2.4E1,5E0,4E0,2E1,1E0,3.27E2,5.18E2,6.9E1,9E0,3.851E3,5E0,2.8E1,6E0],"tree_param":{"num_deleted":"0","num_feature":"9","num_nodes":"109","size_leaf_vector":"1"}},{"base_weights":[-6.4374954E-1,-1.6424092E2,8.811744E1,-2.0448715E2,-9.455541E1,2.2159786E1,9.920422E1,-2.3272061E2,-1.7706076E2,-1.18960724E2,-6.1199417E1,-6.7197456E0,4.290468E1,3.3522285E1,9.966815E1,-8.2205925E1,-2.2744447E2,-1.7531737E2,-9.995141E1,-1.4193571E2,-9.995094E1,-4.654126E1,-8.150495E1,-4.6725044E0,-5.4330765E1,5.6693584E1,2.3178852E1,6.910891E1,-1.5280304E1,1.0112549E2,8.4759735E1,-2.4472713E2,-2.203106E2,-1.7860283E2,-1.0810884E2,-1.4826552E2,-5.6361584E1,-8.978611E1,-1.3992795E2,-2.72162E1,-6.1780132E1,-8.95454E1,-3.8595092E0,1.7325195E1,-1.8450909E1,7.0335106E1,1.5739471E1,1.7863455E1,1.04964806E2,-1.8379028E1,8.471129E1,-3.745625E1,1.858252E1,9.391238E1,1.03136955E2,4.598606E1,9.484911E1,-7.40894E1,-4.435486E1,-6.799045E1,-6.08066E1,-5.6585186E1,-4.891316E1,5.586237E0,-3.3341095E1,-4.5179077E1,-5.5922546E0,-5.0101994E1,-6.748694E0,-3.6748837E1,-2.4959532E1,-4.295803E1,1.3788172E1,2.205357E0,-1.2452675E1,-2.7275396E1,-1.5237707E1,-3.05286E1,-1.6217999E1,-2.4674809E1,1.3403186E1,1.3458877E1,-3.1413348E0,1.2485144E0,-1.1719155E1,1.0611716E1,3.019594E1,-2.8144922E1,7.594659E0,-1.1026985E1,7.25528E0,3.4442924E1,-4.994385E-1,-1.2531885E1,1.0029786E0,1.6640596E1,3.2337223E1,-2.4866772E0,-2.3740503E1,1.2389405E0,1.5794825E1,1.7332117E1,3.0252254E1,3.1267609E1,2.5706184E1,1.603496E1,-5.8723392E1,3.2095695E1,2.5950455E1],"categories":[],"categories_nodes":[],"categories_segments":[],"categories_sizes":[],"default_left":[0,0,0,0,0,0,0,0,0,0,0,0,0,0,0,0,0,0,0,0,0,0,0,0,0,0,0,0,0,0,0,0,0,0,0,0,0,0,0,0,0,0,0,0,0,0,0,0,0,0,0,0,0,0,0,0,0,0,0,0,0,0,0,0,0,0,0,0,0,0,0,0,0,0,0,0,0,0,0,0,0,0,0,0,0,0,0,0,0,0,0,0,0,0,0,0,0,0,0,0,0,0,0,0,0,0,0,0,0],"id":8,"left_children":[1,3,5,7,9,11,13,15,17,19,21,23,25,27,29,-1,31,33,-1,35,37,39,41,43,-1,45,47,49,51,53,55,57,59,61,63,65,67,69,71,73,75,77,79,81,83,85,87,89,91,93,95,97,99,101,103,105,107,-1,-1,-1,-1,-1,-1,-1,-1,-1,-1,-1,-1,-1,-1,-1,-1,-1,-1,-1,-1,-1,-1,-1,-1,-1,-1,-1,-1,-1,-1,-1,-1,-1,-1,-1,-1,-1,-1,-1,-1,-1,-1,-1,-1,-1,-1,-1,-1,-1,-1,-1,-1],"loss_changes":[1.2868576E8,8.722536E6,4.198884E6,1.488112E6,9.23194E5,4.963454E5,1.4652E5,1.49044E5,2.15386E5,2.73632E5,1.4056275E5,1.2303405E5,1.2978875E5,6.3577906E4,9.7516E4,0E0,5.2856E4,2.00838E5,0E0,1.51977E5,1.3535125E5,8.195431E4,1.25764E5,1.0458372E5,0E0,1.5699838E5,8.506995E4,3.0222328E4,1.2711074E4,5.478E4,1.681585E5,1.6377E4,2.349E4,1.17118E5,2.0873375E4,8.03005E4,7.867924E4,5.294475E4,5.0286375E4,6.3050992E4,4.5967438E4,7.383125E4,7.977052E4,1.0227425E5,9.897845E4,2.2115975E5,7.791117E4,6.613989E4,1.2788281E4,2.172336E3,6.1692734E3,1.1500636E4,3.2290828E3,2.39552E5,5.686E4,1.7825594E5,2.610325E4,0E0,0E0,0E0,0E0,0E0,0E0,0E0,0E0,0E0,0E0,0E0,0E0,0E0,0E0,0E0,0E0,0E0,0E0,0E0,0E0,0E0,0E0,0E0,0E0,0E0,0E0,0E0,0E0,0E0,0E0,0E0,0E0,0E0,0E0,0E0,0E0,0E0,0E0,0E0,0E0,0E0,0E0,0E0,0E0,0E0,0E0,0E0,0E0,0E0,0E0,0E0,0E0],"parents":[2147483647,0,0,1,1,2,2,3,3,4,4,5,5,6,6,7,7,8,8,9,9,10,10,11,11,12,12,13,13,14,14,16,16,17,17,19,19,20,20,21,21,22,22,23,23,25,25,26,26,27,27,28,28,29,29,30,30,31,31,32,32,33,33,34,34,35,35,36,36,37,37,38,38,39,39,40,40,41,41,42,42,43,43,44,44,45,45,46,46,47,47,48,48,49,49,50,50,51,51,52,52,53,53,54,54,55,55,56,56],"right_children":[2,4,6,8,10,12,14,16,18,20,22,24,26,28,30,-1,32,34,-1,36,38,40,42,44,-1,46,48,50,52,54,56,58,60,62,64,66,68,70,72,74,76,78,80,82,84,86,88,90,92,94,96,98,100,102,104,106,108,-1,-1,-1,-1,-1,-1,-1,-1,-1,-1,-1,-1,-1,-1,-1,-1,-1,-1,-1,-1,-1,-1,-1,-1,-1,-1,-1,-1,-1,-1,-1,-1,-1,-1,-1,-1,-1,-1,-1,-1,-1,-1,-1,-1,-1,-1,-1,-1,-1,-1,-1,-1],"split_conditions":[9.208603E0,7.165065E0,1.0823656E1,5.348779E0,8.212428E0,9.932273E0,-2.9790373E0,3.2473524E0,-3.3598528E0,9.220263E0,-3.7070174E0,9.5E1,1.08E1,1.4E1,9.280699E-2,-8.2205925E1,8.883602E0,1.021E3,-9.995141E1,1.021E3,-3.5252829E0,1.07E1,3.2099628E2,8.834225E-2,-5.4330765E1,2.8668594E2,1.3174127E-1,2.2608331E2,-3.0834656E0,9.97E2,1.1752798E1,1.021E3,4.9032516E0,6.494101E0,-3.6009243E0,3.553383E2,7.460124E0,9.95E2,-3.3598528E0,-3.8052866E0,8.692749E0,9.11481E0,-3.654433E0,2.4207294E2,1.8845833E2,1.003E3,8.47267E-2,-3.9171429E0,9.1E1,1.110875E2,1.14E1,-3.232701E0,7.138371E0,2.7778974E-1,2.911087E2,1.4461538E0,5.780129E0,-7.40894E1,-4.435486E1,-6.799045E1,-6.08066E1,-5.6585186E1,-4.891316E1,5.586237E0,-3.3341095E1,-4.5179077E1,-5.5922546E0,-5.0101994E1,-6.748694E0,-3.6748837E1,-2.4959532E1,-4.295803E1,1.3788172E1,2.205357E0,-1.2452675E1,-2.7275396E1,-1.5237707E1,-3.05286E1,-1.6217999E1,-2.4674809E1,1.3403186E1,1.3458877E1,-3.1413348E0,1.2485144E0,-1.1719155E1,1.0611716E1,3.019594E1,-2.8144922E1,7.594659E0,-1.1026985E1,7.25528E0,3.4442924E1,-4.994385E-1,-1.2531885E1,1.0029786E0,1.6640596E1,3.2337223E1,-2.4866772E0,-2.3740503E1,1.2389405E0,1.5794825E1,1.7332117E1,3.0252254E1,3.1267609E1,2.5706184E1,1.603496E1,-5.8723392E1,3.2095695E1,2.5950455E1],"split_indices":[1,1,1,1,1,1,0,1,0,7,0,3,5,5,6,0,7,4,0,4,0,5,2,6,0,2,6,2,0,4,1,4,1,1,0,2,1,4,0,0,1,7,0,2,2,4,6,0,3,2,5,0,7,0,2,0,7,0,0,0,0,0,0,0,0,0,0,0,0,0,0,0,0,0,0,0,0,0,0,0,0,0,0,0,0,0,0,0,0,0,0,0,0,0,0,0,0,0,0,0,0,0,0,0,0,0,0,0,0],"split_type":[0,0,0,0,0,0,0,0,0,0,0,0,0,0,0,0,0,0,0,0,0,0,0,0,0,0,0,0,0,0,0,0,0,0,0,0,0,0,0,0,0,0,0,0,0,0,0,0,0,0,0,0,0,0,0,0,0,0,0,0,0,0,0,0,0,0,0,0,0,0,0,0,0,0,0,0,0,0,0,0,0,0,0,0,0,0,0,0,0,0,0,0,0,0,0,0,0,0,0,0,0,0,0,0,0,0,0,0,0],"sum_hessian":[8.86E3,3.116E3,5.744E3,1.974E3,1.142E3,8.27E2,4.917E3,9.69E2,1.005E3,6.58E2,4.84E2,3.46E2,4.81E2,3.5E1,4.882E3,1.04E2,8.65E2,9.96E2,9E0,2.95E2,3.63E2,2.83E2,2.01E2,3.43E2,3E0,2.82E2,1.99E2,2E1,1.5E1,4.442E3,4.4E2,2.43E2,6.22E2,9.48E2,4.8E1,2.74E2,2.1E1,2.92E2,7.1E1,1.26E2,1.57E2,1.82E2,1.9E1,1.32E2,2.11E2,2.11E2,7.1E1,1.88E2,1.1E1,3E0,1.7E1,9E0,6E0,9.79E2,3.463E3,9.2E1,3.48E2,2.36E2,7E0,4.49E2,1.73E2,5.7E2,3.78E2,1E0,4.7E1,2.69E2,5E0,4E0,1.7E1,4.6E1,2.46E2,7E1,1E0,3.7E1,8.9E1,4.1E1,1.16E2,1.34E2,4.8E1,7E0,1.2E1,6.6E1,6.6E1,1.01E2,1.1E2,9.9E1,1.12E2,5E0,6.6E1,1.9E1,1.69E2,1E1,1E0,1E0,2E0,9E0,8E0,6E0,3E0,5E0,1E0,1.59E2,8.2E2,3.255E3,2.08E2,9E1,2E0,1.37E2,2.11E2],"tree_param":{"num_deleted":"0","num_feature":"9","num_nodes":"109","size_leaf_vector":"1"}},{"base_weights":[-5.3277105E-1,-1.15248375E2,6.1707275E1,-1.417358E2,-6.221366E1,1.5506924E1,6.947307E1,-1.5904591E2,-1.1732595E2,-4.8088673E1,-8.956714E1,3.1454185E1,-3.3768322E0,7.102178E1,5.978263E1,-1.7350597E2,-1.4917418E2,-1.6502412E2,-1.1151232E2,-8.703474E1,-4.2231525E1,-8.7555214E1,-8.853184E1,3.6941006E1,-4.9283928E1,-1.2444927E1,3.0250391E1,-5.6407065E0,7.111373E1,4.828116E1,7.107627E1,-6.0466217E1,-5.049055E1,-1.6332135E2,-1.3948886E2,-1.3950616E2,-2.3151227E2,-1.3923947E2,-1.0523353E2,-1.05565765E2,-5.072741E1,-2.2434402E1,-5.0462395E1,-9.585392E1,-5.519582E1,-2.339744E0,4.8708206E1,3.912451E1,-6.933254E1,-6.2665665E1,-4.921821E0,1.5527464E1,1.0606821E2,-1.9625196E1,4.060193E1,7.067688E1,8.6687614E1,4.633414E1,1.4959196E2,7.29299E1,-2.8316477E1,-5.062684E1,-4.1109535E1,-4.002829E1,-4.9054905E1,-3.641108E1,-6.248816E1,-1.564055E1,-7.6396484E1,-4.3089966E1,-1.4636573E1,-2.5761673E1,-3.6008522E1,-5.355717E1,-2.7096598E1,-1.8157675E1,4.2863526E0,-2.2344242E1,-3.1550493E0,-9.88244E0,-1.8203957E1,-3.1650402E1,-1.616439E1,-1.8858175E1,2.1435833E0,3.5816762E0,-1.4825908E1,2.571122E1,1.0807068E1,4.3588257E0,1.7662941E1,2.2606348E1,-2.3669868E1,-6.155339E0,-4.3614937E1,-2.573255E1,-1.0682506E-1,2.0671546E0,1.6793629E1,4.8584236E1,4.1653566E0,2.8313966E0,1.4353175E1,1.3683412E1,2.1260433E1,3.776319E1,2.1185663E1,-8.402491E0,1.4537826E1,4.9862637E1,9.976172E0,7.3402224E0,2.1987583E1,5.6908083E0,-2.055696E1],"categories":[],"categories_nodes":[],"categories_segments":[],"categories_sizes":[],"default_left":[0,0,0,0,0,0,0,0,0,0,0,0,0,0,0,0,0,0,0,0,0,0,0,0,0,0,0,0,0,0,0,0,0,0,0,0,0,0,0,0,0,0,0,0,0,0,0,0,0,0,0,0,0,0,0,0,0,0,0,0,0,0,0,0,0,0,0,0,0,0,0,0,0,0,0,0,0,0,0,0,0,0,0,0,0,0,0,0,0,0,0,0,0,0,0,0,0,0,0,0,0,0,0,0,0,0,0,0,0,0,0,0,0,0,0],"id":9,"left_children":[1,3,5,7,9,11,13,15,17,19,21,23,25,27,29,31,33,35,37,39,41,43,-1,45,47,49,51,53,55,57,59,-1,-1,61,63,65,67,69,71,73,75,77,79,81,83,85,87,89,91,93,95,97,99,-1,101,103,105,107,109,111,113,-1,-1,-1,-1,-1,-1,-1,-1,-1,-1,-1,-1,-1,-1,-1,-1,-1,-1,-1,-1,-1,-1,-1,-1,-1,-1,-1,-1,-1,-1,-1,-1,-1,-1,-1,-1,-1,-1,-1,-1,-1,-1,-1,-1,-1,-1,-1,-1,-1,-1,-1,-1,-1,-1],"loss_changes":[6.3273804E7,4.369792E6,2.060128E6,8.59372E5,3.9751475E5,2.4945361E5,6.9562E4,1.47268E5,2.21739E5,1.5326612E5,1.201375E5,2.0072556E5,1.162517E5,3.0252E4,8.54155E4,3.7017E4,7.6969E4,1.2379375E5,1.20269E5,5.4525125E4,9.6636375E4,8.8967E4,0E0,1.9471044E5,5.411414E4,1.1303634E5,8.877011E4,1.9241438E4,2.2652E4,6.052975E4,6.52585E4,0E0,0E0,1.8309E4,4.2116E4,6.0798625E4,8.635375E4,4.863075E4,1.718735E5,4.8380562E4,2.1249758E4,1.0962417E5,7.3726375E4,1.068855E5,3.580853E4,6.646941E4,1.4895912E5,2.0593662E3,3.9166797E4,1.3298528E5,9.66881E4,2.3721203E4,6.4716438E4,0E0,4.512046E2,1.6518E4,6.1010562E4,5.4602562E4,6.071922E3,4.119375E3,1.4608299E4,0E0,0E0,0E0,0E0,0E0,0E0,0E0,0E0,0E0,0E0,0E0,0E0,0E0,0E0,0E0,0E0,0E0,0E0,0E0,0E0,0E0,0E0,0E0,0E0,0E0,0E0,0E0,0E0,0E0,0E0,0E0,0E0,0E0,0E0,0E0,0E0,0E0,0E0,0E0,0E0,0E0,0E0,0E0,0E0,0E0,0E0,0E0,0E0,0E0,0E0,0E0,0E0,0E0,0E0],"parents":[2147483647,0,0,1,1,2,2,3,3,4,4,5,5,6,6,7,7,8,8,9,9,10,10,11,11,12,12,13,13,14,14,15,15,16,16,17,17,18,18,19,19,20,20,21,21,23,23,24,24,25,25,26,26,27,27,28,28,29,29,30,30,33,33,34,34,35,35,36,36,37,37,38,38,39,39,40,40,41,41,42,42,43,43,44,44,45,45,46,46,47,47,48,48,49,49,50,50,51,51,52,52,54,54,55,55,56,56,57,57,58,58,59,59,60,60],"right_children":[2,4,6,8,10,12,14,16,18,20,22,24,26,28,30,32,34,36,38,40,42,44,-1,46,48,50,52,54,56,58,60,-1,-1,62,64,66,68,70,72,74,76,78,80,82,84,86,88,90,92,94,96,98,100,-1,102,104,106,108,110,112,114,-1,-1,-1,-1,-1,-1,-1,-1,-1,-1,-1,-1,-1,-1,-1,-1,-1,-1,-1,-1,-1,-1,-1,-1,-1,-1,-1,-1,-1,-1,-1,-1,-1,-1,-1,-1,-1,-1,-1,-1,-1,-1,-1,-1,-1,-1,-1,-1,-1,-1,-1,-1,-1,-1],"split_conditions":[9.208603E0,7.3127093E0,1.0823656E1,5.884242E0,-3.5835397E0,8.798298E-2,8.6261526E-2,4.294144E0,8.719739E0,9.85E2,-2.9790373E0,2.952337E2,1.0289274E1,9.61E2,1.2589699E1,3.1293359E0,8.8E0,1.018E3,8.440753E1,8.608131E0,-3.742388E0,9.386978E0,-8.853184E1,9.92E2,8.7E0,9.92E2,1.8117139E-1,-2.2479339E-1,1.035E3,1.79E1,1.7069637E1,-6.0466217E1,-5.049055E1,8.9E1,2.911087E2,1.6103385E-1,-3.5075676E0,9.834365E0,2.3328984E2,1.513125E2,9.136734E0,1.128792E2,7.9E0,3.0705554E2,9.3E1,7.922712E0,2.1190808E2,1.0289274E1,8.1718326E-2,9.124403E-2,7.8E1,7.394664E0,8.4E1,-1.9625196E1,3.220531E0,-2.8174095E0,1.1752798E1,-3.0834656E0,1.1708692E1,6.2E0,8.9E0,-5.062684E1,-4.1109535E1,-4.002829E1,-4.9054905E1,-3.641108E1,-6.248816E1,-1.564055E1,-7.6396484E1,-4.3089966E1,-1.4636573E1,-2.5761673E1,-3.6008522E1,-5.355717E1,-2.7096598E1,-1.8157675E1,4.2863526E0,-2.2344242E1,-3.1550493E0,-9.88244E0,-1.8203957E1,-3.1650402E1,-1.616439E1,-1.8858175E1,2.1435833E0,3.5816762E0,-1.4825908E1,2.571122E1,1.0807068E1,4.3588257E0,1.7662941E1,2.2606348E1,-2.3669868E1,-6.155339E0,-4.3614937E1,-2.573255E1,-1.0682506E-1,2.0671546E0,1.6793629E1,4.8584236E1,4.1653566E0,2.8313966E0,1.4353175E1,1.3683412E1,2.1260433E1,3.776319E1,2.1185663E1,-8.402491E0,1.4537826E1,4.9862637E1,9.976172E0,7.3402224E0,2.1987583E1,5.6908083E0,-2.055696E1],"split_indices":[1,1,1,1,0,6,6,1,7,4,0,2,1,4,1,1,5,4,2,1,0,7,0,4,5,4,6,0,4,5,0,0,0,3,2,6,0,7,2,2,1,2,5,2,3,7,2,1,6,6,3,7,3,0,0,0,1,0,1,5,5,0,0,0,0,0,0,0,0,0,0,0,0,0,0,0,0,0,0,0,0,0,0,0,0,0,0,0,0,0,0,0,0,0,0,0,0,0,0,0,0,0,0,0,0,0,0,0,0,0,0,0,0,0,0],"split_type":[0,0,0,0,0,0,0,0,0,0,0,0,0,0,0,0,0,0,0,0,0,0,0,0,0,0,0,0,0,0,0,0,0,0,0,0,0,0,0,0,0,0,0,0,0,0,0,0,0,0,0,0,0,0,0,0,0,0,0,0,0,0,0,0,0,0,0,0,0,0,0,0,0,0,0,0,0,0,0,0,0,0,0,0,0,0,0,0,0,0,0,0,0,0,0,0,0,0,0,0,0,0,0,0,0,0,0,0,0,0,0,0,0,0,0],"sum_hessian":[8.86E3,3.116E3,5.744E3,2.077E3,1.039E3,8.27E2,4.917E3,1.212E3,8.65E2,6.87E2,3.52E2,4.48E2,3.79E2,4.234E3,6.83E2,4.85E2,7.27E2,9.1E1,7.74E2,8.8E1,5.99E2,3.5E2,2E0,4.2E2,2.8E1,2.99E2,8E1,5E0,4.229E3,3.41E2,3.42E2,7E1,4.15E2,2.89E2,4.38E2,6.8E1,2.3E1,1.39E2,6.35E2,5.7E1,3.1E1,1.77E2,4.22E2,2.77E2,7.3E1,9.7E1,3.23E2,5E0,2.3E1,3.8E1,2.61E2,6.8E1,1.2E1,2E0,3E0,4.119E3,1.1E2,3.36E2,5E0,3.36E2,6E0,2.35E2,5.4E1,3.55E2,8.3E1,5.6E1,1.2E1,3E0,2E1,1.32E2,7E0,2.78E2,3.57E2,8E0,4.9E1,2.7E1,4E0,3.2E1,1.45E2,1.57E2,2.65E2,2.24E2,5.3E1,6.5E1,8E0,7.5E1,2.2E1,8.1E1,2.42E2,3E0,2E0,1E0,2.2E1,2.6E1,1.2E1,1.3E1,2.48E2,5.7E1,1.1E1,7E0,5E0,1E0,2E0,3.3E1,4.086E3,3E1,8E1,9E0,3.27E2,4E0,1E0,3E0,3.33E2,3E0,3E0],"tree_param":{"num_deleted":"0","num_feature":"9","num_nodes":"115","size_leaf_vector":"1"}},{"base_weights":[-4.5064554E-1,-8.096369E1,4.323249E1,-9.816657E1,-4.0773888E1,1.0905839E1,4.8666252E1,-1.1509831E2,-8.454584E1,-5.034843E1,-2.146343E1,2.3942379E1,-4.451841E0,1.4940945E1,4.8904922E1,-1.1398006E2,-5.6595432E1,-8.309033E1,-2.2329407E2,-7.395439E1,-4.2135334E1,-2.5922342E1,1.5757145E1,1.2346282E1,4.963193E1,-1.9494596E1,8.021119E0,3.891899E1,-1.746405E1,4.982161E1,3.941702E1,-1.0576428E2,-1.2329238E2,-7.1444496E1,-9.438823E1,-1.2497324E1,-7.0805824E1,-6.0879208E1,-1.17300064E2,-9.429187E1,-3.794259E1,-1.1621701E1,-3.983629E1,3.483536E1,-3.351411E1,1.3904862E1,-4.553501E1,9.326262E1,1.9070715E1,2.4587263E1,-2.7815126E1,-3.792555E1,1.3629419E1,1.220813E1,6.7080124E1,-2.5789213E1,1.395874E1,4.4624115E1,5.1348774E1,1.8433105E1,5.1558815E1,-3.7279137E1,-2.9802324E1,-4.629162E1,-3.627258E1,-3.238505E1,-1.9647966E1,-3.1279905E1,-2.2961334E1,-2.0331533E1,7.5487394E0,-4.6846092E1,-1.7692049E1,-3.5050472E1,-1.466667E1,-7.460137E0,-1.6751583E1,9.39907E-1,-8.257286E0,3.011142E0,-1.3755979E1,-3.1109946E0,1.701554E1,-1.6650356E0,-2.2221771E1,1.0032074E1,7.713513E-1,3.2154724E1,9.639465E0,1.8114464E1,2.9441142E0,-6.9162307E0,1.4510281E1,-3.026153E0,-2.2858412E1,1.6994356E1,-1.8245161E1,-8.725457E0,6.3057704E0,-7.113623E0,6.5290136E0,2.2696217E1,6.5568852E0,2.7107425E0,-9.882742E0,-1.9131348E0,1.12449465E1,6.802692E0,1.4736651E1,1.5315969E1,3.9397243E1,4.052268E0,2.3539906E1,-1.2880518E1,1.6040318E1],"categories":[],"categories_nodes":[],"categories_segments":[],"categories_sizes":[],"default_left":[0,0,0,0,0,0,0,0,0,0,0,0,0,0,0,0,0,0,0,0,0,0,0,0,0,0,0,0,0,0,0,0,0,0,0,0,0,0,0,0,0,0,0,0,0,0,0,0,0,0,0,0,0,0,0,0,0,0,0,0,0,0,0,0,0,0,0,0,0,0,0,0,0,0,0,0,0,0,0,0,0,0,0,0,0,0,0,0,0,0,0,0,0,0,0,0,0,0,0,0,0,0,0,0,0,0,0,0,0,0,0,0,0,0,0],"id":10,"left_children":[1,3,5,7,9,11,13,15,17,19,21,23,25,27,29,31,-1,33,35,37,39,41,43,45,47,49,51,53,55,57,59,61,63,65,67,-1,-1,69,71,73,75,77,79,81,83,85,-1,87,89,91,93,95,97,99,101,103,105,107,109,111,113,-1,-1,-1,-1,-1,-1,-1,-1,-1,-1,-1,-1,-1,-1,-1,-1,-1,-1,-1,-1,-1,-1,-1,-1,-1,-1,-1,-1,-1,-1,-1,-1,-1,-1,-1,-1,-1,-1,-1,-1,-1,-1,-1,-1,-1,-1,-1,-1,-1,-1,-1,-1,-1,-1],"loss_changes":[3.1168188E7,2.151032E6,1.00861E6,4.93488E5,1.7197525E5,1.658813E5,3.8855E4,5.828E4,2.26411E5,1.1805775E5,5.2188984E4,1.3284581E5,7.1642516E4,2.865199E4,4.0505E4,6.0255E4,0E0,1.51408E5,1.7904562E4,8.353931E4,9.832669E4,5.5052E4,3.312774E4,8.141138E4,1.835649E5,6.413761E4,5.437259E4,1.4977447E4,4.545582E3,3.3023E4,1.09879875E5,4.89695E4,1.4094E4,1.224145E5,9.90515E4,0E0,0E0,7.583625E4,7.2374125E4,2.9087781E4,9.993294E4,3.2700951E4,4.27725E4,2.5318994E4,1.0930653E4,6.81077E4,0E0,4.5059188E4,3.114783E4,3.2837047E4,1.2445134E5,5.323883E4,5.9638E4,4.6347725E3,2.2239414E3,3.536124E3,2.1525908E3,9.938875E4,7.4414E4,4.6547258E4,5.1900125E4,0E0,0E0,0E0,0E0,0E0,0E0,0E0,0E0,0E0,0E0,0E0,0E0,0E0,0E0,0E0,0E0,0E0,0E0,0E0,0E0,0E0,0E0,0E0,0E0,0E0,0E0,0E0,0E0,0E0,0E0,0E0,0E0,0E0,0E0,0E0,0E0,0E0,0E0,0E0,0E0,0E0,0E0,0E0,0E0,0E0,0E0,0E0,0E0,0E0,0E0,0E0,0E0,0E0,0E0],"parents":[2147483647,0,0,1,1,2,2,3,3,4,4,5,5,6,6,7,7,8,8,9,9,10,10,11,11,12,12,13,13,14,14,15,15,17,17,18,18,19,19,20,20,21,21,22,22,23,23,24,24,25,25,26,26,27,27,28,28,29,29,30,30,31,31,32,32,33,33,34,34,37,37,38,38,39,39,40,40,41,41,42,42,43,43,44,44,45,45,47,47,48,48,49,49,50,50,51,51,52,52,53,53,54,54,55,55,56,56,57,57,58,58,59,59,60,60],"right_children":[2,4,6,8,10,12,14,16,18,20,22,24,26,28,30,32,-1,34,36,38,40,42,44,46,48,50,52,54,56,58,60,62,64,66,68,-1,-1,70,72,74,76,78,80,82,84,86,-1,88,90,92,94,96,98,100,102,104,106,108,110,112,114,-1,-1,-1,-1,-1,-1,-1,-1,-1,-1,-1,-1,-1,-1,-1,-1,-1,-1,-1,-1,-1,-1,-1,-1,-1,-1,-1,-1,-1,-1,-1,-1,-1,-1,-1,-1,-1,-1,-1,-1,-1,-1,-1,-1,-1,-1,-1,-1,-1,-1,-1,-1,-1,-1],"split_conditions":[9.208603E0,7.460124E0,1.0823656E1,5.348779E0,8.53261E0,1.09E1,-2.9790373E0,2.494004E0,-3.3598528E0,8.965535E0,1.5648471E-1,1.012E3,9.859257E0,1.4E1,2.911087E2,9.992858E-2,-5.6595432E1,-3.4829326E0,4.4E0,1.35E1,9.75E2,1.13E1,8.746568E0,-7.971359E-1,2.3665948E2,1.16707085E2,-3.9171429E0,2.5276796E2,7.070075E0,9.97E2,5.249181E0,3.8692627E0,7.4E1,7.6E1,9.455159E0,-1.2497324E1,-7.0805824E1,-3.5075676E0,2.090404E2,8.28467E0,9.213462E-2,8.6E1,8.6941235E-2,9.2E0,-3.7070174E0,7.4315033E0,-4.553501E1,1.365619E-1,1.017E3,1.4E1,9.0647966E-2,8.725644E-2,8.449001E-2,2.1051389E2,1.017E3,1.0920884E1,1.1007775E1,2.7778974E-1,2.0817425E1,3.4033398E2,3.480871E0,-3.7279137E1,-2.9802324E1,-4.629162E1,-3.627258E1,-3.238505E1,-1.9647966E1,-3.1279905E1,-2.2961334E1,-2.0331533E1,7.5487394E0,-4.6846092E1,-1.7692049E1,-3.5050472E1,-1.466667E1,-7.460137E0,-1.6751583E1,9.39907E-1,-8.257286E0,3.011142E0,-1.3755979E1,-3.1109946E0,1.701554E1,-1.6650356E0,-2.2221771E1,1.0032074E1,7.713513E-1,3.2154724E1,9.639465E0,1.8114464E1,2.9441142E0,-6.9162307E0,1.4510281E1,-3.026153E0,-2.2858412E1,1.6994356E1,-1.8245161E1,-8.725457E0,6.3057704E0,-7.113623E0,6.5290136E0,2.2696217E1,6.5568852E0,2.7107425E0,-9.882742E0,-1.9131348E0,1.12449465E1,6.802692E0,1.4736651E1,1.5315969E1,3.9397243E1,4.052268E0,2.3539906E1,-1.2880518E1,1.6040318E1],"split_indices":[1,1,1,1,1,5,0,0,0,7,6,4,1,5,2,6,0,0,5,5,4,5,7,0,2,2,0,2,7,4,0,1,3,3,7,0,0,0,2,1,6,3,6,5,0,7,0,6,4,5,6,6,6,2,4,1,1,0,0,2,7,0,0,0,0,0,0,0,0,0,0,0,0,0,0,0,0,0,0,0,0,0,0,0,0,0,0,0,0,0,0,0,0,0,0,0,0,0,0,0,0,0,0,0,0,0,0,0,0,0,0,0,0,0,0],"split_type":[0,0,0,0,0,0,0,0,0,0,0,0,0,0,0,0,0,0,0,0,0,0,0,0,0,0,0,0,0,0,0,0,0,0,0,0,0,0,0,0,0,0,0,0,0,0,0,0,0,0,0,0,0,0,0,0,0,0,0,0,0,0,0,0,0,0,0,0,0,0,0,0,0,0,0,0,0,0,0,0,0,0,0,0,0,0,0,0,0,0,0,0,0,0,0,0,0,0,0,0,0,0,0,0,0,0,0,0,0,0,0,0,0,0,0],"sum_hessian":[8.86E3,3.116E3,5.744E3,2.181E3,9.35E2,8.27E2,4.917E3,9.69E2,1.212E3,6.24E2,3.11E2,4.47E2,3.8E2,3.5E1,4.882E3,9.57E2,1.2E1,1.201E3,1.1E1,1.59E2,4.65E2,2.78E2,3.3E1,3.09E2,1.38E2,1.72E2,2.08E2,2E1,1.5E1,4.448E3,4.34E2,5.15E2,4.42E2,5.95E2,6.06E2,1E0,1E1,1.24E2,3.5E1,3.3E1,4.32E2,1.38E2,1.4E2,2.4E1,9E0,3.07E2,2E0,5.6E1,8.2E1,2.7E1,1.45E2,2.2E1,1.86E2,1.1E1,9E0,1.2E1,3E0,1.017E3,3.431E3,1.6E2,2.74E2,1.28E2,3.87E2,2.7E1,4.15E2,8.1E1,5.14E2,3.87E2,2.19E2,1.15E2,9E0,2E1,1.5E1,2.1E1,1.2E1,2.51E2,1.81E2,7.2E1,6.6E1,1.5E1,1.25E2,8E0,1.6E1,6E0,3E0,1.12E2,1.95E2,4.5E1,1.1E1,1.4E1,6.8E1,9E0,1.8E1,1.07E2,3.8E1,4E0,1.8E1,2.7E1,1.59E2,2E0,9E0,7E0,2E0,2E0,1E1,2E0,1E0,1.74E2,8.43E2,3.42E3,1.1E1,1.49E2,1.1E1,5E0,2.69E2],"tree_param":{"num_deleted":"0","num_feature":"9","num_nodes":"115","size_leaf_vector":"1"}},{"base_weights":[-3.641138E-1,-5.5492325E1,3.1114052E1,-6.993238E1,-2.9214409E1,1.0826142E1,3.4094395E1,-7.79516E1,-5.6009426E1,-4.1543545E1,-1.8873552E1,1.8039238E1,-2.922046E0,3.420458E1,-2.3403662E1,-7.642389E1,-1.23595474E2,-5.9227978E1,-1.5105434E1,-8.522479E1,-3.6828278E1,-3.1599678E1,-5.8812857E0,2.3877352E1,-1.4969611E1,-6.039683E0,8.123242E1,3.372954E1,4.6937714E1,2.3885498E1,-2.2640978E1,-8.397661E1,-6.957477E1,-9.405054E1,-4.497454E1,-1.0304615E2,-5.6445713E1,-1.10296E1,-1.9905853E1,-5.0863277E1,-1.6994987E2,-2.6538433E1,-4.9760876E1,-3.561092E1,1.0787362E1,4.856404E0,-2.2245548E1,4.359392E0,3.8328773E1,1.7485563E1,-2.95996E1,-1.4432661E1,2.0237396E1,3.6108498E1,1.1010986E2,-4.8996854E0,3.386974E1,7.717227E1,3.480731E1,3.3698732E-1,8.4639845E0,-2.4213978E1,-3.2524967E1,-1.8212872E1,-2.3319164E1,-1.1649521E1,-3.0217657E1,-1.1416539E1,-3.8588024E1,-1.773085E1,-6.518193E0,-6.79073E-1,-1.0774109E1,-1.1734747E1,-7.1065765E1,-2.8594366E1,-8.556917E1,-2.4343386E1,-6.811116E0,-3.5288086E1,-1.3612293E1,-7.247268E0,-1.8538336E1,-1.0460962E1,1.7680592E1,6.682424E0,-2.7373564E0,7.7727942E0,-9.724139E0,2.5361915E0,-1.7013342E1,-2.1247969E1,1.2166327E1,-7.5484447E0,1.0205265E1,-1.2666118E1,4.165381E0,-9.991599E-1,-1.23295E1,8.626369E0,-2.3249678E1,2.206543E1,-4.011182E0,3.6773804E1,9.03479E0,-2.616526E1,1.004102E1,1.0099843E1,1.8528236E1,-4.801758E-1,2.5262964E1,-3.331897E0,1.0805235E1],"categories":[],"categories_nodes":[],"categories_segments":[],"categories_sizes":[],"default_left":[0,0,0,0,0,0,0,0,0,0,0,0,0,0,0,0,0,0,0,0,0,0,0,0,0,0,0,0,0,0,0,0,0,0,0,0,0,0,0,0,0,0,0,0,0,0,0,0,0,0,0,0,0,0,0,0,0,0,0,0,0,0,0,0,0,0,0,0,0,0,0,0,0,0,0,0,0,0,0,0,0,0,0,0,0,0,0,0,0,0,0,0,0,0,0,0,0,0,0,0,0,0,0,0,0,0,0,0,0,0,0,0,0],"id":11,"left_children":[1,3,5,7,9,11,13,15,17,19,21,23,25,27,29,31,33,35,37,39,41,43,45,47,49,51,53,55,57,59,-1,61,63,65,-1,67,69,71,-1,73,75,77,79,81,83,85,87,89,91,93,95,97,99,101,103,105,107,109,111,-1,-1,-1,-1,-1,-1,-1,-1,-1,-1,-1,-1,-1,-1,-1,-1,-1,-1,-1,-1,-1,-1,-1,-1,-1,-1,-1,-1,-1,-1,-1,-1,-1,-1,-1,-1,-1,-1,-1,-1,-1,-1,-1,-1,-1,-1,-1,-1,-1,-1,-1,-1,-1,-1],"loss_changes":[1.5378529E7,1.220181E6,3.407135E5,2.27645E5,1.4506888E5,7.184963E4,3.19575E4,8.2319E4,9.95555E4,1.04171E5,1.0298708E5,9.189441E4,6.608139E4,2.811E4,2.6424334E4,6.0164E4,1.77825E4,8.0377E4,1.1174085E4,1.369199E5,6.1490562E4,5.3941906E4,5.4579484E4,1.1378608E5,3.4704523E4,5.366347E4,7.751676E3,2.58145E4,6.1129656E4,5.5936743E2,0E0,3.92625E4,4.40855E4,4.1975156E3,0E0,6.3267938E4,6.024725E4,1.1697974E4,0E0,7.158983E4,9.326953E4,5.364847E4,5.6584188E4,8.487531E4,6.3607516E4,4.598586E4,6.106685E4,4.3739492E4,5.923475E4,1.707186E4,2.8026457E4,5.4335527E4,5.1342203E4,1.0246643E4,1.2958125E3,5.977245E4,2.47185E4,2.7299E4,7.400828E3,0E0,0E0,0E0,0E0,0E0,0E0,0E0,0E0,0E0,0E0,0E0,0E0,0E0,0E0,0E0,0E0,0E0,0E0,0E0,0E0,0E0,0E0,0E0,0E0,0E0,0E0,0E0,0E0,0E0,0E0,0E0,0E0,0E0,0E0,0E0,0E0,0E0,0E0,0E0,0E0,0E0,0E0,0E0,0E0,0E0,0E0,0E0,0E0,0E0,0E0,0E0,0E0,0E0,0E0],"parents":[2147483647,0,0,1,1,2,2,3,3,4,4,5,5,6,6,7,7,8,8,9,9,10,10,11,11,12,12,13,13,14,14,15,15,16,16,17,17,18,18,19,19,20,20,21,21,22,22,23,23,24,24,25,25,26,26,27,27,28,28,29,29,31,31,32,32,33,33,35,35,36,36,37,37,39,39,40,40,41,41,42,42,43,43,44,44,45,45,46,46,47,47,48,48,49,49,50,50,51,51,52,52,53,53,54,54,55,55,56,56,57,57,58,58],"right_children":[2,4,6,8,10,12,14,16,18,20,22,24,26,28,30,32,34,36,38,40,42,44,46,48,50,52,54,56,58,60,-1,62,64,66,-1,68,70,72,-1,74,76,78,80,82,84,86,88,90,92,94,96,98,100,102,104,106,108,110,112,-1,-1,-1,-1,-1,-1,-1,-1,-1,-1,-1,-1,-1,-1,-1,-1,-1,-1,-1,-1,-1,-1,-1,-1,-1,-1,-1,-1,-1,-1,-1,-1,-1,-1,-1,-1,-1,-1,-1,-1,-1,-1,-1,-1,-1,-1,-1,-1,-1,-1,-1,-1,-1,-1],"split_conditions":[9.46946E0,7.3127093E0,1.0823656E1,6.079306E0,8.14348E0,8.871735E-2,2.2173558E-1,-3.4086292E0,1.021E3,8.789399E0,1.01E3,2.8561786E2,2.2173558E-1,1.032E3,1.33E1,4.603074E0,8E1,8.5569315E0,1.0077488E1,1.019E3,9.229489E-2,3.1336954E2,1.55E1,1.002E3,8.7E0,3.085481E2,-3.6009243E0,9.62E2,1.1752798E1,-1.0308247E0,-2.2640978E1,4.4383965E0,2.2872217E2,4.7E0,-4.497454E1,9.268497E-2,9.834365E0,2.8461795E2,-1.9905853E1,-3.4086292E0,9.207675E-2,9.75E2,9.291146E-2,2.3217188E2,-3.6632543E0,2.487425E2,8.281453E0,-2.7123728E0,7.7748515E-2,2.911087E2,1.0536296E1,1.899164E2,-1.4155076E0,-3.8052866E0,-2.8174095E0,2.3101292E0,1.7923722E-1,1.0867985E1,1.185583E1,3.3698732E-1,8.4639845E0,-2.4213978E1,-3.2524967E1,-1.8212872E1,-2.3319164E1,-1.1649521E1,-3.0217657E1,-1.1416539E1,-3.8588024E1,-1.773085E1,-6.518193E0,-6.79073E-1,-1.0774109E1,-1.1734747E1,-7.1065765E1,-2.8594366E1,-8.556917E1,-2.4343386E1,-6.811116E0,-3.5288086E1,-1.3612293E1,-7.247268E0,-1.8538336E1,-1.0460962E1,1.7680592E1,6.682424E0,-2.7373564E0,7.7727942E0,-9.724139E0,2.5361915E0,-1.7013342E1,-2.1247969E1,1.2166327E1,-7.5484447E0,1.0205265E1,-1.2666118E1,4.165381E0,-9.991599E-1,-1.23295E1,8.626369E0,-2.3249678E1,2.206543E1,-4.011182E0,3.6773804E1,9.03479E0,-2.616526E1,1.004102E1,1.0099843E1,1.8528236E1,-4.801758E-1,2.5262964E1,-3.331897E0,1.0805235E1],"split_indices":[1,1,1,1,1,6,6,0,4,7,4,2,6,4,5,1,3,7,7,4,6,2,5,4,5,2,0,4,1,0,0,1,2,5,0,6,7,2,0,0,6,4,6,2,0,2,7,0,6,2,1,2,0,0,0,0,6,1,1,0,0,0,0,0,0,0,0,0,0,0,0,0,0,0,0,0,0,0,0,0,0,0,0,0,0,0,0,0,0,0,0,0,0,0,0,0,0,0,0,0,0,0,0,0,0,0,0,0,0,0,0,0,0],"split_type":[0,0,0,0,0,0,0,0,0,0,0,0,0,0,0,0,0,0,0,0,0,0,0,0,0,0,0,0,0,0,0,0,0,0,0,0,0,0,0,0,0,0,0,0,0,0,0,0,0,0,0,0,0,0,0,0,0,0,0,0,0,0,0,0,0,0,0,0,0,0,0,0,0,0,0,0,0,0,0,0,0,0,0,0,0,0,0,0,0,0,0,0,0,0,0,0,0,0,0,0,0,0,0,0,0,0,0,0,0,0,0,0,0],"sum_hessian":[8.86E3,3.22E3,5.64E3,2.077E3,1.143E3,7.23E2,4.917E3,1.315E3,7.62E2,5.2E2,6.23E2,4.74E2,2.49E2,4.908E3,9E0,1.275E3,4E1,7.06E2,5.6E1,4.9E1,4.71E2,3.14E2,3.09E2,4.03E2,7.1E1,2.41E2,8E0,4.735E3,1.73E2,5E0,4E0,6.01E2,6.74E2,2.1E1,1.9E1,4E1,6.66E2,5.3E1,3E0,3.6E1,1.3E1,2.64E2,2.07E2,2.87E2,2.7E1,1.87E2,1.22E2,1.72E2,2.31E2,2.2E1,4.9E1,1.83E2,5.8E1,4E0,4E0,1.7E1,4.718E3,4.8E1,1.25E2,1E0,4E0,5.34E2,6.7E1,3.27E2,3.47E2,3E0,1.8E1,1.2E1,2.8E1,6.18E2,4.8E1,4E1,1.3E1,3.5E1,1E0,9E0,4E0,1.6E1,2.48E2,1.1E1,1.96E2,2.01E2,8.6E1,1.4E1,1.3E1,8.3E1,1.04E2,2.1E1,1.01E2,1.62E2,1E1,4E0,2.27E2,6E0,1.6E1,3.8E1,1.1E1,1.3E2,5.3E1,5.4E1,4E0,2E0,2E0,3E0,1E0,5E0,1.2E1,4.686E3,3.2E1,4E0,4.4E1,3E0,1.22E2],"tree_param":{"num_deleted":"0","num_feature":"9","num_nodes":"113","size_leaf_vector":"1"}},{"base_weights":[-3.1648234E-1,-4.3353203E1,1.9624296E1,-5.421581E1,-3.1630978E1,2.322344E1,-3.9492161E0,-6.477049E1,-5.069948E1,-5.340223E1,-2.6764347E1,-9.377487E0,2.3589151E1,3.4020011E0,-1.6552153E1,-8.021013E1,-5.7195923E1,-3.4919613E1,-5.787149E1,-4.3350513E1,-8.752091E1,-1.8969162E1,-3.527655E1,3.873094E1,-2.520524E1,-8.871179E1,2.367111E1,-6.9016094E0,1.4755977E1,-9.199738E1,-8.013167E0,-7.696497E1,-1.1974679E2,-6.241413E1,-4.5653194E1,-5.167941E1,-2.1294989E1,-5.7003613E1,-1.231859E2,-5.1172348E1,-4.1128225E0,-1.2458733E2,-4.1385777E1,-4.1698604E0,-3.0897041E1,-4.0348995E1,-1.9596327E1,-1.9337606E1,6.9698975E1,-1.2781475E1,-9.082262E1,-3.323401E1,-3.3760622E0,2.4613657E1,1.5314484E1,2.8955893E1,-1.0400291E1,4.008513E1,4.004777E0,-1.9447054E1,-1.5426347E2,-1.5495727E1,1.0316313E1,4.8387637E0,-2.3390108E1,-4.5486294E1,1.0724744E1,-1.9648071E1,-9.471365E0,-1.5773248E1,-8.191731E0,-1.9975208E1,-1.2516593E1,-1.9819311E0,-9.518349E0,-1.60562E1,-2.0406702E1,-9.348555E0,-3.9238102E1,-1.7586971E1,-4.1859126E0,1.1769825E1,-6.6006336E0,-1.5861124E1,-4.8997505E1,-3.080228E1,1.001001E0,-7.5259757E0,2.9137092E0,-1.3173251E1,-5.1580515E0,-1.8844208E1,-1.0455485E1,4.078773E0,-9.006564E0,5.592005E0,-1.905857E1,-6.2501225E0,2.462191E1,-1.6812452E1,-1.4314282E0,-3.250881E1,-9.394483E0,5.1921496E0,7.6782227E0,-8.441958E-1,6.769118E0,1.3364589E1,-2.339447E0,1.7577482E0,-4.6163144E0,2.7352804E1,7.854255E0,6.2558393E0,-1.1880813E1,3.109195E0,-1.4048163E1,-7.883386E1,-2.4314684E1,-7.472109E0,1.161484E0,-5.5128646E0,1.1410086E1],"categories":[],"categories_nodes":[],"categories_segments":[],"categories_sizes":[],"default_left":[0,0,0,0,0,0,0,0,0,0,0,0,0,0,0,0,0,0,0,0,0,0,0,0,0,0,0,0,0,0,0,0,0,0,0,0,0,0,0,0,0,0,0,0,0,0,0,0,0,0,0,0,0,0,0,0,0,0,0,0,0,0,0,0,0,0,0,0,0,0,0,0,0,0,0,0,0,0,0,0,0,0,0,0,0,0,0,0,0,0,0,0,0,0,0,0,0,0,0,0,0,0,0,0,0,0,0,0,0,0,0,0,0,0,0,0,0,0,0,0,0,0,0],"id":12,"left_children":[1,3,5,7,9,11,13,15,17,19,21,23,25,27,29,31,33,35,37,39,41,43,45,47,49,51,53,55,57,59,61,63,65,67,69,71,73,75,77,79,81,83,85,87,89,91,93,95,97,99,101,-1,-1,103,105,107,109,111,113,115,117,119,121,-1,-1,-1,-1,-1,-1,-1,-1,-1,-1,-1,-1,-1,-1,-1,-1,-1,-1,-1,-1,-1,-1,-1,-1,-1,-1,-1,-1,-1,-1,-1,-1,-1,-1,-1,-1,-1,-1,-1,-1,-1,-1,-1,-1,-1,-1,-1,-1,-1,-1,-1,-1,-1,-1,-1,-1,-1,-1,-1,-1],"loss_changes":[7.6052345E6,3.555845E5,5.1391E5,5.07165E4,1.4181862E5,6.286175E4,7.445179E4,3.7513875E4,1.2201725E5,8.057194E4,7.278494E4,4.590168E4,4.99245E4,5.9531203E4,1.899536E5,5.66675E3,1.19075E4,7.767884E4,3.5605E4,5.8716406E4,8.889741E4,1.0225525E5,4.1204875E4,2.8321842E4,3.552382E4,5.590801E3,4.0526E4,3.3797367E4,6.574062E4,1.3252278E5,3.677929E4,1.1518875E4,4.0114453E4,1.369875E4,8.727781E3,2.0077375E4,2.9213102E4,2.49125E4,2.2251094E3,4.355272E4,2.6452111E4,7.470931E4,7.160784E4,7.5740016E4,5.6490562E4,4.6963312E4,4.5740383E4,1.1253778E4,1.2912449E4,1.3246683E4,3.9130117E3,0E0,0E0,3.297425E4,6.958343E4,1.4101703E4,1.987679E4,4.8760438E4,1.2645948E5,1.2728779E4,1.0582128E5,3.4728082E4,6.273072E4,0E0,0E0,0E0,0E0,0E0,0E0,0E0,0E0,0E0,0E0,0E0,0E0,0E0,0E0,0E0,0E0,0E0,0E0,0E0,0E0,0E0,0E0,0E0,0E0,0E0,0E0,0E0,0E0,0E0,0E0,0E0,0E0,0E0,0E0,0E0,0E0,0E0,0E0,0E0,0E0,0E0,0E0,0E0,0E0,0E0,0E0,0E0,0E0,0E0,0E0,0E0,0E0,0E0,0E0,0E0,0E0,0E0,0E0,0E0,0E0],"parents":[2147483647,0,0,1,1,2,2,3,3,4,4,5,5,6,6,7,7,8,8,9,9,10,10,11,11,12,12,13,13,14,14,15,15,16,16,17,17,18,18,19,19,20,20,21,21,22,22,23,23,24,24,25,25,26,26,27,27,28,28,29,29,30,30,31,31,32,32,33,33,34,34,35,35,36,36,37,37,38,38,39,39,40,40,41,41,42,42,43,43,44,44,45,45,46,46,47,47,48,48,49,49,50,50,53,53,54,54,55,55,56,56,57,57,58,58,59,59,60,60,61,61,62,62],"right_children":[2,4,6,8,10,12,14,16,18,20,22,24,26,28,30,32,34,36,38,40,42,44,46,48,50,52,54,56,58,60,62,64,66,68,70,72,74,76,78,80,82,84,86,88,90,92,94,96,98,100,102,-1,-1,104,106,108,110,112,114,116,118,120,122,-1,-1,-1,-1,-1,-1,-1,-1,-1,-1,-1,-1,-1,-1,-1,-1,-1,-1,-1,-1,-1,-1,-1,-1,-1,-1,-1,-1,-1,-1,-1,-1,-1,-1,-1,-1,-1,-1,-1,-1,-1,-1,-1,-1,-1,-1,-1,-1,-1,-1,-1,-1,-1,-1,-1,-1,-1,-1,-1,-1],"split_conditions":[8.53261E0,6.3119435E0,7.570461E0,1.4023438E2,8.90466E0,-3.6009243E0,9.0647966E-2,6.9E0,2.1966354E2,1.35E1,9.2440516E-2,1.0144414E1,9.932273E0,1.005E3,9.15688E-2,6.197061E0,9.794156E0,4.603074E0,5.39499E0,1.013E3,2.2498517E2,2.3176083E2,7.7549233E0,9.859257E0,1.71E1,-2.8174095E0,2.8887082E2,8.3E0,1.9638712E2,1.42E1,3.1336954E2,-3.6632543E0,-3.4664445E0,6.079306E0,4.9032516E0,3.8692627E0,8.5E1,1.4E1,3.9486837E0,1.22E1,7E0,9.2334166E-2,1.53E1,9.97E2,8.4E1,9.98E2,1E3,1.42875E2,6.5142174E0,8.2E1,2.3176083E2,-3.323401E1,-3.3760622E0,1.3522223E2,1.185583E1,2.1966354E2,8.6131245E-2,7.7725034E0,1.61E1,9E1,8.241098E0,1.5648471E-1,9.1E0,4.8387637E0,-2.3390108E1,-4.5486294E1,1.0724744E1,-1.9648071E1,-9.471365E0,-1.5773248E1,-8.191731E0,-1.9975208E1,-1.2516593E1,-1.9819311E0,-9.518349E0,-1.60562E1,-2.0406702E1,-9.348555E0,-3.9238102E1,-1.7586971E1,-4.1859126E0,1.1769825E1,-6.6006336E0,-1.5861124E1,-4.8997505E1,-3.080228E1,1.001001E0,-7.5259757E0,2.9137092E0,-1.3173251E1,-5.1580515E0,-1.8844208E1,-1.0455485E1,4.078773E0,-9.006564E0,5.592005E0,-1.905857E1,-6.2501225E0,2.462191E1,-1.6812452E1,-1.4314282E0,-3.250881E1,-9.394483E0,5.1921496E0,7.6782227E0,-8.441958E-1,6.769118E0,1.3364589E1,-2.339447E0,1.7577482E0,-4.6163144E0,2.7352804E1,7.854255E0,6.2558393E0,-1.1880813E1,3.109195E0,-1.4048163E1,-7.883386E1,-2.4314684E1,-7.472109E0,1.161484E0,-5.5128646E0,1.1410086E1],"split_indices":[1,1,7,2,7,0,6,5,2,5,6,1,1,4,6,1,7,1,0,4,2,2,1,1,5,0,2,5,2,5,2,0,0,1,1,1,3,5,1,5,5,6,5,4,3,4,4,2,7,3,2,0,0,2,1,2,6,7,5,3,7,6,5,0,0,0,0,0,0,0,0,0,0,0,0,0,0,0,0,0,0,0,0,0,0,0,0,0,0,0,0,0,0,0,0,0,0,0,0,0,0,0,0,0,0,0,0,0,0,0,0,0,0,0,0,0,0,0,0,0,0,0,0],"split_type":[0,0,0,0,0,0,0,0,0,0,0,0,0,0,0,0,0,0,0,0,0,0,0,0,0,0,0,0,0,0,0,0,0,0,0,0,0,0,0,0,0,0,0,0,0,0,0,0,0,0,0,0,0,0,0,0,0,0,0,0,0,0,0,0,0,0,0,0,0,0,0,0,0,0,0,0,0,0,0,0,0,0,0,0,0,0,0,0,0,0,0,0,0,0,0,0,0,0,0,0,0,0,0,0,0,0,0,0,0,0,0,0,0,0,0,0,0,0,0,0,0,0,0],"sum_hessian":[8.86E3,2.805E3,6.055E3,1.454E3,1.351E3,5.253E3,8.02E2,3.59E2,1.095E3,2.45E2,1.106E3,5.8E1,5.195E3,5.07E2,2.95E2,1.15E2,2.44E2,3.44E2,7.51E2,1.91E2,5.4E1,5.79E2,5.27E2,1.4E1,4.4E1,3E0,5.192E3,2.66E2,2.41E2,2.9E1,2.66E2,1.09E2,6E0,1.65E2,7.9E1,1.53E2,1.91E2,7.43E2,8E0,1.59E2,3.2E1,2.9E1,2.5E1,2.59E2,3.2E2,3.97E2,1.3E2,5E0,9E0,3.8E1,6E0,2E0,1E0,4.664E3,5.28E2,2.3E1,2.43E2,7.1E1,1.7E2,1.4E1,1.5E1,1.89E2,7.7E1,1E0,1.08E2,5E0,1E0,1.49E2,1.6E1,5.6E1,2.3E1,5.9E1,9.4E1,8E1,1.11E2,5.69E2,1.74E2,1E0,7E0,1.32E2,2.7E1,9E0,2.3E1,1.1E1,1.8E1,1E1,1.5E1,1.03E2,1.56E2,1.63E2,1.57E2,7.6E1,3.21E2,3.1E1,9.9E1,3E0,2E0,1E0,8E0,5E0,3.3E1,4E0,2E0,5.54E2,4.11E3,1.51E2,3.77E2,1.6E1,7E0,5.7E1,1.86E2,1.4E1,5.7E1,1.23E2,4.7E1,7E0,7E0,5E0,1E1,1.27E2,6.2E1,3.8E1,3.9E1],"tree_param":{"num_deleted":"0","num_feature":"9","num_nodes":"123","size_leaf_vector":"1"}},{"base_weights":[-2.8403917E-1,-2.7622839E1,1.5326413E1,-3.373913E1,-1.1836463E1,6.697748E0,1.6881384E1,-3.3137314E1,-1.1335319E2,-3.2005615E1,-8.726317E0,5.552025E0,1.0387276E2,-1.7411377E1,1.69249E1,-3.770531E1,-2.5418173E1,-5.8291084E1,-8.9606224E1,-1.1844589E2,-2.5602713E1,-1.27605715E1,3.3183494E0,3.890238E1,4.668294E0,3.661377E-1,1.1514296E2,-2.3800998E0,1.706789E1,-6.0769627E1,-3.6487816E1,1.57097435E1,-2.7182037E1,-1.2166768E1,-2.9546743E1,-5.2552307E1,-4.4241478E1,-1.1559076E1,-4.656734E1,-7.4893845E1,-1.1661623E1,-3.113946E0,3.6582184E1,8.094953E0,-2.1373005E1,1.0336474E1,3.998237E1,6.707036E1,-3.1671444E1,-9.788303E0,1.7166588E1,-1.8368752E1,-4.2902493E0,-1.30976515E1,-9.715063E0,1.2734544E1,-6.1100125E0,-1.5230561E1,-7.5090714E0,-4.560938E0,-1.7980299E1,-1.5702171E1,8.339652E-1,-1.5982977E1,1.0656483E1,1.1481812E0,-2.5219767E1,6.813727E0,-3.9583547E0,3.55991E0,-3.861669E0,-2.523047E0,1.418655E1,-3.9349298E0,3.257341E0,-2.0395407E1,-3.2641578E0,2.7025375E1,-7.298731E0,-1.6885128E1,2.488711E1,-2.0318434E1,5.311828E0,5.136778E0,2.4211916E1],"categories":[],"categories_nodes":[],"categories_segments":[],"categories_sizes":[],"default_left":[0,0,0,0,0,0,0,0,0,0,0,0,0,0,0,0,0,0,0,0,0,0,0,0,0,0,0,0,0,0,0,0,0,0,0,0,0,0,0,0,0,0,0,0,0,0,0,0,0,0,0,0,0,0,0,0,0,0,0,0,0,0,0,0,0,0,0,0,0,0,0,0,0,0,0,0,0,0,0,0,0,0,0,0,0],"id":13,"left_children":[1,3,5,7,9,11,13,15,17,19,21,23,25,-1,27,29,31,-1,33,35,37,39,41,-1,43,-1,45,47,49,51,53,55,57,-1,-1,59,-1,61,63,65,67,69,71,73,75,-1,-1,77,79,81,83,-1,-1,-1,-1,-1,-1,-1,-1,-1,-1,-1,-1,-1,-1,-1,-1,-1,-1,-1,-1,-1,-1,-1,-1,-1,-1,-1,-1,-1,-1,-1,-1,-1,-1],"loss_changes":[3.7820415E6,3.10601E5,7.5574E4,1.0744925E5,5.6239562E4,9.5505984E4,1.6562875E4,8.0318E4,1.526875E4,6.3383688E4,3.8040703E4,9.30707E4,1.1428602E4,0E0,1.3227125E4,3.8387375E4,6.2814875E4,0E0,2.5413438E3,7.550875E3,3.2731133E4,3.9139438E4,4.226459E4,0E0,7.593322E4,0E0,8.5750625E3,7.5358914E4,1.273725E4,6.4053125E2,3.9084375E4,3.559153E4,4.0600812E4,0E0,0E0,1.9166113E2,0E0,4.049423E4,2.667646E4,7.542082E3,3.0702797E4,2.4418984E4,1.5812168E4,4.415393E4,4.7678438E4,0E0,0E0,2.5330043E4,7.80222E4,2.9873559E4,1.182625E4,0E0,0E0,0E0,0E0,0E0,0E0,0E0,0E0,0E0,0E0,0E0,0E0,0E0,0E0,0E0,0E0,0E0,0E0,0E0,0E0,0E0,0E0,0E0,0E0,0E0,0E0,0E0,0E0,0E0,0E0,0E0,0E0,0E0,0E0],"parents":[2147483647,0,0,1,1,2,2,3,3,4,4,5,5,6,6,7,7,8,8,9,9,10,10,11,11,12,12,14,14,15,15,16,16,18,18,19,19,20,20,21,21,22,22,24,24,26,26,27,27,28,28,29,29,30,30,31,31,32,32,35,35,37,37,38,38,39,39,40,40,41,41,42,42,43,43,44,44,47,47,48,48,49,49,50,50],"right_children":[2,4,6,8,10,12,14,16,18,20,22,24,26,-1,28,30,32,-1,34,36,38,40,42,-1,44,-1,46,48,50,52,54,56,58,-1,-1,60,-1,62,64,66,68,70,72,74,76,-1,-1,78,80,82,84,-1,-1,-1,-1,-1,-1,-1,-1,-1,-1,-1,-1,-1,-1,-1,-1,-1,-1,-1,-1,-1,-1,-1,-1,-1,-1,-1,-1,-1,-1,-1,-1,-1,-1],"split_conditions":[9.46946E0,7.691268E0,1.1007775E1,5.39499E0,9.85E2,1.038E3,-3.0834656E0,6.3119435E0,9.207675E-2,1.2214946E2,8.7E1,5.1E0,-3.8691044E0,-1.7411377E1,3.480871E0,3.1293359E0,8.986365E-2,-5.8291084E1,8E1,6.85326E1,2.1051389E2,7.2374845E0,9.343171E0,3.890238E1,-2.2384503E0,3.661377E-1,8.137533E-2,8.183275E-2,9.62E2,-3.1629267E0,8.8E0,7.9E0,9.096197E-2,-1.2166768E1,-2.9546743E1,9.992858E-2,-4.4241478E1,1.5266917E2,-3.55E0,1.04215674E-1,9.9E2,2.2827773E2,7.80631E0,1.2936957E2,6.9E0,1.0336474E1,3.998237E1,9.2E1,1.001E3,2.3101292E0,2.0817425E1,-1.8368752E1,-4.2902493E0,-1.30976515E1,-9.715063E0,1.2734544E1,-6.1100125E0,-1.5230561E1,-7.5090714E0,-4.560938E0,-1.7980299E1,-1.5702171E1,8.339652E-1,-1.5982977E1,1.0656483E1,1.1481812E0,-2.5219767E1,6.813727E0,-3.9583547E0,3.55991E0,-3.861669E0,-2.523047E0,1.418655E1,-3.9349298E0,3.257341E0,-2.0395407E1,-3.2641578E0,2.7025375E1,-7.298731E0,-1.6885128E1,2.488711E1,-2.0318434E1,5.311828E0,5.136778E0,2.4211916E1],"split_indices":[1,1,1,0,4,4,0,1,6,2,3,5,0,0,7,1,6,0,3,2,2,2,7,0,0,0,6,6,4,0,5,5,6,0,0,6,0,2,0,6,4,2,1,2,5,0,0,3,4,0,0,0,0,0,0,0,0,0,0,0,0,0,0,0,0,0,0,0,0,0,0,0,0,0,0,0,0,0,0,0,0,0,0,0,0],"split_type":[0,0,0,0,0,0,0,0,0,0,0,0,0,0,0,0,0,0,0,0,0,0,0,0,0,0,0,0,0,0,0,0,0,0,0,0,0,0,0,0,0,0,0,0,0,0,0,0,0,0,0,0,0,0,0,0,0,0,0,0,0,0,0,0,0,0,0,0,0,0,0,0,0,0,0,0,0,0,0,0,0,0,0,0,0],"sum_hessian":[8.86E3,3.22E3,5.64E3,2.32E3,9E2,8.62E2,4.778E3,2.304E3,1.6E1,1.19E2,7.81E2,8.53E2,9E0,2E0,4.776E3,1.445E3,8.59E2,2E0,1.4E1,7E0,1.12E2,5.85E2,1.96E2,5E0,8.48E2,1E0,8E0,3.5E1,4.741E3,7E1,1.375E3,3.5E1,8.24E2,3E0,1.1E1,3E0,4E0,6.8E1,4.4E1,9E0,5.76E2,1.65E2,3.1E1,7.5E2,9.8E1,2E0,6E0,1E1,2.5E1,1.7E1,4.724E3,6.9E1,1E0,4.97E2,8.78E2,2E1,1.5E1,6.7E1,7.57E2,1E0,2E0,1.7E1,5.1E1,4.1E1,3E0,1E0,8E0,2.4E1,5.52E2,6.5E1,1E2,6E0,2.5E1,8.6E1,6.64E2,1.7E1,8.1E1,8E0,2E0,2.1E1,4E0,5E0,1.2E1,4.722E3,2E0],"tree_param":{"num_deleted":"0","num_feature":"9","num_nodes":"85","size_leaf_vector":"1"}},{"base_weights":[-2.1782047E-1,-2.1807127E1,9.603914E0,-3.2612835E1,-1.9116558E1,1.1564338E1,-2.1112974E0,-3.0879934E1,-8.522984E1,-2.4641691E1,-1.2382507E1,-2.2329214E1,1.1790941E1,-8.836467E0,5.079927E0,-7.0339165E1,-2.944915E1,-4.663286E1,-6.550525E1,-4.277906E1,-2.3017925E1,-6.3830334E1,-1.1377542E1,-7.3686966E1,-1.7174166E0,-6.778064E1,1.1850099E1,-1.0792219E1,3.181694E1,1.7905954E1,-1.9601605E0,6.6895022E0,-7.71001E1,1.8560621E1,-2.9922997E1,-7.007333E1,-7.1625433E0,-5.1161385E1,-1.5920933E1,-3.2929615E1,-2.0237207E1,-8.174998E1,-1.1379456E1,-8.075989E0,-2.6719398E1,-2.9678808E1,-9.807926E1,2.2878305E1,-2.4433628E1,-2.7238697E1,1.8966065E-1,8.020664E1,1.178179E1,-6.1887714E1,-9.310181E0,4.4503338E1,-9.967823E0,1.2253049E1,7.1944664E1,1.1366987E1,-3.0736525E1,-1.0510317E1,-2.9058023E1,-7.904321E0,-1.35870905E1,-8.811063E0,-2.2441166E1,-9.19517E0,-1.8818537E1,-9.722949E0,-1.9511539E-1,-8.617907E0,-1.32188425E1,-6.3789487E0,3.5001502E0,-2.7216038E1,5.229291E0,3.9508393E0,-1.2095459E1,9.063232E0,-2.7991803E0,-2.5419882E1,-6.092498E0,-1.1968897E1,-2.870508E0,-3.4573463E1,-1.274961E1,-5.97757E-1,1.5667909E1,1.2104492E0,-1.2209327E1,2.8717934E1,2.7191162E0,3.8429465E0,2.5103252E0,8.736622E0,-2.8638031E1,-1.8459203E0,-9.945869E0,2.7020752E0,1.7238892E1,1.7543934E1,2.3259773E0,3.0044825E1,5.2940307E0,6.621754E0,-9.1421443E-1,-1.1062997E1,3.1767097E1],"categories":[],"categories_nodes":[],"categories_segments":[],"categories_sizes":[],"default_left":[0,0,0,0,0,0,0,0,0,0,0,0,0,0,0,0,0,0,0,0,0,0,0,0,0,0,0,0,0,0,0,0,0,0,0,0,0,0,0,0,0,0,0,0,0,0,0,0,0,0,0,0,0,0,0,0,0,0,0,0,0,0,0,0,0,0,0,0,0,0,0,0,0,0,0,0,0,0,0,0,0,0,0,0,0,0,0,0,0,0,0,0,0,0,0,0,0,0,0,0,0,0,0,0,0,0,0,0,0],"id":14,"left_children":[1,3,5,7,9,11,13,15,17,19,21,23,25,27,29,31,33,-1,35,37,39,41,43,45,47,49,51,53,55,57,59,-1,61,-1,63,65,-1,67,69,71,73,75,77,79,81,83,85,87,89,-1,-1,91,93,95,97,99,-1,101,103,105,107,-1,-1,-1,-1,-1,-1,-1,-1,-1,-1,-1,-1,-1,-1,-1,-1,-1,-1,-1,-1,-1,-1,-1,-1,-1,-1,-1,-1,-1,-1,-1,-1,-1,-1,-1,-1,-1,-1,-1,-1,-1,-1,-1,-1,-1,-1,-1,-1],"loss_changes":[1.8791351E6,7.993925E4,1.3991506E5,4.7608312E4,8.2330625E4,4.0339438E4,4.2313453E4,2.8133406E4,1.3361352E4,3.4915812E4,5.113217E4,3.6923594E4,2.5205688E4,3.6280996E4,3.8230453E4,1.2992883E4,2.4265469E4,0E0,1.1795391E3,2.1473688E4,3.0230188E4,1.6927844E4,4.9676383E4,7.8237188E3,1.5085762E4,6.35549E3,2.3246812E4,3.213723E4,1.8807059E4,4.4939812E4,1.0543026E5,0E0,1.0737273E4,0E0,2.7156812E4,3.061172E2,0E0,1.5871078E4,6.273782E3,1.0152406E4,2.8987062E4,1.4036695E4,4.793458E3,3.9286344E4,6.2994867E4,6.4565186E2,8.266914E2,9.592897E3,6.646412E3,0E0,0E0,4.6529824E3,1.8062688E4,3.944498E4,3.1486426E4,7.7628047E3,0E0,2.8044055E4,1.967311E4,2.9078186E4,7.688974E4,0E0,0E0,0E0,0E0,0E0,0E0,0E0,0E0,0E0,0E0,0E0,0E0,0E0,0E0,0E0,0E0,0E0,0E0,0E0,0E0,0E0,0E0,0E0,0E0,0E0,0E0,0E0,0E0,0E0,0E0,0E0,0E0,0E0,0E0,0E0,0E0,0E0,0E0,0E0,0E0,0E0,0E0,0E0,0E0,0E0,0E0,0E0,0E0],"parents":[2147483647,0,0,1,1,2,2,3,3,4,4,5,5,6,6,7,7,8,8,9,9,10,10,11,11,12,12,13,13,14,14,15,15,16,16,18,18,19,19,20,20,21,21,22,22,23,23,24,24,25,25,26,26,27,27,28,28,29,29,30,30,32,32,34,34,35,35,37,37,38,38,39,39,40,40,41,41,42,42,43,43,44,44,45,45,46,46,47,47,48,48,51,51,52,52,53,53,54,54,55,55,57,57,58,58,59,59,60,60],"right_children":[2,4,6,8,10,12,14,16,18,20,22,24,26,28,30,32,34,-1,36,38,40,42,44,46,48,50,52,54,56,58,60,-1,62,-1,64,66,-1,68,70,72,74,76,78,80,82,84,86,88,90,-1,-1,92,94,96,98,100,-1,102,104,106,108,-1,-1,-1,-1,-1,-1,-1,-1,-1,-1,-1,-1,-1,-1,-1,-1,-1,-1,-1,-1,-1,-1,-1,-1,-1,-1,-1,-1,-1,-1,-1,-1,-1,-1,-1,-1,-1,-1,-1,-1,-1,-1,-1,-1,-1,-1,-1,-1],"split_conditions":[8.46821E0,8.883602E0,7.52457E0,3.6865802E0,6.494101E0,-3.6286273E0,1.01E3,9.69E2,9.207675E-2,7.5E1,7.2374845E0,8.585294E-2,9.932273E0,3.2501755E2,1.9638712E2,-3.654433E0,8.6261526E-2,-4.663286E1,1.9809868E1,1.013E3,4.028168E0,1.015E3,-3.4880953E0,-3.7070174E0,1.23E1,-2.8174095E0,4.4E0,7.6E1,3.5243182E2,1.8308333E2,1.61E1,6.6895022E0,8.519084E0,1.8560621E1,1.39E1,8E1,-7.1625433E0,9.285891E-2,-3.4894953E0,-3.4625883E0,3.4976138E2,9.496876E0,-3.534351E0,6.59591E0,9.124403E-2,7.361809E0,2.3176083E2,-3.6978164E0,2.1190808E2,-2.7238697E1,1.8966065E-1,-5.5115384E-1,1.31E1,4.1819447E1,1.37E1,7.8E1,-9.967823E0,5.4E0,8.5569315E0,8.321235E0,1.82E1,-1.0510317E1,-2.9058023E1,-7.904321E0,-1.35870905E1,-8.811063E0,-2.2441166E1,-9.19517E0,-1.8818537E1,-9.722949E0,-1.9511539E-1,-8.617907E0,-1.32188425E1,-6.3789487E0,3.5001502E0,-2.7216038E1,5.229291E0,3.9508393E0,-1.2095459E1,9.063232E0,-2.7991803E0,-2.5419882E1,-6.092498E0,-1.1968897E1,-2.870508E0,-3.4573463E1,-1.274961E1,-5.97757E-1,1.5667909E1,1.2104492E0,-1.2209327E1,2.8717934E1,2.7191162E0,3.8429465E0,2.5103252E0,8.736622E0,-2.8638031E1,-1.8459203E0,-9.945869E0,2.7020752E0,1.7238892E1,1.7543934E1,2.3259773E0,3.0044825E1,5.2940307E0,6.621754E0,-9.1421443E-1,-1.1062997E1,3.1767097E1],"split_indices":[1,7,7,0,1,0,4,4,6,3,2,6,1,2,2,0,6,0,0,4,1,4,0,0,5,0,5,3,2,2,5,0,7,0,5,3,0,6,0,0,2,7,0,1,6,7,2,0,2,0,0,0,5,2,5,3,0,5,7,7,5,0,0,0,0,0,0,0,0,0,0,0,0,0,0,0,0,0,0,0,0,0,0,0,0,0,0,0,0,0,0,0,0,0,0,0,0,0,0,0,0,0,0,0,0,0,0,0,0],"split_type":[0,0,0,0,0,0,0,0,0,0,0,0,0,0,0,0,0,0,0,0,0,0,0,0,0,0,0,0,0,0,0,0,0,0,0,0,0,0,0,0,0,0,0,0,0,0,0,0,0,0,0,0,0,0,0,0,0,0,0,0,0,0,0,0,0,0,0,0,0,0,0,0,0,0,0,0,0,0,0,0,0,0,0,0,0,0,0,0,0,0,0,0,0,0,0,0,0,0,0,0,0,0,0,0,0,0,0,0,0],"sum_hessian":[8.86E3,2.77E3,6.09E3,5.5E2,2.22E3,5.217E3,8.73E2,5.34E2,1.6E1,1.218E3,1.002E3,3.4E1,5.183E3,4.51E2,4.22E2,1.7E1,5.17E2,2E0,1.4E1,9.8E1,1.12E3,1.8E1,9.84E2,9E0,2.5E1,3E0,5.18E3,4.31E2,2E1,1.49E2,2.73E2,1E0,1.6E1,2E0,5.15E2,1.2E1,2E0,7.4E1,2.4E1,2.43E2,8.77E2,1.3E1,5E0,8.11E2,1.73E2,4E0,5E0,1.2E1,1.3E1,2E0,1E0,4E0,5.176E3,1.1E1,4.2E2,1.7E1,3E0,1.36E2,1.3E1,1.87E2,8.6E1,6E0,1E1,4.2E2,9.5E1,2E0,1E1,2.8E1,4.6E1,1.1E1,1.3E1,1.79E2,6.4E1,8.5E2,2.7E1,1.2E1,1E0,3E0,2E0,2.5E1,7.86E2,1.6E1,1.57E2,2E0,2E0,3E0,2E0,7E0,5E0,5E0,8E0,3E0,1E0,3.976E3,1.2E3,3E0,8E0,3.72E2,4.8E1,5E0,1.2E1,1.1E1,1.25E2,8E0,5E0,1.07E2,8E1,8.3E1,3E0],"tree_param":{"num_deleted":"0","num_feature":"9","num_nodes":"109","size_leaf_vector":"1"}},{"base_weights":[-1.7793863E-1,-1.5837724E1,6.5637603E0,-1.6933727E1,-3.2369566E-1,-2.22689E0,8.089516E0,-1.7749943E1,3.3938081E0,-2.0814095E1,1.3275763E1,2.4490185E0,-1.1257874E1,8.293593E0,-1.2583689E1,-1.742326E1,-6.842226E1,-2.9167458E1,5.454678E0,2.0073465E1,-3.1208818E1,4.4638414E0,4.356433E1,4.6684427E0,-4.5236004E1,-3.63951E1,-7.227768E0,5.528085E0,9.583233E0,-4.2441547E1,3.7310963E1,-4.1797554E1,-1.6871805E1,-3.5630207E1,-4.5938705E1,7.815636E0,-3.907789E1,-1.811391E1,3.0132956E1,-5.4289402E1,-8.626648E0,-7.7311797E0,3.1965473E1,4.9909206E1,-6.37352E-1,1.8235857E1,3.4092796E-1,-2.6729631E1,-2.8460983E1,6.3596554E0,-1.0215882E2,-1.2029553E1,2.4451376E1,-6.538538E0,8.560986E0,8.8069725E0,2.626131E1,-9.593062E1,-1.5014532E1,7.215311E1,8.070109E0,-1.6802847E1,4.879789E0,1.8248579E1,-5.1295753E0,-2.4610639E0,-1.458702E1,7.618629E0,3.676846E-2,-2.270796E1,3.1690156E0,2.363357E1,4.638142E0,-6.9563264E-1,-2.4909946E1,1.8425298E0,-1.31306095E1,1.8545229E1,-3.3767993E0,1.6461931E1,-5.220451E0,6.5128827E0,1.967785E1,3.0095856E0,-4.8967896E0,2.38588E0,1.2374181E1,-1.4021723E0,6.3113217E0,-4.5340333E0,-2.4422901E1,1.3920901E1,-4.8719893E0,-5.4494095E1,-1.6170454E1,2.8532016E0,-5.730513E0,-2.8601027E0,1.3953473E1,-2.1402649E1,-4.9162023E-2,-2.3282167E1,2.6637623E0,1.8928354E1,2.5981913E0,1.2054309E1,-5.172585E0,-2.6538086E0,-3.428996E1,-2.0175734E1,2.2135212E0,3.0330458E1,-5.8332763E0,-2.9714155E0,3.0868982E1],"categories":[],"categories_nodes":[],"categories_segments":[],"categories_sizes":[],"default_left":[0,0,0,0,0,0,0,0,0,0,0,0,0,0,0,0,0,0,0,0,0,0,0,0,0,0,0,0,0,0,0,0,0,0,0,0,0,0,0,0,0,0,0,0,0,0,0,0,0,0,0,0,0,0,0,0,0,0,0,0,0,0,0,0,0,0,0,0,0,0,0,0,0,0,0,0,0,0,0,0,0,0,0,0,0,0,0,0,0,0,0,0,0,0,0,0,0,0,0,0,0,0,0,0,0,0,0,0,0,0,0,0,0,0,0],"id":15,"left_children":[1,3,5,7,9,11,13,15,17,19,21,23,25,27,29,31,33,-1,35,37,39,41,43,45,47,49,51,53,55,57,59,61,63,-1,65,67,69,-1,71,73,75,77,79,81,83,85,87,-1,89,91,93,95,97,99,101,103,105,107,109,111,113,-1,-1,-1,-1,-1,-1,-1,-1,-1,-1,-1,-1,-1,-1,-1,-1,-1,-1,-1,-1,-1,-1,-1,-1,-1,-1,-1,-1,-1,-1,-1,-1,-1,-1,-1,-1,-1,-1,-1,-1,-1,-1,-1,-1,-1,-1,-1,-1,-1,-1,-1,-1,-1,-1],"loss_changes":[9.3559125E5,4.5342688E4,8.310772E4,4.139E4,4.9598844E4,3.87507E4,2.2376125E4,3.8454312E4,2.0644441E4,3.080253E4,2.8363887E4,6.4240316E4,3.1445617E4,1.8592688E4,7.905041E4,3.1298438E4,1.1523023E4,0E0,1.0398813E4,1.3959187E4,2.9240617E4,2.84193E4,6.762711E3,3.3988715E4,1.7330727E4,1.215533E5,4.1517695E4,6.0989766E4,4.5910188E4,4.6972152E4,1.9793996E4,4.382117E4,4.2096375E4,0E0,8.168008E2,1.2439211E4,9.88773E3,0E0,8.77457E3,4.1634727E4,1.5838587E4,1.515944E4,3.0357768E4,7.8637188E3,8.33152E2,3.2799406E4,4.5766418E4,0E0,1.3611049E4,2.5187621E4,5.5418984E4,3.6132926E4,2.7433236E4,1.3837728E5,3.71859E4,2.6519438E4,9.637017E4,1.658536E4,2.74007E4,2.5830234E4,2.1473043E4,0E0,0E0,0E0,0E0,0E0,0E0,0E0,0E0,0E0,0E0,0E0,0E0,0E0,0E0,0E0,0E0,0E0,0E0,0E0,0E0,0E0,0E0,0E0,0E0,0E0,0E0,0E0,0E0,0E0,0E0,0E0,0E0,0E0,0E0,0E0,0E0,0E0,0E0,0E0,0E0,0E0,0E0,0E0,0E0,0E0,0E0,0E0,0E0,0E0,0E0,0E0,0E0,0E0,0E0],"parents":[2147483647,0,0,1,1,2,2,3,3,4,4,5,5,6,6,7,7,8,8,9,9,10,10,11,11,12,12,13,13,14,14,15,15,16,16,18,18,19,19,20,20,21,21,22,22,23,23,24,24,25,25,26,26,27,27,28,28,29,29,30,30,31,31,32,32,34,34,35,35,36,36,38,38,39,39,40,40,41,41,42,42,43,43,44,44,45,45,46,46,48,48,49,49,50,50,51,51,52,52,53,53,54,54,55,55,56,56,57,57,58,58,59,59,60,60],"right_children":[2,4,6,8,10,12,14,16,18,20,22,24,26,28,30,32,34,-1,36,38,40,42,44,46,48,50,52,54,56,58,60,62,64,-1,66,68,70,-1,72,74,76,78,80,82,84,86,88,-1,90,92,94,96,98,100,102,104,106,108,110,112,114,-1,-1,-1,-1,-1,-1,-1,-1,-1,-1,-1,-1,-1,-1,-1,-1,-1,-1,-1,-1,-1,-1,-1,-1,-1,-1,-1,-1,-1,-1,-1,-1,-1,-1,-1,-1,-1,-1,-1,-1,-1,-1,-1,-1,-1,-1,-1,-1,-1,-1,-1,-1,-1,-1],"split_conditions":[8.28467E0,9.3E1,-3.4851806E0,1.023E3,9.250022E0,9.0647966E-2,7.875686E0,2.494004E0,6.4E0,9.213462E-2,1.016E3,2.8998438E2,9.15688E-2,1.001E3,1.2584682E-1,9.75E2,7.9E0,-2.9167458E1,2.8461795E2,1.2936957E2,8.1E0,7.2191358E0,1.00014105E1,1.927875E2,8.890864E0,1.42E1,1.76E1,2.7778974E-1,7.2654347E0,7.977271E0,1.6103385E-1,3.0705554E2,9.76E2,-3.5630207E1,3.1293359E0,1.026E3,-3.5755072E0,-1.811391E1,-3.621951E0,2.0644127E2,-3.455593E0,9.038746E-2,9.98E2,9.455159E0,-3.4680116E0,1.7804547E2,8.746568E0,-2.6729631E1,2.9732846E2,2.1382014E2,8.241098E0,4.1819447E1,1.071347E-1,1.3522223E2,1.1602891E1,3.6177938E0,1.31E1,8.338489E-2,1.927875E2,-2.9131818E0,2.2173558E-1,-1.6802847E1,4.879789E0,1.8248579E1,-5.1295753E0,-2.4610639E0,-1.458702E1,7.618629E0,3.676846E-2,-2.270796E1,3.1690156E0,2.363357E1,4.638142E0,-6.9563264E-1,-2.4909946E1,1.8425298E0,-1.31306095E1,1.8545229E1,-3.3767993E0,1.6461931E1,-5.220451E0,6.5128827E0,1.967785E1,3.0095856E0,-4.8967896E0,2.38588E0,1.2374181E1,-1.4021723E0,6.3113217E0,-4.5340333E0,-2.4422901E1,1.3920901E1,-4.8719893E0,-5.4494095E1,-1.6170454E1,2.8532016E0,-5.730513E0,-2.8601027E0,1.3953473E1,-2.1402649E1,-4.9162023E-2,-2.3282167E1,2.6637623E0,1.8928354E1,2.5981913E0,1.2054309E1,-5.172585E0,-2.6538086E0,-3.428996E1,-2.0175734E1,2.2135212E0,3.0330458E1,-5.8332763E0,-2.9714155E0,3.0868982E1],"split_indices":[1,3,0,4,7,6,7,0,5,6,4,2,6,4,6,4,5,0,2,2,5,1,7,2,1,5,5,0,7,7,6,2,4,0,1,4,0,0,0,2,0,6,4,7,0,2,7,0,2,2,7,2,6,2,1,7,5,6,2,0,6,0,0,0,0,0,0,0,0,0,0,0,0,0,0,0,0,0,0,0,0,0,0,0,0,0,0,0,0,0,0,0,0,0,0,0,0,0,0,0,0,0,0,0,0,0,0,0,0,0,0,0,0,0,0],"split_type":[0,0,0,0,0,0,0,0,0,0,0,0,0,0,0,0,0,0,0,0,0,0,0,0,0,0,0,0,0,0,0,0,0,0,0,0,0,0,0,0,0,0,0,0,0,0,0,0,0,0,0,0,0,0,0,0,0,0,0,0,0,0,0,0,0,0,0,0,0,0,0,0,0,0,0,0,0,0,0,0,0,0,0,0,0,0,0,0,0,0,0,0,0,0,0,0,0,0,0,0,0,0,0,0,0,0,0,0,0,0,0,0,0,0,0],"sum_hessian":[8.86E3,2.666E3,6.194E3,2.49E3,1.76E2,9.16E2,5.278E3,2.394E3,9.6E1,7E1,1.06E2,6.04E2,3.12E2,5.227E3,5.1E1,2.38E3,1.4E1,1E0,9.5E1,1.4E1,5.6E1,8.3E1,2.3E1,5.78E2,2.6E1,4.2E1,2.7E2,1.664E3,3.563E3,3.2E1,1.9E1,5.1E1,2.329E3,3E0,1.1E1,9.1E1,4E0,1E0,1.3E1,2.7E1,2.9E1,5.8E1,2.5E1,2E1,3E0,1.39E2,4.39E2,6E0,2E1,2.6E1,1.6E1,2.35E2,3.5E1,3.34E2,1.33E3,3.406E3,1.57E2,1E1,2.2E1,8E0,1.1E1,4.1E1,1E1,6E0,2.323E3,1E0,1E1,2.7E1,6.4E1,2E0,2E0,2E0,1.1E1,1E1,1.7E1,2.1E1,8E0,2E0,5.6E1,1.7E1,8E0,8E0,1.2E1,2E0,1E0,9.7E1,4.2E1,3.54E2,8.5E1,1.7E1,3E0,9E0,1.7E1,5E0,1.1E1,5.8E1,1.77E2,1.4E1,2.1E1,2.9E1,3.05E2,4E0,1.326E3,8E0,3.398E3,1.19E2,3.8E1,2E0,8E0,6E0,1.6E1,6E0,2E0,1E1,1E0],"tree_param":{"num_deleted":"0","num_feature":"9","num_nodes":"115","size_leaf_vector":"1"}},{"base_weights":[-1.4415702E-1,-9.712213E0,5.413055E0,-1.6934809E1,-7.629269E0,5.284572E0,4.5006252E1,-2.824086E1,-1.3700285E1,-7.225106E0,-6.360868E1,-1.2710352E1,5.6214037E0,2.499759E1,-2.5711534E0,-2.9635075E1,3.389079E1,-2.6893353E1,-1.2204767E1,-1.4816479E1,-5.084533E0,-3.765015E1,-9.902206E1,-2.2215192E0,-3.699985E1,6.660001E1,5.5536375E0,-3.0023397E1,3.925E1,-2.0802986E1,-3.54271E1,1.6669396E0,1.2445024E1,-1.1117402E1,-3.4488766E1,-1.7757057E1,-7.68477E0,-5.6408E1,-1.1192032E1,2.2670481E0,-1.0595323E1,-3.9767213E0,-4.120346E1,-1.11184265E2,-3.9073243E0,-1.0472619E1,6.612775E1,-4.8560224E0,-6.318559E1,2.3207403E1,1.9215089E0,-1.671441E0,6.142635E0,-1.139691E1,1.4712158E0,1.4236085E1,2.1958742E0,-4.1262326E0,-8.4271E0,-1.2503457E1,-5.242532E0,-1.6395602E0,-8.094291E0,-1.39015465E1,-7.4237914E0,-4.7832136E0,-1.1086935E1,-3.6834723E-1,-5.60419E0,-6.296146E0,-1.9474977E1,-4.2804255E0,5.1994457E0,9.465763E-1,-1.636427E1,-4.503836E0,4.302589E-1,-1.6017385E1,-7.2539096E0,-3.913917E1,-1.4525001E1,-1.5518626E0,-2.7397633E1,2.535084E1,-9.374634E0,-1.55819E1,9.691244E0,-3.091845E1,-7.489893E0,7.0196944E-1,-1.6501835E1,-5.092938E0,1.8878644E0],"categories":[],"categories_nodes":[],"categories_segments":[],"categories_sizes":[],"default_left":[0,0,0,0,0,0,0,0,0,0,0,0,0,0,0,0,0,0,0,0,0,0,0,0,0,0,0,0,0,0,0,0,0,0,0,0,0,0,0,0,0,0,0,0,0,0,0,0,0,0,0,0,0,0,0,0,0,0,0,0,0,0,0,0,0,0,0,0,0,0,0,0,0,0,0,0,0,0,0,0,0,0,0,0,0,0,0,0,0,0,0,0,0],"id":16,"left_children":[1,3,5,7,9,11,13,15,17,19,21,23,25,-1,27,29,31,33,35,37,39,41,43,45,47,49,51,53,55,57,59,-1,-1,61,63,65,67,69,71,73,75,-1,77,79,-1,81,83,85,87,-1,-1,89,91,-1,-1,-1,-1,-1,-1,-1,-1,-1,-1,-1,-1,-1,-1,-1,-1,-1,-1,-1,-1,-1,-1,-1,-1,-1,-1,-1,-1,-1,-1,-1,-1,-1,-1,-1,-1,-1,-1,-1,-1],"loss_changes":[4.7120712E5,4.8854875E4,2.8280125E4,2.6235828E4,5.6758625E4,3.3947797E4,3.3030418E4,1.4950945E4,1.08786875E4,4.0744375E4,1.2818828E4,2.6158959E4,2.2303922E4,0E0,1.1511179E4,7.3456094E3,6.300259E2,6.4465938E3,1.2712859E4,8.258061E4,7.947005E4,4.9398828E2,5.8733438E3,4.1861367E4,2.5786172E4,3.3899824E3,2.3339219E4,1.8557583E3,7.0043896E2,2.952537E3,9.820305E3,0E0,0E0,1.6458254E3,3.2403867E3,7.381961E3,2.0140975E4,1.1898375E4,4.4906855E4,4.2611562E4,5.959142E4,0E0,7.838418E2,9.441875E2,0E0,2.7808537E4,1.6954992E4,2.7922404E4,2.3335414E4,0E0,0E0,8.87013E4,1.7714219E4,0E0,0E0,0E0,0E0,0E0,0E0,0E0,0E0,0E0,0E0,0E0,0E0,0E0,0E0,0E0,0E0,0E0,0E0,0E0,0E0,0E0,0E0,0E0,0E0,0E0,0E0,0E0,0E0,0E0,0E0,0E0,0E0,0E0,0E0,0E0,0E0,0E0,0E0,0E0,0E0],"parents":[2147483647,0,0,1,1,2,2,3,3,4,4,5,5,6,6,7,7,8,8,9,9,10,10,11,11,12,12,14,14,15,15,16,16,17,17,18,18,19,19,20,20,21,21,22,22,23,23,24,24,25,25,26,26,27,27,28,28,29,29,30,30,33,33,34,34,35,35,36,36,37,37,38,38,39,39,40,40,42,42,43,43,45,45,46,46,47,47,48,48,51,51,52,52],"right_children":[2,4,6,8,10,12,14,16,18,20,22,24,26,-1,28,30,32,34,36,38,40,42,44,46,48,50,52,54,56,58,60,-1,-1,62,64,66,68,70,72,74,76,-1,78,80,-1,82,84,86,88,-1,-1,90,92,-1,-1,-1,-1,-1,-1,-1,-1,-1,-1,-1,-1,-1,-1,-1,-1,-1,-1,-1,-1,-1,-1,-1,-1,-1,-1,-1,-1,-1,-1,-1,-1,-1,-1,-1,-1,-1,-1,-1,-1],"split_conditions":[9.543357E0,4.8354106E0,8.241098E0,8E0,-3.1629267E0,-3.8541305E0,8.5E1,9.3E1,9.9E2,1.2936957E2,7.2191358E0,1.65E1,4.4E0,2.499759E1,8.9E1,3.9486837E0,-3.4743092E0,9.233072E0,3.8692627E0,9.95E2,2.378375E2,8E1,3.085481E2,1.58E1,1.9638712E2,-5.5115384E-1,7E0,-3.5155554E0,-3.8290544E0,-3.4689004E0,4.6915903E0,1.6669396E0,1.2445024E1,4.4383965E0,8.9E1,1.1347869E1,4.4383965E0,5.9996696E0,1.7E1,9.6E1,3.1336954E2,-3.9767213E0,8.7E1,1.1931502E-1,-3.9073243E0,1.51E1,2.7623062E2,9.73951E0,9.932273E0,2.3207403E1,1.9215089E0,2.9821747E2,3.480871E0,-1.139691E1,1.4712158E0,1.4236085E1,2.1958742E0,-4.1262326E0,-8.4271E0,-1.2503457E1,-5.242532E0,-1.6395602E0,-8.094291E0,-1.39015465E1,-7.4237914E0,-4.7832136E0,-1.1086935E1,-3.6834723E-1,-5.60419E0,-6.296146E0,-1.9474977E1,-4.2804255E0,5.1994457E0,9.465763E-1,-1.636427E1,-4.503836E0,4.302589E-1,-1.6017385E1,-7.2539096E0,-3.913917E1,-1.4525001E1,-1.5518626E0,-2.7397633E1,2.535084E1,-9.374634E0,-1.55819E1,9.691244E0,-3.091845E1,-7.489893E0,7.0196944E-1,-1.6501835E1,-5.092938E0,1.8878644E0],"split_indices":[1,1,7,5,0,0,3,3,4,2,1,5,5,0,3,1,0,7,1,4,2,3,2,5,2,0,5,0,0,0,1,0,0,1,3,7,1,1,5,3,2,0,3,6,0,5,2,1,1,0,0,2,7,0,0,0,0,0,0,0,0,0,0,0,0,0,0,0,0,0,0,0,0,0,0,0,0,0,0,0,0,0,0,0,0,0,0,0,0,0,0,0,0],"split_type":[0,0,0,0,0,0,0,0,0,0,0,0,0,0,0,0,0,0,0,0,0,0,0,0,0,0,0,0,0,0,0,0,0,0,0,0,0,0,0,0,0,0,0,0,0,0,0,0,0,0,0,0,0,0,0,0,0,0,0,0,0,0,0,0,0,0,0,0,0,0,0,0,0,0,0,0,0,0,0,0,0,0,0,0,0,0,0,0,0,0,0,0,0],"sum_hessian":[8.86E3,3.255E3,5.605E3,7.27E2,2.528E3,5.588E3,1.7E1,1.6E2,5.67E2,2.511E3,1.7E1,1.02E2,5.486E3,9E0,8E0,1.57E2,3E0,5.6E1,5.11E2,5.51E2,1.96E3,1.1E1,6E0,7.2E1,3E1,5E0,5.481E3,5E0,3E0,6.4E1,9.3E1,1E0,2E0,1.9E1,3.7E1,2.28E2,2.83E2,4.3E1,5.08E2,8.4E2,1.12E3,2E0,9E0,5E0,1E0,6.5E1,7E0,1.4E1,1.6E1,4E0,1E0,4.13E2,5.068E3,4E0,1E0,2E0,1E0,3.4E1,3E1,6.8E1,2.5E1,1.5E1,4E0,1.5E1,2.2E1,2.1E2,1.8E1,1.79E2,1.04E2,9E0,3.4E1,4.59E2,4.9E1,8.28E2,1.2E1,8.19E2,3.01E2,4E0,5E0,3E0,2E0,6.2E1,3E0,6E0,1E0,6E0,8E0,7E0,9E0,3.85E2,2.8E1,3.2E1,5.036E3],"tree_param":{"num_deleted":"0","num_feature":"9","num_nodes":"93","size_leaf_vector":"1"}},{"base_weights":[-1.254084E-1,-8.713059E0,3.1726017E0,1.0193939E1,-9.27947E0,2.6543584E0,1.1221949E1,-2.6130802E1,1.7894402E1,-1.3366475E1,-6.58899E0,-2.328752E0,3.685228E0,3.165377E0,2.3792713E1,8.63921E0,-4.2544052E1,3.3007553E1,1.6809977E0,-1.01022E1,-2.7608828E1,-1.2025512E0,-1.03498335E1,-5.9401997E1,-1.9370939E0,5.2492462E1,3.5273924E0,-4.5289227E1,3.7704766E0,3.5027863E1,1.4414345E1,-5.6020813E0,9.921686E0,-4.9772564E1,-3.4488525E0,2.4468811E1,2.2793358E1,-2.61767E1,2.1707058E1,1.317682E0,-1.6317251E1,-3.2930148E0,-3.8634254E1,-8.599464E0,1.6847736E1,-4.021468E1,-9.206781E0,3.1250246E0,-7.2774574E1,9.805879E0,-3.9120913E0,7.427716E1,-1.0289307E1,3.2963762E0,1.8982471E1,5.944702E0,-2.6324854E1,1.7236399E1,2.9042902E0,-2.3162598E1,3.8069927E1,4.5148438E1,7.622548E0,-1.8302517E1,-4.3366027E0,9.949573E0,-3.4735475E0,-1.1844712E1,4.089496E0,-1.2663526E1,9.700543E0,-2.035259E0,5.443158E0,-5.5212417E0,3.5803082E0,4.0212946E0,-4.870469E0,-1.2696801E1,1.1734236E1,-1.8785065E0,-1.2770505E1,1.3335321E1,2.544662E0,-1.6775835E1,1.3164062E0,-3.791993E0,6.211734E-1,-2.5736074E1,-1.1569337E0,3.7837825E0,-2.1896734E1,-1.3959659E0,6.4772964E0,2.3754414E1,3.0496218E0,-1.4378486E1,2.1039991E1,1.0503772E0,-5.976699E0,7.543672E0,-1.6208923E1,1.437085E0,5.3475924E0,-8.6934817E-1,8.99101E-1,-1.2780763E1,5.2735844E0,9.50503E0,1.9962452E1,1.7780954E1,-2.288269E1,-1.8919538E0,7.029326E0],"categories":[],"categories_nodes":[],"categories_segments":[],"categories_sizes":[],"default_left":[0,0,0,0,0,0,0,0,0,0,0,0,0,0,0,0,0,0,0,0,0,0,0,0,0,0,0,0,0,0,0,0,0,0,0,0,0,0,0,0,0,0,0,0,0,0,0,0,0,0,0,0,0,0,0,0,0,0,0,0,0,0,0,0,0,0,0,0,0,0,0,0,0,0,0,0,0,0,0,0,0,0,0,0,0,0,0,0,0,0,0,0,0,0,0,0,0,0,0,0,0,0,0,0,0,0,0,0,0,0,0,0,0],"id":17,"left_children":[1,3,5,7,9,11,13,15,17,19,21,23,25,27,29,31,33,35,37,39,41,43,45,47,49,51,53,55,57,59,61,-1,-1,63,-1,-1,65,67,69,71,73,75,77,79,81,83,85,-1,87,89,91,93,95,97,99,-1,-1,101,103,105,107,109,111,-1,-1,-1,-1,-1,-1,-1,-1,-1,-1,-1,-1,-1,-1,-1,-1,-1,-1,-1,-1,-1,-1,-1,-1,-1,-1,-1,-1,-1,-1,-1,-1,-1,-1,-1,-1,-1,-1,-1,-1,-1,-1,-1,-1,-1,-1,-1,-1,-1,-1],"loss_changes":[2.5099028E5,2.642839E4,2.6680453E4,2.0607238E4,2.6170406E4,3.0917527E4,3.911899E4,7.786504E3,1.4646652E4,4.3748016E4,2.9198945E4,2.2953445E4,3.82246E4,7.11957E3,1.5405578E4,3.9542588E3,1.4476758E3,1.3515418E4,1.7304617E4,5.4814312E4,4.705703E4,7.9453625E4,2.861214E4,7.293674E3,2.3833705E4,2.264718E4,1.768575E4,1.0031935E4,2.69098E3,1.2919086E4,1.718999E4,0E0,0E0,1.8958281E3,0E0,0E0,1.0009525E4,7.42401E3,1.3592945E4,3.7339445E4,2.969861E4,1.2318929E4,3.6354344E4,3.324516E4,3.9571508E4,2.1960098E4,3.1735695E4,0E0,5.049885E3,3.531329E4,1.6714498E4,2.9681016E3,1.849649E4,2.3374672E4,3.4207266E4,0E0,0E0,1.722705E1,1.2810571E2,3.9169207E3,9.710922E3,3.024103E4,1.5561635E4,0E0,0E0,0E0,0E0,0E0,