{"learner":{"attributes":{"scikit_learn":"{\"_estimator_type\": \"regressor\"}"},"feature_names":["Pitch","WindSpeed","WindDirection","AirHumidity","AirPressure","AirTemp","TI","TSR","YawOffset"],"feature_types":["float","float","float","float","float","float","float","float","float"],"gradient_booster":{"model":{"gbtree_model_param":{"num_parallel_tree":"1","num_trees":"100"},"iteration_indptr":[0,1,2,3,4,5,6,7,8,9,10,11,12,13,14,15,16,17,18,19,20,21,22,23,24,25,26,27,28,29,30,31,32,33,34,35,36,37,38,39,40,41,42,43,44,45,46,47,48,49,50,51,52,53,54,55,56,57,58,59,60,61,62,63,64,65,66,67,68,69,70,71,72,73,74,75,76,77,78,79,80,81,82,83,84,85,86,87,88,89,90,91,92,93,94,95,96,97,98,99,100],"tree_info":[0,0,0,0,0,0,0,0,0,0,0,0,0,0,0,0,0,0,0,0,0,0,0,0,0,0,0,0,0,0,0,0,0,0,0,0,0,0,0,0,0,0,0,0,0,0,0,0,0,0,0,0,0,0,0,0,0,0,0,0,0,0,0,0,0,0,0,0,0,0,0,0,0,0,0,0,0,0,0,0,0,0,0,0,0,0,0,0,0,0,0,0,0,0,0,0,0,0,0,0],"trees":[{"base_weights":[1.6417736E-4,-2.7447737E3,1.5381997E3,-3.4408794E3,-1.6043143E3,2.4649544E2,1.7924902E3,-3.79368E3,-2.950915E3,-2.0321525E3,-1.0337897E3,-1.8320241E2,6.5064825E2,1.3316057E3,1.848746E3,-1.1862091E3,-1.0704094E3,-9.4077655E2,-8.053809E2,-2.2522097E3,-1.7544088E3,-1.2417378E3,-7.846534E2,-4.22356E2,2.7004068E1,4.6298096E2,8.3876605E2,1.1377246E3,4.3814917E2,5.0970563E2,5.5843756E2,-7.0674805E2,-6.342029E2,-5.5918243E2,-4.8052145E2,-3.3230685E2,-4.081552E2,-8.72722E2,-1.9864972E2,-4.7169412E2,-3.1490475E2,-9.658207E1,1.1972385E2,3.377572E2,5.528557E2,7.507624E2,8.9985803E2,1.156939E3,2.4117825E2,-2.159732E2,-2.7512527E2,-1.1780819E2,-1.5621704E2,-5.7458065E1,-1.0538482E2,4.8794546E0,-3.839324E1,1.8668861E1,5.2612877E1,1.6228962E1,1.067597E2,1.6922809E2,4.7726723E1,2.2637318E2,5.7680275E1,4.5855762E1,2.713834E2,2.9526096E2,3.5987463E2],"categories":[],"categories_nodes":[],"categories_segments":[],"categories_sizes":[],"default_left":[0,0,0,0,0,0,0,0,0,0,0,0,0,0,0,0,0,0,0,0,0,0,0,0,0,0,0,0,0,0,0,0,0,0,0,0,0,0,0,0,0,0,0,0,0,0,0,0,0,0,0,0,0,0,0,0,0,0,0,0,0,0,0,0,0,0,0,0,0],"id":0,"left_children":[1,3,5,7,9,11,13,15,17,19,21,23,25,27,29,-1,-1,-1,-1,31,33,35,37,39,41,43,45,47,-1,-1,-1,-1,-1,-1,-1,-1,-1,49,-1,51,53,55,57,59,61,63,65,67,-1,-1,-1,-1,-1,-1,-1,-1,-1,-1,-1,-1,-1,-1,-1,-1,-1,-1,-1,-1,-1],"loss_changes":[3.4679587E10,2.336428E9,1.7286144E9,3.053097E8,2.7128218E8,1.5068554E8,1.1156685E8,2.4281088E7,2.9567488E7,3.5104256E7,2.3996832E7,2.1175762E7,1.5392368E7,1.038336E7,4.292608E6,0E0,0E0,0E0,0E0,7.4624E4,1.813824E6,2.64864E6,1.816912E6,8.95848E5,2.589811E6,2.356776E6,5.17968E5,3.33392E5,0E0,0E0,0E0,0E0,0E0,0E0,0E0,0E0,0E0,1.93936E5,0E0,3.10666E5,2.244555E5,3.457403E5,4.0184738E5,4.79004E5,4.85528E5,6.1584E4,3.09112E5,1.7472E5,0E0,0E0,0E0,0E0,0E0,0E0,0E0,0E0,0E0,0E0,0E0,0E0,0E0,0E0,0E0,0E0,0E0,0E0,0E0,0E0,0E0],"parents":[2147483647,0,0,1,1,2,2,3,3,4,4,5,5,6,6,7,7,8,8,9,9,10,10,11,11,12,12,13,13,14,14,19,19,20,20,21,21,22,22,23,23,24,24,25,25,26,26,27,27,37,37,39,39,40,40,41,41,42,42,43,43,44,44,45,45,46,46,47,47],"right_children":[2,4,6,8,10,12,14,16,18,20,22,24,26,28,30,-1,-1,-1,-1,32,34,36,38,40,42,44,46,48,-1,-1,-1,-1,-1,-1,-1,-1,-1,50,-1,52,54,56,58,60,62,64,66,68,-1,-1,-1,-1,-1,-1,-1,-1,-1,-1,-1,-1,-1,-1,-1,-1,-1,-1,-1,-1,-1],"split_conditions":[9.116204E0,7.128231E0,1.065243E1,5.7591295E0,8.232053E0,9.869805E0,1.1464835E1,4.7616196E0,6.602812E0,7.708346E0,8.705895E0,9.440038E0,1.0288896E1,1.0966152E1,8.227015E-1,-1.1862091E3,-1.0704094E3,-9.4077655E2,-8.053809E2,7.437611E0,7.983521E0,-3.658031E0,8.924148E0,9.313932E0,9.62126E0,1.0057693E1,1.0436369E1,1.74E1,4.3814917E2,5.0970563E2,5.5843756E2,-7.0674805E2,-6.342029E2,-5.5918243E2,-4.8052145E2,-3.3230685E2,-4.081552E2,-3.7714834E0,-1.9864972E2,-3.8003657E0,-3.8510184E0,7.9E0,9.761822E0,9.87E2,-2.1013808E0,6.3948846E-14,9.61E2,9.94E2,2.4117825E2,-2.159732E2,-2.7512527E2,-1.1780819E2,-1.5621704E2,-5.7458065E1,-1.0538482E2,4.8794546E0,-3.839324E1,1.8668861E1,5.2612877E1,1.6228962E1,1.067597E2,1.6922809E2,4.7726723E1,2.2637318E2,5.7680275E1,4.5855762E1,2.713834E2,2.9526096E2,3.5987463E2],"split_indices":[1,1,1,1,1,1,1,1,1,1,1,1,1,1,0,0,0,0,0,1,1,0,1,1,1,1,1,5,0,0,0,0,0,0,0,0,0,0,0,0,0,5,1,4,0,8,4,4,0,0,0,0,0,0,0,0,0,0,0,0,0,0,0,0,0,0,0,0,0],"split_type":[0,0,0,0,0,0,0,0,0,0,0,0,0,0,0,0,0,0,0,0,0,0,0,0,0,0,0,0,0,0,0,0,0,0,0,0,0,0,0,0,0,0,0,0,0,0,0,0,0,0,0,0,0,0,0,0,0,0,0,0,0,0,0,0,0,0,0,0,0],"sum_hessian":[8.212E3,2.949E3,5.263E3,1.83E3,1.119E3,8.66E2,4.397E3,1.06E3,7.7E2,6.38E2,4.81E2,4.2E2,4.46E2,4.81E2,3.916E3,6.1E2,4.5E2,4.48E2,3.22E2,3.52E2,2.86E2,2.6E2,2.21E2,1.96E2,2.24E2,2.25E2,2.21E2,1.96E2,2.85E2,3.17E2,3.599E3,1.92E2,1.6E2,1.6E2,1.26E2,1.27E2,1.33E2,1.25E2,9.6E1,1.32E2,6.4E1,9.6E1,1.28E2,9.6E1,1.29E2,9.6E1,1.25E2,1.83E2,1.3E1,3.2E1,9.3E1,5.4E1,7.8E1,1.6E1,4.8E1,2.1E1,7.5E1,6.4E1,6.4E1,6E0,9E1,1.25E2,4E0,9.5E1,1E0,1E0,1.24E2,4.1E1,1.42E2],"tree_param":{"num_deleted":"0","num_feature":"9","num_nodes":"69","size_leaf_vector":"1"}},{"base_weights":[-5.9269196E-1,-1.9239902E3,1.0772993E3,-2.4586628E3,-1.1928433E3,1.7317213E2,1.2552894E3,-2.700735E3,-2.163235E3,-1.5367727E3,-7.889242E2,-1.2918967E2,4.5755948E2,8.7159045E2,1.2888682E3,-8.4122253E2,-7.751447E2,-6.8914105E2,-5.9984314E2,-1.6661296E3,-1.3209027E3,-9.797981E2,-5.919548E2,-2.762145E2,4.5928875E1,3.0297433E2,5.73827E2,7.274108E2,9.2486115E2,3.4585162E2,3.9086215E2,-5.1965643E2,-4.6510007E2,-4.2072357E2,-3.687462E2,-3.2052332E2,-2.5807037E2,-6.9885E2,-5.0217783E2,-3.1996313E2,-1.6091081E2,-1.263846E1,1.0402272E2,3.6207812E2,2.2612164E2,5.2278467E2,6.5514624E2,2.34613E2,5.9675134E2,6.588867E2,2.8158734E2,-1.8829117E2,-2.3144847E2,-1.23888535E2,-1.652057E2,-9.9983055E1,-2.4081995E1,-5.1564793E1,-7.3122687E0,-1.3558133E1,1.3896662E1,-7.3634458E0,4.008819E1,8.801941E1,1.2759749E2,8.253491E1,4.2496765E1,1.710383E2,1.3007654E2,2.0408904E2,1.2797788E2,1.8140646E2,5.0225246E1,2.1872235E2,1.0759761E2],"categories":[],"categories_nodes":[],"categories_segments":[],"categories_sizes":[],"default_left":[0,0,0,0,0,0,0,0,0,0,0,0,0,0,0,0,0,0,0,0,0,0,0,0,0,0,0,0,0,0,0,0,0,0,0,0,0,0,0,0,0,0,0,0,0,0,0,0,0,0,0,0,0,0,0,0,0,0,0,0,0,0,0,0,0,0,0,0,0,0,0,0,0,0,0],"id":1,"left_children":[1,3,5,7,9,11,13,15,17,19,21,23,25,27,29,-1,-1,-1,-1,31,33,35,37,39,41,43,45,47,49,-1,-1,-1,-1,-1,-1,-1,-1,51,53,55,57,59,61,63,65,67,69,-1,71,73,-1,-1,-1,-1,-1,-1,-1,-1,-1,-1,-1,-1,-1,-1,-1,-1,-1,-1,-1,-1,-1,-1,-1,-1,-1],"loss_changes":[1.7029384E10,1.150294E9,8.468956E8,1.1594752E8,1.7215936E8,7.46106E7,5.554125E7,4.015104E6,1.2334592E7,1.6592256E7,2.107552E7,1.0852079E7,7.860184E6,2.069216E6,6.198784E6,0E0,0E0,0E0,0E0,5.0432E5,1.98144E5,2.164E6,2.39372E6,1.103676E6,6.5797825E5,7.9933E5,7.11784E5,2.54276E5,3.22352E5,0E0,0E0,0E0,0E0,0E0,0E0,0E0,0E0,1.77952E5,4.60692E5,4.99788E5,9.3184E4,1.8828331E5,3.7247988E5,3.44341E5,3.21067E5,4.32672E5,2.50128E5,0E0,1.4622E4,7.56685E4,0E0,0E0,0E0,0E0,0E0,0E0,0E0,0E0,0E0,0E0,0E0,0E0,0E0,0E0,0E0,0E0,0E0,0E0,0E0,0E0,0E0,0E0,0E0,0E0,0E0],"parents":[2147483647,0,0,1,1,2,2,3,3,4,4,5,5,6,6,7,7,8,8,9,9,10,10,11,11,12,12,13,13,14,14,19,19,20,20,21,21,22,22,23,23,24,24,25,25,26,26,27,27,28,28,37,37,38,38,39,39,40,40,41,41,42,42,43,43,44,44,45,45,46,46,48,48,49,49],"right_children":[2,4,6,8,10,12,14,16,18,20,22,24,26,28,30,-1,-1,-1,-1,32,34,36,38,40,42,44,46,48,50,-1,-1,-1,-1,-1,-1,-1,-1,52,54,56,58,60,62,64,66,68,70,-1,72,74,-1,-1,-1,-1,-1,-1,-1,-1,-1,-1,-1,-1,-1,-1,-1,-1,-1,-1,-1,-1,-1,-1,-1,-1,-1],"split_conditions":[9.116204E0,6.9326034E0,1.065243E1,5.5279665E0,8.044747E0,9.869805E0,1.126578E1,4.4609313E0,6.2935357E0,7.6124506E0,8.593096E0,9.503064E0,1.0235179E1,1.0800454E1,1.1869981E1,-8.4122253E2,-7.751447E2,-6.8914105E2,-5.9984314E2,7.3325047E0,9.07288E0,8.352268E0,8.815709E0,9.3847E0,9.695823E0,9.7E0,1.0486806E1,1.17E1,7.8E1,3.4585162E2,3.9086215E2,-5.1965643E2,-4.6510007E2,-4.2072357E2,-3.687462E2,-3.2052332E2,-2.5807037E2,-3.710652E0,-3.779246E0,1.021E3,1.021E3,1.012E3,9.94E2,1.0057693E1,7.6784053E0,1.09E1,-1.701088E0,2.34613E2,-1.4314774E0,-5.8685595E-1,2.8158734E2,-1.8829117E2,-2.3144847E2,-1.23888535E2,-1.652057E2,-9.9983055E1,-2.4081995E1,-5.1564793E1,-7.3122687E0,-1.3558133E1,1.3896662E1,-7.3634458E0,4.008819E1,8.801941E1,1.2759749E2,8.253491E1,4.2496765E1,1.710383E2,1.3007654E2,2.0408904E2,1.2797788E2,1.8140646E2,5.0225246E1,2.1872235E2,1.0759761E2],"split_indices":[1,1,1,1,1,1,1,1,1,1,1,1,1,1,1,0,0,0,0,1,7,1,1,1,1,5,1,5,3,0,0,0,0,0,0,0,0,0,0,4,4,4,4,1,7,5,0,0,0,0,0,0,0,0,0,0,0,0,0,0,0,0,0,0,0,0,0,0,0,0,0,0,0,0,0],"split_type":[0,0,0,0,0,0,0,0,0,0,0,0,0,0,0,0,0,0,0,0,0,0,0,0,0,0,0,0,0,0,0,0,0,0,0,0,0,0,0,0,0,0,0,0,0,0,0,0,0,0,0,0,0,0,0,0,0,0,0,0,0,0,0,0,0,0,0,0,0,0,0,0,0,0,0],"sum_hessian":[8.212E3,2.949E3,5.263E3,1.702E3,1.247E3,8.66E2,4.397E3,9.31E2,7.71E2,6.72E2,5.75E2,4.2E2,4.46E2,3.56E2,4.041E3,4.82E2,4.49E2,4.17E2,3.54E2,4.16E2,2.56E2,2.9E2,2.85E2,2.28E2,1.92E2,1.93E2,2.53E2,1E2,2.56E2,3.85E2,3.656E3,2.56E2,1.6E2,1.28E2,1.28E2,1.62E2,1.28E2,1.27E2,1.58E2,1.64E2,6.4E1,9.6E1,9.6E1,1.07E2,8.6E1,1.6E2,9.3E1,6.7E1,3.3E1,1.5E1,2.41E2,6.9E1,5.8E1,5.9E1,9.9E1,1.55E2,9E0,5.9E1,5E0,6.2E1,3.4E1,1.8E1,7.8E1,5.4E1,5.3E1,5.3E1,3.3E1,1.01E2,5.9E1,8.2E1,1.1E1,3.2E1,1E0,1.1E1,4E0],"tree_param":{"num_deleted":"0","num_feature":"9","num_nodes":"75","size_leaf_vector":"1"}},{"base_weights":[-8.2064724E-1,-1.3604884E3,7.483318E2,-1.7318844E3,-8.63512E2,9.276983E1,8.764636E2,-1.9156604E3,-1.5460344E3,-1.1280846E3,-6.095787E2,-1.3741481E2,2.7951108E2,5.902992E2,9.013247E2,-5.978754E2,-5.5639746E2,-4.9594745E2,-4.3040683E2,-1.2131453E3,-1.0291133E3,-7.3975073E2,-4.458701E2,-2.2074104E2,-1.8041367E1,1.66829E2,3.7867105E2,5.326502E2,6.5717224E2,8.232279E2,9.162086E2,-3.8323038E2,-3.385489E2,-3.1587872E2,-2.548349E2,-6.6866785E2,-8.4045624E2,-3.800273E2,-5.2646387E2,-2.8321088E2,-1.7011937E2,4.6614178E1,-4.8441795E1,1.0226365E2,2.1372137E2,2.6488342E2,4.0457693E2,1.1820406E2,5.487113E2,5.65045E2,7.049219E2,7.776449E2,2.56875E2,2.7541837E2,6.986468E2,-2.1652197E2,-1.8645679E2,-2.5310188E2,-5.7554005E1,-1.2555396E2,-9.873746E1,-1.5946242E2,-4.2331665E1,-6.649456E1,-9.8053246E1,-6.7986595E1,-4.1145676E1,-2.0055428E1,2.0629093E1,-2.1666233E-1,-2.3371511E1,-3.921188E0,3.9717106E1,2.5670444E1,7.1287926E1,4.3760387E1,9.08272E1,1.0501687E2,1.3326042E2,3.0645924E1,1.6521063E2,1.741753E2,8.339877E1,1.733197E2,2.2721362E2,2.3692842E2,1.8328572E2,2.2734967E2,1.2568902E2],"categories":[],"categories_nodes":[],"categories_segments":[],"categories_sizes":[],"default_left":[0,0,0,0,0,0,0,0,0,0,0,0,0,0,0,0,0,0,0,0,0,0,0,0,0,0,0,0,0,0,0,0,0,0,0,0,0,0,0,0,0,0,0,0,0,0,0,0,0,0,0,0,0,0,0,0,0,0,0,0,0,0,0,0,0,0,0,0,0,0,0,0,0,0,0,0,0,0,0,0,0,0,0,0,0,0,0,0,0],"id":2,"left_children":[1,3,5,7,9,11,13,15,17,19,21,23,25,27,29,-1,-1,-1,-1,31,33,35,37,39,41,43,45,47,49,51,53,-1,-1,-1,-1,55,57,59,61,63,65,67,69,71,73,75,77,-1,79,81,83,85,-1,-1,87,-1,-1,-1,-1,-1,-1,-1,-1,-1,-1,-1,-1,-1,-1,-1,-1,-1,-1,-1,-1,-1,-1,-1,-1,-1,-1,-1,-1,-1,-1,-1,-1,-1,-1],"loss_changes":[8.3667666E9,5.3709466E8,4.447739E8,5.4042624E7,8.329216E7,3.730637E7,3.0984448E7,2.39104E5,7.58784E6,3.895296E6,1.3308752E7,3.8653765E6,5.28896E6,1.02624E6,3.981568E6,0E0,0E0,0E0,0E0,3.16192E5,3.42176E5,1.979248E6,1.317596E6,6.75993E5,3.1871262E5,6.62387E5,6.41572E5,2.2246E5,3.09928E5,3.30592E5,7.34208E5,0E0,0E0,0E0,0E0,8.436E4,1.36488E5,1.7766E5,1.71536E5,1.98858E5,2.0921025E5,1.3528344E5,1.5460088E5,3.3877062E5,3.77923E5,1.81216E5,2.87376E5,0E0,9.8428E4,1.06232E5,2.4298E5,1.01184E5,0E0,0E0,2.2875E5,0E0,0E0,0E0,0E0,0E0,0E0,0E0,0E0,0E0,0E0,0E0,0E0,0E0,0E0,0E0,0E0,0E0,0E0,0E0,0E0,0E0,0E0,0E0,0E0,0E0,0E0,0E0,0E0,0E0,0E0,0E0,0E0,0E0,0E0],"parents":[2147483647,0,0,1,1,2,2,3,3,4,4,5,5,6,6,7,7,8,8,9,9,10,10,11,11,12,12,13,13,14,14,19,19,20,20,21,21,22,22,23,23,24,24,25,25,26,26,27,27,28,28,29,29,30,30,35,35,36,36,37,37,38,38,39,39,40,40,41,41,42,42,43,43,44,44,45,45,46,46,48,48,49,49,50,50,51,51,54,54],"right_children":[2,4,6,8,10,12,14,16,18,20,22,24,26,28,30,-1,-1,-1,-1,32,34,36,38,40,42,44,46,48,50,52,54,-1,-1,-1,-1,56,58,60,62,64,66,68,70,72,74,76,78,-1,80,82,84,86,-1,-1,88,-1,-1,-1,-1,-1,-1,-1,-1,-1,-1,-1,-1,-1,-1,-1,-1,-1,-1,-1,-1,-1,-1,-1,-1,-1,-1,-1,-1,-1,-1,-1,-1,-1,-1],"split_conditions":[9.053403E0,6.8892226E0,1.0596926E1,5.2747955E0,7.8664083E0,9.761822E0,1.1204032E1,4.221891E0,6.1164274E0,7.38842E0,8.521235E0,9.440038E0,1.0158141E1,1.0900973E1,1.8957895E0,-5.978754E2,-5.5639746E2,-4.9594745E2,-4.3040683E2,9.07288E0,9.382931E0,-3.587201E0,-3.721862E0,9.2294035E0,8.3E0,9.918701E0,9.95E2,9.87E2,8.3E1,1.1660486E1,2.0469616E1,-3.8323038E2,-3.385489E2,-3.1587872E2,-2.548349E2,8.291439E0,6.3948846E-14,8.868541E0,1.029E3,-3.788233E0,1.001E3,9.99E2,2.1904541E2,9.95E2,8.1E1,1.0288896E1,8.4E1,1.1820406E2,7.6E1,-5.8685595E-1,1.001E3,1.73E1,2.56875E2,2.7541837E2,2.8804108E2,-2.1652197E2,-1.8645679E2,-2.5310188E2,-5.7554005E1,-1.2555396E2,-9.873746E1,-1.5946242E2,-4.2331665E1,-6.649456E1,-9.8053246E1,-6.7986595E1,-4.1145676E1,-2.0055428E1,2.0629093E1,-2.1666233E-1,-2.3371511E1,-3.921188E0,3.9717106E1,2.5670444E1,7.1287926E1,4.3760387E1,9.08272E1,1.0501687E2,1.3326042E2,3.0645924E1,1.6521063E2,1.741753E2,8.339877E1,1.733197E2,2.2721362E2,2.3692842E2,1.8328572E2,2.2734967E2,1.2568902E2],"split_indices":[1,1,1,1,1,1,1,1,1,1,1,1,1,1,0,0,0,0,0,7,7,0,0,1,5,1,4,4,3,1,0,0,0,0,0,1,8,1,4,0,4,4,2,4,3,1,3,0,3,0,4,5,0,0,2,0,0,0,0,0,0,0,0,0,0,0,0,0,0,0,0,0,0,0,0,0,0,0,0,0,0,0,0,0,0,0,0,0,0],"split_type":[0,0,0,0,0,0,0,0,0,0,0,0,0,0,0,0,0,0,0,0,0,0,0,0,0,0,0,0,0,0,0,0,0,0,0,0,0,0,0,0,0,0,0,0,0,0,0,0,0,0,0,0,0,0,0,0,0,0,0,0,0,0,0,0,0,0,0,0,0,0,0,0,0,0,0,0,0,0,0,0,0,0,0,0,0,0,0,0,0],"sum_hessian":[8.212E3,2.917E3,5.295E3,1.668E3,1.249E3,8.66E2,4.429E3,8.34E2,8.34E2,6.1E2,6.39E2,3.88E2,4.78E2,3.56E2,4.073E3,3.54E2,4.8E2,4.18E2,4.16E2,3.22E2,2.88E2,3.54E2,2.85E2,2.28E2,1.6E2,2.25E2,2.53E2,1.96E2,1.6E2,6.61E2,3.412E3,1.75E2,1.47E2,2.5E2,3.8E1,2.12E2,1.42E2,1.6E2,1.25E2,1E2,1.28E2,5.1E1,1.09E2,9.6E1,1.29E2,4.9E1,2.04E2,2.3E1,1.73E2,5.9E1,1.01E2,2.88E2,3.73E2,3.38E3,3.2E1,9.3E1,1.19E2,1.41E2,1E0,8.7E1,7.3E1,1.23E2,2E0,4.4E1,5.6E1,4.5E1,8.3E1,8E0,4.3E1,4.2E1,6.7E1,2E1,7.6E1,2.1E1,1.08E2,1.3E1,3.6E1,9E1,1.14E2,1E0,1.72E2,5.5E1,4E0,3.3E1,6.8E1,2.65E2,2.3E1,2.5E1,7E0],"tree_param":{"num_deleted":"0","num_feature":"9","num_nodes":"89","size_leaf_vector":"1"}},{"base_weights":[-8.2119125E-1,-9.621104E2,5.198773E2,-1.2201964E3,-6.233512E2,4.4318558E1,6.121654E2,-1.3482694E3,-1.0955704E3,-7.9588464E2,-4.3986053E2,-1.30398E2,1.6629407E2,4.0028363E2,6.3043854E2,-4.2485968E2,-3.9411044E2,-3.5269E2,-1.024123E3,-8.712153E2,-7.315302E2,-5.299723E2,-3.36553E2,-1.735864E2,-5.2719368E1,7.7097565E1,2.3564223E2,3.5071124E2,4.4654898E2,5.781017E2,6.4271344E2,-3.2384314E2,-2.932131E2,-2.814058E2,-2.4763014E2,-2.4390855E2,-6.8441144E2,-4.7882483E2,-5.9340906E2,-2.8134378E2,-3.8684378E2,-2.889541E2,-1.586704E2,-1.1653168E2,-2.6764801E1,4.560379E1,1.2213092E2,1.8753455E2,2.737331E2,3.3711697E1,3.541747E2,3.8310898E2,5.0643707E2,5.362277E2,1.7918587E2,5.0017352E2,1.9319804E2,-2.147252E2,-1.846349E2,-1.6023798E2,-1.3180528E2,-1.9128413E2,-1.5112961E2,-8.533344E1,-1.3474781E1,-1.2795595E2,-1.0034316E2,-6.475406E1,-1.0195025E2,-1.1770592E1,-5.0367893E1,-4.1638374E1,-1.7575336E1,-9.4280237E-1,-2.9556479E1,1.7386707E0,2.3052696E1,-2.5727246E0,4.371031E1,1.3060492E1,6.0542892E1,7.691348E1,1.2662713E2,9.558107E1,1.1537021E2,1.1606039E2,6.156592E0,1.5361725E2,5.1827785E1,1.1965648E2,1.661742E2,1.5615497E2,6.524151E1],"categories":[],"categories_nodes":[],"categories_segments":[],"categories_sizes":[],"default_left":[0,0,0,0,0,0,0,0,0,0,0,0,0,0,0,0,0,0,0,0,0,0,0,0,0,0,0,0,0,0,0,0,0,0,0,0,0,0,0,0,0,0,0,0,0,0,0,0,0,0,0,0,0,0,0,0,0,0,0,0,0,0,0,0,0,0,0,0,0,0,0,0,0,0,0,0,0,0,0,0,0,0,0,0,0,0,0,0,0,0,0,0,0],"id":3,"left_children":[1,3,5,7,9,11,13,15,17,19,21,23,25,27,29,-1,-1,-1,31,33,35,37,39,41,43,45,47,49,51,53,55,-1,-1,-1,-1,-1,57,59,61,63,65,67,69,71,73,75,77,79,81,-1,83,85,87,89,-1,91,-1,-1,-1,-1,-1,-1,-1,-1,-1,-1,-1,-1,-1,-1,-1,-1,-1,-1,-1,-1,-1,-1,-1,-1,-1,-1,-1,-1,-1,-1,-1,-1,-1,-1,-1,-1,-1],"loss_changes":[4.11145E9,2.5155942E8,2.3381043E8,2.4651264E7,3.9222784E7,1.8498444E7,1.702336E7,2.5216E4,3.572416E6,2.47984E6,5.481632E6,1.188518E6,3.142679E6,6.62164E5,2.26624E6,0E0,0E0,0E0,1.06784E5,1.15712E5,7.9912E5,7.63872E5,6.8525E5,3.482205E5,2.1053356E5,3.1354112E5,4.74583E5,1.0631E5,4.93652E5,3.14368E5,2.83008E5,0E0,0E0,0E0,0E0,0E0,5.6576E4,1.67E5,2.33568E5,8.9867E4,1.6276E5,1.9640375E4,2.1922E5,3.96015E4,1.5732984E5,1.6619038E5,2.846805E5,2.58443E5,2.9859E5,0E0,6.5586E4,1.17451E5,8.0326E4,4.05912E5,0E0,8.2338E4,0E0,0E0,0E0,0E0,0E0,0E0,0E0,0E0,0E0,0E0,0E0,0E0,0E0,0E0,0E0,0E0,0E0,0E0,0E0,0E0,0E0,0E0,0E0,0E0,0E0,0E0,0E0,0E0,0E0,0E0,0E0,0E0,0E0,0E0,0E0,0E0,0E0],"parents":[2147483647,0,0,1,1,2,2,3,3,4,4,5,5,6,6,7,7,8,8,9,9,10,10,11,11,12,12,13,13,14,14,18,18,19,19,20,20,21,21,22,22,23,23,24,24,25,25,26,26,27,27,28,28,29,29,30,30,36,36,37,37,38,38,39,39,40,40,41,41,42,42,43,43,44,44,45,45,46,46,47,47,48,48,50,50,51,51,52,52,53,53,55,55],"right_children":[2,4,6,8,10,12,14,16,18,20,22,24,26,28,30,-1,-1,-1,32,34,36,38,40,42,44,46,48,50,52,54,56,-1,-1,-1,-1,-1,58,60,62,64,66,68,70,72,74,76,78,80,82,-1,84,86,88,90,-1,92,-1,-1,-1,-1,-1,-1,-1,-1,-1,-1,-1,-1,-1,-1,-1,-1,-1,-1,-1,-1,-1,-1,-1,-1,-1,-1,-1,-1,-1,-1,-1,-1,-1,-1,-1,-1,-1],"split_conditions":[8.998687E0,6.8400173E0,1.054214E1,5.202185E0,7.8664083E0,9.62126E0,1.1163376E1,3.9859817E0,5.9919662E0,7.2717314E0,8.465154E0,9.3847E0,1.0057693E1,8.6E1,2.378367E0,-4.2485968E2,-3.9411044E2,-3.5269E2,8.786459E0,8.896072E0,8.942262E0,-3.587201E0,-3.721862E0,9.86E2,9.99E2,8.6E1,1.0288896E1,-3.478E0,1.003E3,1.1568524E1,3.5069032E0,-3.2384314E2,-2.932131E2,-2.814058E2,-2.4763014E2,-2.4390855E2,7.6696243E0,9.015108E0,9.183953E0,9.5E1,1.007E3,1.14E1,-3.8726857E0,9.553627E0,2.825464E2,1.006E3,9.92E2,9.88E2,1.027E3,3.3711697E1,1.0800454E1,2.8680563E2,1.22E1,9.89E2,1.7918587E2,2.894791E2,1.9319804E2,-2.147252E2,-1.846349E2,-1.6023798E2,-1.3180528E2,-1.9128413E2,-1.5112961E2,-8.533344E1,-1.3474781E1,-1.2795595E2,-1.0034316E2,-6.475406E1,-1.0195025E2,-1.1770592E1,-5.0367893E1,-4.1638374E1,-1.7575336E1,-9.4280237E-1,-2.9556479E1,1.7386707E0,2.3052696E1,-2.5727246E0,4.371031E1,1.3060492E1,6.0542892E1,7.691348E1,1.2662713E2,9.558107E1,1.1537021E2,1.1606039E2,6.156592E0,1.5361725E2,5.1827785E1,1.1965648E2,1.661742E2,1.5615497E2,6.524151E1],"split_indices":[1,1,1,1,1,1,1,1,1,1,1,1,1,3,0,0,0,0,7,7,7,0,0,4,4,3,1,0,4,1,7,0,0,0,0,0,1,7,7,3,4,5,0,1,2,4,4,4,4,0,1,2,5,4,0,2,0,0,0,0,0,0,0,0,0,0,0,0,0,0,0,0,0,0,0,0,0,0,0,0,0,0,0,0,0,0,0,0,0,0,0,0,0],"split_type":[0,0,0,0,0,0,0,0,0,0,0,0,0,0,0,0,0,0,0,0,0,0,0,0,0,0,0,0,0,0,0,0,0,0,0,0,0,0,0,0,0,0,0,0,0,0,0,0,0,0,0,0,0,0,0,0,0,0,0,0,0,0,0,0,0,0,0,0,0,0,0,0,0,0,0,0,0,0,0,0,0,0,0,0,0,0,0,0,0,0,0,0,0],"sum_hessian":[8.212E3,2.885E3,5.327E3,1.636E3,1.249E3,8.66E2,4.461E3,8.02E2,8.34E2,6.42E2,6.07E2,3.56E2,5.1E2,3.56E2,4.105E3,2.57E2,5.45E2,3.86E2,4.48E2,2.9E2,3.52E2,3.22E2,2.85E2,2.28E2,1.28E2,2.24E2,2.86E2,1.76E2,1.8E2,7.89E2,3.316E3,1.95E2,2.53E2,1.1E2,1.8E2,1.23E2,2.29E2,1.83E2,1.39E2,1.39E2,1.46E2,2.4E1,2.04E2,3.6E1,9.2E1,1.33E2,9.1E1,1.29E2,1.57E2,3E0,1.73E2,9.1E1,8.9E1,2.57E2,5.32E2,3.3E1,3.283E3,1.51E2,7.8E1,7.1E1,1.12E2,8.9E1,5E1,1.37E2,2E0,7.9E1,6.7E1,1.2E1,1.2E1,1.5E1,1.89E2,2.5E1,1.1E1,7E1,2.2E1,5.9E1,7.4E1,1.4E1,7.7E1,1.2E1,1.17E2,1.43E2,1.4E1,8.5E1,8.8E1,9E1,1E0,8.7E1,2E0,3.2E1,2.25E2,3E1,3E0],"tree_param":{"num_deleted":"0","num_feature":"9","num_nodes":"93","size_leaf_vector":"1"}},{"base_weights":[-8.727671E-1,-6.5194006E2,3.7728775E2,-8.356089E2,-3.8056952E2,9.760745E1,4.356999E2,-9.1274207E2,-7.058156E2,-5.036995E2,-2.4472656E2,-1.9460546E1,1.8493477E2,3.5468195E2,4.4658694E2,-2.8567297E2,-2.5048611E2,-2.2784877E2,-6.552884E2,-5.620557E2,-4.4339838E2,-3.0324576E2,-1.7006195E2,-6.755981E1,2.8739546E1,1.331259E2,2.3602684E2,2.976211E2,3.796314E2,4.230511E2,4.5169733E2,-2.1209183E2,-1.8797168E2,-1.80297E2,-5.053777E2,-4.7194437E2,-1.1395415E2,-2.673623E2,-3.664472E2,-2.7127902E2,-1.57057E2,-1.7769833E2,-5.8618145E1,2.0848375E1,1.5740723E2,4.986379E1,1.4728088E2,2.886224E2,2.0563869E2,2.5799042E2,3.2756485E2,3.428171E2,4.174609E2,4.29094E2,3.6331216E2,1.357905E2,3.5098032E2,-1.5230452E2,-2.8805164E1,-1.776889E2,-1.367838E2,-7.0873276E1,-8.631148E1,-1.1345399E2,-7.358992E1,-1.0669438E2,-5.8730076E1,-4.1350216E1,-6.9411125E1,-2.3586037E1,-5.9271713E1,-2.1958723E1,-3.141308E0,-2.8781933E1,8.232156E0,5.8395477E1,-2.0384767E0,2.1761154E1,-3.5646812E1,2.0006304E0,4.6183487E1,6.126415E1,9.7851456E1,6.56481E1,3.1058483E1,8.618184E1,5.550474E1,7.330565E1,1.0701215E2,5.1986656E1,1.0485011E2,2.3408936E1,1.257023E2,3.8379982E1,1.2895775E2,9.069478E1,1.2286307E2,1.1458627E2,6.1932755E1],"categories":[],"categories_nodes":[],"categories_segments":[],"categories_sizes":[],"default_left":[0,0,0,0,0,0,0,0,0,0,0,0,0,0,0,0,0,0,0,0,0,0,0,0,0,0,0,0,0,0,0,0,0,0,0,0,0,0,0,0,0,0,0,0,0,0,0,0,0,0,0,0,0,0,0,0,0,0,0,0,0,0,0,0,0,0,0,0,0,0,0,0,0,0,0,0,0,0,0,0,0,0,0,0,0,0,0,0,0,0,0,0,0,0,0,0,0,0,0],"id":4,"left_children":[1,3,5,7,9,11,13,15,17,19,21,23,25,27,29,-1,-1,-1,31,33,35,37,39,41,43,45,47,49,51,53,55,-1,-1,-1,57,59,-1,61,63,65,67,69,71,73,75,77,79,81,83,85,87,89,91,93,95,-1,97,-1,-1,-1,-1,-1,-1,-1,-1,-1,-1,-1,-1,-1,-1,-1,-1,-1,-1,-1,-1,-1,-1,-1,-1,-1,-1,-1,-1,-1,-1,-1,-1,-1,-1,-1,-1,-1,-1,-1,-1,-1,-1],"loss_changes":[2.0223519E9,1.5010598E8,8.484314E7,1.7366272E7,2.0282864E7,9.194286E6,3.632576E6,2.661696E6,1.333152E6,1.999392E6,2.491372E6,8.9452125E5,1.331794E6,6.18764E5,2.64128E5,0E0,0E0,0E0,8.3904E4,4.04632E5,3.99444E5,6.39088E5,2.970045E5,1.7965425E5,1.9267862E5,2.96728E5,3.53005E5,1.06548E5,3.49896E5,9.3552E4,1.3344E5,0E0,0E0,0E0,8.0468E4,1.45836E5,0E0,6.5599E4,7.0691E4,1.08760375E5,2.980985E5,1.2034031E4,1.2557E5,1.4352147E5,6.859428E4,1.5778216E5,2.05124E5,2.249825E5,2.02238E5,1.04978E5,1.26239E5,1.49042E5,5.6556E4,8.8352E4,7.3584E4,0E0,6.888625E4,0E0,0E0,0E0,0E0,0E0,0E0,0E0,0E0,0E0,0E0,0E0,0E0,0E0,0E0,0E0,0E0,0E0,0E0,0E0,0E0,0E0,0E0,0E0,0E0,0E0,0E0,0E0,0E0,0E0,0E0,0E0,0E0,0E0,0E0,0E0,0E0,0E0,0E0,0E0,0E0,0E0,0E0],"parents":[2147483647,0,0,1,1,2,2,3,3,4,4,5,5,6,6,7,7,8,8,9,9,10,10,11,11,12,12,13,13,14,14,18,18,19,19,20,20,21,21,22,22,23,23,24,24,25,25,26,26,27,27,28,28,29,29,30,30,34,34,35,35,37,37,38,38,39,39,40,40,41,41,42,42,43,43,44,44,45,45,46,46,47,47,48,48,49,49,50,50,51,51,52,52,53,53,54,54,56,56],"right_children":[2,4,6,8,10,12,14,16,18,20,22,24,26,28,30,-1,-1,-1,32,34,36,38,40,42,44,46,48,50,52,54,56,-1,-1,-1,58,60,-1,62,64,66,68,70,72,74,76,78,80,82,84,86,88,90,92,94,96,-1,98,-1,-1,-1,-1,-1,-1,-1,-1,-1,-1,-1,-1,-1,-1,-1,-1,-1,-1,-1,-1,-1,-1,-1,-1,-1,-1,-1,-1,-1,-1,-1,-1,-1,-1,-1,-1,-1,-1,-1,-1,-1,-1],"split_conditions":[9.2294035E0,7.079079E0,1.0800454E1,5.891208E0,8.150612E0,9.918701E0,1.1660486E1,5.030374E0,6.478125E0,7.6124506E0,8.762979E0,9.553627E0,1.0379013E1,1.109678E1,3.4178464E0,-2.8567297E2,-2.5048611E2,-2.2784877E2,8.75822E0,9.136037E0,9.2230835E0,-3.6329222E0,9.87E2,9.83E2,1.029E3,8.1E1,9E0,8.6E1,8.6E1,2.955681E2,2.0469616E1,-2.1209183E2,-1.8797168E2,-1.80297E2,1.018858E1,9.71E2,-1.1395415E2,-3.7042937E0,9.2E1,8E1,2.9143323E2,-3.8102298E0,8.8E1,7.5471644E0,1.4814588E-1,-2.523746E0,9.82E2,7E0,-1.9880916E0,-1.9880916E0,2.0022604E2,9.8E2,-7.1022725E-3,5.3616786E0,3.1452264E2,1.357905E2,2.8804108E2,-1.5230452E2,-2.8805164E1,-1.776889E2,-1.367838E2,-7.0873276E1,-8.631148E1,-1.1345399E2,-7.358992E1,-1.0669438E2,-5.8730076E1,-4.1350216E1,-6.9411125E1,-2.3586037E1,-5.9271713E1,-2.1958723E1,-3.141308E0,-2.8781933E1,8.232156E0,5.8395477E1,-2.0384767E0,2.1761154E1,-3.5646812E1,2.0006304E0,4.6183487E1,6.126415E1,9.7851456E1,6.56481E1,3.1058483E1,8.618184E1,5.550474E1,7.330565E1,1.0701215E2,5.1986656E1,1.0485011E2,2.3408936E1,1.257023E2,3.8379982E1,1.2895775E2,9.069478E1,1.2286307E2,1.1458627E2,6.1932755E1],"split_indices":[1,1,1,1,1,1,1,1,1,1,1,1,1,1,0,0,0,0,7,7,7,0,4,4,4,3,5,3,3,2,0,0,0,0,7,4,0,0,3,3,2,0,3,7,6,0,4,5,0,0,2,4,8,7,2,0,2,0,0,0,0,0,0,0,0,0,0,0,0,0,0,0,0,0,0,0,0,0,0,0,0,0,0,0,0,0,0,0,0,0,0,0,0,0,0,0,0,0,0],"split_type":[0,0,0,0,0,0,0,0,0,0,0,0,0,0,0,0,0,0,0,0,0,0,0,0,0,0,0,0,0,0,0,0,0,0,0,0,0,0,0,0,0,0,0,0,0,0,0,0,0,0,0,0,0,0,0,0,0,0,0,0,0,0,0,0,0,0,0,0,0,0,0,0,0,0,0,0,0,0,0,0,0,0,0,0,0,0,0,0,0,0,0,0,0,0,0,0,0,0,0],"sum_hessian":[8.212E3,3.017E3,5.195E3,1.798E3,1.219E3,8.98E2,4.297E3,1.124E3,6.74E2,6.38E2,5.81E2,3.84E2,5.14E2,5.13E2,3.784E3,7.38E2,3.86E2,3.2E2,3.54E2,3.2E2,3.18E2,3.24E2,2.57E2,1.92E2,1.92E2,2.57E2,2.57E2,1.6E2,3.53E2,6.9E2,3.094E3,1.18E2,2.36E2,1.84E2,1.36E2,2.15E2,1.03E2,2.1E2,1.14E2,2.7E1,2.3E2,1.3E1,1.79E2,1.82E2,1E1,3.8E1,2.19E2,9.1E1,1.66E2,7.3E1,8.7E1,1.84E2,1.69E2,6.21E2,6.9E1,3.062E3,3.2E1,1.35E2,1E0,2.1E1,1.94E2,8.8E1,1.22E2,1.02E2,1.2E1,1.1E1,1.6E1,1.85E2,4.5E1,3E0,1E1,1.37E2,4.2E1,9E0,1.73E2,8E0,2E0,3.4E1,4E0,1E1,2.09E2,3E1,6.1E1,1.46E2,2E1,5E1,2.3E1,2.5E1,6.2E1,8E0,1.76E2,1E0,1.68E2,2E0,6.19E2,3.3E1,3.6E1,2.5E1,7E0],"tree_param":{"num_deleted":"0","num_feature":"9","num_nodes":"99","size_leaf_vector":"1"}},{"base_weights":[-7.369781E-1,-4.6952322E2,2.5755588E2,-6.063745E2,-3.0924347E2,2.68752E1,3.0066678E2,-6.652126E2,-5.4912604E2,-3.968212E2,-2.1201425E2,-4.9313034E1,9.3117584E1,2.1402461E2,3.1108148E2,-2.1708832E2,-1.933366E2,-5.182438E2,-1.7696005E2,-4.8259338E2,-3.7738937E2,-2.5653867E2,-1.5600662E2,-7.2013626E1,-3.001658E0,5.825752E1,1.2818633E2,1.5584828E2,2.3020866E2,2.891777E2,3.1571503E2,-1.6822151E2,-4.9643228E2,-1.4542715E2,-3.1493189E1,-3.9846643E2,-3.222963E2,-3.180502E2,-2.3413107E2,-7.046445E1,-1.6538507E2,-3.478543E1,-9.2760124E1,-2.3425564E1,3.0821568E1,9.2502556E1,1.9307407E1,5.433856E1,1.4033784E2,1.7233505E2,6.384028E1,1.9748138E2,2.584675E2,3.024419E2,2.5202403E2,3.1627585E2,2.5103519E2,-1.5087698E2,-1.08309105E2,-1.2184478E2,-9.006059E1,-9.693431E1,-2.8097279E1,-1.01403114E2,-7.63145E1,-8.100188E1,-5.902957E1,-4.344563E1,-1.6036612E1,-5.2263783E1,-2.78349E1,1.0399286E1,-1.3865546E1,-3.0079054E1,1.503195E1,-1.5361295E1,5.5594616E0,3.2968758E1,3.8136156E0,-9.422849E0,2.9789928E1,-8.709812E0,1.0090519E1,-1.7165577E1,1.9014467E1,-1.2832241E0,4.3523045E1,6.3462284E1,3.826711E1,2.5175783E1,-8.224805E0,6.521792E1,4.1707466E1,8.5466415E1,6.3401783E1,6.2634434E1,9.197591E1,-5.6518555E-1,7.6412E1,9.489797E1,2.277107E1,1.5885865E1,8.0723495E1],"categories":[],"categories_nodes":[],"categories_segments":[],"categories_sizes":[],"default_left":[0,0,0,0,0,0,0,0,0,0,0,0,0,0,0,0,0,0,0,0,0,0,0,0,0,0,0,0,0,0,0,0,0,0,0,0,0,0,0,0,0,0,0,0,0,0,0,0,0,0,0,0,0,0,0,0,0,0,0,0,0,0,0,0,0,0,0,0,0,0,0,0,0,0,0,0,0,0,0,0,0,0,0,0,0,0,0,0,0,0,0,0,0,0,0,0,0,0,0,0,0,0,0],"id":5,"left_children":[1,3,5,7,9,11,13,15,17,19,21,23,25,27,29,-1,-1,31,-1,33,35,37,39,41,43,45,47,49,51,53,55,-1,57,-1,-1,59,61,63,65,67,69,71,73,75,77,79,81,83,85,87,89,91,93,95,97,99,101,-1,-1,-1,-1,-1,-1,-1,-1,-1,-1,-1,-1,-1,-1,-1,-1,-1,-1,-1,-1,-1,-1,-1,-1,-1,-1,-1,-1,-1,-1,-1,-1,-1,-1,-1,-1,-1,-1,-1,-1,-1,-1,-1,-1,-1,-1],"loss_changes":[9.945851E8,6.381728E7,5.265984E7,4.933184E6,1.1377216E7,4.218745E6,3.959712E6,4.68544E5,7.04624E5,9.96232E5,1.55595E6,4.0873775E5,5.38989E5,4.1794E5,3.12768E5,0E0,0E0,1.52616E5,0E0,5.2884E4,5.4624E5,4.1484E5,2.177905E5,1.9835788E5,8.983552E4,2.996637E5,1.91589E5,1.52825E5,2.9577E5,2.72192E5,3.9392E4,0E0,9.6168E4,0E0,0E0,1.92132E5,7.88E2,3.0934E4,3.00766E5,3.019961E4,1.485465E5,7.703427E4,1.8404538E5,9.535568E4,6.877087E4,1.0418969E5,7.5084766E4,3.691736E4,1.308325E5,1.327725E5,3.528275E4,1.76963E5,1.86333E5,1.36288E5,1.3126E5,1.552E4,1.0369425E5,0E0,0E0,0E0,0E0,0E0,0E0,0E0,0E0,0E0,0E0,0E0,0E0,0E0,0E0,0E0,0E0,0E0,0E0,0E0,0E0,0E0,0E0,0E0,0E0,0E0,0E0,0E0,0E0,0E0,0E0,0E0,0E0,0E0,0E0,0E0,0E0,0E0,0E0,0E0,0E0,0E0,0E0,0E0,0E0,0E0,0E0],"parents":[2147483647,0,0,1,1,2,2,3,3,4,4,5,5,6,6,7,7,8,8,9,9,10,10,11,11,12,12,13,13,14,14,17,17,19,19,20,20,21,21,22,22,23,23,24,24,25,25,26,26,27,27,28,28,29,29,30,30,32,32,35,35,36,36,37,37,38,38,39,39,40,40,41,41,42,42,43,43,44,44,45,45,46,46,47,47,48,48,49,49,50,50,51,51,52,52,53,53,54,54,55,55,56,56],"right_children":[2,4,6,8,10,12,14,16,18,20,22,24,26,28,30,-1,-1,32,-1,34,36,38,40,42,44,46,48,50,52,54,56,-1,58,-1,-1,60,62,64,66,68,70,72,74,76,78,80,82,84,86,88,90,92,94,96,98,100,102,-1,-1,-1,-1,-1,-1,-1,-1,-1,-1,-1,-1,-1,-1,-1,-1,-1,-1,-1,-1,-1,-1,-1,-1,-1,-1,-1,-1,-1,-1,-1,-1,-1,-1,-1,-1,-1,-1,-1,-1,-1,-1,-1,-1,-1,-1],"split_conditions":[9.053403E0,6.7126317E0,1.054214E1,5.115501E0,7.8664083E0,9.761822E0,1.1373549E1,3.8007665E0,-3.4434614E0,8.695146E0,8.521235E0,9.503064E0,1.0158141E1,9.95E2,1.2493956E1,-2.1708832E2,-1.933366E2,5.9470434E0,-1.7696005E2,9.4E1,7.5420876E0,8.808018E0,-3.8003657E0,-3.8230953E0,1.013E3,9.7E0,8.1E1,1.3E1,1.0900973E1,1.1140848E-1,2.0469616E1,-1.6822151E2,9.692436E0,-1.4542715E2,-3.1493189E1,9.488187E0,1.034E3,1.02E3,8.150612E0,8.1E1,9.1E1,-3.9003534E0,1.022E3,8.6E1,9.907009E-2,7.6E1,9.92E2,7.2827115E0,-3.710652E0,7.064164E0,-1.2673086E0,-2.3882768E0,2.5402588E2,9.82E2,-6.3948846E-14,6.78601E0,9.89E2,-1.5087698E2,-1.08309105E2,-1.2184478E2,-9.006059E1,-9.693431E1,-2.8097279E1,-1.01403114E2,-7.63145E1,-8.100188E1,-5.902957E1,-4.344563E1,-1.6036612E1,-5.2263783E1,-2.78349E1,1.0399286E1,-1.3865546E1,-3.0079054E1,1.503195E1,-1.5361295E1,5.5594616E0,3.2968758E1,3.8136156E0,-9.422849E0,2.9789928E1,-8.709812E0,1.0090519E1,-1.7165577E1,1.9014467E1,-1.2832241E0,4.3523045E1,6.3462284E1,3.826711E1,2.5175783E1,-8.224805E0,6.521792E1,4.1707466E1,8.5466415E1,6.3401783E1,6.2634434E1,9.197591E1,-5.6518555E-1,7.6412E1,9.489797E1,2.277107E1,1.5885865E1,8.0723495E1],"split_indices":[1,1,1,1,1,1,1,1,0,7,1,1,1,4,1,0,0,1,0,3,1,7,0,0,4,5,3,5,1,6,0,0,7,0,0,7,4,4,1,3,3,0,4,3,6,3,4,7,0,7,0,0,2,4,8,7,4,0,0,0,0,0,0,0,0,0,0,0,0,0,0,0,0,0,0,0,0,0,0,0,0,0,0,0,0,0,0,0,0,0,0,0,0,0,0,0,0,0,0,0,0,0,0],"split_type":[0,0,0,0,0,0,0,0,0,0,0,0,0,0,0,0,0,0,0,0,0,0,0,0,0,0,0,0,0,0,0,0,0,0,0,0,0,0,0,0,0,0,0,0,0,0,0,0,0,0,0,0,0,0,0,0,0,0,0,0,0,0,0,0,0,0,0,0,0,0,0,0,0,0,0,0,0,0,0,0,0,0,0,0,0,0,0,0,0,0,0,0,0,0,0,0,0,0,0,0,0,0,0],"sum_hessian":[8.212E3,2.917E3,5.295E3,1.572E3,1.345E3,8.34E2,4.461E3,7.7E2,8.02E2,7.06E2,6.39E2,3.88E2,4.46E2,4.81E2,3.98E3,1.93E2,5.77E2,4.64E2,3.38E2,1.26E2,5.8E2,3.54E2,2.85E2,2.6E2,1.28E2,2.25E2,2.21E2,1.07E2,3.74E2,7.06E2,3.274E3,1.49E2,3.15E2,1.25E2,1E0,4.15E2,1.65E2,9.1E1,2.63E2,2.9E1,2.56E2,9.4E1,1.66E2,8E1,4.8E1,1.19E2,1.06E2,3.2E1,1.89E2,9E1,1.7E1,1.77E2,1.97E2,5.15E2,1.91E2,3.242E3,3.2E1,2.98E2,1.7E1,3.82E2,3.3E1,1.64E2,1E0,6.6E1,2.5E1,1.31E2,1.32E2,4E0,2.5E1,2.27E2,2.9E1,1.3E1,8.1E1,1.58E2,8E0,4.8E1,3.2E1,8E0,4E1,6E0,1.13E2,2.4E1,8.2E1,2E0,3E1,6E0,1.83E2,4.6E1,4.4E1,1.4E1,3E0,1.3E2,4.7E1,1.23E2,7.4E1,2.4E1,4.91E2,2E0,1.89E2,3.241E3,1E0,3E0,2.9E1],"tree_param":{"num_deleted":"0","num_feature":"9","num_nodes":"103","size_leaf_vector":"1"}},{"base_weights":[-6.4890116E-1,-3.3522214E2,1.7749898E2,-4.2510727E2,-2.2467258E2,9.378118E0,2.1002797E2,-4.6200577E2,-3.7925705E2,-2.8212915E2,-1.6051491E2,-3.9138275E1,6.1934452E1,1.341228E2,2.164708E2,-1.5413332E2,-4.4947168E2,-3.9543436E2,-3.3215744E2,-3.3864417E2,-2.668414E2,-1.1518221E2,-1.848449E2,-8.8908775E1,-2.5682669E1,8.524034E1,3.706827E1,1.0946242E2,1.5844147E2,1.8837155E2,2.1951892E2,-1.4252974E2,-4.334667E2,-4.056892E2,-1.082338E2,-1.0800788E2,-3.0075507E2,-1.0768661E2,-2.9490494E2,-2.9618213E2,-2.4259413E2,-1.7088678E2,-1.0067078E2,-1.6916904E2,-2.3046616E2,-1.359333E2,-5.138262E1,-1.1396893E1,-8.429562E1,5.9436768E1,1.4014752E2,6.992166E0,6.122698E1,1.2343912E2,5.940819E1,7.148401E1,1.7104628E2,1.9549637E2,1.1521642E2,2.0968285E2,2.2223862E2,-1.3873419E2,-1.2402234E2,-1.230166E2,-9.522989E1,-9.297189E1,-5.7868187E1,-3.6468586E1,-9.101489E1,-9.423697E1,-7.9911644E1,-8.185809E1,-6.50103E1,-2.1476748E1,-5.8519764E1,-2.6753065E1,-4.45587E1,-5.4337334E1,-3.6566498E1,-7.287007E1,-4.155352E1,-2.0171604E1,-5.1482E1,-3.64823E1,-9.318766E0,-2.499041E1,-1.0091522E0,-3.2687836E1,-1.2294204E1,1.0991137E1,2.7406107E1,4.826798E1,1.4590766E1,-3.301434E1,3.6521478E0,2.1102772E1,-9.053223E-1,2.8421446E1,4.612461E1,-1.216556E1,3.957087E1,2.0273438E-1,2.7024656E1,5.3777332E1,2.685956E1,5.9110664E1,-1.8157568E1,2.8635126E1,5.758186E1,6.4403885E1,5.6009678E1,5.3215755E1,6.680776E1],"categories":[],"categories_nodes":[],"categories_segments":[],"categories_sizes":[],"default_left":[0,0,0,0,0,0,0,0,0,0,0,0,0,0,0,0,0,0,0,0,0,0,0,0,0,0,0,0,0,0,0,0,0,0,0,0,0,0,0,0,0,0,0,0,0,0,0,0,0,0,0,0,0,0,0,0,0,0,0,0,0,0,0,0,0,0,0,0,0,0,0,0,0,0,0,0,0,0,0,0,0,0,0,0,0,0,0,0,0,0,0,0,0,0,0,0,0,0,0,0,0,0,0,0,0,0,0,0,0,0,0,0,0],"id":6,"left_children":[1,3,5,7,9,11,13,15,17,19,21,23,25,27,29,-1,31,33,35,37,39,41,43,45,47,49,51,53,55,57,59,-1,61,63,-1,-1,65,-1,67,69,71,73,75,77,79,81,83,85,87,89,91,93,95,97,99,101,103,105,107,109,111,-1,-1,-1,-1,-1,-1,-1,-1,-1,-1,-1,-1,-1,-1,-1,-1,-1,-1,-1,-1,-1,-1,-1,-1,-1,-1,-1,-1,-1,-1,-1,-1,-1,-1,-1,-1,-1,-1,-1,-1,-1,-1,-1,-1,-1,-1,-1,-1,-1,-1,-1,-1],"loss_changes":[4.8958317E8,2.8263968E7,2.93108E7,2.486016E6,4.680532E6,2.220788E6,2.167248E6,3.3168E5,4.07344E5,4.92828E5,6.49298E5,3.010872E5,2.3908325E5,1.949535E5,3.13088E5,0E0,8.3632E4,3.8792E4,5.5374E4,1.8517E4,3.09476E5,1.56593E5,2.42782E5,1.6242175E5,2.9880394E5,2.9628225E5,1.4779825E5,1.17894E5,1.80683E5,1.92216E5,5.3104E4,0E0,6.8088E4,2.1664E4,0E0,0E0,3.3006E4,0E0,3.66005E4,4.3614E4,1.75194E5,8.927525E4,8.1918E4,1.45805E5,7.84055E4,9.138519E4,7.470633E4,1.6664975E5,7.0316625E4,1.0435184E5,1.21271125E5,5.7134133E4,6.638828E4,1.0635225E5,3.0245847E5,3.1544812E4,8.63625E4,1.59304E5,4.0823156E4,5.4668E4,1.96E4,0E0,0E0,0E0,0E0,0E0,0E0,0E0,0E0,0E0,0E0,0E0,0E0,0E0,0E0,0E0,0E0,0E0,0E0,0E0,0E0,0E0,0E0,0E0,0E0,0E0,0E0,0E0,0E0,0E0,0E0,0E0,0E0,0E0,0E0,0E0,0E0,0E0,0E0,0E0,0E0,0E0,0E0,0E0,0E0,0E0,0E0,0E0,0E0,0E0,0E0,0E0,0E0],"parents":[2147483647,0,0,1,1,2,2,3,3,4,4,5,5,6,6,7,7,8,8,9,9,10,10,11,11,12,12,13,13,14,14,16,16,17,17,18,18,19,19,20,20,21,21,22,22,23,23,24,24,25,25,26,26,27,27,28,28,29,29,30,30,32,32,33,33,36,36,38,38,39,39,40,40,41,41,42,42,43,43,44,44,45,45,46,46,47,47,48,48,49,49,50,50,51,51,52,52,53,53,54,54,55,55,56,56,57,57,58,58,59,59,60,60],"right_children":[2,4,6,8,10,12,14,16,18,20,22,24,26,28,30,-1,32,34,36,38,40,42,44,46,48,50,52,54,56,58,60,-1,62,64,-1,-1,66,-1,68,70,72,74,76,78,80,82,84,86,88,90,92,94,96,98,100,102,104,106,108,110,112,-1,-1,-1,-1,-1,-1,-1,-1,-1,-1,-1,-1,-1,-1,-1,-1,-1,-1,-1,-1,-1,-1,-1,-1,-1,-1,-1,-1,-1,-1,-1,-1,-1,-1,-1,-1,-1,-1,-1,-1,-1,-1,-1,-1,-1,-1,-1,-1,-1,-1,-1,-1],"split_conditions":[8.924148E0,6.7126317E0,1.0486806E1,5.3604913E0,7.819593E0,9.761822E0,1.109678E1,3.7048829E0,1.31E1,8.724463E0,-3.6727803E0,9.94E2,9.7E0,8.6E1,1.5637316E-1,-1.5413332E2,1.01E1,6.366643E0,9.120546E0,8.7E1,7.225088E0,1.16077805E2,-3.5408013E0,9.271198E0,2.9239963E2,1.013E3,1.0113846E1,2.9143323E2,9.92E2,1.73E1,4.3153777E0,-1.4252974E2,4.3384657E0,1.02E3,-1.082338E2,-1.0800788E2,6.5420966E0,-1.0768661E2,1.377817E2,1.02E3,1.017E3,8.596755E0,2.903469E2,9E1,1.62E1,-3.779246E0,8E1,9.161092E-2,9.440038E0,8.8E1,-2.7444472E0,7.569721E0,-2.9166393E0,1.006E3,3.0840735E2,1.3606073E2,7.3984265E0,2.0175312E-1,1.17573805E1,2.6145175E2,3.5069032E0,-1.3873419E2,-1.2402234E2,-1.230166E2,-9.522989E1,-9.297189E1,-5.7868187E1,-3.6468586E1,-9.101489E1,-9.423697E1,-7.9911644E1,-8.185809E1,-6.50103E1,-2.1476748E1,-5.8519764E1,-2.6753065E1,-4.45587E1,-5.4337334E1,-3.6566498E1,-7.287007E1,-4.155352E1,-2.0171604E1,-5.1482E1,-3.64823E1,-9.318766E0,-2.499041E1,-1.0091522E0,-3.2687836E1,-1.2294204E1,1.0991137E1,2.7406107E1,4.826798E1,1.4590766E1,-3.301434E1,3.6521478E0,2.1102772E1,-9.053223E-1,2.8421446E1,4.612461E1,-1.216556E1,3.957087E1,2.0273438E-1,2.7024656E1,5.3777332E1,2.685956E1,5.9110664E1,-1.8157568E1,2.8635126E1,5.758186E1,6.4403885E1,5.6009678E1,5.3215755E1,6.680776E1],"split_indices":[1,1,1,1,1,1,1,1,5,7,0,4,5,3,0,0,5,1,7,3,1,2,0,1,2,4,1,2,4,5,0,0,1,4,0,0,1,0,2,4,4,7,2,3,5,0,3,6,1,3,0,7,0,4,2,2,7,6,1,2,7,0,0,0,0,0,0,0,0,0,0,0,0,0,0,0,0,0,0,0,0,0,0,0,0,0,0,0,0,0,0,0,0,0,0,0,0,0,0,0,0,0,0,0,0,0,0,0,0,0,0,0,0],"split_type":[0,0,0,0,0,0,0,0,0,0,0,0,0,0,0,0,0,0,0,0,0,0,0,0,0,0,0,0,0,0,0,0,0,0,0,0,0,0,0,0,0,0,0,0,0,0,0,0,0,0,0,0,0,0,0,0,0,0,0,0,0,0,0,0,0,0,0,0,0,0,0,0,0,0,0,0,0,0,0,0,0,0,0,0,0,0,0,0,0,0,0,0,0,0,0,0,0,0,0,0,0,0,0,0,0,0,0,0,0,0,0,0,0],"sum_hessian":[8.212E3,2.853E3,5.359E3,1.572E3,1.281E3,8.69E2,4.49E3,8.66E2,7.06E2,6.74E2,6.07E2,4.52E2,4.17E2,3.53E2,4.137E3,1.61E2,7.05E2,5.2E2,1.86E2,1.39E2,5.35E2,2.14E2,3.93E2,9.5E1,3.57E2,2.14E2,2.03E2,1.78E2,1.75E2,4.11E2,3.726E3,2.6E2,4.45E2,3.93E2,1.27E2,9.3E1,9.3E1,9E1,4.9E1,2.37E2,2.98E2,4.2E1,1.72E2,2.96E2,9.7E1,4.1E1,5.4E1,2.88E2,6.9E1,1.47E2,6.7E1,9.1E1,1.12E2,1.38E2,4E1,2.3E1,1.52E2,3.73E2,3.8E1,8.24E2,2.902E3,1.73E2,2.72E2,3.71E2,2.2E1,8.4E1,9E0,3E0,4.6E1,1.42E2,9.5E1,1.33E2,1.65E2,9E0,3.3E1,1.41E2,3.1E1,2.34E2,6.2E1,8.4E1,1.3E1,1.5E1,2.6E1,1.1E1,4.3E1,2.8E1,2.6E2,4.3E1,2.6E1,8.7E1,6E1,5.4E1,1.3E1,3E0,8.8E1,9.8E1,1.4E1,7.3E1,6.5E1,1.7E1,2.3E1,5E0,1.8E1,1.37E2,1.5E1,3.71E2,2E0,3.2E1,6E0,6.7E2,1.54E2,3.3E1,2.869E3],"tree_param":{"num_deleted":"0","num_feature":"9","num_nodes":"113","size_leaf_vector":"1"}},{"base_weights":[-6.461346E-1,-2.2553947E2,1.2997911E2,-2.862623E2,-1.27483986E2,3.1781626E1,1.4961127E2,-3.144762E2,-2.3968558E2,-1.657104E2,-8.008212E1,-4.085144E0,6.4874E1,1.1820925E2,1.5317772E2,-3.394242E2,-2.9400543E2,-2.9220493E2,-2.2855971E2,-1.4736513E2,-2.102742E2,-9.8381134E1,-5.6190517E1,-2.6626554E1,1.0052024E1,9.148968E1,4.9050526E1,1.1555029E2,8.8182495E1,1.5435806E2,1.356967E2,-1.1223869E2,-9.917396E1,-9.450251E1,-2.8063052E2,-2.7778046E2,-1.2296566E2,-2.4364595E2,-2.0164432E2,-1.6472153E2,-1.2452629E2,-2.2782681E2,-1.7622221E2,-1.641781E2,-9.0780785E1,-3.152278E1,-7.716257E1,-1.8241558E1,-8.833329E1,-2.524692E1,2.0012161E1,5.0976578E1,1.16167946E2,-5.084062E1,5.3246304E1,1.1015593E2,1.7890614E2,1.5639471E2,1.4938126E2,7.029228E1,1.4447357E2,-8.481736E1,-5.108222E1,-1.8777443E1,-8.4355774E1,-7.6959274E1,-6.705782E1,-6.468805E1,-4.896305E1,-5.7731148E1,-4.634422E1,-3.863005E1,-5.926213E0,-6.893142E1,-4.6948243E-2,-5.689855E1,-3.5096245E1,-5.6853733E1,-2.6046795E1,-2.5002155E1,-4.1124077E1,-1.6935638E1,2.342669E0,-2.4474295E1,2.2072723E1,8.672645E0,-8.54281E0,-3.410924E1,-1.1773609E1,-1.166922E1,3.734927E1,4.516475E0,2.716305E1,2.1317835E1,-8.177439E0,4.2636055E1,1.6243557E1,-2.6635777E1,1.4173939E1,2.2100382E0,1.9499422E1,3.646058E1,2.1988811E1,5.6323826E1,-1.5595753E1,5.471206E1,4.6491783E1,3.8076004E1,4.6133095E1,-1.1996306E1,3.261553E1,-8.786865E0,4.361647E1],"categories":[],"categories_nodes":[],"categories_segments":[],"categories_sizes":[],"default_left":[0,0,0,0,0,0,0,0,0,0,0,0,0,0,0,0,0,0,0,0,0,0,0,0,0,0,0,0,0,0,0,0,0,0,0,0,0,0,0,0,0,0,0,0,0,0,0,0,0,0,0,0,0,0,0,0,0,0,0,0,0,0,0,0,0,0,0,0,0,0,0,0,0,0,0,0,0,0,0,0,0,0,0,0,0,0,0,0,0,0,0,0,0,0,0,0,0,0,0,0,0,0,0,0,0,0,0,0,0,0,0,0,0],"id":7,"left_children":[1,3,5,7,9,11,13,15,17,19,21,23,25,27,29,31,33,35,37,39,41,43,45,47,49,51,53,55,-1,57,59,-1,-1,-1,61,63,-1,65,67,69,71,73,75,77,79,81,83,85,87,89,91,93,95,97,99,101,103,105,107,109,111,-1,-1,-1,-1,-1,-1,-1,-1,-1,-1,-1,-1,-1,-1,-1,-1,-1,-1,-1,-1,-1,-1,-1,-1,-1,-1,-1,-1,-1,-1,-1,-1,-1,-1,-1,-1,-1,-1,-1,-1,-1,-1,-1,-1,-1,-1,-1,-1,-1,-1,-1,-1],"loss_changes":[2.4130054E8,1.7933296E7,1.001224E7,2.372816E6,2.081404E6,1.0293219E6,4.66832E5,4.91088E5,3.46332E5,4.91418E5,2.2093775E5,1.3315375E5,1.85452E5,1.74435E5,5.9224E4,3.4396E4,9.2228E4,8.9839E4,1.89628E5,1.60247E5,6.98285E4,1.31119E5,1.1500225E5,8.169178E4,9.086192E4,1.6104362E5,1.2215656E5,1.31011E5,0E0,1.3448E4,1.35652E5,0E0,0E0,0E0,4.4754E4,6.301E4,0E0,3.9096E4,8.1425E4,4.2933E4,8.67585E4,5.2205E4,3.115E4,4.037875E4,7.951875E4,1.043752E5,8.725725E4,6.9829195E4,1.9194344E4,1.2135542E5,6.891475E4,1.04063484E5,1.5809675E5,4.885815E4,1.4725256E5,1.626435E5,7.7115375E4,6.6168E4,8.6818E4,1.3995169E5,3.97005E4,0E0,0E0,0E0,0E0,0E0,0E0,0E0,0E0,0E0,0E0,0E0,0E0,0E0,0E0,0E0,0E0,0E0,0E0,0E0,0E0,0E0,0E0,0E0,0E0,0E0,0E0,0E0,0E0,0E0,0E0,0E0,0E0,0E0,0E0,0E0,0E0,0E0,0E0,0E0,0E0,0E0,0E0,0E0,0E0,0E0,0E0,0E0,0E0,0E0,0E0,0E0,0E0],"parents":[2147483647,0,0,1,1,2,2,3,3,4,4,5,5,6,6,7,7,8,8,9,9,10,10,11,11,12,12,13,13,14,14,15,15,16,16,17,17,18,18,19,19,20,20,21,21,22,22,23,23,24,24,25,25,26,26,27,27,29,29,30,30,34,34,35,35,37,37,38,38,39,39,40,40,41,41,42,42,43,43,44,44,45,45,46,46,47,47,48,48,49,49,50,50,51,51,52,52,53,53,54,54,55,55,56,56,57,57,58,58,59,59,60,60],"right_children":[2,4,6,8,10,12,14,16,18,20,22,24,26,28,30,32,34,36,38,40,42,44,46,48,50,52,54,56,-1,58,60,-1,-1,-1,62,64,-1,66,68,70,72,74,76,78,80,82,84,86,88,90,92,94,96,98,100,102,104,106,108,110,112,-1,-1,-1,-1,-1,-1,-1,-1,-1,-1,-1,-1,-1,-1,-1,-1,-1,-1,-1,-1,-1,-1,-1,-1,-1,-1,-1,-1,-1,-1,-1,-1,-1,-1,-1,-1,-1,-1,-1,-1,-1,-1,-1,-1,-1,-1,-1,-1,-1,-1,-1,-1],"split_conditions":[9.2294035E0,7.176506E0,1.0748312E1,5.9470434E0,8.291439E0,9.997927E0,1.1520462E1,4.5360646E0,8.596755E0,-3.497635E0,8.815709E0,9.503064E0,9E0,8.227015E-1,1.2385662E-1,3.497018E0,8.8E0,3.2320757E0,1.02E3,9.183953E0,1.017E3,8E1,9.9E0,3.005494E2,9.98E2,7.3E0,-3.7714834E0,3.2248773E2,8.8182495E1,1.09E1,1.1697587E1,-1.1223869E2,-9.917396E1,-9.450251E1,1.77E1,7.2827115E0,-1.2296566E2,6.7126317E0,9.300663E0,8.724463E0,1.032E3,-3.351934E0,9.263778E0,1.001E3,2.9315015E2,8.6E1,9.2E1,7.5E0,3.3200595E2,8.151813E0,1.029E3,2.8680563E2,1.097377E-1,8.7E1,9.92E2,2.5402588E2,1.5637316E-1,8.227015E-1,1.2380777E1,2.3379196E2,-6.3948846E-14,-8.481736E1,-5.108222E1,-1.8777443E1,-8.4355774E1,-7.6959274E1,-6.705782E1,-6.468805E1,-4.896305E1,-5.7731148E1,-4.634422E1,-3.863005E1,-5.926213E0,-6.893142E1,-4.6948243E-2,-5.689855E1,-3.5096245E1,-5.6853733E1,-2.6046795E1,-2.5002155E1,-4.1124077E1,-1.6935638E1,2.342669E0,-2.4474295E1,2.2072723E1,8.672645E0,-8.54281E0,-3.410924E1,-1.1773609E1,-1.166922E1,3.734927E1,4.516475E0,2.716305E1,2.1317835E1,-8.177439E0,4.2636055E1,1.6243557E1,-2.6635777E1,1.4173939E1,2.2100382E0,1.9499422E1,3.646058E1,2.1988811E1,5.6323826E1,-1.5595753E1,5.471206E1,4.6491783E1,3.8076004E1,4.6133095E1,-1.1996306E1,3.261553E1,-8.786865E0,4.361647E1],"split_indices":[1,1,1,1,1,1,1,1,7,0,1,1,5,0,6,1,5,0,4,7,4,3,5,2,4,5,0,2,0,5,1,0,0,0,5,7,0,1,7,7,4,0,7,4,2,3,3,5,2,7,4,2,6,3,4,2,0,0,1,2,8,0,0,0,0,0,0,0,0,0,0,0,0,0,0,0,0,0,0,0,0,0,0,0,0,0,0,0,0,0,0,0,0,0,0,0,0,0,0,0,0,0,0,0,0,0,0,0,0,0,0,0,0],"split_type":[0,0,0,0,0,0,0,0,0,0,0,0,0,0,0,0,0,0,0,0,0,0,0,0,0,0,0,0,0,0,0,0,0,0,0,0,0,0,0,0,0,0,0,0,0,0,0,0,0,0,0,0,0,0,0,0,0,0,0,0,0,0,0,0,0,0,0,0,0,0,0,0,0,0,0,0,0,0,0,0,0,0,0,0,0,0,0,0,0,0,0,0,0,0,0,0,0,0,0,0,0,0,0,0,0,0,0,0,0,0,0,0,0],"sum_hessian":[8.212E3,3.017E3,5.195E3,1.862E3,1.155E3,8.66E2,4.329E3,1.156E3,7.06E2,6.38E2,5.17E2,4.16E2,4.5E2,4.45E2,3.884E3,5.14E2,6.42E2,1.19E2,5.87E2,4.55E2,1.83E2,2.91E2,2.26E2,1.6E2,2.56E2,1.66E2,2.84E2,4.4E2,5E0,3.631E3,2.53E2,9.6E1,4.18E2,2.41E2,4.01E2,1.09E2,1E1,3.71E2,2.16E2,2.55E2,2E2,1.17E2,6.6E1,2.8E1,2.63E2,1.05E2,1.21E2,1.42E2,1.8E1,5.6E1,2E2,6.4E1,1.02E2,1.1E1,2.73E2,4.08E2,3.2E1,2.555E3,1.076E3,3.1E1,2.22E2,3.92E2,9E0,2E0,1.07E2,2.19E2,1.52E2,1.55E2,6.1E1,6.4E1,1.91E2,1.92E2,8E0,1.16E2,1E0,5.2E1,1.4E1,2E1,8E0,2.29E2,3.4E1,6.4E1,4.1E1,1.18E2,3E0,2.5E1,1.17E2,1.1E1,7E0,5.2E1,4E0,1.88E2,1.2E1,5.1E1,1.3E1,7.1E1,3.1E1,8E0,3E0,5.6E1,2.17E2,3.1E2,9.8E1,3.1E1,1E0,1.26E2,2.429E3,1.81E2,8.95E2,8E0,2.3E1,1E0,2.21E2],"tree_param":{"num_deleted":"0","num_feature":"9","num_nodes":"113","size_leaf_vector":"1"}},{"base_weights":[-5.594594E-1,-1.5970526E2,9.0337616E1,-2.0088043E2,-9.131642E1,6.719488E0,1.026907E2,-2.260297E2,-1.7366138E2,-6.9675804E1,-1.3154921E2,-1.8570948E1,1.9349773E1,6.592941E1,1.0637932E2,-2.3751266E2,-2.1049934E2,-1.8591768E2,-1.5046094E2,-8.583297E1,-4.261183E1,-1.3821356E2,-7.4245186E1,-9.5768135E1,-1.1801139E1,2.2053108E1,-7.322023E1,5.2966812E1,8.471475E1,1.076347E2,8.507134E1,-8.14146E1,-2.3246294E2,-2.0822017E2,-9.980367E1,-2.0863647E2,-1.6767473E2,-1.662429E2,-1.3320865E2,-1.0562461E2,-7.25192E1,-4.8014248E1,5.4591164E1,-1.8076521E2,-1.3035103E2,-8.947088E1,-2.1818525E1,-4.5637478E1,-1.3130891E2,-6.7554855E1,-6.163656E0,3.831013E1,1.0775953E1,4.7758093E0,-1.4075624E2,5.9994938E1,-5.725911E-1,5.9835896E1,1.0747602E2,9.694541E1,1.0881033E2,-5.1760254E0,9.037941E1,-7.3753494E1,-6.651317E1,-7.172056E1,-6.006956E1,-6.077258E1,-1.01245544E2,-4.7191887E1,-5.695362E1,-5.0055965E1,-1.0289127E1,-4.4918625E1,-3.6026676E1,-3.381054E1,-1.630118E1,-1.7013168E1,-3.2826405E1,-1.3279187E1,-4.846596E1,-9.588585E0,3.4753372E1,-6.0881187E1,-2.6984053E1,-4.272701E1,-3.2586327E1,-9.299309E0,-3.1206432E1,-1.7560358E1,1.0184275E1,-5.15647E0,-1.948777E1,-1.5241059E1,-4.7566074E1,3.4470486E1,-2.5222425E1,1.1900936E1,-6.711881E0,1.4602486E1,-1.3957175E1,-1.8798448E0,1.0797906E1,-2.0144825E1,2.2652124E1,-1.2365186E1,-4.5142956E1,1.2512396E1,2.4511522E1,1.9290455E1,-1.2454673E1,1.948714E1,-1.726432E1,-1.83453E1,3.426792E1,1.6001894E1,3.1651482E1,3.3181904E1,3.0921219E1,1.4432374E1,-2.5271778E1,-1.4876465E1,2.7563173E1],"categories":[],"categories_nodes":[],"categories_segments":[],"categories_sizes":[],"default_left":[0,0,0,0,0,0,0,0,0,0,0,0,0,0,0,0,0,0,0,0,0,0,0,0,0,0,0,0,0,0,0,0,0,0,0,0,0,0,0,0,0,0,0,0,0,0,0,0,0,0,0,0,0,0,0,0,0,0,0,0,0,0,0,0,0,0,0,0,0,0,0,0,0,0,0,0,0,0,0,0,0,0,0,0,0,0,0,0,0,0,0,0,0,0,0,0,0,0,0,0,0,0,0,0,0,0,0,0,0,0,0,0,0,0,0,0,0,0,0,0,0,0,0],"id":8,"left_children":[1,3,5,7,9,11,13,15,17,19,21,23,25,27,29,31,33,35,37,39,41,43,45,47,49,51,53,55,57,59,61,-1,63,65,-1,67,69,71,73,75,77,79,81,83,85,87,89,91,93,95,97,99,101,103,105,107,109,111,113,115,117,119,121,-1,-1,-1,-1,-1,-1,-1,-1,-1,-1,-1,-1,-1,-1,-1,-1,-1,-1,-1,-1,-1,-1,-1,-1,-1,-1,-1,-1,-1,-1,-1,-1,-1,-1,-1,-1,-1,-1,-1,-1,-1,-1,-1,-1,-1,-1,-1,-1,-1,-1,-1,-1,-1,-1,-1,-1,-1,-1,-1,-1],"loss_changes":[1.1882276E8,8.39E6,5.399528E6,1.236048E6,9.69458E5,2.156521E5,6.1064E5,1.22096E5,2.27658E5,3.168665E5,1.394415E5,1.1645713E5,1.1422619E5,9.7298625E4,1.01532E5,3.0466E4,4.741E4,2.0706E5,6.38935E4,1.13024E5,1.4755738E5,9.35345E4,3.2371875E4,2.6077672E4,6.4960223E4,7.9887E4,6.915026E4,9.410469E4,8.92695E4,3.8512E4,1.13042E5,0E0,1.4992E4,5.4152E4,0E0,1.31565E5,4.5765E4,7.242E3,1.583075E4,5.9936375E4,1.55389E5,1.04409875E5,8.32277E4,8.645525E4,6.2967E4,2.4852531E4,2.45097E4,3.830666E3,1.3878344E4,6.69294E4,1.4204369E5,1.5965738E5,1.11961016E5,4.0681793E4,5.706094E2,8.433194E4,8.2353695E4,5.363353E4,1.0601681E5,1.4217725E5,2.4772E4,6.3031773E4,5.1097875E4,0E0,0E0,0E0,0E0,0E0,0E0,0E0,0E0,0E0,0E0,0E0,0E0,0E0,0E0,0E0,0E0,0E0,0E0,0E0,0E0,0E0,0E0,0E0,0E0,0E0,0E0,0E0,0E0,0E0,0E0,0E0,0E0,0E0,0E0,0E0,0E0,0E0,0E0,0E0,0E0,0E0,0E0,0E0,0E0,0E0,0E0,0E0,0E0,0E0,0E0,0E0,0E0,0E0,0E0,0E0,0E0,0E0,0E0,0E0,0E0],"parents":[2147483647,0,0,1,1,2,2,3,3,4,4,5,5,6,6,7,7,8,8,9,9,10,10,11,11,12,12,13,13,14,14,15,15,16,16,17,17,18,18,19,19,20,20,21,21,22,22,23,23,24,24,25,25,26,26,27,27,28,28,29,29,30,30,32,32,33,33,35,35,36,36,37,37,38,38,39,39,40,40,41,41,42,42,43,43,44,44,45,45,46,46,47,47,48,48,49,49,50,50,51,51,52,52,53,53,54,54,55,55,56,56,57,57,58,58,59,59,60,60,61,61,62,62],"right_children":[2,4,6,8,10,12,14,16,18,20,22,24,26,28,30,32,34,36,38,40,42,44,46,48,50,52,54,56,58,60,62,-1,64,66,-1,68,70,72,74,76,78,80,82,84,86,88,90,92,94,96,98,100,102,104,106,108,110,112,114,116,118,120,122,-1,-1,-1,-1,-1,-1,-1,-1,-1,-1,-1,-1,-1,-1,-1,-1,-1,-1,-1,-1,-1,-1,-1,-1,-1,-1,-1,-1,-1,-1,-1,-1,-1,-1,-1,-1,-1,-1,-1,-1,-1,-1,-1,-1,-1,-1,-1,-1,-1,-1,-1,-1,-1,-1,-1,-1,-1,-1,-1,-1],"split_conditions":[9.1828575E0,7.176506E0,1.0379013E1,5.586485E0,-3.534472E0,9.553627E0,1.109678E1,4.626642E0,9.108048E0,8.646018E0,1.69E1,9.83E2,-2.2677577E0,8.7E1,1.3144487E-1,3.4012E0,1.7288421E0,6.366643E0,1.017E3,1.009E3,-3.6219332E0,8.596755E0,9.454157E0,1.0259466E-1,9.204927E-2,2.1696698E2,2.3263458E2,-1.5795652E0,1.003E3,9.89E2,1.1204032E1,-8.14146E1,1.17E1,6.6E0,-9.980367E1,-3.4071255E0,-3.4705977E0,-3.351934E0,-3.502515E0,9.2E1,1.76E1,-3.6438982E0,1.1104008E-1,1.4276071E-1,9E1,1.0485277E-1,2.054023E2,8.8E1,-3.8102298E0,8.330807E-2,2.0022604E2,-3.152256E0,8.5E1,8.3E1,3.0666345E2,1.008E3,1E3,2.8520413E2,8.636803E-2,1.216684E1,2.6051343E2,1.11E1,-6.3948846E-14,-7.3753494E1,-6.651317E1,-7.172056E1,-6.006956E1,-6.077258E1,-1.01245544E2,-4.7191887E1,-5.695362E1,-5.0055965E1,-1.0289127E1,-4.4918625E1,-3.6026676E1,-3.381054E1,-1.630118E1,-1.7013168E1,-3.2826405E1,-1.3279187E1,-4.846596E1,-9.588585E0,3.4753372E1,-6.0881187E1,-2.6984053E1,-4.272701E1,-3.2586327E1,-9.299309E0,-3.1206432E1,-1.7560358E1,1.0184275E1,-5.15647E0,-1.948777E1,-1.5241059E1,-4.7566074E1,3.4470486E1,-2.5222425E1,1.1900936E1,-6.711881E0,1.4602486E1,-1.3957175E1,-1.8798448E0,1.0797906E1,-2.0144825E1,2.2652124E1,-1.2365186E1,-4.5142956E1,1.2512396E1,2.4511522E1,1.9290455E1,-1.2454673E1,1.948714E1,-1.726432E1,-1.83453E1,3.426792E1,1.6001894E1,3.1651482E1,3.3181904E1,3.0921219E1,1.4432374E1,-2.5271778E1,-1.4876465E1,2.7563173E1],"split_indices":[1,1,1,1,0,1,1,1,7,1,5,4,0,3,6,1,0,1,4,4,0,7,7,6,6,2,2,0,4,4,1,0,5,5,0,0,0,0,0,3,5,0,6,6,3,6,2,3,0,6,2,0,3,3,2,4,4,2,6,1,2,5,8,0,0,0,0,0,0,0,0,0,0,0,0,0,0,0,0,0,0,0,0,0,0,0,0,0,0,0,0,0,0,0,0,0,0,0,0,0,0,0,0,0,0,0,0,0,0,0,0,0,0,0,0,0,0,0,0,0,0,0,0],"split_type":[0,0,0,0,0,0,0,0,0,0,0,0,0,0,0,0,0,0,0,0,0,0,0,0,0,0,0,0,0,0,0,0,0,0,0,0,0,0,0,0,0,0,0,0,0,0,0,0,0,0,0,0,0,0,0,0,0,0,0,0,0,0,0,0,0,0,0,0,0,0,0,0,0,0,0,0,0,0,0,0,0,0,0,0,0,0,0,0,0,0,0,0,0,0,0,0,0,0,0,0,0,0,0,0,0,0,0,0,0,0,0,0,0,0,0,0,0,0,0,0,0,0,0],"sum_hessian":[8.212E3,2.985E3,5.227E3,1.862E3,1.123E3,6.73E2,4.554E3,9.64E2,8.98E2,7.32E2,3.91E2,2.24E2,4.49E2,4.17E2,4.137E3,5.46E2,4.18E2,5.83E2,3.15E2,4.57E2,2.75E2,3.49E2,4.2E1,1.7E1,2.07E2,4.37E2,1.2E1,2.49E2,1.68E2,3.903E3,2.34E2,6.4E1,4.82E2,4.13E2,5E0,2.55E2,3.28E2,1.6E2,1.55E2,1.81E2,2.76E2,2.61E2,1.4E1,5.1E1,2.98E2,3.2E1,1E1,8E0,9E0,1.8E1,1.89E2,1.78E2,2.59E2,6E0,6E0,2.2E2,2.9E1,8.2E1,8.6E1,3.95E2,3.508E3,1.3E1,2.21E2,2.05E2,2.77E2,7.9E1,3.34E2,2.46E2,9E0,2.29E2,9.9E1,1.59E2,1E0,6.4E1,9.1E1,1.58E2,2.3E1,1.95E2,8.1E1,2.54E2,7E0,6E0,8E0,4E1,1.1E1,1.88E2,1.1E2,7E0,2.5E1,6E0,4E0,4E0,4E0,3E0,6E0,1E0,1.7E1,4.9E1,1.4E2,1.59E2,1.9E1,1.55E2,1.04E2,3E0,3E0,1E0,5E0,1.21E2,9.9E1,1.1E1,1.8E1,7.9E1,3E0,3E0,8.3E1,6.6E1,3.29E2,2.658E3,8.5E2,8E0,5E0,2E0,2.19E2],"tree_param":{"num_deleted":"0","num_feature":"9","num_nodes":"123","size_leaf_vector":"1"}},{"base_weights":[-5.31861E-1,-1.1628117E2,6.110043E1,-1.4743326E2,-7.796721E1,-1.8187076E0,7.170394E1,-1.6257426E2,-1.3271202E2,-9.8893974E1,-5.4606136E1,-1.3555982E1,1.7817142E1,4.4548347E1,7.440882E1,-5.5284946E1,-1.5796614E2,-1.306652E2,-8.046135E1,-1.5986536E2,-9.49038E1,-4.6534054E1,-9.824992E1,-2.35944E1,5.0151153E0,2.395118E1,-4.538812E1,4.1420994E1,1.2053427E2,7.605939E1,6.4707146E1,-5.4648685E1,-1.526861E2,-1.4660965E2,-1.2123156E2,-7.762993E1,-1.416884E2,-1.4759523E2,-9.044864E1,-6.444212E1,-3.1155035E1,-1.391532E2,-7.9689606E1,1.0235282E2,-2.5955976E1,2.3132662E1,-2.5636604E1,2.7193378E1,-6.1444214E1,-5.0459667E1,-1.5413486E1,4.5227234E1,-9.225923E0,1.3448288E2,-1.3304224E1,7.5389534E1,9.087899E1,7.404588E1,4.4906715E1,-4.4318493E1,-4.9792377E1,-4.672847E1,-3.746534E1,-3.7984474E1,-3.1222986E1,-1.0009293E1,-4.6255886E1,-1.6639069E1,-5.1114254E1,-2.8691008E1,-2.0678974E1,-2.1310637E1,-9.3570595E0,9.516297E0,-1.1405289E1,-5.4088158E1,-1.7754547E1,-1.5061534E1,-2.7617552E1,4.3407223E1,3.5354006E0,-5.4039543E1,-6.6961484E0,1.6690016E1,4.8223546E-1,-1.3314647E1,8.640011E0,-5.791283E-2,1.0840197E1,9.957825E0,-3.2023422E1,-2.9668674E1,6.621982E0,1.1008922E1,2.3329823E1,-3.5911934E1,3.9717658E0,1.0381348E0,4.307834E1,2.2927807E1,1.8337782E1,5.110665E1,2.359744E1,3.0988466E1,2.1619873E1,1.9078085E1,-4.078771E0],"categories":[],"categories_nodes":[],"categories_segments":[],"categories_sizes":[],"default_left":[0,0,0,0,0,0,0,0,0,0,0,0,0,0,0,0,0,0,0,0,0,0,0,0,0,0,0,0,0,0,0,0,0,0,0,0,0,0,0,0,0,0,0,0,0,0,0,0,0,0,0,0,0,0,0,0,0,0,0,0,0,0,0,0,0,0,0,0,0,0,0,0,0,0,0,0,0,0,0,0,0,0,0,0,0,0,0,0,0,0,0,0,0,0,0,0,0,0,0,0,0,0,0,0,0,0,0],"id":9,"left_children":[1,3,5,7,9,11,13,15,17,19,21,23,25,27,29,-1,31,33,-1,35,37,39,41,43,45,47,49,51,53,55,57,-1,59,61,63,-1,65,67,69,71,73,75,77,79,81,83,85,87,89,-1,91,93,95,97,-1,99,101,103,105,-1,-1,-1,-1,-1,-1,-1,-1,-1,-1,-1,-1,-1,-1,-1,-1,-1,-1,-1,-1,-1,-1,-1,-1,-1,-1,-1,-1,-1,-1,-1,-1,-1,-1,-1,-1,-1,-1,-1,-1,-1,-1,-1,-1,-1,-1,-1,-1],"loss_changes":[5.8597788E7,3.394924E6,3.57613E6,3.2904E5,6.21334E5,1.7862636E5,3.3361E5,4.8016E4,1.87651E5,1.49047E5,2.0962412E5,9.053419E4,1.1352108E5,9.433869E4,6.1854E4,0E0,5.4335E4,1.01504E5,0E0,3.5244625E4,1.359505E5,1.3982775E5,6.0273688E4,9.634839E4,9.555515E4,7.504111E4,9.311886E4,7.810525E4,4.276186E4,2.847E4,1.100255E5,0E0,1.0661E4,3.8208E4,3.3367E4,0E0,4.3593188E4,9.131531E4,5.91635E4,4.97445E4,1.2159244E5,8.1452E4,1.9812469E4,2.130166E4,1.697355E5,7.546572E4,6.6586664E4,6.2688906E4,4.6414188E4,0E0,7.103136E4,1.0124006E5,7.356167E4,1.7410375E4,0E0,4.5742E4,1.3131962E5,1.65855E4,2.1841784E5,0E0,0E0,0E0,0E0,0E0,0E0,0E0,0E0,0E0,0E0,0E0,0E0,0E0,0E0,0E0,0E0,0E0,0E0,0E0,0E0,0E0,0E0,0E0,0E0,0E0,0E0,0E0,0E0,0E0,0E0,0E0,0E0,0E0,0E0,0E0,0E0,0E0,0E0,0E0,0E0,0E0,0E0,0E0,0E0,0E0,0E0,0E0,0E0],"parents":[2147483647,0,0,1,1,2,2,3,3,4,4,5,5,6,6,7,7,8,8,9,9,10,10,11,11,12,12,13,13,14,14,16,16,17,17,19,19,20,20,21,21,22,22,23,23,24,24,25,25,26,26,27,27,28,28,29,29,30,30,32,32,33,33,34,34,36,36,37,37,38,38,39,39,40,40,41,41,42,42,43,43,44,44,45,45,46,46,47,47,48,48,50,50,51,51,52,52,53,53,55,55,56,56,57,57,58,58],"right_children":[2,4,6,8,10,12,14,16,18,20,22,24,26,28,30,-1,32,34,-1,36,38,40,42,44,46,48,50,52,54,56,58,-1,60,62,64,-1,66,68,70,72,74,76,78,80,82,84,86,88,90,-1,92,94,96,98,-1,100,102,104,106,-1,-1,-1,-1,-1,-1,-1,-1,-1,-1,-1,-1,-1,-1,-1,-1,-1,-1,-1,-1,-1,-1,-1,-1,-1,-1,-1,-1,-1,-1,-1,-1,-1,-1,-1,-1,-1,-1,-1,-1,-1,-1,-1,-1,-1,-1,-1,-1],"split_conditions":[8.924148E0,6.7126317E0,1.0329191E1,5.115501E0,7.819593E0,9.808422E0,1.1026949E1,3.6188014E0,4.574594E0,5E0,2.9315015E2,1.013E3,1.67E1,1.029E3,1.1232183E-1,-5.5284946E1,7.7E0,8E0,-8.046135E1,1.002E3,9.77E2,1.011E3,3.1170935E2,8.727152E-2,2.5402588E2,-2.2677577E0,9.959795E-2,1.63E1,8.8E0,3.2545035E2,6.5293536E0,-5.4648685E1,2.762242E2,8.6E1,6.366643E0,-7.762993E1,5.566636E1,-3.502515E0,9.1E1,1.4975463E-1,1.01323515E-1,8.521235E0,1.14171825E-1,3.101512E1,8.829491E-2,9.7E0,3.1293457E2,9.98E2,2.3263458E2,-5.0459667E1,-3.779246E0,1.013E3,9.6347235E-2,8.499951E-2,-1.3304224E1,2.8804108E2,1.1697587E1,1.024867E0,1.16E1,-4.4318493E1,-4.9792377E1,-4.672847E1,-3.746534E1,-3.7984474E1,-3.1222986E1,-1.0009293E1,-4.6255886E1,-1.6639069E1,-5.1114254E1,-2.8691008E1,-2.0678974E1,-2.1310637E1,-9.3570595E0,9.516297E0,-1.1405289E1,-5.4088158E1,-1.7754547E1,-1.5061534E1,-2.7617552E1,4.3407223E1,3.5354006E0,-5.4039543E1,-6.6961484E0,1.6690016E1,4.8223546E-1,-1.3314647E1,8.640011E0,-5.791283E-2,1.0840197E1,9.957825E0,-3.2023422E1,-2.9668674E1,6.621982E0,1.1008922E1,2.3329823E1,-3.5911934E1,3.9717658E0,1.0381348E0,4.307834E1,2.2927807E1,1.8337782E1,5.110665E1,2.359744E1,3.0988466E1,2.1619873E1,1.9078085E1,-4.078771E0],"split_indices":[1,1,1,1,1,1,1,1,0,5,2,4,5,4,6,0,5,5,0,4,4,4,2,6,2,0,6,5,5,2,7,0,2,3,1,0,2,0,3,6,6,1,6,2,6,5,2,4,2,0,0,4,6,6,0,2,1,0,5,0,0,0,0,0,0,0,0,0,0,0,0,0,0,0,0,0,0,0,0,0,0,0,0,0,0,0,0,0,0,0,0,0,0,0,0,0,0,0,0,0,0,0,0,0,0,0,0],"split_type":[0,0,0,0,0,0,0,0,0,0,0,0,0,0,0,0,0,0,0,0,0,0,0,0,0,0,0,0,0,0,0,0,0,0,0,0,0,0,0,0,0,0,0,0,0,0,0,0,0,0,0,0,0,0,0,0,0,0,0,0,0,0,0,0,0,0,0,0,0,0,0,0,0,0,0,0,0,0,0,0,0,0,0,0,0,0,0,0,0,0,0,0,0,0,0,0,0,0,0,0,0,0,0,0,0,0,0],"sum_hessian":[8.212E3,2.853E3,5.359E3,1.572E3,1.281E3,7.73E2,4.586E3,7.7E2,8.02E2,6.74E2,6.07E2,4.84E2,2.89E2,4.17E2,4.169E3,1.28E2,6.42E2,7.92E2,1E1,3.9E1,6.35E2,5.14E2,9.3E1,3.14E2,1.7E2,2.64E2,2.5E1,4.02E2,1.5E1,3.557E3,6.12E2,1.09E2,5.33E2,2.89E2,5.03E2,4E0,3.5E1,4.7E1,5.88E2,2.36E2,2.78E2,2.7E1,6.6E1,5E0,3.09E2,1.07E2,6.3E1,2.55E2,9E0,4E0,2.1E1,3.74E2,2.8E1,1.4E1,1E0,3.409E3,1.48E2,4.14E2,1.98E2,3.97E2,1.36E2,1.99E2,9E1,3.78E2,1.25E2,4E0,3.1E1,1E1,3.7E1,4.71E2,1.17E2,1.96E2,4E1,2.7E1,2.51E2,1.7E1,1E1,2.1E1,4.5E1,3E0,2E0,6E0,3.03E2,4.2E1,6.5E1,4.7E1,1.6E1,6.3E1,1.92E2,3E0,6E0,6E0,1.5E1,2.98E2,7.6E1,4E0,2.4E1,1E0,1.3E1,3.174E3,2.35E2,1.8E1,1.3E2,2.3E1,3.91E2,1.5E2,4.8E1],"tree_param":{"num_deleted":"0","num_feature":"9","num_nodes":"107","size_leaf_vector":"1"}},{"base_weights":[-4.581628E-1,-7.7747635E1,4.5191208E1,-9.6313065E1,-3.7473976E1,1.1820599E1,5.161598E1,-1.0923346E2,-7.911767E1,-3.1202286E1,-6.700411E1,3.9670247E-1,2.510799E1,5.397703E1,4.4443325E1,-1.2075265E2,-1.0058174E2,-1.0797943E2,-7.323983E1,-5.478876E1,-2.388186E1,-9.619934E1,-5.194272E1,4.4563184E0,-4.1325768E1,5.127201E0,3.465769E1,5.4228954E1,2.7752087E1,-3.1235573E-1,4.630304E1,-1.1871223E2,-1.6212646E2,-1.0512224E2,-6.939603E1,-1.0103684E2,-1.7939944E2,-9.8659706E1,-6.8948746E1,-1.6541838E1,-6.501399E1,-5.167838E1,-1.5259631E1,-1.2811794E2,-6.632571E1,-6.685876E1,-2.4118004E1,1.8559284E1,-6.8331976E0,-1.5180286E1,-1.1824419E2,1.1046858E1,-4.7178036E1,2.1375206E1,5.7264297E1,2.624228E1,5.41397E1,6.385083E1,-6.1660107E1,-5.9966755E1,2.1389618E1,5.2106186E1,2.8804792E1,-3.585262E1,-2.2057869E1,-1.1200086E1,-4.9949833E1,-3.1826937E1,-1.1344434E1,-1.7623196E1,-2.9895102E1,-3.460446E1,-2.3527473E1,-2.762434E1,-5.9482296E1,-2.0833782E1,-3.139383E1,-1.797769E1,-2.4425436E1,5.422661E0,-2.5378508E1,-2.051307E1,1.345207E1,-5.087639E1,-1.3324781E1,6.1345906E0,-7.366388E0,-4.9877262E1,-2.5065393E1,-2.5759214E1,3.8787494E0,-1.6012281E1,-3.4632153E1,1.6223633E0,-1.1888403E1,-2.3591785E1,6.184844E0,-2.964039E1,1.1744112E0,-8.779829E0,2.6164637E1,-9.338452E0,-4.0839653E1,3.8795145E0,-3.0291285E1,1.8715822E0,-2.4402979E1,9.584198E0,-8.901174E0,-1.13469E1,1.8221498E1,1.5678044E1,1.6587076E1,2.6490389E1,-7.2652345E0,-3.511985E1,3.1992823E1,-2.654297E-1,-2.6819147E1,9.820444E0,-1.4607129E1,1.848154E1,1.0818872E1,4.1809964E0,2.0688623E1],"categories":[],"categories_nodes":[],"categories_segments":[],"categories_sizes":[],"default_left":[0,0,0,0,0,0,0,0,0,0,0,0,0,0,0,0,0,0,0,0,0,0,0,0,0,0,0,0,0,0,0,0,0,0,0,0,0,0,0,0,0,0,0,0,0,0,0,0,0,0,0,0,0,0,0,0,0,0,0,0,0,0,0,0,0,0,0,0,0,0,0,0,0,0,0,0,0,0,0,0,0,0,0,0,0,0,0,0,0,0,0,0,0,0,0,0,0,0,0,0,0,0,0,0,0,0,0,0,0,0,0,0,0,0,0,0,0,0,0,0,0,0,0,0,0],"id":10,"left_children":[1,3,5,7,9,11,13,15,17,19,21,23,25,27,29,31,33,35,37,39,41,43,45,47,49,51,53,55,57,59,61,63,65,67,69,71,73,75,77,79,81,83,85,87,89,91,93,95,97,99,101,103,105,107,109,-1,111,113,115,117,119,121,123,-1,-1,-1,-1,-1,-1,-1,-1,-1,-1,-1,-1,-1,-1,-1,-1,-1,-1,-1,-1,-1,-1,-1,-1,-1,-1,-1,-1,-1,-1,-1,-1,-1,-1,-1,-1,-1,-1,-1,-1,-1,-1,-1,-1,-1,-1,-1,-1,-1,-1,-1,-1,-1,-1,-1,-1,-1,-1,-1,-1,-1,-1],"loss_changes":[2.8980748E7,2.276868E6,1.106544E6,4.5503E5,1.7644562E5,1.2673786E5,7.093E4,1.06351E5,1.446025E5,1.36304E5,6.887625E4,7.64039E4,7.347516E4,1.9986E4,8.97395E4,2.33855E4,8.97005E4,5.625E4,7.500625E4,7.244831E4,1.4540884E5,4.4899844E4,4.5286406E4,6.556446E4,7.86478E4,3.953443E4,7.714694E4,4.821E3,1.10450086E5,5.824587E4,1.03598E5,8.6685E3,5.2439375E3,3.48015E4,2.31505E4,3.593525E4,1.5201875E3,1.12705625E4,6.769175E4,9.811781E4,5.7741438E4,1.157765E5,1.5550319E5,3.03025E4,4.9113906E4,4.166075E4,1.8990115E4,3.8207324E4,2.2674506E5,4.7264594E4,1.134575E4,2.5375395E4,2.4232357E4,9.0531805E4,3.4009562E4,0E0,4.063E3,5.3817875E4,1.0573422E5,2.0786582E4,2.7831242E4,1.1603625E5,1.5427556E5,0E0,0E0,0E0,0E0,0E0,0E0,0E0,0E0,0E0,0E0,0E0,0E0,0E0,0E0,0E0,0E0,0E0,0E0,0E0,0E0,0E0,0E0,0E0,0E0,0E0,0E0,0E0,0E0,0E0,0E0,0E0,0E0,0E0,0E0,0E0,0E0,0E0,0E0,0E0,0E0,0E0,0E0,0E0,0E0,0E0,0E0,0E0,0E0,0E0,0E0,0E0,0E0,0E0,0E0,0E0,0E0,0E0,0E0,0E0,0E0,0E0,0E0],"parents":[2147483647,0,0,1,1,2,2,3,3,4,4,5,5,6,6,7,7,8,8,9,9,10,10,11,11,12,12,13,13,14,14,15,15,16,16,17,17,18,18,19,19,20,20,21,21,22,22,23,23,24,24,25,25,26,26,27,27,28,28,29,29,30,30,31,31,32,32,33,33,34,34,35,35,36,36,37,37,38,38,39,39,40,40,41,41,42,42,43,43,44,44,45,45,46,46,47,47,48,48,49,49,50,50,51,51,52,52,53,53,54,54,56,56,57,57,58,58,59,59,60,60,61,61,62,62],"right_children":[2,4,6,8,10,12,14,16,18,20,22,24,26,28,30,32,34,36,38,40,42,44,46,48,50,52,54,56,58,60,62,64,66,68,70,72,74,76,78,80,82,84,86,88,90,92,94,96,98,100,102,104,106,108,110,-1,112,114,116,118,120,122,124,-1,-1,-1,-1,-1,-1,-1,-1,-1,-1,-1,-1,-1,-1,-1,-1,-1,-1,-1,-1,-1,-1,-1,-1,-1,-1,-1,-1,-1,-1,-1,-1,-1,-1,-1,-1,-1,-1,-1,-1,-1,-1,-1,-1,-1,-1,-1,-1,-1,-1,-1,-1,-1,-1,-1,-1,-1,-1,-1,-1,-1,-1],"split_conditions":[9.271198E0,7.5420876E0,1.0748312E1,5.9919662E0,2.9239963E2,1.0113846E1,6.2960067E0,9.091851E0,8.61737E0,1.2281641E2,3.1170935E2,-3.09266E0,1.002E3,2.0469616E1,9.8E2,-3.384085E0,5.63925E0,3.2320757E0,9.288543E1,1.5928899E1,9.97E2,8.41561E0,8.465154E0,2.1696698E2,1.19E1,1E3,8.7E1,3.5069032E0,8.9901194E-2,8.3E1,2.5697525E2,1.021E3,5.788609E0,1.77E1,2.8017355E2,2.3695522E2,2.389414E2,8.7261505E0,-3.484162E0,8.824722E0,9.2E1,7.7E1,1.0666162E-1,8.682147E0,-3.6329222E0,1.09E1,3.27387E2,-5.3290705E-14,2.3295663E2,9.5E1,9.503064E0,3.343477E2,-3.4103389E0,-2.523746E0,7.011985E0,2.624228E1,2.3728336E2,2.8804108E2,9.39972E-2,-1.4314774E0,1.5630193E-1,1.06265E-1,3.192975E2,-3.585262E1,-2.2057869E1,-1.1200086E1,-4.9949833E1,-3.1826937E1,-1.1344434E1,-1.7623196E1,-2.9895102E1,-3.460446E1,-2.3527473E1,-2.762434E1,-5.9482296E1,-2.0833782E1,-3.139383E1,-1.797769E1,-2.4425436E1,5.422661E0,-2.5378508E1,-2.051307E1,1.345207E1,-5.087639E1,-1.3324781E1,6.1345906E0,-7.366388E0,-4.9877262E1,-2.5065393E1,-2.5759214E1,3.8787494E0,-1.6012281E1,-3.4632153E1,1.6223633E0,-1.1888403E1,-2.3591785E1,6.184844E0,-2.964039E1,1.1744112E0,-8.779829E0,2.6164637E1,-9.338452E0,-4.0839653E1,3.8795145E0,-3.0291285E1,1.8715822E0,-2.4402979E1,9.584198E0,-8.901174E0,-1.13469E1,1.8221498E1,1.5678044E1,1.6587076E1,2.6490389E1,-7.2652345E0,-3.511985E1,3.1992823E1,-2.654297E-1,-2.6819147E1,9.820444E0,-1.4607129E1,1.848154E1,1.0818872E1,4.1809964E0,2.0688623E1],"split_indices":[1,1,1,1,2,1,7,7,7,2,2,0,4,0,4,0,1,0,2,2,4,1,1,2,5,4,3,7,6,3,2,4,2,5,2,2,2,2,0,7,3,3,6,7,0,5,2,8,2,3,1,2,0,0,7,0,2,2,6,0,6,6,2,0,0,0,0,0,0,0,0,0,0,0,0,0,0,0,0,0,0,0,0,0,0,0,0,0,0,0,0,0,0,0,0,0,0,0,0,0,0,0,0,0,0,0,0,0,0,0,0,0,0,0,0,0,0,0,0,0,0,0,0,0,0],"split_type":[0,0,0,0,0,0,0,0,0,0,0,0,0,0,0,0,0,0,0,0,0,0,0,0,0,0,0,0,0,0,0,0,0,0,0,0,0,0,0,0,0,0,0,0,0,0,0,0,0,0,0,0,0,0,0,0,0,0,0,0,0,0,0,0,0,0,0,0,0,0,0,0,0,0,0,0,0,0,0,0,0,0,0,0,0,0,0,0,0,0,0,0,0,0,0,0,0,0,0,0,0,0,0,0,0,0,0,0,0,0,0,0,0,0,0,0,0,0,0,0,0,0,0,0,0],"sum_hessian":[8.212E3,3.049E3,5.163E3,2.086E3,9.63E2,8.34E2,4.329E3,1.188E3,8.98E2,7.96E2,1.67E2,4.49E2,3.85E2,3.252E3,1.077E3,5.04E2,6.84E2,1.49E2,7.49E2,1.87E2,6.09E2,5.5E1,1.12E2,4.1E2,3.9E1,1.25E2,2.6E2,3.22E3,3.2E1,4.3E1,1.034E3,4.84E2,2E1,5.95E2,8.9E1,1.38E2,1.1E1,1.05E2,6.44E2,4E1,1.47E2,1.43E2,4.66E2,2.5E1,3E1,7.2E1,4E1,1.82E2,2.28E2,3E1,9E0,1.13E2,1.2E1,1.65E2,9.5E1,6E0,3.214E3,2.3E1,9E0,1.1E1,3.2E1,7.75E2,2.59E2,4.74E2,1E1,1E0,1.9E1,5.86E2,9E0,6.8E1,2.1E1,8.2E1,5.6E1,3E0,8E0,2E1,8.5E1,3.77E2,2.67E2,2.7E1,1.3E1,1.43E2,4E0,7E0,1.36E2,9.6E1,3.7E2,1.2E1,1.3E1,2.4E1,6E0,5.8E1,1.4E1,1.4E1,2.6E1,3E0,1.79E2,2.3E1,2.05E2,2.7E1,3E0,2E0,7E0,1.12E2,1E0,5E0,7E0,1.37E2,2.8E1,3E0,9.2E1,1.238E3,1.976E3,1.8E1,5E0,7E0,2E0,4E0,7E0,2.8E1,4E0,4.85E2,2.9E2,1.9E2,6.9E1],"tree_param":{"num_deleted":"0","num_feature":"9","num_nodes":"125","size_leaf_vector":"1"}},{"base_weights":[-4.0871584E-1,-5.871393E1,2.9614996E1,-7.528184E1,-4.2468185E1,-1.4557393E0,3.5271313E1,-7.456727E1,-1.8859814E2,-4.9159977E1,-2.4553833E1,-8.204383E0,1.0883693E1,-3.6874245E1,3.5579464E1,-8.3616875E1,-6.851702E1,-1.6263073E1,-6.001563E1,-1.0260455E2,-4.7393524E1,-5.5388996E1,-1.9043217E1,6.298165E0,-1.539293E1,3.7016064E1,-5.688321E0,2.1073975E1,-5.759525E1,3.5420437E1,1.3413658E2,-1.0029056E2,-8.058152E1,-8.523344E1,-6.3515152E1,-2.0634102E1,-1.2906828E2,-6.583666E1,-4.3758575E1,2.312971E1,-6.489365E1,-9.305668E0,-3.6843147E1,-8.050466E0,3.905506E1,-5.3304043E1,-5.796709E0,2.1815603E1,6.60781E1,7.051262E0,-3.8549824E1,1.6976662E1,-3.2492068E0,-6.3820488E1,4.433716E0,3.5581356E1,-7.437486E1,1.6019124E2,-3.328711E0,-1.5626047E1,-3.0642673E1,-3.0224913E1,-2.3276525E1,-3.2895126E1,-2.1792662E1,-1.9356222E1,1.0332975E-2,1.5046546E1,-1.0725646E1,-4.439525E1,-1.4296991E1,-8.128584E0,-2.1812546E1,-1.4543197E1,-8.375212E0,-3.7760744E0,1.5919171E1,-2.4490614E1,-1.0207533E1,-6.6437297E0,2.6931021E0,-1.253719E1,1.8247755E1,-6.7395067E0,6.088627E0,2.2905983E1,2.3148053E0,-8.742616E0,-4.343628E1,4.4332967E0,-4.362797E0,1.145413E1,-9.044906E0,2.2854807E1,-1.2414807E1,-5.3940496E0,6.061567E0,-2.3603045E1,-7.255711E0,-2.1830666E1,-1.1928346E1,7.677486E0,1.1081402E1,-2.8348364E1,6.9514894E0,5.6439625E1,2.0861914E1],"categories":[],"categories_nodes":[],"categories_segments":[],"categories_sizes":[],"default_left":[0,0,0,0,0,0,0,0,0,0,0,0,0,0,0,0,0,0,0,0,0,0,0,0,0,0,0,0,0,0,0,0,0,0,0,0,0,0,0,0,0,0,0,0,0,0,0,0,0,0,0,0,0,0,0,0,0,0,0,0,0,0,0,0,0,0,0,0,0,0,0,0,0,0,0,0,0,0,0,0,0,0,0,0,0,0,0,0,0,0,0,0,0,0,0,0,0,0,0,0,0,0,0,0,0,0,0],"id":11,"left_children":[1,3,5,7,9,11,13,15,17,19,21,23,25,27,29,31,33,-1,-1,35,37,39,41,43,45,47,49,51,53,55,57,59,61,63,65,67,69,71,73,75,77,79,81,83,85,87,89,91,93,95,97,-1,-1,99,-1,101,103,105,-1,-1,-1,-1,-1,-1,-1,-1,-1,-1,-1,-1,-1,-1,-1,-1,-1,-1,-1,-1,-1,-1,-1,-1,-1,-1,-1,-1,-1,-1,-1,-1,-1,-1,-1,-1,-1,-1,-1,-1,-1,-1,-1,-1,-1,-1,-1,-1,-1],"loss_changes":[1.4378914E7,7.48292E5,9.529455E5,9.77595E4,1.680625E5,6.970671E4,1.03289E5,6.95E4,1.4692812E3,9.20935E4,6.453464E4,5.6497414E4,1.2839809E5,2.5228666E4,6.68445E4,1.955175E4,6.3902E4,0E0,0E0,6.6752625E4,6.38905E4,4.4785984E4,5.668196E4,8.49174E4,1.3138784E5,4.9360453E4,7.646463E4,7.4114395E3,7.701414E3,8.32485E4,2.8265281E4,1.820375E3,2.037375E4,4.98335E4,4.1029E4,1.1424914E4,2.9906906E4,4.115825E4,6.10635E4,8.151949E3,2.4095562E4,5.043559E4,5.8594984E4,5.19387E4,6.3699812E4,1.5714158E5,5.2398164E4,6.663216E4,4.5500656E4,4.382593E4,2.7492984E4,0E0,0E0,1.2072266E2,0E0,6.08E4,1.5927824E4,2.114625E3,0E0,0E0,0E0,0E0,0E0,0E0,0E0,0E0,0E0,0E0,0E0,0E0,0E0,0E0,0E0,0E0,0E0,0E0,0E0,0E0,0E0,0E0,0E0,0E0,0E0,0E0,0E0,0E0,0E0,0E0,0E0,0E0,0E0,0E0,0E0,0E0,0E0,0E0,0E0,0E0,0E0,0E0,0E0,0E0,0E0,0E0,0E0,0E0,0E0],"parents":[2147483647,0,0,1,1,2,2,3,3,4,4,5,5,6,6,7,7,8,8,9,9,10,10,11,11,12,12,13,13,14,14,15,15,16,16,19,19,20,20,21,21,22,22,23,23,24,24,25,25,26,26,27,27,28,28,29,29,30,30,31,31,32,32,33,33,34,34,35,35,36,36,37,37,38,38,39,39,40,40,41,41,42,42,43,43,44,44,45,45,46,46,47,47,48,48,49,49,50,50,53,53,55,55,56,56,57,57],"right_children":[2,4,6,8,10,12,14,16,18,20,22,24,26,28,30,32,34,-1,-1,36,38,40,42,44,46,48,50,52,54,56,58,60,62,64,66,68,70,72,74,76,78,80,82,84,86,88,90,92,94,96,98,-1,-1,100,-1,102,104,106,-1,-1,-1,-1,-1,-1,-1,-1,-1,-1,-1,-1,-1,-1,-1,-1,-1,-1,-1,-1,-1,-1,-1,-1,-1,-1,-1,-1,-1,-1,-1,-1,-1,-1,-1,-1,-1,-1,-1,-1,-1,-1,-1,-1,-1,-1,-1,-1,-1],"split_conditions":[8.815709E0,6.366643E0,1.0329191E1,8.232099E0,8.095421E0,-3.6040678E0,-3.5086503E0,4.626642E0,3.4012E0,9.67E2,8.531168E0,1.9801004E2,-3.425E0,4.6515705E1,7.787066E0,8E0,6.8E0,-1.6263073E1,-6.001563E1,-3.504719E0,6.4E0,-3.738077E0,-3.6284127E0,1.6000392E2,2.2735779E2,1.013E3,1.17E1,-3.6438982E0,1.021E3,7.629619E0,2.4365479E2,6.5704336E0,3.4012E0,1.007E3,9.6E1,7.3325047E0,8.981945E0,3.101512E1,9.300663E0,8.3E1,-3.6284127E0,2.444622E2,8.646018E0,1.013E3,1.0523963E-1,2.1904541E2,2.5129294E2,1.1858861E-1,3.27387E2,7.8E0,-3.351934E0,1.6976662E1,-3.2492068E0,1.009E3,4.433716E0,1.13245E1,1.15E1,2.2735779E2,-3.328711E0,-1.5626047E1,-3.0642673E1,-3.0224913E1,-2.3276525E1,-3.2895126E1,-2.1792662E1,-1.9356222E1,1.0332975E-2,1.5046546E1,-1.0725646E1,-4.439525E1,-1.4296991E1,-8.128584E0,-2.1812546E1,-1.4543197E1,-8.375212E0,-3.7760744E0,1.5919171E1,-2.4490614E1,-1.0207533E1,-6.6437297E0,2.6931021E0,-1.253719E1,1.8247755E1,-6.7395067E0,6.088627E0,2.2905983E1,2.3148053E0,-8.742616E0,-4.343628E1,4.4332967E0,-4.362797E0,1.145413E1,-9.044906E0,2.2854807E1,-1.2414807E1,-5.3940496E0,6.061567E0,-2.3603045E1,-7.255711E0,-2.1830666E1,-1.1928346E1,7.677486E0,1.1081402E1,-2.8348364E1,6.9514894E0,5.6439625E1,2.0861914E1],"split_indices":[1,1,1,0,1,0,0,1,1,4,7,2,0,2,7,5,5,0,0,0,5,0,0,2,2,4,5,0,4,7,2,7,1,4,3,1,7,2,7,3,0,2,1,4,6,2,2,6,2,5,0,0,0,4,0,1,5,2,0,0,0,0,0,0,0,0,0,0,0,0,0,0,0,0,0,0,0,0,0,0,0,0,0,0,0,0,0,0,0,0,0,0,0,0,0,0,0,0,0,0,0,0,0,0,0,0,0],"split_type":[0,0,0,0,0,0,0,0,0,0,0,0,0,0,0,0,0,0,0,0,0,0,0,0,0,0,0,0,0,0,0,0,0,0,0,0,0,0,0,0,0,0,0,0,0,0,0,0,0,0,0,0,0,0,0,0,0,0,0,0,0,0,0,0,0,0,0,0,0,0,0,0,0,0,0,0,0,0,0,0,0,0,0,0,0,0,0,0,0,0,0,0,0,0,0,0,0,0,0,0,0,0,0,0,0,0,0],"sum_hessian":[8.212E3,2.791E3,5.421E3,1.38E3,1.411E3,8.35E2,4.586E3,1.373E3,7E0,1.026E3,3.85E2,5.4E2,2.95E2,1.9E1,4.567E3,5.45E2,8.28E2,1E0,6E0,3.1E1,9.95E2,5.7E1,3.28E2,1.79E2,3.61E2,1.14E2,1.81E2,5E0,1.4E1,4.561E3,6E0,7.9E1,4.66E2,1.87E2,6.41E2,8E0,2.3E1,1.61E2,8.34E2,6E0,5.1E1,2.13E2,1.15E2,1.25E2,5.4E1,7.2E1,2.89E2,7.6E1,3.8E1,1.31E2,5E1,2E0,3E0,1.3E1,1E0,4.555E3,6E0,5E0,1E0,4E0,7.5E1,5.6E1,4.1E2,6.1E1,1.26E2,6.31E2,1E1,1E0,7E0,1.8E1,5E0,2.5E1,1.36E2,6.41E2,1.93E2,3E0,3E0,3.2E1,1.9E1,1.25E2,8.8E1,1.1E2,5E0,8.3E1,4.2E1,2.4E1,3E1,5.8E1,1.4E1,8.6E1,2.03E2,5.8E1,1.8E1,3.5E1,3E0,4.5E1,8.6E1,1.2E1,3.8E1,8E0,5E0,5.47E2,4.008E3,5E0,1E0,3E0,2E0],"tree_param":{"num_deleted":"0","num_feature":"9","num_nodes":"107","size_leaf_vector":"1"}},{"base_weights":[-3.3086786E-1,-3.7645924E1,2.2832806E1,-4.783475E1,-1.7549955E1,8.702655E0,2.5614063E1,-5.427285E1,-3.9782425E1,-1.3371418E1,-3.7634487E1,1.0999207E1,-2.7573189E1,1.7449333E1,2.6727533E1,-6.838334E1,-5.135923E1,-4.1284687E1,3.7119217E0,-1.75131E1,1.322683E1,-2.7438421E1,-6.1294827E1,9.134002E0,5.76979E1,-4.5871834E1,1.0646053E1,-4.855941E0,2.4158947E1,2.6648857E1,1.1542985E2,-8.0559135E1,-5.6492085E1,-4.071546E1,-5.773085E1,-9.347214E1,-4.0053093E1,-1.41448145E1,3.089018E1,-2.4589006E1,-5.4069004E0,1.917026E1,-3.670962E1,-3.218068E1,3.936735E1,-1.3391187E1,-8.691705E1,1.16483135E1,-2.743296E1,1.6167782E1,8.4486435E1,-2.74546E1,-1.0229602E2,3.807839E1,-1.8842169E1,-1.1238786E0,-6.678589E1,2.5314022E1,-7.05377E1,2.7963543E1,2.217387E1,7.905689E0,4.4037746E1,-1.643478E1,-2.7038713E1,-1.8887447E1,-1.2114036E1,-1.7784956E1,-1.0292719E1,-1.9179216E1,-1.4813233E1,-5.6365027E0,-3.3290646E1,-1.7391886E1,-1.0933176E1,-8.776307E0,8.185749E0,1.7510983E0,-8.610829E0,8.1732583E-1,-8.883055E0,3.837222E0,1.8190462E1,-2.5412342E1,1.1633148E0,-7.576451E0,-1.6284729E1,1.4521436E1,1.5472658E0,-1.4170335E1,5.577839E0,-1.1476716E1,-2.8699728E1,7.267074E0,1.5968282E0,-2.254243E0,-3.453784E1,9.889863E0,-8.961072E0,-1.367732E1,2.8445967E1,-1.7766178E1,-1.585547E0,-1.4781739E0,-3.465059E1,-3.4664273E0,2.4681532E1,6.3495235E0,-5.3472204E0,8.343372E0,3.86921E0,-3.7198243E0,-4.5463623E1,2.448208E1,8.296034E0,4.1738133E0,8.003362E0],"categories":[],"categories_nodes":[],"categories_segments":[],"categories_sizes":[],"default_left":[0,0,0,0,0,0,0,0,0,0,0,0,0,0,0,0,0,0,0,0,0,0,0,0,0,0,0,0,0,0,0,0,0,0,0,0,0,0,0,0,0,0,0,0,0,0,0,0,0,0,0,0,0,0,0,0,0,0,0,0,0,0,0,0,0,0,0,0,0,0,0,0,0,0,0,0,0,0,0,0,0,0,0,0,0,0,0,0,0,0,0,0,0,0,0,0,0,0,0,0,0,0,0,0,0,0,0,0,0,0,0,0,0,0,0,0,0],"id":12,"left_children":[1,3,5,7,9,11,13,15,17,19,21,23,25,27,29,31,33,35,37,39,41,43,45,47,49,51,53,55,57,59,61,63,65,67,69,71,73,75,-1,77,79,81,83,85,87,89,91,93,95,97,99,101,103,105,-1,107,-1,109,111,113,115,-1,-1,-1,-1,-1,-1,-1,-1,-1,-1,-1,-1,-1,-1,-1,-1,-1,-1,-1,-1,-1,-1,-1,-1,-1,-1,-1,-1,-1,-1,-1,-1,-1,-1,-1,-1,-1,-1,-1,-1,-1,-1,-1,-1,-1,-1,-1,-1,-1,-1,-1,-1,-1,-1,-1,-1],"loss_changes":[7.099798E6,6.43318E5,1.9894725E5,1.06034E5,8.845622E4,6.986659E4,3.802575E4,4.405525E4,6.0984625E4,9.706358E4,4.2224266E4,6.793565E4,3.545637E4,7.659344E4,2.2913E4,2.3682188E4,6.295825E4,5.4102625E4,5.8172496E4,6.5056094E4,3.60222E4,4.2135414E4,6.511558E4,6.991869E4,3.2009977E4,3.2523531E4,3.664651E4,9.646201E4,4.4772625E4,2.12775E4,4.512801E3,1.8250375E4,8.0842188E3,4.1264625E4,2.7917125E4,2.4049453E4,5.4866625E4,1.8326172E4,0E0,6.0246812E4,5.5579574E4,2.7528527E4,2.5654012E4,1.7150977E4,2.5328682E3,2.2527068E4,1.1240531E4,5.626883E4,8.472541E4,1.1038473E4,2.851761E4,1.8701338E4,9.717664E3,2.9465559E4,0E0,4.430036E4,0E0,1.17030625E4,2.1669172E4,4.553475E4,3.1255844E4,0E0,0E0,0E0,0E0,0E0,0E0,0E0,0E0,0E0,0E0,0E0,0E0,0E0,0E0,0E0,0E0,0E0,0E0,0E0,0E0,0E0,0E0,0E0,0E0,0E0,0E0,0E0,0E0,0E0,0E0,0E0,0E0,0E0,0E0,0E0,0E0,0E0,0E0,0E0,0E0,0E0,0E0,0E0,0E0,0E0,0E0,0E0,0E0,0E0,0E0,0E0,0E0,0E0,0E0,0E0,0E0],"parents":[2147483647,0,0,1,1,2,2,3,3,4,4,5,5,6,6,7,7,8,8,9,9,10,10,11,11,12,12,13,13,14,14,15,15,16,16,17,17,18,18,19,19,20,20,21,21,22,22,23,23,24,24,25,25,26,26,27,27,28,28,29,29,30,30,31,31,32,32,33,33,34,34,35,35,36,36,37,37,39,39,40,40,41,41,42,42,43,43,44,44,45,45,46,46,47,47,48,48,49,49,50,50,51,51,52,52,53,53,55,55,57,57,58,58,59,59,60,60],"right_children":[2,4,6,8,10,12,14,16,18,20,22,24,26,28,30,32,34,36,38,40,42,44,46,48,50,52,54,56,58,60,62,64,66,68,70,72,74,76,-1,78,80,82,84,86,88,90,92,94,96,98,100,102,104,106,-1,108,-1,110,112,114,116,-1,-1,-1,-1,-1,-1,-1,-1,-1,-1,-1,-1,-1,-1,-1,-1,-1,-1,-1,-1,-1,-1,-1,-1,-1,-1,-1,-1,-1,-1,-1,-1,-1,-1,-1,-1,-1,-1,-1,-1,-1,-1,-1,-1,-1,-1,-1,-1,-1,-1,-1,-1,-1,-1,-1,-1],"split_conditions":[9.440038E0,7.5420876E0,1.0900973E1,5.9470434E0,2.9239963E2,-1.9880916E0,9.91E2,1.10086105E2,9.692436E0,2.6937158E2,1.09E1,1.033E3,1.1595685E-1,1.216684E1,7.594381E0,1.009E3,2.1904541E2,8.03254E0,1.77E1,8.6E1,1.69E1,1.05E1,-3.658031E0,9.3E1,-3.4857435E0,1.0905887E-1,1.19E1,1.4144747E0,2.0469616E1,1.0523963E-1,-2.2677577E0,2.3074703E1,4.701007E0,4.154865E0,1.016E3,2.1640205E2,9.288543E1,1.2526153E-1,3.089018E1,-3.8003657E0,-3.5464158E0,1.51E1,1.3898471E-1,3.5221155E2,3.3819647E2,3.0666345E2,1.0930265E-1,9E0,1.14171825E-1,-3.556527E0,7.3E0,8.5E1,1.0113846E1,1.065243E1,-1.8842169E1,2.129414E2,-6.678589E1,6.092449E0,8.6691685E-2,1.0966152E1,2.3616641E2,7.905689E0,4.4037746E1,-1.643478E1,-2.7038713E1,-1.8887447E1,-1.2114036E1,-1.7784956E1,-1.0292719E1,-1.9179216E1,-1.4813233E1,-5.6365027E0,-3.3290646E1,-1.7391886E1,-1.0933176E1,-8.776307E0,8.185749E0,1.7510983E0,-8.610829E0,8.1732583E-1,-8.883055E0,3.837222E0,1.8190462E1,-2.5412342E1,1.1633148E0,-7.576451E0,-1.6284729E1,1.4521436E1,1.5472658E0,-1.4170335E1,5.577839E0,-1.1476716E1,-2.8699728E1,7.267074E0,1.5968282E0,-2.254243E0,-3.453784E1,9.889863E0,-8.961072E0,-1.367732E1,2.8445967E1,-1.7766178E1,-1.585547E0,-1.4781739E0,-3.465059E1,-3.4664273E0,2.4681532E1,6.3495235E0,-5.3472204E0,8.343372E0,3.86921E0,-3.7198243E0,-4.5463623E1,2.448208E1,8.296034E0,4.1738133E0,8.003362E0],"split_indices":[1,1,1,1,2,0,4,2,7,2,5,4,6,1,7,4,2,7,5,3,5,5,0,3,0,6,5,0,0,6,0,2,1,1,4,2,2,6,0,0,0,5,6,2,2,2,6,5,6,0,5,3,1,1,0,2,0,7,6,1,2,0,0,0,0,0,0,0,0,0,0,0,0,0,0,0,0,0,0,0,0,0,0,0,0,0,0,0,0,0,0,0,0,0,0,0,0,0,0,0,0,0,0,0,0,0,0,0,0,0,0,0,0,0,0,0,0],"split_type":[0,0,0,0,0,0,0,0,0,0,0,0,0,0,0,0,0,0,0,0,0,0,0,0,0,0,0,0,0,0,0,0,0,0,0,0,0,0,0,0,0,0,0,0,0,0,0,0,0,0,0,0,0,0,0,0,0,0,0,0,0,0,0,0,0,0,0,0,0,0,0,0,0,0,0,0,0,0,0,0,0,0,0,0,0,0,0,0,0,0,0,0,0,0,0,0,0,0,0,0,0,0,0,0,0,0,0,0,0,0,0,0,0,0,0,0,0],"sum_hessian":[8.212E3,3.145E3,5.067E3,2.086E3,1.059E3,8.34E2,4.233E3,1.156E3,9.3E2,8.78E2,1.81E2,7.85E2,4.9E1,5.1E2,3.723E3,1.94E2,9.62E2,8.99E2,3.1E1,7.6E2,1.18E2,1.28E2,5.3E1,7.56E2,2.9E1,3.3E1,1.6E1,1.18E2,3.92E2,3.721E3,2E0,9.3E1,1.01E2,3.63E2,5.99E2,1.9E1,8.8E2,2.7E1,4E0,4.79E2,2.81E2,1.06E2,1.2E1,1.2E2,8E0,1.9E1,3.4E1,7.08E2,4.8E1,1.2E1,1.7E1,2.6E1,7E0,1.2E1,4E0,1.17E2,1E0,3.88E2,4E0,2.872E3,8.49E2,1E0,1E0,2.7E1,6.6E1,7E1,3.1E1,9.1E1,2.72E2,3.4E2,2.59E2,4E0,1.5E1,1.45E2,7.35E2,2E1,7E0,5.7E1,4.22E2,2.11E2,7E1,9.3E1,1.3E1,5E0,7E0,9.3E1,2.7E1,6E0,2E0,9E0,1E1,6E0,2.8E1,2.36E2,4.72E2,4E1,8E0,9E0,3E0,1E0,1.6E1,1E1,1.6E1,1E0,6E0,6E0,6E0,5E1,6.7E1,3.22E2,6.6E1,3E0,1E0,1.5E1,2.857E3,3.01E2,5.48E2],"tree_param":{"num_deleted":"0","num_feature":"9","num_nodes":"117","size_leaf_vector":"1"}},{"base_weights":[-2.7031776E-1,-2.6430716E1,1.5969005E1,-3.467621E1,-1.3929409E1,1.7433292E0,1.746035E1,-3.1894464E1,-4.7350243E1,-3.5352066E1,-1.185555E1,5.6601667E0,-1.6882402E1,-2.8522436E1,1.7657854E1,-3.411764E1,-1.3310477E1,-6.255418E1,-3.806268E1,1.6837378E1,-4.574606E1,-2.678362E1,-8.187789E0,1.141823E1,-1.6738909E1,-2.5405607E1,3.6373962E1,1.3818929E1,-4.3557487E1,1.7526617E1,1.0066448E2,-4.0546158E1,-2.5903116E1,-2.3067762E1,1.3777018E0,-4.2888737E1,-7.078217E1,-7.106531E1,-3.4464146E1,4.2153545E1,-3.2583706E1,3.9472413E0,-5.4715973E1,-1.1213974E2,-2.3528425E1,5.676029E1,-9.474793E0,6.916439E0,4.649013E1,-5.741735E1,4.2744584E0,-4.6178383E1,-6.111948E0,2.7338655E1,7.9969077E0,1.2127931E1,-2.8774292E0,-4.9103413E1,5.112818E0,1.7638058E1,-5.7509907E1,1.2085181E2,-3.068921E0,-1.3372945E1,-8.187889E0,-6.5141644E0,-1.14108715E1,-9.164094E0,-9.5463276E-2,5.890517E0,-4.0658135E0,-1.3409235E1,4.1476502E0,-2.7365217E1,-1.8367523E1,-1.6843536E1,-4.1069405E1,-1.2473278E1,-6.011525E0,1.4372199E1,-4.033777E0,-1.8177702E1,7.4875736E0,-1.6785633E1,5.23996E0,-3.0467707E1,-1.2296819E1,-4.0527405E1,7.278223E0,-6.1923685E0,-3.228242E1,-1.1176172E1,1.9344584E1,-1.4036736E1,-2.4279032E0,2.990442E0,-1.3389546E1,1.615601E1,-1.5736963E1,-2.4947073E1,9.504263E0,7.399296E0,-1.7160133E1,8.914143E0,-1.626655E1,1.3267301E1,-5.551506E0,-8.079053E0,1.7516493E1,-2.1301172E1,-1.1002695E1,5.747753E0,3.8695452E0,-2.1780567E1,4.956299E0,1.9599792E1,4.637803E1],"categories":[],"categories_nodes":[],"categories_segments":[],"categories_sizes":[],"default_left":[0,0,0,0,0,0,0,0,0,0,0,0,0,0,0,0,0,0,0,0,0,0,0,0,0,0,0,0,0,0,0,0,0,0,0,0,0,0,0,0,0,0,0,0,0,0,0,0,0,0,0,0,0,0,0,0,0,0,0,0,0,0,0,0,0,0,0,0,0,0,0,0,0,0,0,0,0,0,0,0,0,0,0,0,0,0,0,0,0,0,0,0,0,0,0,0,0,0,0,0,0,0,0,0,0,0,0,0,0,0,0,0,0,0,0,0,0],"id":13,"left_children":[1,3,5,7,9,11,13,15,17,19,21,23,25,27,29,31,33,35,37,39,41,43,45,47,49,51,53,55,57,59,61,63,65,67,69,71,73,75,77,79,81,83,85,87,89,91,93,95,97,99,101,103,105,-1,107,-1,-1,109,-1,111,113,115,-1,-1,-1,-1,-1,-1,-1,-1,-1,-1,-1,-1,-1,-1,-1,-1,-1,-1,-1,-1,-1,-1,-1,-1,-1,-1,-1,-1,-1,-1,-1,-1,-1,-1,-1,-1,-1,-1,-1,-1,-1,-1,-1,-1,-1,-1,-1,-1,-1,-1,-1,-1,-1,-1,-1],"loss_changes":[3.4895272E6,3.23805E5,1.07489125E5,6.52995E4,5.5204203E4,3.5259363E4,4.216175E4,6.3874125E4,4.5488375E4,6.0440484E4,6.2362906E4,5.165227E4,3.905296E4,1.333401E4,4.79975E4,7.235175E4,2.4108988E4,1.7513781E4,2.2846875E4,2.5145416E4,4.12245E4,5.9877953E4,7.735557E4,4.9886316E4,7.033829E4,2.897491E4,1.791664E4,4.125094E3,5.878117E3,3.9162875E4,1.690689E4,4.034E4,3.0331969E4,1.717532E4,1.880222E4,4.7211562E3,1.1601719E4,1.1958578E4,1.9074469E4,4.802953E3,1.2794061E4,1.3124242E4,4.5990734E4,2.832229E4,5.0699336E4,1.5469215E4,4.6128727E4,4.4963586E4,2.905339E4,6.684826E4,7.035136E4,2.297636E4,2.5147396E4,0E0,1.7412629E4,0E0,0E0,1.2063242E3,0E0,3.2599E4,9.020369E3,1.1398359E3,0E0,0E0,0E0,0E0,0E0,0E0,0E0,0E0,0E0,0E0,0E0,0E0,0E0,0E0,0E0,0E0,0E0,0E0,0E0,0E0,0E0,0E0,0E0,0E0,0E0,0E0,0E0,0E0,0E0,0E0,0E0,0E0,0E0,0E0,0E0,0E0,0E0,0E0,0E0,0E0,0E0,0E0,0E0,0E0,0E0,0E0,0E0,0E0,0E0,0E0,0E0,0E0,0E0,0E0,0E0],"parents":[2147483647,0,0,1,1,2,2,3,3,4,4,5,5,6,6,7,7,8,8,9,9,10,10,11,11,12,12,13,13,14,14,15,15,16,16,17,17,18,18,19,19,20,20,21,21,22,22,23,23,24,24,25,25,26,26,27,27,28,28,29,29,30,30,31,31,32,32,33,33,34,34,35,35,36,36,37,37,38,38,39,39,40,40,41,41,42,42,43,43,44,44,45,45,46,46,47,47,48,48,49,49,50,50,51,51,52,52,54,54,57,57,59,59,60,60,61,61],"right_children":[2,4,6,8,10,12,14,16,18,20,22,24,26,28,30,32,34,36,38,40,42,44,46,48,50,52,54,56,58,60,62,64,66,68,70,72,74,76,78,80,82,84,86,88,90,92,94,96,98,100,102,104,106,-1,108,-1,-1,110,-1,112,114,116,-1,-1,-1,-1,-1,-1,-1,-1,-1,-1,-1,-1,-1,-1,-1,-1,-1,-1,-1,-1,-1,-1,-1,-1,-1,-1,-1,-1,-1,-1,-1,-1,-1,-1,-1,-1,-1,-1,-1,-1,-1,-1,-1,-1,-1,-1,-1,-1,-1,-1,-1,-1,-1,-1,-1],"split_conditions":[9.440038E0,7.225088E0,1.0329191E1,2.9634305E2,9.285123E-2,1.331955E-1,-3.5086503E0,9.1E1,3.1452264E2,1.8918457E1,9.97E2,2.8578217E2,3.1293457E2,4.6515705E1,7.787066E0,1.014E3,6.429756E0,4.626642E0,7.7E1,1.01E3,9.98E2,7.7E1,9.706338E-2,2.6241013E2,1.0350616E-1,1.4975463E-1,-3.8102298E0,-3.6438982E0,1.021E3,7.629619E0,2.4365479E2,-3.4304857E0,1.2827182E-1,1.006E3,9.091851E0,-3.4373934E0,1.01E3,6.1164274E0,5.891208E0,9.07288E0,8.5E1,7.491726E0,8.327947E0,9.93E2,3.361208E2,-3.8003657E0,8.124711E0,2.5535416E2,1.0288896E1,7.9292216E0,7.9292216E0,3.7713997E1,1.5411232E-1,2.7338655E1,-3.556527E0,1.2127931E1,-2.8774292E0,-3.6040678E0,5.112818E0,1.17E1,1.15E1,-2.8272693E0,-3.068921E0,-1.3372945E1,-8.187889E0,-6.5141644E0,-1.14108715E1,-9.164094E0,-9.5463276E-2,5.890517E0,-4.0658135E0,-1.3409235E1,4.1476502E0,-2.7365217E1,-1.8367523E1,-1.6843536E1,-4.1069405E1,-1.2473278E1,-6.011525E0,1.4372199E1,-4.033777E0,-1.8177702E1,7.4875736E0,-1.6785633E1,5.23996E0,-3.0467707E1,-1.2296819E1,-4.0527405E1,7.278223E0,-6.1923685E0,-3.228242E1,-1.1176172E1,1.9344584E1,-1.4036736E1,-2.4279032E0,2.990442E0,-1.3389546E1,1.615601E1,-1.5736963E1,-2.4947073E1,9.504263E0,7.399296E0,-1.7160133E1,8.914143E0,-1.626655E1,1.3267301E1,-5.551506E0,-8.079053E0,1.7516493E1,-2.1301172E1,-1.1002695E1,5.747753E0,3.8695452E0,-2.1780567E1,4.956299E0,1.9599792E1,4.637803E1],"split_indices":[1,1,1,2,6,6,0,3,2,2,4,2,2,2,7,4,1,1,3,4,4,3,6,2,6,6,0,0,4,7,2,0,6,4,7,0,4,1,1,7,3,1,7,4,2,0,7,2,1,7,7,2,6,0,0,0,0,0,0,5,5,0,0,0,0,0,0,0,0,0,0,0,0,0,0,0,0,0,0,0,0,0,0,0,0,0,0,0,0,0,0,0,0,0,0,0,0,0,0,0,0,0,0,0,0,0,0,0,0,0,0,0,0,0,0,0,0],"split_type":[0,0,0,0,0,0,0,0,0,0,0,0,0,0,0,0,0,0,0,0,0,0,0,0,0,0,0,0,0,0,0,0,0,0,0,0,0,0,0,0,0,0,0,0,0,0,0,0,0,0,0,0,0,0,0,0,0,0,0,0,0,0,0,0,0,0,0,0,0,0,0,0,0,0,0,0,0,0,0,0,0,0,0,0,0,0,0,0,0,0,0,0,0,0,0,0,0,0,0,0,0,0,0,0,0,0,0,0,0,0,0,0,0,0,0,0,0],"sum_hessian":[8.212E3,3.145E3,5.067E3,1.894E3,1.251E3,4.81E2,4.586E3,1.556E3,3.38E2,1.09E2,1.142E3,3.98E2,8.3E1,1.9E1,4.567E3,1.389E3,1.67E2,1.26E2,2.12E2,1.8E1,9.1E1,2.24E2,9.18E2,3.17E2,8.1E1,7.2E1,1.1E1,5E0,1.4E1,4.561E3,6E0,7.77E2,6.12E2,1E2,6.7E1,3.9E1,8.7E1,1.9E1,1.93E2,1.2E1,6E0,1.4E1,7.7E1,7E0,2.17E2,1.7E1,9.01E2,2.82E2,3.5E1,2.7E1,5.4E1,3.4E1,3.8E1,3E0,8E0,2E0,3E0,1.3E1,1E0,4.555E3,6E0,5E0,1E0,5.94E2,1.83E2,4.57E2,1.55E2,7.5E1,2.5E1,3E1,3.7E1,3.8E1,1E0,2.5E1,6.2E1,1.7E1,2E0,1.28E2,6.5E1,1.1E1,1E0,4E0,2E0,2E0,1.2E1,1.6E1,6.1E1,6E0,1E0,2.11E2,6E0,1E0,1.6E1,3.1E1,8.7E2,2.67E2,1.5E1,3.3E1,2E0,2.1E1,6E0,4.1E1,1.3E1,3E0,3.1E1,7E0,3.1E1,5E0,3E0,3E0,1E1,3.446E3,1.109E3,5E0,1E0,3E0,2E0],"tree_param":{"num_deleted":"0","num_feature":"9","num_nodes":"117","size_leaf_vector":"1"}},{"base_weights":[-2.2241607E-1,-2.2196632E1,9.777935E0,-2.1906591E1,-1.1230743E2,-3.933385E0,1.1869869E1,-3.1775745E1,-1.9432232E1,-3.878034E1,-1.2285269E1,-1.3863938E1,8.7253296E-1,1.2769511E1,4.254638E0,5.1182373E1,-3.2694824E1,-1.56983795E1,-3.1686731E1,-8.041783E1,-1.184822E1,-4.9425707E0,1.9570513E1,5.949975E0,1.3833718E1,-1.2660649E1,1.455822E1,1.945796E1,-2.580762E0,-6.552312E1,-3.0711727E1,-2.1566048E1,-5.181491E0,-4.6401E1,-2.5076235E1,-1.01526695E2,6.935303E0,5.2542925E0,-1.8441359E1,9.471472E0,-1.255735E1,7.977117E1,1.1510888E1,1.0553495E1,-8.088962E0,-3.833675E1,1.3995808E1,-4.7390236E1,1.8220419E1,1.3787145E1,4.7397182E1,-2.2644753E1,1.2789795E1,-1.8353477E1,-8.71336E0,-3.8939354E0,-8.767752E0,-5.746895E0,4.690207E-1,-1.2360342E1,-2.5122318E1,-9.425051E0,-3.2620823E0,-3.364175E1,-7.269654E0,-2.239629E1,3.453853E0,-2.4079119E1,-3.9909103E0,-9.830993E0,5.983241E0,-1.584521E1,-1.7553916E0,3.6397686E1,1.0031891E1,6.814919E0,-5.402139E0,3.410701E0,-1.9143341E1,4.1005583E0,-8.7475195E0,-3.7715084E1,6.3203893E0,2.2749546E1,4.1582637E0,-2.124188E1,-8.0099875E-1,-4.0097073E1,6.74014E0,-7.6319534E-1,4.5400596E0,1.59857435E1,1.8098146E0],"categories":[],"categories_nodes":[],"categories_segments":[],"categories_sizes":[],"default_left":[0,0,0,0,0,0,0,0,0,0,0,0,0,0,0,0,0,0,0,0,0,0,0,0,0,0,0,0,0,0,0,0,0,0,0,0,0,0,0,0,0,0,0,0,0,0,0,0,0,0,0,0,0,0,0,0,0,0,0,0,0,0,0,0,0,0,0,0,0,0,0,0,0,0,0,0,0,0,0,0,0,0,0,0,0,0,0,0,0,0,0,0,0],"id":14,"left_children":[1,3,5,7,9,11,13,15,17,-1,-1,19,21,23,25,27,29,31,33,35,37,39,41,43,45,47,49,-1,-1,51,53,55,57,59,61,63,-1,65,67,69,71,73,75,77,79,81,83,85,87,89,91,-1,-1,-1,-1,-1,-1,-1,-1,-1,-1,-1,-1,-1,-1,-1,-1,-1,-1,-1,-1,-1,-1,-1,-1,-1,-1,-1,-1,-1,-1,-1,-1,-1,-1,-1,-1,-1,-1,-1,-1,-1,-1],"loss_changes":[1.8050229E6,6.4682375E4,1.6196319E5,6.1946125E4,4.3882344E3,3.5710715E4,3.3501812E4,4.0710875E4,9.334919E4,0E0,0E0,3.1780758E4,5.5005723E4,3.1705125E4,9.063981E4,5.464205E3,3.099425E4,9.701916E4,4.5330812E4,1.764568E4,2.6933598E4,4.2486195E4,5.7305113E4,3.8410094E4,3.2568938E4,2.1214338E5,7.5253125E3,0E0,0E0,3.3378664E4,2.2604062E4,6.604734E4,5.3286117E4,2.5091781E4,2.9556031E4,2.2043398E3,0E0,3.436698E4,5.357037E4,5.9932547E4,6.799728E4,2.2896852E4,3.5800848E4,2.7833727E4,6.778601E4,6.493815E4,3.046225E4,9.71978E4,7.0725734E4,7.008699E3,1.3836006E3,0E0,0E0,0E0,0E0,0E0,0E0,0E0,0E0,0E0,0E0,0E0,0E0,0E0,0E0,0E0,0E0,0E0,0E0,0E0,0E0,0E0,0E0,0E0,0E0,0E0,0E0,0E0,0E0,0E0,0E0,0E0,0E0,0E0,0E0,0E0,0E0,0E0,0E0,0E0,0E0,0E0,0E0],"parents":[2147483647,0,0,1,1,2,2,3,3,4,4,5,5,6,6,7,7,8,8,11,11,12,12,13,13,14,14,15,15,16,16,17,17,18,18,19,19,20,20,21,21,22,22,23,23,24,24,25,25,26,26,29,29,30,30,31,31,32,32,33,33,34,34,35,35,37,37,38,38,39,39,40,40,41,41,42,42,43,43,44,44,45,45,46,46,47,47,48,48,49,49,50,50],"right_children":[2,4,6,8,10,12,14,16,18,-1,-1,20,22,24,26,28,30,32,34,36,38,40,42,44,46,48,50,-1,-1,52,54,56,58,60,62,64,-1,66,68,70,72,74,76,78,80,82,84,86,88,90,92,-1,-1,-1,-1,-1,-1,-1,-1,-1,-1,-1,-1,-1,-1,-1,-1,-1,-1,-1,-1,-1,-1,-1,-1,-1,-1,-1,-1,-1,-1,-1,-1,-1,-1,-1,-1,-1,-1,-1,-1,-1,-1],"split_conditions":[8.41561E0,8.371895E0,-3.6040678E0,1.2920546E2,1.5630193E-1,1.002E3,2.9634305E2,9.00822E-2,2.9417197E2,-3.878034E1,-1.2285269E1,8.829491E-2,8.7E1,9.91E2,2.217459E0,-3.5225E0,7.5E1,1.017E3,3.1170935E2,1.5092319E2,9.5E0,1.9801004E2,8.8E1,1.21E1,4.9E0,3.192975E2,1.6947387E-1,1.945796E1,-2.580762E0,6.6E0,-2.842171E-14,2.1640205E2,9.07288E0,7.6696243E0,1.350943E-1,9.808422E0,6.935303E0,7.594381E0,1.16077805E2,1.008E3,2.389414E2,9.053403E0,9.3E1,2.0469616E1,2.129414E2,4.6515705E1,-3.599151E0,1.4814588E-1,9.032325E-2,3.4178464E0,2.8053782E0,-2.2644753E1,1.2789795E1,-1.8353477E1,-8.71336E0,-3.8939354E0,-8.767752E0,-5.746895E0,4.690207E-1,-1.2360342E1,-2.5122318E1,-9.425051E0,-3.2620823E0,-3.364175E1,-7.269654E0,-2.239629E1,3.453853E0,-2.4079119E1,-3.9909103E0,-9.830993E0,5.983241E0,-1.584521E1,-1.7553916E0,3.6397686E1,1.0031891E1,6.814919E0,-5.402139E0,3.410701E0,-1.9143341E1,4.1005583E0,-8.7475195E0,-3.7715084E1,6.3203893E0,2.2749546E1,4.1582637E0,-2.124188E1,-8.0099875E-1,-4.0097073E1,6.74014E0,-7.6319534E-1,4.5400596E0,1.59857435E1,1.8098146E0],"split_indices":[1,0,0,2,6,4,2,6,2,0,0,6,3,4,0,0,3,4,2,2,5,2,3,5,5,2,6,0,0,5,8,2,7,1,6,1,0,7,2,4,2,1,3,0,2,2,0,6,6,0,0,0,0,0,0,0,0,0,0,0,0,0,0,0,0,0,0,0,0,0,0,0,0,0,0,0,0,0,0,0,0,0,0,0,0,0,0,0,0,0,0,0,0],"split_type":[0,0,0,0,0,0,0,0,0,0,0,0,0,0,0,0,0,0,0,0,0,0,0,0,0,0,0,0,0,0,0,0,0,0,0,0,0,0,0,0,0,0,0,0,0,0,0,0,0,0,0,0,0,0,0,0,0,0,0,0,0,0,0,0,0,0,0,0,0,0,0,0,0,0,0,0,0,0,0,0,0,0,0,0,0,0,0,0,0,0,0,0,0],"sum_hessian":[8.212E3,2.568E3,5.644E3,2.561E3,7E0,7.47E2,4.897E3,5.11E2,2.05E3,5E0,2E0,2.43E2,5.04E2,4.379E3,5.18E2,5E0,5.06E2,1.573E3,4.77E2,6E0,2.37E2,3.85E2,1.19E2,5.92E2,3.787E3,1.96E2,3.22E2,4E0,1E0,2.7E1,4.79E2,1.009E3,5.64E2,1.46E2,3.31E2,5E0,1E0,6.6E1,1.71E2,1.33E2,2.52E2,1.3E1,1.06E2,4.46E2,1.46E2,1.1E1,3.776E3,9.2E1,1.04E2,3.16E2,6E0,2.5E1,2E0,2.3E1,4.56E2,4.77E2,5.32E2,1.83E2,3.81E2,1.3E2,1.6E1,2.28E2,1.03E2,4E0,1E0,4E0,6.2E1,1.2E1,1.59E2,2.6E1,1.07E2,3.5E1,2.17E2,6E0,7E0,7.7E1,2.9E1,4.42E2,4E0,7.2E1,7.4E1,4E0,7E0,7E0,3.769E3,6E1,3.2E1,2E0,1.02E2,2.4E1,2.92E2,5E0,1E0],"tree_param":{"num_deleted":"0","num_feature":"9","num_nodes":"93","size_leaf_vector":"1"}},{"base_weights":[-1.8640535E-1,-1.559183E1,6.8245287E0,-1.9645906E1,-1.0869987E1,-1.4949174E0,8.53386E0,-1.9251099E1,-8.49984E1,-3.8966103E1,-9.883278E0,-3.0893328E1,-5.8149624E-1,8.437162E0,5.7814995E1,-2.7005863E1,-1.7268349E1,-2.9085255E1,-9.828214E0,-1.5364547E0,-5.1391438E1,-3.662082E1,-8.761278E0,1.2068918E0,-5.7050186E1,-5.0019484E0,7.6916857E0,-4.4859795E1,8.515261E0,-7.3339844E-1,3.1440119E1,-6.845402E1,-2.4381618E1,-1.0266344E1,-2.061848E1,1.5847724E1,-1.2255249E1,-2.6860947E1,-8.594877E1,-5.7998848E1,-1.4394802E-1,-5.651145E1,-8.185328E0,-2.807963E1,2.0597141E1,-7.526475E1,-2.287936E1,3.1494652E1,-6.9440045E0,9.500338E0,-4.042641E1,-3.2418262E1,2.0328126E0,8.666929E0,-1.1813268E1,-1.21073E1,6.714331E0,7.786771E0,-2.2943523E1,-5.867191E0,-9.985558E0,-5.728525E0,3.684787E-2,-1.0251729E1,-5.3277965E0,6.5441895E-1,-8.138453E0,-9.804413E0,1.1686011E1,-2.8201109E1,-9.134828E0,1.22097025E1,-2.1285723E1,-4.841424E0,1.7961008E1,-1.0041871E0,-3.0480764E1,1.3982322E0,-2.9234447E0,1.8843263E0,-1.4049079E1,1.3339204E1,-2.2167482E0,-3.681687E1,-1.1218109E1,4.566852E0,-1.6578516E1,1.770684E1,3.3005974E0,-2.3933709E0,1.41785965E1,1.0301621E1,1.7287836E0,-3.1205334E1,1.3114471E0,2.1635256E0,-1.1471192E0,2.499117E0,7.200731E0,-7.227757E0,1.2223661E1,-1.9497071E-1,-4.7129397E0],"categories":[],"categories_nodes":[],"categories_segments":[],"categories_sizes":[],"default_left":[0,0,0,0,0,0,0,0,0,0,0,0,0,0,0,0,0,0,0,0,0,0,0,0,0,0,0,0,0,0,0,0,0,0,0,0,0,0,0,0,0,0,0,0,0,0,0,0,0,0,0,0,0,0,0,0,0,0,0,0,0,0,0,0,0,0,0,0,0,0,0,0,0,0,0,0,0,0,0,0,0,0,0,0,0,0,0,0,0,0,0,0,0,0,0,0,0,0,0,0,0,0,0],"id":15,"left_children":[1,3,5,7,9,11,13,15,17,19,21,23,25,27,29,31,33,-1,-1,35,37,39,41,43,45,47,49,51,53,55,-1,57,59,61,63,-1,65,67,69,71,73,75,77,79,81,83,85,87,89,91,93,-1,95,97,99,101,-1,-1,-1,-1,-1,-1,-1,-1,-1,-1,-1,-1,-1,-1,-1,-1,-1,-1,-1,-1,-1,-1,-1,-1,-1,-1,-1,-1,-1,-1,-1,-1,-1,-1,-1,-1,-1,-1,-1,-1,-1,-1,-1,-1,-1,-1,-1],"loss_changes":[8.871631E5,4.8964062E4,8.028856E4,3.3995812E4,3.2577156E4,2.58416E4,2.1828562E4,2.0659906E4,1.8187656E3,1.8524074E4,3.41786E4,2.4418436E4,3.4232547E4,1.984125E4,2.4835137E4,2.8569047E4,2.5521375E4,0E0,0E0,7.0570625E3,2.3122578E4,3.5862617E4,2.9926828E4,8.528581E3,8.236496E3,4.345456E4,2.8755488E4,2.0965309E4,1.4497844E4,1.5854851E3,0E0,1.4106375E4,1.0645859E4,3.2747555E4,2.8109031E4,0E0,2.2063286E3,8.551331E3,2.502164E3,3.9963867E4,1.824387E4,3.0823906E4,2.1941867E4,4.1598564E3,6.3400605E3,1.3383836E4,9.478114E3,1.6838506E4,3.288226E4,2.9046447E4,3.463983E4,0E0,1.7922917E2,2.3721344E4,2.3570062E4,1.5489117E2,0E0,0E0,0E0,0E0,0E0,0E0,0E0,0E0,0E0,0E0,0E0,0E0,0E0,0E0,0E0,0E0,0E0,0E0,0E0,0E0,0E0,0E0,0E0,0E0,0E0,0E0,0E0,0E0,0E0,0E0,0E0,0E0,0E0,0E0,0E0,0E0,0E0,0E0,0E0,0E0,0E0,0E0,0E0,0E0,0E0,0E0,0E0],"parents":[2147483647,0,0,1,1,2,2,3,3,4,4,5,5,6,6,7,7,8,8,9,9,10,10,11,11,12,12,13,13,14,14,15,15,16,16,19,19,20,20,21,21,22,22,23,23,24,24,25,25,26,26,27,27,28,28,29,29,31,31,32,32,33,33,34,34,36,36,37,37,38,38,39,39,40,40,41,41,42,42,43,43,44,44,45,45,46,46,47,47,48,48,49,49,50,50,52,52,53,53,54,54,55,55],"right_children":[2,4,6,8,10,12,14,16,18,20,22,24,26,28,30,32,34,-1,-1,36,38,40,42,44,46,48,50,52,54,56,-1,58,60,62,64,-1,66,68,70,72,74,76,78,80,82,84,86,88,90,92,94,-1,96,98,100,102,-1,-1,-1,-1,-1,-1,-1,-1,-1,-1,-1,-1,-1,-1,-1,-1,-1,-1,-1,-1,-1,-1,-1,-1,-1,-1,-1,-1,-1,-1,-1,-1,-1,-1,-1,-1,-1,-1,-1,-1,-1,-1,-1,-1,-1,-1,-1],"split_conditions":[8.41561E0,6.366643E0,1.0158141E1,8.232099E0,9.67E2,9.68E2,7.8943586E0,1.3606073E2,1.5630193E-1,-3.5162315E0,0E0,-3.7298353E0,8.6E1,4.9E0,-3.2282155E0,5.3E0,2.1640205E2,-2.9085255E1,-9.828214E0,7.3325047E0,1.21E1,1.009E3,7.9648066E0,-3.8102298E0,1.13245025E-1,1.8918457E1,-2.9166393E0,-1.5795652E0,1.7641284E-1,1.0996028E-1,3.1440119E1,-3.6932323E0,8.4E1,5.030374E0,-3.5629182E0,1.5847724E1,9E1,4.973799E-14,8.896072E0,8.327947E0,8.6E1,1.012E3,6.602812E0,-3.8347886E0,-3.7714834E0,7.9648066E0,-3.6932323E0,6.2E0,2.0740978E-1,7.6784053E0,7.8E0,-3.2418262E1,1.3277794E1,1.5253162E-1,1.2243776E0,1.0329191E1,6.714331E0,7.786771E0,-2.2943523E1,-5.867191E0,-9.985558E0,-5.728525E0,3.684787E-2,-1.0251729E1,-5.3277965E0,6.5441895E-1,-8.138453E0,-9.804413E0,1.1686011E1,-2.8201109E1,-9.134828E0,1.22097025E1,-2.1285723E1,-4.841424E0,1.7961008E1,-1.0041871E0,-3.0480764E1,1.3982322E0,-2.9234447E0,1.8843263E0,-1.4049079E1,1.3339204E1,-2.2167482E0,-3.681687E1,-1.1218109E1,4.566852E0,-1.6578516E1,1.770684E1,3.3005974E0,-2.3933709E0,1.41785965E1,1.0301621E1,1.7287836E0,-3.1205334E1,1.3114471E0,2.1635256E0,-1.1471192E0,2.499117E0,7.200731E0,-7.227757E0,1.2223661E1,-1.9497071E-1,-4.7129397E0],"split_indices":[1,1,1,0,4,4,7,2,6,0,8,0,3,5,0,5,2,0,0,1,5,4,7,0,6,2,0,0,6,6,0,0,3,1,0,0,3,8,7,7,3,4,1,0,0,7,0,5,6,7,5,0,1,6,0,1,0,0,0,0,0,0,0,0,0,0,0,0,0,0,0,0,0,0,0,0,0,0,0,0,0,0,0,0,0,0,0,0,0,0,0,0,0,0,0,0,0,0,0,0,0,0,0],"split_type":[0,0,0,0,0,0,0,0,0,0,0,0,0,0,0,0,0,0,0,0,0,0,0,0,0,0,0,0,0,0,0,0,0,0,0,0,0,0,0,0,0,0,0,0,0,0,0,0,0,0,0,0,0,0,0,0,0,0,0,0,0,0,0,0,0,0,0,0,0,0,0,0,0,0,0,0,0,0,0,0,0,0,0,0,0,0,0,0,0,0,0,0,0,0,0,0,0,0,0,0,0,0,0],"sum_hessian":[8.212E3,2.568E3,5.644E3,1.38E3,1.188E3,9.62E2,4.682E3,1.373E3,7E0,3.9E1,1.149E3,2.8E1,9.34E2,4.674E3,8E0,2.77E2,1.096E3,5E0,2E0,1E1,2.9E1,4.5E1,1.104E3,1.3E1,1.5E1,6.09E2,3.25E2,6E0,4.668E3,4E0,4E0,1.5E1,2.62E2,3.56E2,7.4E2,1E0,9E0,1.8E1,1.1E1,2.8E1,1.7E1,1.2E1,1.092E3,5E0,8E0,9E0,6E0,3E1,5.79E2,3.14E2,1.1E1,2E0,4E0,4.634E3,3.4E1,3E0,1E0,1E0,1.4E1,1.72E2,9E1,1.92E2,1.64E2,1.27E2,6.13E2,5E0,4E0,1.7E1,1E0,9E0,2E0,3E0,2.5E1,1.4E1,3E0,6E0,6E0,1.18E2,9.74E2,2E0,3E0,4E0,4E0,3E0,6E0,3E0,3E0,1.2E1,1.8E1,5.69E2,1E1,4E1,2.74E2,4E0,7E0,2E0,2E0,4.536E3,9.8E1,2.8E1,6E0,1E0,2E0],"tree_param":{"num_deleted":"0","num_feature":"9","num_nodes":"103","size_leaf_vector":"1"}},{"base_weights":[-1.519732E-1,-1.1399319E1,4.5926924E0,-1.3616305E1,-3.47321E0,6.6136074E0,1.0221395E-1,-3.4178593E1,-1.2742721E1,-5.819547E0,1.5159847E1,6.7560506E0,-5.0669044E1,-8.091405E-1,2.9483065E1,-1.6585308E1,-5.275011E1,-1.9536512E1,-1.0677119E1,-1.3773714E1,-3.7441063E-1,2.5832697E1,-9.230655E0,2.6930035E1,6.3980365E0,-6.817792E1,3.873291E0,3.6406085E-1,-3.1065287E1,4.7597427E1,-8.062421E1,-3.345508E1,9.198784E0,-8.104668E1,-2.4645693E1,1.6760607E-1,-2.3159464E1,-2.585297E1,-9.468371E0,-1.7823507E1,1.0727701E1,4.203321E0,-1.642686E1,5.210891E1,9.304841E0,-3.090817E1,1.8289713E1,1.8832104E1,7.282461E1,6.2996473E0,4.067312E1,-7.981771E0,-8.6913E1,3.3353484E0,-5.6326094E0,-5.34995E1,1.52151985E1,1.1247567E2,2.4649197E1,-6.5645805E1,-2.962214E1,-6.4704614E0,-1.68056E1,-1.019684E1,7.5306163E0,-2.7519955E1,8.890626E-1,9.622413E0,-1.3707243E1,2.125125E0,-3.315978E1,-8.362347E0,-7.71607E-1,-2.5740802E0,-9.751817E0,-4.6116357E0,-1.8576244E0,-3.281388E0,-9.456278E0,1.1790409E1,-1.4627054E0,-6.556436E0,2.4291027E0,-2.0638216E0,-1.3956028E1,2.5068247E1,5.508533E0,7.648682E-1,1.874917E1,-1.1962449E1,8.813764E0,1.0734235E1,-3.7557955E0,-1.3084718E1,6.8652062E0,3.78418E0,2.5890162E1,-4.805475E0,1.9308852E0,2.0249928E1,6.652698E0,-1.4272266E1,1.06804695E1,-3.6376858E1,-1.1828211E1,1.2605319E0,-7.89256E0,-1.0302947E1,-5.8792233E-1,-2.3729227E1,6.4059205E0,9.92363E0,-8.336823E0,3.923711E1,1.2944605E1,-6.9805374E0,1.2445064E1,1.9313673E0,-2.3954445E1],"categories":[],"categories_nodes":[],"categories_segments":[],"categories_sizes":[],"default_left":[0,0,0,0,0,0,0,0,0,0,0,0,0,0,0,0,0,0,0,0,0,0,0,0,0,0,0,0,0,0,0,0,0,0,0,0,0,0,0,0,0,0,0,0,0,0,0,0,0,0,0,0,0,0,0,0,0,0,0,0,0,0,0,0,0,0,0,0,0,0,0,0,0,0,0,0,0,0,0,0,0,0,0,0,0,0,0,0,0,0,0,0,0,0,0,0,0,0,0,0,0,0,0,0,0,0,0,0,0,0,0,0,0,0,0,0,0,0,0],"id":16,"left_children":[1,3,5,7,9,11,13,15,17,19,21,23,25,27,29,31,33,35,37,39,41,43,45,47,49,51,-1,53,55,57,59,61,63,65,67,69,71,73,75,77,79,81,83,85,87,89,91,93,95,97,99,101,103,105,107,109,111,113,115,-1,117,-1,-1,-1,-1,-1,-1,-1,-1,-1,-1,-1,-1,-1,-1,-1,-1,-1,-1,-1,-1,-1,-1,-1,-1,-1,-1,-1,-1,-1,-1,-1,-1,-1,-1,-1,-1,-1,-1,-1,-1,-1,-1,-1,-1,-1,-1,-1,-1,-1,-1,-1,-1,-1,-1,-1,-1,-1,-1],"loss_changes":[4.383382E5,4.2775875E4,5.24249E4,3.3765812E4,2.3434402E4,3.284992E4,4.806066E4,2.428364E4,2.5444219E4,2.0567816E4,1.5857423E4,2.8537406E4,1.2012387E4,6.1810805E4,1.1154176E5,1.8141586E4,2.7427117E4,3.034336E4,2.5509875E4,1.9341766E4,2.0864965E4,1.775529E4,1.1900193E4,2.427248E4,1.2919391E4,8.32852E3,0E0,2.9899287E4,6.830131E4,6.7203086E4,4.9904E4,5.497037E3,1.2529389E4,1.6431797E4,2.5339266E4,5.207942E4,3.477653E4,1.1557523E4,2.508861E4,1.5311387E4,1.2675305E4,2.2600092E4,1.7780736E4,1.544827E4,9.542557E3,7.117832E3,5.297897E3,1.6180104E4,7.0253555E3,1.1986766E4,3.9616191E3,6.870429E3,5.004035E3,2.8928188E4,5.856292E4,8.599604E4,1.7819984E4,9.592984E3,3.0005105E4,0E0,1.3192111E4,0E0,0E0,0E0,0E0,0E0,0E0,0E0,0E0,0E0,0E0,0E0,0E0,0E0,0E0,0E0,0E0,0E0,0E0,0E0,0E0,0E0,0E0,0E0,0E0,0E0,0E0,0E0,0E0,0E0,0E0,0E0,0E0,0E0,0E0,0E0,0E0,0E0,0E0,0E0,0E0,0E0,0E0,0E0,0E0,0E0,0E0,0E0,0E0,0E0,0E0,0E0,0E0,0E0,0E0,0E0,0E0,0E0,0E0],"parents":[2147483647,0,0,1,1,2,2,3,3,4,4,5,5,6,6,7,7,8,8,9,9,10,10,11,11,12,12,13,13,14,14,15,15,16,16,17,17,18,18,19,19,20,20,21,21,22,22,23,23,24,24,25,25,27,27,28,28,29,29,30,30,31,31,32,32,33,33,34,34,35,35,36,36,37,37,38,38,39,39,40,40,41,41,42,42,43,43,44,44,45,45,46,46,47,47,48,48,49,49,50,50,51,51,52,52,53,53,54,54,55,55,56,56,57,57,58,58,60,60],"right_children":[2,4,6,8,10,12,14,16,18,20,22,24,26,28,30,32,34,36,38,40,42,44,46,48,50,52,-1,54,56,58,60,62,64,66,68,70,72,74,76,78,80,82,84,86,88,90,92,94,96,98,100,102,104,106,108,110,112,114,116,-1,118,-1,-1,-1,-1,-1,-1,-1,-1,-1,-1,-1,-1,-1,-1,-1,-1,-1,-1,-1,-1,-1,-1,-1,-1,-1,-1,-1,-1,-1,-1,-1,-1,-1,-1,-1,-1,-1,-1,-1,-1,-1,-1,-1,-1,-1,-1,-1,-1,-1,-1,-1,-1,-1,-1,-1,-1,-1,-1],"split_conditions":[8.150612E0,8.9E1,6.8949265E0,9.9E2,1.022E3,1.8551885E-1,1.5637316E-1,1.9506337E2,7.3E0,8.4E0,-3.484162E0,-1.701088E0,1.2243776E0,-9.2787147E-1,2.6389282E2,1.23E1,1.19556576E-1,2.8721865E1,4.397907E1,1.4814588E-1,1.26E1,1.027E3,1.4276071E-1,2.5402588E2,1.7341134E-1,-1.2673086E0,3.873291E0,1.17E1,1.1617536E1,1.1520462E1,2.740554E2,1.21E1,1.39542E2,7.7662797E0,1.2213366E-1,1.018E3,1.017E3,9.2609696E-2,4.955655E0,7.8E0,1.6947387E-1,4.154865E0,1.2827182E-1,9.361521E0,8.095421E0,-3.46565E0,2.771362E2,1.0692132E1,9.374671E-2,1.126578E1,1.216684E1,-1.701088E0,8.3E1,3.4922754E2,9.7128716E1,2.8520413E2,7.221108E0,2.3089929E2,7.9E0,-6.5645805E1,1.0395527E-1,-6.4704614E0,-1.68056E1,-1.019684E1,7.5306163E0,-2.7519955E1,8.890626E-1,9.622413E0,-1.3707243E1,2.125125E0,-3.315978E1,-8.362347E0,-7.71607E-1,-2.5740802E0,-9.751817E0,-4.6116357E0,-1.8576244E0,-3.281388E0,-9.456278E0,1.1790409E1,-1.4627054E0,-6.556436E0,2.4291027E0,-2.0638216E0,-1.3956028E1,2.5068247E1,5.508533E0,7.648682E-1,1.874917E1,-1.1962449E1,8.813764E0,1.0734235E1,-3.7557955E0,-1.3084718E1,6.8652062E0,3.78418E0,2.5890162E1,-4.805475E0,1.9308852E0,2.0249928E1,6.652698E0,-1.4272266E1,1.06804695E1,-3.6376858E1,-1.1828211E1,1.2605319E0,-7.89256E0,-1.0302947E1,-5.8792233E-1,-2.3729227E1,6.4059205E0,9.92363E0,-8.336823E0,3.923711E1,1.2944605E1,-6.9805374E0,1.2445064E1,1.9313673E0,-2.3954445E1],"split_indices":[1,3,7,4,4,6,0,2,5,5,0,0,0,0,2,5,6,2,2,6,5,4,6,2,6,0,0,5,1,1,2,5,2,1,6,4,4,6,1,5,6,1,6,7,1,0,2,1,6,1,1,0,3,2,2,2,7,2,5,0,6,0,0,0,0,0,0,0,0,0,0,0,0,0,0,0,0,0,0,0,0,0,0,0,0,0,0,0,0,0,0,0,0,0,0,0,0,0,0,0,0,0,0,0,0,0,0,0,0,0,0,0,0,0,0,0,0,0,0],"split_type":[0,0,0,0,0,0,0,0,0,0,0,0,0,0,0,0,0,0,0,0,0,0,0,0,0,0,0,0,0,0,0,0,0,0,0,0,0,0,0,0,0,0,0,0,0,0,0,0,0,0,0,0,0,0,0,0,0,0,0,0,0,0,0,0,0,0,0,0,0,0,0,0,0,0,0,0,0,0,0,0,0,0,0,0,0,0,0,0,0,0,0,0,0,0,0,0,0,0,0,0,0,0,0,0,0,0,0,0,0,0,0,0,0,0,0,0,0,0,0],"sum_hessian":[8.212E3,2.436E3,5.776E3,1.903E3,5.33E2,3.983E3,1.793E3,7.6E1,1.827E3,4.74E2,5.9E1,3.974E3,9E0,1.74E3,5.3E1,4E1,3.6E1,4.24E2,1.403E3,1.92E2,2.82E2,4.1E1,1.8E1,6.8E1,3.906E3,7E0,2E0,1.676E3,6.4E1,4.6E1,7E0,2.4E1,1.6E1,1.7E1,1.9E1,6.6E1,3.58E2,1.02E2,1.301E3,1.65E2,2.7E1,2.2E2,6.2E1,1.5E1,2.6E1,1E1,8E0,5.9E1,9E0,3.896E3,1E1,2E0,5E0,1.121E3,5.55E2,4.3E1,2.1E1,1.1E1,3.5E1,1E0,6E0,1.7E1,7E0,4E0,1.2E1,1.5E1,2E0,5E0,1.4E1,6.3E1,3E0,2.91E2,6.7E1,2.9E1,7.3E1,4.63E2,8.38E2,1.11E2,5.4E1,9E0,1.8E1,2.8E1,1.92E2,4.8E1,1.4E1,7E0,8E0,2.4E1,2E0,9E0,1E0,5E0,3E0,3E0,5.6E1,2E0,7E0,2.3E1,3.873E3,3E0,7E0,1E0,1E0,2E0,3E0,1.09E3,3.1E1,6.2E1,4.93E2,3.2E1,1.1E1,1.5E1,6E0,8E0,3E0,9E0,2.6E1,4E0,2E0],"tree_param":{"num_deleted":"0","num_feature":"9","num_nodes":"119","size_leaf_vector":"1"}},{"base_weights":[-1.2431031E-1,-7.3248153E0,3.5835345E0,-7.0514293E0,-4.3062996E1,-1.0380466E0,4.5945115E0,-1.3876247E1,-5.5944133E0,-4.8317432E0,-5.0480507E1,-9.444667E0,4.9368997E0,5.636362E0,-1.0797446E0,-1.8618681E1,-6.3650813E0,-1.9274218E1,-4.794205E0,-6.0535694E1,-7.0897737E0,-8.532388E0,-5.670081E1,5.632465E0,-2.1174511E1,5.4740067E0,5.199861E1,-8.008961E0,7.4125743E0,-4.0161926E1,-1.4728663E1,-2.7131698E0,-2.5008333E1,-1.1971408E1,-2.7107786E1,-2.0437052E1,-4.0570865E0,-4.228519E0,-6.3770252E1,1.2998388E0,-1.6282106E1,5.985575E0,-3.447744E1,2.0826305E1,-1.0934141E2,8.7031E0,4.0009193E0,6.2413654E1,-1.094729E1,-2.2786955E1,4.3919044E0,7.327488E1,5.207158E0,-6.673182E0,-1.8434164E1,-5.3330603E0,2.860254E0,2.8399863E0,-2.9765477E0,1.0943788E1,-1.14707775E1,3.9083967E0,-3.7642744E0,-2.4746246E0,-9.082233E0,-3.3091283E0,-1.683031E1,1.227444E1,-1.2953546E0,-2.0974405E1,-7.838508E0,-1.1746622E1,2.2546172E0,-2.1217802E1,-1.7805544E0,1.5819342E0,6.2380023E0,-2.8258375E1,1.2001466E0,-1.0372303E1,1.3777002E1,-4.6093216E1,1.0180371E1,6.3727965E0,1.44083E0,3.1493605E1,1.1644887E0,2.6575075E1,9.319818E0,-4.4949374E0,-1.6343908E1,2.2657342E0,-2.6231922E1,