{"learner":{"attributes":{"scikit_learn":"{\"_estimator_type\": \"regressor\"}"},"feature_names":["Pitch","WindSpeed","WindDirection","AirHumidity","AirPressure","AirTemp","TI","TSR","YawOffset"],"feature_types":["float","float","float","float","float","float","float","float","float"],"gradient_booster":{"model":{"gbtree_model_param":{"num_parallel_tree":"1","num_trees":"100"},"iteration_indptr":[0,1,2,3,4,5,6,7,8,9,10,11,12,13,14,15,16,17,18,19,20,21,22,23,24,25,26,27,28,29,30,31,32,33,34,35,36,37,38,39,40,41,42,43,44,45,46,47,48,49,50,51,52,53,54,55,56,57,58,59,60,61,62,63,64,65,66,67,68,69,70,71,72,73,74,75,76,77,78,79,80,81,82,83,84,85,86,87,88,89,90,91,92,93,94,95,96,97,98,99,100],"tree_info":[0,0,0,0,0,0,0,0,0,0,0,0,0,0,0,0,0,0,0,0,0,0,0,0,0,0,0,0,0,0,0,0,0,0,0,0,0,0,0,0,0,0,0,0,0,0,0,0,0,0,0,0,0,0,0,0,0,0,0,0,0,0,0,0,0,0,0,0,0,0,0,0,0,0,0,0,0,0,0,0,0,0,0,0,0,0,0,0,0,0,0,0,0,0,0,0,0,0,0,0],"trees":[{"base_weights":[2.0586813E-5,-2.7500452E3,1.5699738E3,-3.4750706E3,-1.6969485E3,1.8164828E2,1.8084766E3,-3.7952256E3,-3.0253687E3,-2.127029E3,-1.1017974E3,-2.523742E2,5.4601404E2,1.2827173E3,1.8583225E3,-1.1801208E3,-1.066717E3,-9.547027E2,-8.3191797E2,-7.095397E2,-1.884559E3,-1.3767338E3,-8.8398395E2,-4.0021964E2,-7.828663E1,3.2410947E2,7.393982E2,1.1081936E3,1.4004851E3,5.1107532E2,5.621565E2,-6.017639E2,-5.182783E2,-4.4563358E2,-3.861166E2,-9.8054535E2,-6.851467E2,-5.22743E2,-3.327245E2,-6.512347E1,-3.5135254E2,2.547552E2,4.6113614E2,6.266605E2,8.228422E2,1.1139517E3,1.2375205E2,2.1014879E2,1.4121982E3,-2.658964E2,-3.1756818E2,-2.0888577E2,-6.977881E1,-1.2704121E2,-1.7598315E2,-1.06403786E2,-5.469855E1,-3.8650505E1,1.2521281E1,9.7462E1,6.2649975E1,1.4825119E2,6.5044754E1,1.9038396E2,-3.0061817E1,7.811275E1,2.4883258E2,2.3782344E2,3.3935632E2,4.327913E2,3.3592877E2],"categories":[],"categories_nodes":[],"categories_segments":[],"categories_sizes":[],"default_left":[0,0,0,0,0,0,0,0,0,0,0,0,0,0,0,0,0,0,0,0,0,0,0,0,0,0,0,0,0,0,0,0,0,0,0,0,0,0,0,0,0,0,0,0,0,0,0,0,0,0,0,0,0,0,0,0,0,0,0,0,0,0,0,0,0,0,0,0,0,0,0],"id":0,"left_children":[1,3,5,7,9,11,13,15,17,19,21,23,25,27,29,-1,-1,-1,-1,-1,31,33,35,37,39,41,43,45,47,-1,-1,-1,-1,-1,-1,49,51,53,55,57,-1,59,61,63,65,67,-1,-1,69,-1,-1,-1,-1,-1,-1,-1,-1,-1,-1,-1,-1,-1,-1,-1,-1,-1,-1,-1,-1,-1,-1],"loss_changes":[3.7791072E10,2.422866E9,1.8446674E9,2.5962086E8,3.3015245E8,1.2949873E8,1.2223078E8,2.2371328E7,2.2384128E7,3.9015424E7,3.1540032E7,9.5947E6,1.885656E7,6.977536E6,7.241728E6,0E0,0E0,0E0,0E0,0E0,3.732992E6,4.27936E5,5.241776E6,1.496554E6,2.4124838E6,1.868728E6,1.713888E6,2.29488E5,1.01136E6,0E0,0E0,0E0,0E0,0E0,0E0,5.68704E5,3.62316E5,1.95408E5,3.74486E5,1.1764019E6,0E0,3.86171E5,4.49755E5,6.70548E5,2.77736E5,4.4432E4,0E0,0E0,5.12064E5,0E0,0E0,0E0,0E0,0E0,0E0,0E0,0E0,0E0,0E0,0E0,0E0,0E0,0E0,0E0,0E0,0E0,0E0,0E0,0E0,0E0,0E0],"parents":[2147483647,0,0,1,1,2,2,3,3,4,4,5,5,6,6,7,7,8,8,9,9,10,10,11,11,12,12,13,13,14,14,20,20,21,21,22,22,23,23,24,24,25,25,26,26,27,27,28,28,35,35,36,36,37,37,38,38,39,39,41,41,42,42,43,43,44,44,45,45,48,48],"right_children":[2,4,6,8,10,12,14,16,18,20,22,24,26,28,30,-1,-1,-1,-1,-1,32,34,36,38,40,42,44,46,48,-1,-1,-1,-1,-1,-1,50,52,54,56,58,-1,60,62,64,66,68,-1,-1,70,-1,-1,-1,-1,-1,-1,-1,-1,-1,-1,-1,-1,-1,-1,-1,-1,-1,-1,-1,-1,-1,-1],"split_conditions":[8.892556E0,6.8185472E0,1.0343867E1,5.5409875E0,7.9741545E0,9.566755E0,1.1108679E1,4.738982E0,6.3228793E0,7.377629E0,8.381594E0,9.247935E0,9.947588E0,1.06775875E1,1.1784511E1,-1.1801208E3,-1.066717E3,-9.547027E2,-8.3191797E2,-7.095397E2,7.6900177E0,8.159007E0,8.7070055E0,9.009947E0,-4.615836E-2,9.818135E0,1.0124588E1,-4.615836E-2,-3.270496E0,5.1107532E2,5.621565E2,-6.017639E2,-5.182783E2,-4.4563358E2,-3.861166E2,-3.6954856E0,1.032E3,-3.772439E0,1.021E3,9.430775E0,-3.5135254E2,9.6E0,-2.717005E0,-1.6351887E0,-3.8249197E0,9.74E2,1.2375205E2,2.1014879E2,2.9948828E2,-2.658964E2,-3.1756818E2,-2.0888577E2,-6.977881E1,-1.2704121E2,-1.7598315E2,-1.06403786E2,-5.469855E1,-3.8650505E1,1.2521281E1,9.7462E1,6.2649975E1,1.4825119E2,6.5044754E1,1.9038396E2,-3.0061817E1,7.811275E1,2.4883258E2,2.3782344E2,3.3935632E2,4.327913E2,3.3592877E2],"split_indices":[1,1,1,1,1,1,1,1,1,1,1,1,1,1,1,0,0,0,0,0,1,1,1,1,0,1,1,0,0,0,0,0,0,0,0,0,4,0,4,1,0,5,0,0,0,4,0,0,2,0,0,0,0,0,0,0,0,0,0,0,0,0,0,0,0,0,0,0,0,0,0],"split_type":[0,0,0,0,0,0,0,0,0,0,0,0,0,0,0,0,0,0,0,0,0,0,0,0,0,0,0,0,0,0,0,0,0,0,0,0,0,0,0,0,0,0,0,0,0,0,0,0,0,0,0,0,0,0,0,0,0,0,0,0,0,0,0,0,0,0,0,0,0,0,0],"sum_hessian":[8.751E3,3.18E3,5.571E3,1.882E3,1.298E3,8.17E2,4.754E3,1.095E3,7.87E2,7.52E2,5.46E2,3.73E2,4.44E2,4.14E2,4.34E3,6.84E2,4.11E2,4.78E2,3.09E2,3.75E2,3.77E2,2.39E2,3.07E2,2.01E2,1.72E2,2.08E2,2.36E2,1.71E2,2.43E2,4.06E2,3.934E3,2.06E2,1.71E2,1.01E2,1.38E2,2.04E2,1.03E2,6.9E1,1.32E2,1.71E2,1E0,1.4E2,6.8E1,1.04E2,1.32E2,1.69E2,2E0,5E0,2.38E2,9.8E1,1.06E2,1E2,3E0,3E1,3.9E1,1.14E2,1.8E1,1.07E2,6.4E1,5.3E1,8.7E1,5.9E1,9E0,1.03E2,1E0,2E0,1.3E2,1.1E1,1.58E2,2.12E2,2.6E1],"tree_param":{"num_deleted":"0","num_feature":"9","num_nodes":"71","size_leaf_vector":"1"}},{"base_weights":[-5.4680943E-1,-1.9433179E3,1.0905939E3,-2.4585066E3,-1.2418231E3,1.311209E2,1.271192E3,-2.6981013E3,-2.1872097E3,-1.5535527E3,-8.382914E2,-1.7536446E2,4.305041E2,9.482812E2,1.3045232E3,-8.458218E2,-7.7614325E2,-6.9806683E2,-6.0931E2,-5.210993E2,-1.3971252E3,-1.0261053E3,-6.678223E2,-3.211888E2,-4.7951923E1,2.7313086E2,5.6706757E2,8.340674E2,1.0423635E3,3.6950363E2,1.3155847E3,-4.3993628E2,-3.8737375E2,-2.8346402E2,-3.308316E2,-7.558421E2,-5.589833E2,-3.828686E2,-2.563907E2,-3.9683643E1,-2.9864966E2,2.0401472E2,3.4227908E2,4.985491E2,6.475761E2,8.6053326E2,6.177447E2,1.0468917E3,1.0070299E2,3.9530463E2,3.1530078E2,-2.07846E2,-2.5282285E2,-1.3605121E2,-1.7754993E2,-9.832121E1,-1.25528564E2,4.6477053E-1,-7.845413E1,-3.1539341E1,1.5864614E1,6.653654E1,1.7120733E1,1.0712252E2,1.2329651E1,9.034747E1,1.5572052E2,1.9668542E2,1.057193E2,2.6087366E2,1.5343825E2,8.8410355E1,1.9412032E2,3.1512686E2,1.2604171E2],"categories":[],"categories_nodes":[],"categories_segments":[],"categories_sizes":[],"default_left":[0,0,0,0,0,0,0,0,0,0,0,0,0,0,0,0,0,0,0,0,0,0,0,0,0,0,0,0,0,0,0,0,0,0,0,0,0,0,0,0,0,0,0,0,0,0,0,0,0,0,0,0,0,0,0,0,0,0,0,0,0,0,0,0,0,0,0,0,0,0,0,0,0,0,0],"id":1,"left_children":[1,3,5,7,9,11,13,15,17,19,21,23,25,27,29,-1,-1,-1,-1,-1,31,33,35,37,39,41,43,45,47,-1,49,-1,-1,-1,-1,51,53,55,57,59,-1,61,63,65,67,69,71,73,-1,-1,-1,-1,-1,-1,-1,-1,-1,-1,-1,-1,-1,-1,-1,-1,-1,-1,-1,-1,-1,-1,-1,-1,-1,-1,-1],"loss_changes":[1.855493E10,1.1346412E9,9.710623E8,1.1201126E8,1.6663117E8,8.164707E7,4.9532416E7,5.613568E6,1.3947392E7,1.9152384E7,1.8012384E7,8.159733E6,9.516272E6,3.91232E6,1.822208E6,0E0,0E0,0E0,0E0,0E0,1.123392E6,6.76768E5,2.537712E6,7.21166E5,1.8094565E6,9.38592E5,1.001072E6,6.47792E5,4.16576E5,0E0,6.66112E5,0E0,0E0,0E0,0E0,3.36208E5,2.23628E5,6.4792E4,1.365135E5,1.4292345E6,0E0,2.694145E5,4.48776E5,3.86424E5,2.2956E4,1.2676E5,5.5596E4,8.5424E4,0E0,0E0,0E0,0E0,0E0,0E0,0E0,0E0,0E0,0E0,0E0,0E0,0E0,0E0,0E0,0E0,0E0,0E0,0E0,0E0,0E0,0E0,0E0,0E0,0E0,0E0,0E0],"parents":[2147483647,0,0,1,1,2,2,3,3,4,4,5,5,6,6,7,7,8,8,9,9,10,10,11,11,12,12,13,13,14,14,20,20,21,21,22,22,23,23,24,24,25,25,26,26,27,27,28,28,30,30,35,35,36,36,37,37,38,38,39,39,41,41,42,42,43,43,44,44,45,45,46,46,47,47],"right_children":[2,4,6,8,10,12,14,16,18,20,22,24,26,28,30,-1,-1,-1,-1,-1,32,34,36,38,40,42,44,46,48,-1,50,-1,-1,-1,-1,52,54,56,58,60,-1,62,64,66,68,70,72,74,-1,-1,-1,-1,-1,-1,-1,-1,-1,-1,-1,-1,-1,-1,-1,-1,-1,-1,-1,-1,-1,-1,-1,-1,-1,-1,-1],"split_conditions":[8.817646E0,6.7120986E0,1.0414218E1,5.2699127E0,7.847768E0,9.623733E0,1.1232796E1,4.2668867E0,6.042047E0,7.231948E0,8.33722E0,9.194886E0,1.0014564E1,1.0793224E1,1.2154438E1,-8.458218E2,-7.7614325E2,-6.9806683E2,-6.0931E2,-5.210993E2,7.574768E0,-3.6071234E0,8.581648E0,9.009947E0,-4.615836E-2,9.818135E0,1.0224873E1,1.54E1,8.7031984E-1,3.6950363E2,2.1003384E1,-4.3993628E2,-3.8737375E2,-2.8346402E2,-3.308316E2,-3.6592286E0,-3.762628E0,-3.772439E0,-3.8808248E0,9.430775E0,-2.9864966E2,1.67E1,-2.1684692E0,9.87E2,1.4408976E-1,-9.327637E-1,-3.6141899E0,1.77E1,1.0070299E2,3.9530463E2,3.1530078E2,-2.07846E2,-2.5282285E2,-1.3605121E2,-1.7754993E2,-9.832121E1,-1.25528564E2,4.6477053E-1,-7.845413E1,-3.1539341E1,1.5864614E1,6.653654E1,1.7120733E1,1.0712252E2,1.2329651E1,9.034747E1,1.5572052E2,1.9668542E2,1.057193E2,2.6087366E2,1.5343825E2,8.8410355E1,1.9412032E2,3.1512686E2,1.2604171E2],"split_indices":[1,1,1,1,1,1,1,1,1,1,1,1,1,1,1,0,0,0,0,0,1,0,1,1,0,1,1,5,0,0,0,0,0,0,0,0,0,0,0,1,0,5,0,4,6,0,0,5,0,0,0,0,0,0,0,0,0,0,0,0,0,0,0,0,0,0,0,0,0,0,0,0,0,0,0],"split_type":[0,0,0,0,0,0,0,0,0,0,0,0,0,0,0,0,0,0,0,0,0,0,0,0,0,0,0,0,0,0,0,0,0,0,0,0,0,0,0,0,0,0,0,0,0,0,0,0,0,0,0,0,0,0,0,0,0,0,0,0,0,0,0,0,0,0,0,0,0,0,0,0,0,0,0],"sum_hessian":[8.751E3,3.147E3,5.604E3,1.813E3,1.334E3,8.88E2,4.716E3,9.58E2,8.55E2,7.51E2,5.83E2,4.39E2,4.49E2,4.44E2,4.272E3,4.46E2,5.12E2,4.44E2,4.11E2,3.41E2,4.1E2,2.75E2,3.08E2,2.04E2,2.35E2,2.1E2,2.39E2,2.05E2,2.39E2,5.78E2,3.694E3,2.4E2,1.7E2,1.4E2,1.35E2,1.67E2,1.41E2,1.02E2,1.02E2,2.34E2,1E0,1.07E2,1.03E2,1.33E2,1.06E2,1.8E2,2.5E1,2.37E2,2E0,3.661E3,3.3E1,1.02E2,6.5E1,3.7E1,1.04E2,4.4E1,5.8E1,2E0,1E2,1.37E2,9.7E1,9.5E1,1.2E1,9.8E1,5E0,1.4E1,1.19E2,1.02E2,4E0,1.74E2,6E0,3E0,2.2E1,2.35E2,2E0],"tree_param":{"num_deleted":"0","num_feature":"9","num_nodes":"75","size_leaf_vector":"1"}},{"base_weights":[-7.497953E-1,-1.3510587E3,7.701284E2,-1.6782468E3,-7.8342834E2,1.21125656E2,8.933064E2,-1.8451863E3,-1.4138971E3,-9.8594727E2,-5.250124E2,-9.242413E1,3.3488315E2,7.048361E2,9.16374E2,-1.9224E3,-5.1138803E2,-4.5019968E2,-3.8895572E2,-1.0595742E3,-8.5849097E2,-6.3215857E2,-3.9908203E2,-1.7494917E2,4.0057316E1,2.2738443E2,4.2575754E2,6.309704E2,7.665134E2,9.176451E2,7.496273E2,-6.0250635E2,-5.588276E2,-3.4747388E2,-3.0755548E2,-2.776725E2,-7.6242334E2,-5.786889E2,-2.0876106E2,-4.330806E2,-3.09041E2,-1.6941121E2,-2.5385219E2,2.2529087E1,1.8876944E2,1.0909976E2,2.4386388E2,4.776961E2,3.6983817E2,9.194165E1,6.3940393E2,7.8690546E2,5.0798816E2,8.7903326E2,2.7685495E2,1.332912E2,2.455601E2,-1.1398777E2,-2.3096225E2,-1.7433566E2,-3.0307436E1,-6.0800068E1,-1.3383997E2,-1.0387562E2,-7.025468E1,-6.8806694E1,-3.2337803E1,-1.3883498E1,1.8906588E1,2.0355145E1,7.307242E1,4.962225E1,3.6481736E0,7.691391E1,2.9865904E1,1.1612514E2,1.4952621E2,1.15642075E2,3.0827509E1,1.9333473E2,8.413644E1,2.3676724E2,3.0043215E1,1.5695343E2,2.6071363E1,2.670507E2,2.2585298E2],"categories":[],"categories_nodes":[],"categories_segments":[],"categories_sizes":[],"default_left":[0,0,0,0,0,0,0,0,0,0,0,0,0,0,0,0,0,0,0,0,0,0,0,0,0,0,0,0,0,0,0,0,0,0,0,0,0,0,0,0,0,0,0,0,0,0,0,0,0,0,0,0,0,0,0,0,0,0,0,0,0,0,0,0,0,0,0,0,0,0,0,0,0,0,0,0,0,0,0,0,0,0,0,0,0,0,0],"id":2,"left_children":[1,3,5,7,9,11,13,15,17,19,21,23,25,27,29,31,-1,-1,-1,33,35,37,39,41,43,45,47,49,51,53,55,-1,-1,-1,-1,-1,57,59,-1,61,63,65,-1,67,69,71,73,75,77,-1,79,81,83,85,-1,-1,-1,-1,-1,-1,-1,-1,-1,-1,-1,-1,-1,-1,-1,-1,-1,-1,-1,-1,-1,-1,-1,-1,-1,-1,-1,-1,-1,-1,-1,-1,-1],"loss_changes":[9.111205E9,5.8946714E8,4.4533325E8,8.640205E7,6.045165E7,4.0657556E7,1.9713792E7,1.0104832E7,6.049408E6,5.208896E6,6.683072E6,4.883142E6,4.25034E6,1.862624E6,1.95584E5,2.98496E5,0E0,0E0,0E0,2.00416E5,8.668E5,5.37544E5,5.97804E5,8.78881E5,4.4409278E5,3.74943E5,5.2038E5,4.60832E5,1.055296E6,1.9456E4,4.14756E5,0E0,0E0,0E0,0E0,0E0,9.54E3,1.2236E5,0E0,4.23866E5,1.111185E5,9.873475E5,0E0,4.3477894E5,1.0275925E5,1.4536603E5,2.99587E5,3.4296E4,4.61496E5,0E0,2.41224E5,3.25424E5,1.016475E5,4.9312E4,0E0,0E0,0E0,0E0,0E0,0E0,0E0,0E0,0E0,0E0,0E0,0E0,0E0,0E0,0E0,0E0,0E0,0E0,0E0,0E0,0E0,0E0,0E0,0E0,0E0,0E0,0E0,0E0,0E0,0E0,0E0,0E0,0E0],"parents":[2147483647,0,0,1,1,2,2,3,3,4,4,5,5,6,6,7,7,8,8,9,9,10,10,11,11,12,12,13,13,14,14,15,15,19,19,20,20,21,21,22,22,23,23,24,24,25,25,26,26,27,27,28,28,29,29,30,30,36,36,37,37,39,39,40,40,41,41,43,43,44,44,45,45,46,46,47,47,48,48,50,50,51,51,52,52,53,53],"right_children":[2,4,6,8,10,12,14,16,18,20,22,24,26,28,30,32,-1,-1,-1,34,36,38,40,42,44,46,48,50,52,54,56,-1,-1,-1,-1,-1,58,60,-1,62,64,66,-1,68,70,72,74,76,78,-1,80,82,84,86,-1,-1,-1,-1,-1,-1,-1,-1,-1,-1,-1,-1,-1,-1,-1,-1,-1,-1,-1,-1,-1,-1,-1,-1,-1,-1,-1,-1,-1,-1,-1,-1,-1],"split_conditions":[8.892556E0,7.0384803E0,1.0503369E1,5.7665453E0,8.033845E0,9.698804E0,1.1397237E1,4.9377193E0,6.4852653E0,7.631191E0,8.498125E0,9.373963E0,1.0052952E1,1.0919365E1,2.2227325E1,3.927363E0,-5.1138803E2,-4.5019968E2,-3.8895572E2,9.042404E0,9.285333E0,-3.6283088E0,8.76331E0,-4.1905543E-1,1.021E3,-3.762628E0,1.09E1,-3.4546807E0,2.9836124E2,1.22128315E1,3.3145099E0,-6.0250635E2,-5.588276E2,-3.4747388E2,-3.0755548E2,-2.776725E2,-3.6592286E0,1.82E1,-2.0876106E2,-3.7837737E0,1.018E3,9.123789E0,-2.5385219E2,9.505196E0,9.430775E0,2.4556836E2,-2.6093466E0,7.1E0,-2.1684692E0,9.194165E1,1.3818946E-1,1.7520131E-1,9.9670607E-1,2.9948828E2,2.7685495E2,1.332912E2,2.455601E2,-1.1398777E2,-2.3096225E2,-1.7433566E2,-3.0307436E1,-6.0800068E1,-1.3383997E2,-1.0387562E2,-7.025468E1,-6.8806694E1,-3.2337803E1,-1.3883498E1,1.8906588E1,2.0355145E1,7.307242E1,4.962225E1,3.6481736E0,7.691391E1,2.9865904E1,1.1612514E2,1.4952621E2,1.15642075E2,3.0827509E1,1.9333473E2,8.413644E1,2.3676724E2,3.0043215E1,1.5695343E2,2.6071363E1,2.670507E2,2.2585298E2],"split_indices":[1,1,1,1,1,1,1,1,1,1,1,1,1,1,1,1,0,0,0,7,7,0,1,0,4,0,5,0,2,1,7,0,0,0,0,0,0,5,0,0,4,1,0,1,1,2,0,5,0,0,0,6,0,2,0,0,0,0,0,0,0,0,0,0,0,0,0,0,0,0,0,0,0,0,0,0,0,0,0,0,0,0,0,0,0,0,0],"split_type":[0,0,0,0,0,0,0,0,0,0,0,0,0,0,0,0,0,0,0,0,0,0,0,0,0,0,0,0,0,0,0,0,0,0,0,0,0,0,0,0,0,0,0,0,0,0,0,0,0,0,0,0,0,0,0,0,0,0,0,0,0,0,0,0,0,0,0,0,0,0,0,0,0,0,0,0,0,0,0,0,0,0,0,0,0,0,0],"sum_hessian":[8.751E3,3.18E3,5.571E3,2.016E3,1.164E3,8.89E2,4.682E3,1.232E3,7.84E2,6.51E2,5.13E2,4.45E2,4.44E2,5.14E2,4.168E3,7.87E2,4.45E2,4.44E2,3.4E2,4.08E2,2.43E2,2.75E2,2.38E2,2.74E2,1.71E2,2.05E2,2.39E2,2.39E2,2.75E2,4.132E3,3.6E1,3.09E2,4.78E2,9.7E1,3.11E2,1.38E2,1.05E2,1.55E2,1.2E2,1.7E2,6.8E1,2.73E2,1E0,1.54E2,1.7E1,2.6E1,1.79E2,1.2E2,1.19E2,7E0,2.32E2,2.53E2,2.2E1,5.11E2,3.621E3,8E0,2.8E1,3E0,1.02E2,1.54E2,1E0,1E1,1.6E2,4.3E1,2.5E1,1.37E2,1.36E2,5.7E1,9.7E1,6E0,1.1E1,1.6E1,1E1,1.64E2,1.5E1,2.6E1,9.4E1,1.12E2,7E0,2.28E2,4E0,2.52E2,1E0,2.1E1,1E0,4.64E2,4.7E1],"tree_param":{"num_deleted":"0","num_feature":"9","num_nodes":"87","size_leaf_vector":"1"}},{"base_weights":[-7.863273E-1,-9.5499023E2,5.351342E2,-1.1869059E3,-5.7701654E2,3.807058E1,6.1969977E2,-1.3015507E3,-1.01547064E3,-7.0768567E2,-3.8049237E2,-1.1082151E2,1.649308E2,4.442491E2,6.391364E2,-4.1486423E2,-3.7056363E2,-3.2286282E2,-9.3347015E2,-7.856161E2,-6.194828E2,-4.4400885E2,-2.935456E2,-1.8343259E2,-6.8910934E1,8.73597E1,2.3012746E2,3.7856335E2,4.9207712E2,5.635256E2,6.427751E2,-2.8727368E2,-2.4125974E2,-2.567239E2,-7.44957E2,-1.99407E2,-5.511298E2,-3.4949017E2,-4.654256E2,-3.0670587E2,-1.630048E2,-1.9181274E2,-4.2935627E1,-5.102399E2,-5.9268745E1,7.608668E1,2.3411081E2,2.3801524E2,2.5695362E1,3.937751E2,2.5207092E2,5.3702686E2,4.1869473E2,5.656153E2,2.0270655E1,6.437779E2,5.4029034E2,-2.3944302E2,-2.0958192E2,-1.826528E2,-1.4647173E2,-1.26635895E2,-8.246849E1,-1.3277457E2,-1.6000235E2,2.544474E1,-9.27842E1,-1.6227406E1,-5.809787E1,3.1945606E1,-5.8492535E1,1.9685158E1,-3.244447E1,-8.345279E1,-2.1577435E2,-3.0363684E1,-3.6402687E-1,1.6094353E1,3.646402E1,2.8745321E1,9.775602E1,8.320064E1,6.3508423E1,3.5321632E1,-1.6587013E1,1.0157438E2,1.26604866E2,1.7258423E1,8.279538E1,1.3295297E2,1.6864787E2,1.3045439E2,5.726942E1,1.731625E2,1.17779076E2,1.9338551E2,1.6049353E2,4.1218582E1,1.6385712E2],"categories":[],"categories_nodes":[],"categories_segments":[],"categories_sizes":[],"default_left":[0,0,0,0,0,0,0,0,0,0,0,0,0,0,0,0,0,0,0,0,0,0,0,0,0,0,0,0,0,0,0,0,0,0,0,0,0,0,0,0,0,0,0,0,0,0,0,0,0,0,0,0,0,0,0,0,0,0,0,0,0,0,0,0,0,0,0,0,0,0,0,0,0,0,0,0,0,0,0,0,0,0,0,0,0,0,0,0,0,0,0,0,0,0,0,0,0,0,0],"id":3,"left_children":[1,3,5,7,9,11,13,15,17,19,21,23,25,27,29,-1,-1,-1,31,33,35,37,39,41,43,45,47,49,51,53,55,-1,-1,-1,57,-1,59,61,63,65,67,69,71,73,75,77,79,81,83,85,87,89,91,93,-1,95,97,-1,-1,-1,-1,-1,-1,-1,-1,-1,-1,-1,-1,-1,-1,-1,-1,-1,-1,-1,-1,-1,-1,-1,-1,-1,-1,-1,-1,-1,-1,-1,-1,-1,-1,-1,-1,-1,-1,-1,-1,-1,-1],"loss_changes":[4.476087E9,2.7526298E8,2.355794E8,3.7003776E7,3.0520608E7,1.5431279E7,1.6050944E7,4.577536E6,2.910144E6,4.45552E6,2.526008E6,1.1315925E6,2.2102E6,1.324832E6,8.23552E5,0E0,0E0,0E0,2.95776E5,4.40352E5,6.90472E5,3.9604E5,3.03904E5,1.53066E5,9.9104875E5,3.18016E5,3.79277E5,2.99042E5,6.82248E5,1.7528E5,7.4112E4,0E0,0E0,0E0,5.1328E4,0E0,2.18144E5,1.819405E5,1.08372E5,2.13738E5,5.963775E4,1.42452E5,7.080749E4,4.24385E4,5.7454794E5,1.8729262E5,1.4640062E5,1.79323E5,8.10515E4,1.42362E5,1.00428875E5,1.44768E5,3.1807E5,1.8458E5,0E0,2.6368E4,3.4302E4,0E0,0E0,0E0,0E0,0E0,0E0,0E0,0E0,0E0,0E0,0E0,0E0,0E0,0E0,0E0,0E0,0E0,0E0,0E0,0E0,0E0,0E0,0E0,0E0,0E0,0E0,0E0,0E0,0E0,0E0,0E0,0E0,0E0,0E0,0E0,0E0,0E0,0E0,0E0,0E0,0E0,0E0],"parents":[2147483647,0,0,1,1,2,2,3,3,4,4,5,5,6,6,7,7,8,8,9,9,10,10,11,11,12,12,13,13,14,14,18,18,19,19,20,20,21,21,22,22,23,23,24,24,25,25,26,26,27,27,28,28,29,29,30,30,34,34,36,36,37,37,38,38,39,39,40,40,41,41,42,42,43,43,44,44,45,45,46,46,47,47,48,48,49,49,50,50,51,51,52,52,53,53,55,55,56,56],"right_children":[2,4,6,8,10,12,14,16,18,20,22,24,26,28,30,-1,-1,-1,32,34,36,38,40,42,44,46,48,50,52,54,56,-1,-1,-1,58,-1,60,62,64,66,68,70,72,74,76,78,80,82,84,86,88,90,92,94,-1,96,98,-1,-1,-1,-1,-1,-1,-1,-1,-1,-1,-1,-1,-1,-1,-1,-1,-1,-1,-1,-1,-1,-1,-1,-1,-1,-1,-1,-1,-1,-1,-1,-1,-1,-1,-1,-1,-1,-1,-1,-1,-1,-1],"split_conditions":[8.817646E0,6.928774E0,1.0288242E1,5.6682563E0,8.033845E0,9.505196E0,1.11639805E1,4.4406667E0,6.370649E0,7.4655237E0,8.498125E0,9.064288E0,9.870238E0,1.06775875E1,1.1505579E1,-4.1486423E2,-3.7056363E2,-3.2286282E2,9.451455E0,9.131928E0,9.299508E0,-3.6954856E0,1.021E3,1.025E3,7.671187E0,1.025E3,-2.1684692E0,2.966161E2,1.11E1,2.1016533E0,1.4584218E-1,-2.8727368E2,-2.4125974E2,-2.567239E2,7.1891475E0,-1.99407E2,1.016E3,1.01E3,-3.5793173E0,-7.381319E-2,-3.772439E0,-3.8808248E0,8.9E1,-4.615836E-2,9.320533E0,9.7524605E0,-3.643219E0,9.7E0,8.5E1,1E3,9.060982E-2,7.2E0,-7.435841E-1,2.9836124E2,2.0270655E1,2.2227325E1,7.8E1,-2.3944302E2,-2.0958192E2,-1.826528E2,-1.4647173E2,-1.26635895E2,-8.246849E1,-1.3277457E2,-1.6000235E2,2.544474E1,-9.27842E1,-1.6227406E1,-5.809787E1,3.1945606E1,-5.8492535E1,1.9685158E1,-3.244447E1,-8.345279E1,-2.1577435E2,-3.0363684E1,-3.6402687E-1,1.6094353E1,3.646402E1,2.8745321E1,9.775602E1,8.320064E1,6.3508423E1,3.5321632E1,-1.6587013E1,1.0157438E2,1.26604866E2,1.7258423E1,8.279538E1,1.3295297E2,1.6864787E2,1.3045439E2,5.726942E1,1.731625E2,1.17779076E2,1.9338551E2,1.6049353E2,4.1218582E1,1.6385712E2],"split_indices":[1,1,1,1,1,1,1,1,1,1,1,1,1,1,1,0,0,0,7,7,7,0,4,4,7,4,0,2,5,0,6,0,0,0,1,0,4,4,0,8,0,0,3,0,1,1,0,5,3,4,6,5,0,2,0,1,3,0,0,0,0,0,0,0,0,0,0,0,0,0,0,0,0,0,0,0,0,0,0,0,0,0,0,0,0,0,0,0,0,0,0,0,0,0,0,0,0,0,0],"split_type":[0,0,0,0,0,0,0,0,0,0,0,0,0,0,0,0,0,0,0,0,0,0,0,0,0,0,0,0,0,0,0,0,0,0,0,0,0,0,0,0,0,0,0,0,0,0,0,0,0,0,0,0,0,0,0,0,0,0,0,0,0,0,0,0,0,0,0,0,0,0,0,0,0,0,0,0,0,0,0,0,0,0,0,0,0,0,0,0,0,0,0,0,0,0,0,0,0,0,0],"sum_hessian":[8.751E3,3.147E3,5.604E3,1.949E3,1.198E3,8.15E2,4.789E3,1.164E3,7.85E2,7.18E2,4.8E2,3.75E2,4.4E2,4.8E2,4.309E3,5.14E2,6.5E2,4.44E2,3.41E2,3.77E2,3.41E2,2.75E2,2.05E2,1.36E2,2.39E2,2.02E2,2.38E2,2.06E2,2.74E2,2.05E2,4.104E3,2.82E2,5.9E1,1.31E2,2.46E2,2E2,1.41E2,5.4E1,2.21E2,1.85E2,2E1,1.28E2,8E0,4E0,2.35E2,1.89E2,1.3E1,2.29E2,9E0,1.82E2,2.4E1,1.66E2,1.08E2,2.04E2,1E0,4.059E3,4.5E1,1.07E2,1.39E2,6.9E1,7.2E1,2.5E1,2.9E1,1.71E2,5E1,1E0,1.84E2,5E0,1.5E1,1E0,1.27E2,3E0,5E0,3E0,1E0,1.36E2,9.9E1,1.28E2,6.1E1,6E0,7E0,8.8E1,1.41E2,4E0,5E0,6.6E1,1.16E2,3E0,2.1E1,3.9E1,1.27E2,1E2,8E0,1.89E2,1.5E1,4.023E3,3.6E1,1E0,4.4E1],"tree_param":{"num_deleted":"0","num_feature":"9","num_nodes":"99","size_leaf_vector":"1"}},{"base_weights":[-7.621071E-1,-6.696096E2,3.7489047E2,-8.5133276E2,-4.328406E2,2.6619118E1,4.3414194E2,-9.414566E2,-7.6015106E2,-5.4047253E2,-2.872387E2,-7.149798E1,1.2395336E2,2.9424216E2,4.4602682E2,-3.0218927E2,-2.7473303E2,-2.4203235E2,-7.041007E2,-6.004884E2,-4.7376962E2,-3.6125208E2,-2.3418192E2,-1.0081447E2,-1.1018751E1,7.770203E1,1.7119383E2,2.4532077E2,3.223122E2,4.504418E2,3.9316116E2,-2.276834E2,-6.5871014E2,-1.9222809E2,-5.308102E2,-4.8931262E2,-3.7173816E2,-4.003134E2,-3.2839258E2,-2.6183087E2,-1.6901733E2,-1.0913937E2,-5.2192807E0,-4.572536E2,2.6908526E0,1.0505389E2,3.964274E1,1.25075584E2,1.8934698E2,2.0048378E2,2.8733405E2,3.3209174E2,1.8487836E2,1.0337402E1,4.5053564E2,1.7957538E2,3.97019E2,-1.9828026E2,-8.036769E1,-1.6183044E2,-9.900122E1,-1.3917915E2,-1.650454E2,-4.416887E1,-1.1461732E2,-1.2833904E2,-9.701685E1,-9.918197E1,-3.5789944E1,-3.8026035E1,-8.14811E1,-6.5361916E1,-3.989657E1,-4.0342445E1,-2.4570656E1,1.7338392E1,-2.0339478E1,-6.0629322E1,-1.8340819E2,-1.91144E1,1.009506E1,1.9600637E1,4.0211918E1,-6.510884E0,1.9183502E1,4.0050854E1,1.702588E0,5.3828826E0,5.901683E1,2.1769703E1,6.2684055E1,8.923585E1,2.8282648E1,1.1056926E2,8.659068E1,6.673247E1,2.1803516E1,1.3543295E2,1.1571606E2,5.9863415E1,5.968506E0,-1.0499561E1,1.1951778E2],"categories":[],"categories_nodes":[],"categories_segments":[],"categories_sizes":[],"default_left":[0,0,0,0,0,0,0,0,0,0,0,0,0,0,0,0,0,0,0,0,0,0,0,0,0,0,0,0,0,0,0,0,0,0,0,0,0,0,0,0,0,0,0,0,0,0,0,0,0,0,0,0,0,0,0,0,0,0,0,0,0,0,0,0,0,0,0,0,0,0,0,0,0,0,0,0,0,0,0,0,0,0,0,0,0,0,0,0,0,0,0,0,0,0,0,0,0,0,0,0,0,0,0],"id":4,"left_children":[1,3,5,7,9,11,13,15,17,19,21,23,25,27,29,-1,-1,-1,31,33,35,37,39,41,43,45,47,49,51,53,55,-1,57,-1,59,61,63,65,67,69,71,73,75,77,79,81,83,85,87,89,91,93,95,-1,97,99,101,-1,-1,-1,-1,-1,-1,-1,-1,-1,-1,-1,-1,-1,-1,-1,-1,-1,-1,-1,-1,-1,-1,-1,-1,-1,-1,-1,-1,-1,-1,-1,-1,-1,-1,-1,-1,-1,-1,-1,-1,-1,-1,-1,-1,-1,-1],"loss_changes":[2.1992287E9,1.3507853E8,1.1565088E8,1.3911808E7,2.1298912E7,7.801788E6,7.833088E6,5.84E5,1.757792E6,2.862032E6,2.20872E6,7.205159E5,8.82521E5,4.40008E5,8.52928E5,0E0,0E0,0E0,5.25696E5,8.10368E5,4.15984E5,1.79154E5,5.7374E5,2.1748525E5,8.210026E5,2.1340262E5,1.454295E5,2.09887E5,2.5714E5,1.43168E5,2.15452E5,0E0,2.5464E4,0E0,9.2156E4,2.45088E5,6.8858E4,8.5752E4,2.3979E4,2.81074E5,1.5584775E5,1.6288275E5,9.461535E4,3.3730625E4,2.7146316E5,1.30546375E5,1.340725E5,5.9615312E4,1.77256E5,6.27835E4,1.106575E5,2.4231E5,5.9695875E4,0E0,6.496E4,2.153975E4,2.16292E5,0E0,0E0,0E0,0E0,0E0,0E0,0E0,0E0,0E0,0E0,0E0,0E0,0E0,0E0,0E0,0E0,0E0,0E0,0E0,0E0,0E0,0E0,0E0,0E0,0E0,0E0,0E0,0E0,0E0,0E0,0E0,0E0,0E0,0E0,0E0,0E0,0E0,0E0,0E0,0E0,0E0,0E0,0E0,0E0,0E0,0E0],"parents":[2147483647,0,0,1,1,2,2,3,3,4,4,5,5,6,6,7,7,8,8,9,9,10,10,11,11,12,12,13,13,14,14,18,18,19,19,20,20,21,21,22,22,23,23,24,24,25,25,26,26,27,27,28,28,29,29,30,30,32,32,34,34,35,35,36,36,37,37,38,38,39,39,40,40,41,41,42,42,43,43,44,44,45,45,46,46,47,47,48,48,49,49,50,50,51,51,52,52,54,54,55,55,56,56],"right_children":[2,4,6,8,10,12,14,16,18,20,22,24,26,28,30,-1,-1,-1,32,34,36,38,40,42,44,46,48,50,52,54,56,-1,58,-1,60,62,64,66,68,70,72,74,76,78,80,82,84,86,88,90,92,94,96,-1,98,100,102,-1,-1,-1,-1,-1,-1,-1,-1,-1,-1,-1,-1,-1,-1,-1,-1,-1,-1,-1,-1,-1,-1,-1,-1,-1,-1,-1,-1,-1,-1,-1,-1,-1,-1,-1,-1,-1,-1,-1,-1,-1,-1,-1,-1,-1,-1],"split_conditions":[8.817646E0,6.6723037E0,1.0288242E1,5.136347E0,7.847768E0,9.566755E0,1.0982299E1,3.7321546E0,5.9588366E0,7.279896E0,8.279313E0,9.320533E0,9.947588E0,1.0556612E1,6.7488413E0,-3.0218927E2,-2.7473303E2,-2.4203235E2,9.055412E0,9.335224E0,9.543252E0,1.006E3,8.640211E0,1.025E3,7.2906494E0,1.12E1,9.97E2,8.5E1,-9.327637E-1,-3.0987337E0,-2.6093466E0,-2.276834E2,1.0601033E1,-1.9222809E2,1.0062768E1,-3.4301639E0,6.3E0,8.159007E0,1.032E3,-3.762628E0,1.0583461E-1,9.064288E0,8.9E1,-4.615836E-2,1E3,9.7524605E0,1.24E1,1.39E1,7.262186E0,9.82E2,-1.8415742E0,1.08E1,8.5E0,1.0337402E1,1.3701332E-1,1.7520131E-1,7.7757485E-2,-1.9828026E2,-8.036769E1,-1.6183044E2,-9.900122E1,-1.3917915E2,-1.650454E2,-4.416887E1,-1.1461732E2,-1.2833904E2,-9.701685E1,-9.918197E1,-3.5789944E1,-3.8026035E1,-8.14811E1,-6.5361916E1,-3.989657E1,-4.0342445E1,-2.4570656E1,1.7338392E1,-2.0339478E1,-6.0629322E1,-1.8340819E2,-1.91144E1,1.009506E1,1.9600637E1,4.0211918E1,-6.510884E0,1.9183502E1,4.0050854E1,1.702588E0,5.3828826E0,5.901683E1,2.1769703E1,6.2684055E1,8.923585E1,2.8282648E1,1.1056926E2,8.659068E1,6.673247E1,2.1803516E1,1.3543295E2,1.1571606E2,5.9863415E1,5.968506E0,-1.0499561E1,1.1951778E2],"split_indices":[1,1,1,1,1,1,1,1,1,1,1,1,1,1,7,0,0,0,7,7,7,4,1,4,7,5,4,3,0,0,0,0,7,0,7,0,5,1,4,0,6,1,3,0,4,1,5,5,7,4,0,5,5,0,6,6,6,0,0,0,0,0,0,0,0,0,0,0,0,0,0,0,0,0,0,0,0,0,0,0,0,0,0,0,0,0,0,0,0,0,0,0,0,0,0,0,0,0,0,0,0,0,0],"split_type":[0,0,0,0,0,0,0,0,0,0,0,0,0,0,0,0,0,0,0,0,0,0,0,0,0,0,0,0,0,0,0,0,0,0,0,0,0,0,0,0,0,0,0,0,0,0,0,0,0,0,0,0,0,0,0,0,0,0,0,0,0,0,0,0,0,0,0,0,0,0,0,0,0,0,0,0,0,0,0,0,0,0,0,0,0,0,0,0,0,0,0,0,0,0,0,0,0,0,0,0,0,0,0],"sum_hessian":[8.751E3,3.147E3,5.604E3,1.779E3,1.368E3,8.15E2,4.789E3,8.9E2,8.89E2,7.85E2,5.83E2,4.06E2,4.09E2,3.77E2,4.412E3,2.39E2,6.51E2,4.78E2,4.11E2,4.09E2,3.76E2,2.41E2,3.42E2,2.73E2,1.33E2,2.08E2,2.01E2,1.41E2,2.36E2,4.065E3,3.47E2,1.79E2,2.32E2,2.54E2,1.55E2,3.23E2,5.3E1,1.05E2,1.36E2,2.38E2,1.04E2,2.51E2,2.2E1,3E0,1.3E2,1.2E2,8.8E1,5.9E1,1.42E2,7.1E1,7E1,2.19E2,1.7E1,1E0,4.064E3,7E0,3.4E2,2.3E2,2E0,1.47E2,8E0,2.34E2,8.9E1,3E0,5E1,7.4E1,3.1E1,1.34E2,2E0,1.7E1,2.21E2,4.2E1,6.2E1,1.28E2,1.23E2,1.1E1,1.1E1,2E0,1E0,4.1E1,8.9E1,5.2E1,6.8E1,2.5E1,6.3E1,5.5E1,4E0,6E0,1.36E2,5E0,6.6E1,6.6E1,4E0,1.15E2,1.04E2,1.2E1,5E0,4.002E3,6.2E1,6E0,1E0,1E0,3.39E2],"tree_param":{"num_deleted":"0","num_feature":"9","num_nodes":"103","size_leaf_vector":"1"}},{"base_weights":[-7.6716805E-1,-4.6585147E2,2.6474503E2,-5.733577E2,-2.6052597E2,2.3701006E1,3.0409216E2,-6.348044E2,-4.7783246E2,-3.1816592E2,-1.6382552E2,-4.597699E1,8.7203125E1,2.1135748E2,3.1274768E2,-6.7663873E2,-5.9417975E2,-5.061499E2,-4.2775134E2,-3.50373E2,-2.685766E2,-1.14111084E2,-1.8641899E2,-4.1157463E1,-3.3471484E2,6.3129993E1,1.3686574E2,2.0272052E2,3.793368E2,2.83633E2,3.1685565E2,-2.160801E2,-1.9748892E2,-7.5906235E1,-5.958979E2,-5.352861E2,-1.396167E2,-4.5833463E2,-3.986716E2,-3.858845E2,-3.1700092E2,-2.415811E2,-3.1611432E2,-1.5009108E2,-7.289313E1,-1.924562E2,-4.7154915E1,-6.4728096E1,2.1596231E0,-5.8138565E1,-1.5589696E2,9.23874E1,4.1609955E1,1.6277432E2,1.0361669E2,1.6347916E2,2.225433E2,1.1843998E2,1.5150074E1,2.906144E2,1.9658322E2,3.1744217E2,2.4205519E2,-1.8776743E2,-1.7243704E2,-2.2113899E2,-1.5835396E2,-1.3989935E2,-8.6771324E1,-1.2133561E2,-8.093572E1,-1.1852718E2,-8.865974E1,-9.9189186E1,-7.088711E1,-7.834675E1,-3.9398155E1,-9.6253204E1,-1.8763844E1,-5.189912E1,-3.2415688E1,3.8776777E0,-2.568326E1,-5.9220554E1,-1.7553976E1,2.9363564E1,-3.0135843E1,-4.580566E1,-1.5841727E1,-3.384744E0,2.7889338E1,2.0662178E1,3.9820763E1,1.4143966E1,-1.7325205E1,-1.715625E1,4.9987087E1,4.09075E1,1.4237518E1,5.1913754E1,2.0325598E1,3.0317823E1,6.872183E1,8.9617874E1,6.714572E1,1.209737E1,6.605834E1,9.526694E1,3.89153E1,1.8833122E1,8.844096E1],"categories":[],"categories_nodes":[],"categories_segments":[],"categories_sizes":[],"default_left":[0,0,0,0,0,0,0,0,0,0,0,0,0,0,0,0,0,0,0,0,0,0,0,0,0,0,0,0,0,0,0,0,0,0,0,0,0,0,0,0,0,0,0,0,0,0,0,0,0,0,0,0,0,0,0,0,0,0,0,0,0,0,0,0,0,0,0,0,0,0,0,0,0,0,0,0,0,0,0,0,0,0,0,0,0,0,0,0,0,0,0,0,0,0,0,0,0,0,0,0,0,0,0,0,0,0,0,0,0,0,0],"id":5,"left_children":[1,3,5,7,9,11,13,15,17,19,21,23,25,27,29,31,33,35,37,39,41,43,45,47,49,51,53,55,57,59,61,-1,-1,-1,63,65,-1,67,69,71,73,75,77,79,81,83,85,87,89,-1,-1,91,93,95,97,99,101,-1,-1,103,105,107,109,-1,-1,-1,-1,-1,-1,-1,-1,-1,-1,-1,-1,-1,-1,-1,-1,-1,-1,-1,-1,-1,-1,-1,-1,-1,-1,-1,-1,-1,-1,-1,-1,-1,-1,-1,-1,-1,-1,-1,-1,-1,-1,-1,-1,-1,-1,-1,-1],"loss_changes":[1.080869E9,7.006733E7,5.283981E7,1.1946688E7,6.051192E6,3.4685495E6,3.778688E6,1.751232E6,9.47808E5,9.99936E5,4.40371E5,5.0667456E5,4.81529E5,5.20842E5,4.33856E5,1.9616E4,2.30816E5,3.67264E5,8.6752E4,3.65932E5,2.75256E5,1.833355E5,2.27182E5,3.7689294E5,5.56645E4,1.7119025E5,9.770475E4,2.701E5,7.66745E4,2.77728E5,9.1136E4,0E0,0E0,0E0,4.9872E4,5.5392E4,0E0,5.5778E4,1.2324E4,4.5438E4,1.61688E5,3.52018E5,9.5065E4,4.775E4,6.9866E4,1.66644E5,1.10321875E5,2.4256669E5,1.6094848E5,0E0,0E0,1.01859625E5,9.184216E4,7.1337625E4,1.0569031E5,1.128235E5,1.82295E5,0E0,0E0,2.08392E5,1.53457E5,4.0256E4,3.0301625E5,0E0,0E0,0E0,0E0,0E0,0E0,0E0,0E0,0E0,0E0,0E0,0E0,0E0,0E0,0E0,0E0,0E0,0E0,0E0,0E0,0E0,0E0,0E0,0E0,0E0,0E0,0E0,0E0,0E0,0E0,0E0,0E0,0E0,0E0,0E0,0E0,0E0,0E0,0E0,0E0,0E0,0E0,0E0,0E0,0E0,0E0,0E0,0E0],"parents":[2147483647,0,0,1,1,2,2,3,3,4,4,5,5,6,6,7,7,8,8,9,9,10,10,11,11,12,12,13,13,14,14,15,15,16,16,17,17,18,18,19,19,20,20,21,21,22,22,23,23,24,24,25,25,26,26,27,27,28,28,29,29,30,30,34,34,35,35,37,37,38,38,39,39,40,40,41,41,42,42,43,43,44,44,45,45,46,46,47,47,48,48,51,51,52,52,53,53,54,54,55,55,56,56,59,59,60,60,61,61,62,62],"right_children":[2,4,6,8,10,12,14,16,18,20,22,24,26,28,30,32,34,36,38,40,42,44,46,48,50,52,54,56,58,60,62,-1,-1,-1,64,66,-1,68,70,72,74,76,78,80,82,84,86,88,90,-1,-1,92,94,96,98,100,102,-1,-1,104,106,108,110,-1,-1,-1,-1,-1,-1,-1,-1,-1,-1,-1,-1,-1,-1,-1,-1,-1,-1,-1,-1,-1,-1,-1,-1,-1,-1,-1,-1,-1,-1,-1,-1,-1,-1,-1,-1,-1,-1,-1,-1,-1,-1,-1,-1,-1,-1,-1,-1],"split_conditions":[8.892556E0,7.130381E0,1.0288242E1,5.8145933E0,8.215548E0,9.566755E0,1.1042252E1,4.5832953E0,9.285333E0,7.732815E0,-3.7214968E0,-1.8415742E0,1.0052952E1,1.027E3,1.193034E1,3.5421965E0,9.12691E-2,6.5522346E0,6.4852653E0,1.006E3,-3.5444446E0,1.014E3,-3.4791226E0,9.320533E0,-4.615836E-2,9.7E0,1.14E1,1.0556612E1,-4.1905543E-1,2.9836124E2,2.1003384E1,-2.160801E2,-1.9748892E2,-7.5906235E1,8.9E0,7.058376E0,-1.396167E2,1.0343913E1,1.0062768E1,9.3E1,9.564647E0,1.021E3,-3.3202379E0,8.76331E0,8.8856176E-2,3.3561942E2,-5.5067062E-14,8.6667925E-2,1.021E3,-5.8138565E1,-1.5589696E2,8.4E0,-2.6093466E0,9.66E2,-3.2883527E0,2.9836124E2,9.75E2,1.1843998E2,1.5150074E1,1.18412316E-1,8.9513615E-2,1.9206642E-1,3.3145099E0,-1.8776743E2,-1.7243704E2,-2.2113899E2,-1.5835396E2,-1.3989935E2,-8.6771324E1,-1.2133561E2,-8.093572E1,-1.1852718E2,-8.865974E1,-9.9189186E1,-7.088711E1,-7.834675E1,-3.9398155E1,-9.6253204E1,-1.8763844E1,-5.189912E1,-3.2415688E1,3.8776777E0,-2.568326E1,-5.9220554E1,-1.7553976E1,2.9363564E1,-3.0135843E1,-4.580566E1,-1.5841727E1,-3.384744E0,2.7889338E1,2.0662178E1,3.9820763E1,1.4143966E1,-1.7325205E1,-1.715625E1,4.9987087E1,4.09075E1,1.4237518E1,5.1913754E1,2.0325598E1,3.0317823E1,6.872183E1,8.9617874E1,6.714572E1,1.209737E1,6.605834E1,9.526694E1,3.89153E1,1.8833122E1,8.844096E1],"split_indices":[1,1,1,1,1,1,1,1,7,1,0,0,1,4,1,1,6,1,1,4,0,4,0,1,0,5,5,1,0,2,0,0,0,0,5,7,0,7,7,3,7,4,0,1,6,2,8,6,4,0,0,5,0,4,0,2,4,0,0,6,6,6,7,0,0,0,0,0,0,0,0,0,0,0,0,0,0,0,0,0,0,0,0,0,0,0,0,0,0,0,0,0,0,0,0,0,0,0,0,0,0,0,0,0,0,0,0,0,0,0,0],"split_type":[0,0,0,0,0,0,0,0,0,0,0,0,0,0,0,0,0,0,0,0,0,0,0,0,0,0,0,0,0,0,0,0,0,0,0,0,0,0,0,0,0,0,0,0,0,0,0,0,0,0,0,0,0,0,0,0,0,0,0,0,0,0,0,0,0,0,0,0,0,0,0,0,0,0,0,0,0,0,0,0,0,0,0,0,0,0,0,0,0,0,0,0,0,0,0,0,0,0,0,0,0,0,0,0,0,0,0,0,0,0,0],"sum_hessian":[8.751E3,3.18E3,5.571E3,2.086E3,1.094E3,7.82E2,4.789E3,1.266E3,8.2E2,6.84E2,4.1E2,3.73E2,4.09E2,4.11E2,4.378E3,6.16E2,6.5E2,5.18E2,3.02E2,4.11E2,2.73E2,1.3E2,2.8E2,3.68E2,5E0,2.77E2,1.32E2,3.93E2,1.8E1,5.5E2,3.828E3,1.71E2,4.45E2,4E0,6.46E2,2.95E2,2.23E2,1.4E2,1.62E2,1.94E2,2.17E2,1.78E2,9.5E1,6.8E1,6.2E1,2.68E2,1.2E1,2.38E2,1.3E2,4E0,1E0,1.16E2,1.61E2,7.2E1,6E1,1.35E2,2.58E2,1.7E1,1E0,5.07E2,4.3E1,3.795E3,3.3E1,2.55E2,3.91E2,7E0,2.88E2,1.32E2,8E0,1.53E2,9E0,1.73E2,2.1E1,1.83E2,3.4E1,1.5E2,2.8E1,9.3E1,2E0,4.2E1,2.6E1,8E0,5.4E1,2.58E2,1E1,3E0,9E0,2.7E1,2.11E2,1.14E2,1.6E1,7.5E1,4.1E1,1.53E2,8E0,1E0,7.1E1,3.7E1,2.3E1,1.22E2,1.3E1,1.4E1,2.44E2,4.49E2,5.8E1,6E0,3.7E1,3.792E3,3E0,8E0,2.5E1],"tree_param":{"num_deleted":"0","num_feature":"9","num_nodes":"111","size_leaf_vector":"1"}},{"base_weights":[-7.560002E-1,-3.2155728E2,1.8870518E2,-4.040713E2,-1.7988548E2,3.7265453E1,2.1521454E2,-4.6282208E2,-3.5557834E2,-2.267431E2,-1.0932191E2,-1.2751385E1,8.64674E1,1.7317009E2,2.2109238E2,-1.4718062E2,-4.4560706E2,-3.8985333E2,-3.228099E2,-2.4951239E2,-1.8885316E2,-1.3405847E2,-7.6050705E1,-8.890142E0,-2.699729E2,-6.188678E1,9.0670334E1,-7.5958806E-1,1.762282E2,1.407101E2,2.2139223E2,-4.4643774E2,-4.0941296E1,-1.20279755E2,-3.512307E2,-3.654873E2,-3.0157233E2,-3.205641E2,-2.3827715E2,-2.2026624E2,-1.625705E2,-1.7397078E2,-1.18697426E2,-8.347535E1,1.7798203E1,-4.1659508E1,1.0496845E1,-4.4185284E1,-1.325124E2,4.1428123E1,-1.1872275E2,7.054913E1,1.175567E2,7.3843506E1,-3.7966187E1,1.2585192E2,1.865716E2,1.6340286E2,6.809074E1,2.1253322E2,2.2372473E2,-1.4066093E2,-1.2806332E2,-2.4892292E1,-1.0707425E2,-1.2906276E2,-1.0407071E2,-9.654137E1,-7.82027E1,-9.71594E1,-1.9864693E1,-7.3465576E1,-4.862351E1,-6.714322E1,-1.5195802E0,-3.7426674E1,-5.5687733E1,-6.0552628E1,-3.5393528E1,-3.6081734E1,2.9445667E1,-2.1533623E1,-5.5859467E1,-2.4909035E1,1.1439891E1,-9.126957E0,-4.4591778E1,1.00598345E1,-7.594146E0,-8.469068E0,1.977008E1,2.9604495E-1,-4.0789528E1,2.1937563E1,-2.8563759E1,2.3222847E1,3.977837E1,3.035625E1,9.299903E0,-4.0034475E0,-1.7775404E1,3.9732273E1,-7.7480865E0,5.9645153E1,3.887455E1,1.2975659E1,5.0943325E1,3.0537745E1,-1.50626955E1,6.501935E1,4.991289E1,6.726015E1,5.1778145E1],"categories":[],"categories_nodes":[],"categories_segments":[],"categories_sizes":[],"default_left":[0,0,0,0,0,0,0,0,0,0,0,0,0,0,0,0,0,0,0,0,0,0,0,0,0,0,0,0,0,0,0,0,0,0,0,0,0,0,0,0,0,0,0,0,0,0,0,0,0,0,0,0,0,0,0,0,0,0,0,0,0,0,0,0,0,0,0,0,0,0,0,0,0,0,0,0,0,0,0,0,0,0,0,0,0,0,0,0,0,0,0,0,0,0,0,0,0,0,0,0,0,0,0,0,0,0,0,0,0,0,0,0,0],"id":6,"left_children":[1,3,5,7,9,11,13,15,17,19,21,23,25,27,29,-1,31,33,35,37,39,41,43,45,47,49,51,53,55,57,59,61,-1,-1,63,65,67,69,71,73,75,77,79,81,83,85,87,-1,-1,89,91,93,95,97,99,101,103,105,107,109,111,-1,-1,-1,-1,-1,-1,-1,-1,-1,-1,-1,-1,-1,-1,-1,-1,-1,-1,-1,-1,-1,-1,-1,-1,-1,-1,-1,-1,-1,-1,-1,-1,-1,-1,-1,-1,-1,-1,-1,-1,-1,-1,-1,-1,-1,-1,-1,-1,-1,-1,-1,-1],"loss_changes":[5.3200192E8,3.791949E7,2.208416E7,5.684448E6,3.936332E6,2.0215225E6,1.119024E6,2.23744E5,1.142176E6,5.73176E5,3.84852E5,4.0282328E5,2.6375E5,3.081E5,6.7776E4,0E0,8.8528E4,9.3248E4,4.18188E5,2.7965E5,1.90411E5,1.47338E5,1.4572225E5,2.564629E5,6.1363E4,7.5382484E4,2.097235E5,3.3336555E4,2.73006E5,1.8536594E4,3.6928E4,5.4336E4,0E0,0E0,1.68585E5,7.8098E4,2.42948E5,2.7246E4,1.56184E5,9.1925E4,1.102325E5,9.167E4,8.04545E4,2.1732475E5,3.5971312E4,1.7578667E5,2.1038158E5,0E0,0E0,1.0383824E4,1.6646758E4,1.06457E5,9.29735E4,1.5493066E3,3.4018584E3,1.03361375E5,3.02236E5,2.6646562E3,2.9032338E4,1.32904E5,3.9552E4,0E0,0E0,0E0,0E0,0E0,0E0,0E0,0E0,0E0,0E0,0E0,0E0,0E0,0E0,0E0,0E0,0E0,0E0,0E0,0E0,0E0,0E0,0E0,0E0,0E0,0E0,0E0,0E0,0E0,0E0,0E0,0E0,0E0,0E0,0E0,0E0,0E0,0E0,0E0,0E0,0E0,0E0,0E0,0E0,0E0,0E0,0E0,0E0,0E0,0E0,0E0,0E0],"parents":[2147483647,0,0,1,1,2,2,3,3,4,4,5,5,6,6,7,7,8,8,9,9,10,10,11,11,12,12,13,13,14,14,16,16,17,17,18,18,19,19,20,20,21,21,22,22,23,23,24,24,25,25,26,26,27,27,28,28,29,29,30,30,31,31,34,34,35,35,36,36,37,37,38,38,39,39,40,40,41,41,42,42,43,43,44,44,45,45,46,46,49,49,50,50,51,51,52,52,53,53,54,54,55,55,56,56,57,57,58,58,59,59,60,60],"right_children":[2,4,6,8,10,12,14,16,18,20,22,24,26,28,30,-1,32,34,36,38,40,42,44,46,48,50,52,54,56,58,60,62,-1,-1,64,66,68,70,72,74,76,78,80,82,84,86,88,-1,-1,90,92,94,96,98,100,102,104,106,108,110,112,-1,-1,-1,-1,-1,-1,-1,-1,-1,-1,-1,-1,-1,-1,-1,-1,-1,-1,-1,-1,-1,-1,-1,-1,-1,-1,-1,-1,-1,-1,-1,-1,-1,-1,-1,-1,-1,-1,-1,-1,-1,-1,-1,-1,-1,-1,-1,-1,-1,-1,-1,-1],"split_conditions":[9.009947E0,7.0815234E0,1.0503369E1,5.197866E0,8.215548E0,9.7524605E0,1.1505579E1,4.013589E0,6.1579733E0,7.732815E0,8.640211E0,-1.8415742E0,-3.8249197E0,-3.3293548E0,-4.1905543E-1,-1.4718062E2,1.85E1,1.32E1,8.9623575E0,8.887353E0,1.006E3,8.841796E0,3.3561942E2,1.002E3,-4.615836E-2,-3.8808248E0,1.01783085E1,8.788678E-2,9.88E2,2.3692462E2,1.2884805E1,1.1E1,-4.0941296E1,-1.20279755E2,9.207674E-2,8.572612E0,1.019E3,3.4254416E2,9.653659E0,3.4469128E2,-3.6071234E0,1.2086559E-1,-3.3508954E0,2.9585413E2,1.0583461E-1,1.417698E-1,1.39E1,-4.4185284E1,-1.325124E2,9.818135E0,1.001E3,-1.6351887E0,9.97E2,-3.4873078E0,2.643709E2,-4.1905543E-1,2.8310812E2,8.205577E-2,1.1690486E1,2.9948828E2,2.1003384E1,-1.4066093E2,-1.2806332E2,-2.4892292E1,-1.0707425E2,-1.2906276E2,-1.0407071E2,-9.654137E1,-7.82027E1,-9.71594E1,-1.9864693E1,-7.3465576E1,-4.862351E1,-6.714322E1,-1.5195802E0,-3.7426674E1,-5.5687733E1,-6.0552628E1,-3.5393528E1,-3.6081734E1,2.9445667E1,-2.1533623E1,-5.5859467E1,-2.4909035E1,1.1439891E1,-9.126957E0,-4.4591778E1,1.00598345E1,-7.594146E0,-8.469068E0,1.977008E1,2.9604495E-1,-4.0789528E1,2.1937563E1,-2.8563759E1,2.3222847E1,3.977837E1,3.035625E1,9.299903E0,-4.0034475E0,-1.7775404E1,3.9732273E1,-7.7480865E0,5.9645153E1,3.887455E1,1.2975659E1,5.0943325E1,3.0537745E1,-1.50626955E1,6.501935E1,4.991289E1,6.726015E1,5.1778145E1],"split_indices":[1,1,1,1,1,1,1,1,1,1,1,0,0,0,0,0,5,5,7,7,4,7,2,4,0,0,1,6,4,2,1,5,0,0,6,7,4,2,7,2,0,6,0,2,6,6,5,0,0,1,4,0,4,0,2,0,2,6,1,2,0,0,0,0,0,0,0,0,0,0,0,0,0,0,0,0,0,0,0,0,0,0,0,0,0,0,0,0,0,0,0,0,0,0,0,0,0,0,0,0,0,0,0,0,0,0,0,0,0,0,0,0,0],"split_type":[0,0,0,0,0,0,0,0,0,0,0,0,0,0,0,0,0,0,0,0,0,0,0,0,0,0,0,0,0,0,0,0,0,0,0,0,0,0,0,0,0,0,0,0,0,0,0,0,0,0,0,0,0,0,0,0,0,0,0,0,0,0,0,0,0,0,0,0,0,0,0,0,0,0,0,0,0,0,0,0,0,0,0,0,0,0,0,0,0,0,0,0,0,0,0,0,0,0,0,0,0,0,0,0,0,0,0,0,0,0,0,0,0],"sum_hessian":[8.751E3,3.249E3,5.502E3,2.052E3,1.197E3,8.2E2,4.682E3,9.24E2,1.128E3,7.18E2,4.79E2,4.07E2,4.13E2,5.78E2,4.104E3,3.43E2,5.81E2,5.46E2,5.82E2,4.45E2,2.73E2,2.73E2,2.06E2,4.02E2,5E0,1.1E1,4.02E2,1E1,5.68E2,1.7E1,4.087E3,5.79E2,2E0,4.17E2,1.29E2,1.88E2,3.94E2,5.7E1,3.88E2,1.21E2,1.52E2,7.3E1,2E2,1.91E2,1.5E1,1.49E2,2.53E2,4E0,1E0,4E0,7E0,2.32E2,1.7E2,3E0,7E0,9.9E1,4.69E2,1.2E1,5E0,8.71E2,3.216E3,2.59E2,3.2E2,3E0,1.26E2,3.7E1,1.51E2,2.59E2,1.35E2,5.6E1,1E0,3.55E2,3.3E1,1.19E2,2E0,6E1,9.2E1,4.7E1,2.6E1,1.99E2,1E0,1.73E2,1.8E1,2E0,1.3E1,1.36E2,1.3E1,1.54E2,9.9E1,1E0,3E0,1E0,6E0,2.29E2,3E0,4.8E1,1.22E2,1E0,2E0,4E0,3E0,9.5E1,4E0,3.84E2,8.5E1,1E0,1.1E1,4E0,1E0,7.95E2,7.6E1,3.183E3,3.3E1],"tree_param":{"num_deleted":"0","num_feature":"9","num_nodes":"113","size_leaf_vector":"1"}},{"base_weights":[-6.949586E-1,-2.2380365E2,1.3327646E2,-2.8103876E2,-1.193196E2,4.0610714E1,1.5292195E2,-3.279305E2,-2.491111E2,-1.5001134E2,-6.939294E1,-2.225745E-1,7.544186E1,4.2778233E1,1.5330441E2,-1.1201678E2,-3.2114716E2,-2.742738E2,-2.2491856E2,-1.0960488E2,-1.6577356E2,-3.349421E1,-8.13664E1,3.191708E0,-2.128518E2,2.7542458E1,8.202802E1,7.3631195E1,-4.5995117E1,1.5469453E2,1.2622933E2,-1.0265704E2,-3.0998593E2,-2.9041895E2,-2.600456E2,-2.582992E2,-2.0975816E2,-2.161879E2,-1.0360776E2,-2.1074252E2,-1.5377238E2,4.2950054E1,-4.215928E1,-8.640717E1,1.1647461E1,-3.6309807E1,1.4903755E1,-3.6952957E1,-1.1263554E2,4.422765E1,-4.844568E1,6.8404976E1,1.063954E2,2.7805989E0,8.6260345E1,9.4995123E-1,-1.7723145E1,1.3149055E2,1.556359E2,3.3416103E1,1.3317476E2,-9.3075615E1,-2.6500484E1,-2.293711E1,-8.7273544E1,-7.948198E1,-5.821173E1,-1.4040819E2,-7.5810356E1,-6.7117065E1,-5.4520832E1,-6.943373E1,-1.1830042E1,-3.636308E1,-2.083569E1,-4.4739967E1,-6.960277E1,-4.3219833E1,-5.9022095E1,1.8932787E1,-2.6820229E1,-3.8538696E1,-9.414656E0,-2.3462864E1,-4.0211136E1,-1.9927248E1,7.667377E0,-4.467228E1,-7.8700643E0,-7.617637E0,8.388367E0,1.5419937E1,-2.7732374E1,2.2575586E1,-2.4213121E1,1.280166E1,2.7268518E1,1.714462E1,4.3094833E1,1.5158204E0,-2.645508E-1,4.1268067E0,3.0253191E1,3.3481903E1,4.5963264E1,4.650478E1,5.6181248E1,2.3367615E1,-7.9067507E0,2.6387527E1,4.3513607E1],"categories":[],"categories_nodes":[],"categories_segments":[],"categories_sizes":[],"default_left":[0,0,0,0,0,0,0,0,0,0,0,0,0,0,0,0,0,0,0,0,0,0,0,0,0,0,0,0,0,0,0,0,0,0,0,0,0,0,0,0,0,0,0,0,0,0,0,0,0,0,0,0,0,0,0,0,0,0,0,0,0,0,0,0,0,0,0,0,0,0,0,0,0,0,0,0,0,0,0,0,0,0,0,0,0,0,0,0,0,0,0,0,0,0,0,0,0,0,0,0,0,0,0,0,0,0,0,0,0,0,0],"id":7,"left_children":[1,3,5,7,9,11,13,15,17,19,21,23,25,27,29,-1,31,33,35,37,39,41,43,45,47,49,51,53,55,57,59,-1,61,63,65,67,69,71,73,75,77,79,81,83,85,87,89,-1,-1,91,93,95,97,99,101,-1,-1,103,105,107,109,-1,-1,-1,-1,-1,-1,-1,-1,-1,-1,-1,-1,-1,-1,-1,-1,-1,-1,-1,-1,-1,-1,-1,-1,-1,-1,-1,-1,-1,-1,-1,-1,-1,-1,-1,-1,-1,-1,-1,-1,-1,-1,-1,-1,-1,-1,-1,-1,-1,-1],"loss_changes":[2.6162875E8,1.960528E7,9.949912E6,3.09376E6,1.77323E6,1.3625516E6,1.83512E5,1.44056E5,7.08992E5,4.40395E5,1.8855E5,3.2156088E5,1.6084025E5,4.994834E4,1.49696E5,0E0,7.0544E4,6.5984E4,2.75268E5,1.0863525E5,2.46069E5,7.666135E4,1.571375E5,2.0225375E5,5.5821562E4,8.328675E4,1.43431E5,1.13923125E4,3.4027373E3,7.2848E4,1.4059125E5,0E0,2.208E3,7.284E3,5.7462E4,1.15368E5,1.36618E5,1.7842281E4,1.0942125E5,1.042835E5,1.43068E5,3.765911E4,9.0838375E4,1.1289975E5,2.1245883E4,1.0955008E5,1.7802662E5,0E0,0E0,5.67025E4,5.3966453E4,1.6626862E5,2.8716738E5,2.9420326E1,1.0243922E4,0E0,0E0,5.7618E4,5.1384E4,4.7245934E4,9.94215E4,0E0,0E0,0E0,0E0,0E0,0E0,0E0,0E0,0E0,0E0,0E0,0E0,0E0,0E0,0E0,0E0,0E0,0E0,0E0,0E0,0E0,0E0,0E0,0E0,0E0,0E0,0E0,0E0,0E0,0E0,0E0,0E0,0E0,0E0,0E0,0E0,0E0,0E0,0E0,0E0,0E0,0E0,0E0,0E0,0E0,0E0,0E0,0E0,0E0,0E0],"parents":[2147483647,0,0,1,1,2,2,3,3,4,4,5,5,6,6,7,7,8,8,9,9,10,10,11,11,12,12,13,13,14,14,16,16,17,17,18,18,19,19,20,20,21,21,22,22,23,23,24,24,25,25,26,26,27,27,28,28,29,29,30,30,32,32,33,33,34,34,35,35,36,36,37,37,38,38,39,39,40,40,41,41,42,42,43,43,44,44,45,45,46,46,49,49,50,50,51,51,52,52,53,53,54,54,57,57,58,58,59,59,60,60],"right_children":[2,4,6,8,10,12,14,16,18,20,22,24,26,28,30,-1,32,34,36,38,40,42,44,46,48,50,52,54,56,58,60,-1,62,64,66,68,70,72,74,76,78,80,82,84,86,88,90,-1,-1,92,94,96,98,100,102,-1,-1,104,106,108,110,-1,-1,-1,-1,-1,-1,-1,-1,-1,-1,-1,-1,-1,-1,-1,-1,-1,-1,-1,-1,-1,-1,-1,-1,-1,-1,-1,-1,-1,-1,-1,-1,-1,-1,-1,-1,-1,-1,-1,-1,-1,-1,-1,-1,-1,-1,-1,-1,-1,-1],"split_conditions":[9.064288E0,7.1891475E0,1.0793224E1,5.070283E0,8.33722E0,9.870238E0,-2.820374E0,3.3356216E0,6.1579733E0,-3.5951765E0,-3.762628E0,-1.8415742E0,-3.6071234E0,2.517479E2,1.18412316E-1,-1.1201678E2,8.9E0,9.2E0,8.9623575E0,8.6184635E0,9.897577E-2,8.908929E-2,3.3561942E2,9.95E2,-4.615836E-2,1.61E1,8.7E1,8.379481E-2,-3.6780794E0,8.427665E1,1.0982299E1,-1.0265704E2,1.85E1,9.9E2,1.0343913E1,6.861314E0,1.019E3,8.9E1,1.02E3,9.5E0,-3.3923852E0,1.57E1,9.12691E-2,2.9585413E2,1.0583461E-1,1.3526024E2,9.060982E-2,-3.6952957E1,-1.1263554E2,9.3E1,1.9488087E2,1.0327391E-1,1.9775586E2,-3.0206819E0,9.85E2,9.4995123E-1,-1.7723145E1,1.2787428E1,1.035E3,-1.8415742E0,8E1,-9.3075615E1,-2.6500484E1,-2.293711E1,-8.7273544E1,-7.948198E1,-5.821173E1,-1.4040819E2,-7.5810356E1,-6.7117065E1,-5.4520832E1,-6.943373E1,-1.1830042E1,-3.636308E1,-2.083569E1,-4.4739967E1,-6.960277E1,-4.3219833E1,-5.9022095E1,1.8932787E1,-2.6820229E1,-3.8538696E1,-9.414656E0,-2.3462864E1,-4.0211136E1,-1.9927248E1,7.667377E0,-4.467228E1,-7.8700643E0,-7.617637E0,8.388367E0,1.5419937E1,-2.7732374E1,2.2575586E1,-2.4213121E1,1.280166E1,2.7268518E1,1.714462E1,4.3094833E1,1.5158204E0,-2.645508E-1,4.1268067E0,3.0253191E1,3.3481903E1,4.5963264E1,4.650478E1,5.6181248E1,2.3367615E1,-7.9067507E0,2.6387527E1,4.3513607E1],"split_indices":[1,1,1,1,1,1,0,1,1,0,0,0,0,2,6,0,5,5,7,7,6,6,2,4,0,5,3,6,0,2,1,0,5,4,7,7,4,3,4,5,0,5,6,2,6,2,6,0,0,3,2,6,2,0,4,0,0,1,4,0,3,0,0,0,0,0,0,0,0,0,0,0,0,0,0,0,0,0,0,0,0,0,0,0,0,0,0,0,0,0,0,0,0,0,0,0,0,0,0,0,0,0,0,0,0,0,0,0,0,0,0],"split_type":[0,0,0,0,0,0,0,0,0,0,0,0,0,0,0,0,0,0,0,0,0,0,0,0,0,0,0,0,0,0,0,0,0,0,0,0,0,0,0,0,0,0,0,0,0,0,0,0,0,0,0,0,0,0,0,0,0,0,0,0,0,0,0,0,0,0,0,0,0,0,0,0,0,0,0,0,0,0,0,0,0,0,0,0,0,0,0,0,0,0,0,0,0,0,0,0,0,0,0,0,0,0,0,0,0,0,0,0,0,0,0],"sum_hessian":[8.751E3,3.283E3,5.468E3,2.12E3,1.163E3,9.57E2,4.511E3,8.55E2,1.265E3,7.19E2,4.44E2,4.41E2,5.16E2,1.6E1,4.495E3,1.04E2,7.51E2,6.15E2,6.5E2,2.04E2,5.15E2,1.12E2,3.32E2,4.35E2,6E0,6.3E1,4.53E2,1.2E1,4E0,4.271E3,2.24E2,2.5E2,5.01E2,2.79E2,3.36E2,1.98E2,4.52E2,9E0,1.95E2,1.05E2,4.1E2,1.1E1,1.01E2,3.15E2,1.7E1,9.9E1,3.36E2,5E0,1E0,5.2E1,1.1E1,2.93E2,1.6E2,2E0,1E1,1E0,3E0,1.72E2,4.099E3,1.6E1,2.08E2,5E2,1E0,1E0,2.78E2,3.1E2,2.6E1,3E0,1.95E2,2.97E2,1.55E2,8E0,1E0,1.27E2,6.8E1,2.9E1,7.6E1,3.38E2,7.2E1,1E1,1E0,1E1,9.1E1,2.71E2,4.4E1,2E0,1.5E1,7E0,9.2E1,8.2E1,2.54E2,5E1,2E0,2E0,9E0,1.38E2,1.55E2,7E1,9E1,1E0,1E0,2E0,8E0,9.3E1,7.9E1,4.026E3,7.3E1,9E0,7E0,4.5E1,1.63E2],"tree_param":{"num_deleted":"0","num_feature":"9","num_nodes":"111","size_leaf_vector":"1"}},{"base_weights":[-6.2768847E-1,-1.5591719E2,9.4174736E1,-1.9542628E2,-7.924343E1,2.2165005E1,1.0573338E2,-2.1977937E2,-1.6178514E2,-9.965535E1,-4.3292522E1,-1.6996805E1,3.6845966E1,1.085191E2,8.3125244E1,-2.3755954E2,-2.0589746E2,-1.7025209E2,-1.11965645E2,-8.675636E1,-1.2954944E2,-2.7969067E1,-6.0455963E1,-1.1373058E2,-4.2175307E0,4.218769E1,-1.3839692E1,-1.3896973E1,1.08699E2,9.135926E1,4.2408916E1,-7.769364E1,-2.2980853E2,-2.2310457E2,-1.9702792E2,-3.7479556E2,-1.6846498E2,-1.3501968E2,-8.9277695E1,-6.596484E1,-1.0316963E2,-1.6138953E2,-1.137228E2,-4.381609E1,-8.672947E0,-3.288856E1,-7.8081894E1,-4.8682243E1,-1.9993002E2,7.946201E0,-6.9085144E1,2.6656054E1,5.837934E1,-1.06077354E2,3.2663574E1,-1.5791553E1,1.2127344E1,-1.6560547E1,1.0876323E2,1.044315E2,6.2332264E1,5.9476658E1,-2.82181E1,-7.2238525E1,-6.3775948E1,-2.8131086E1,-6.7141884E1,-6.144074E1,-4.979397E1,-2.4403612E1,-1.2516496E2,-5.1394188E1,-2.958327E1,-4.420182E1,-1.8007982E1,-2.8415882E1,8.074384E0,-4.24411E1,-1.7625172E1,-2.6855131E1,-4.9794994E1,-3.5872417E1,-5.610886E1,-7.951858E1,-3.2942207E1,-1.1258564E1,-4.7107414E1,1.2271925E1,-5.165899E0,-1.4141652E1,8.746553E0,-2.4765835E1,2.065763E1,-2.5283496E0,-3.2297768E1,-1.6141748E1,-6.892061E1,-6.568296E0,9.096339E0,-3.3767838E1,5.6502074E-1,1.4472413E1,-1.1968056E1,2.1651407E1,2.350433E0,-4.8646893E1,-2.161049E1,4.5866857E0,3.5096558E1,6.2678103E0,-3.4401124E0,1.7280396E1,-2.4732643E1,3.267329E1,1.5984567E1,1.6622944E1,3.426293E1,1.0133438E1,2.8178368E1,7.3986845E0,2.6490786E1,5.0508986E0,-2.2542969E1],"categories":[],"categories_nodes":[],"categories_segments":[],"categories_sizes":[],"default_left":[0,0,0,0,0,0,0,0,0,0,0,0,0,0,0,0,0,0,0,0,0,0,0,0,0,0,0,0,0,0,0,0,0,0,0,0,0,0,0,0,0,0,0,0,0,0,0,0,0,0,0,0,0,0,0,0,0,0,0,0,0,0,0,0,0,0,0,0,0,0,0,0,0,0,0,0,0,0,0,0,0,0,0,0,0,0,0,0,0,0,0,0,0,0,0,0,0,0,0,0,0,0,0,0,0,0,0,0,0,0,0,0,0,0,0,0,0,0,0,0,0,0,0],"id":8,"left_children":[1,3,5,7,9,11,13,15,17,19,21,23,25,27,29,31,33,35,37,39,41,43,45,47,49,51,53,55,57,59,61,-1,63,65,67,69,71,73,75,77,79,81,83,85,87,89,91,93,95,97,99,101,103,105,107,-1,109,111,113,115,117,119,121,-1,-1,-1,-1,-1,-1,-1,-1,-1,-1,-1,-1,-1,-1,-1,-1,-1,-1,-1,-1,-1,-1,-1,-1,-1,-1,-1,-1,-1,-1,-1,-1,-1,-1,-1,-1,-1,-1,-1,-1,-1,-1,-1,-1,-1,-1,-1,-1,-1,-1,-1,-1,-1,-1,-1,-1,-1,-1,-1,-1],"loss_changes":[1.28860056E8,1.0035768E7,4.521396E6,1.757816E6,8.249105E5,4.335509E5,2.85916E5,2.63808E5,3.70276E5,2.66395E5,1.06403375E5,2.5417497E5,1.4895412E5,9.326E4,1.6978975E5,3.163E4,6.5776E4,2.24538E5,5.96035E4,1.658705E5,8.998925E4,6.658714E4,9.121094E4,1.24838125E5,1.4494188E5,1.2317925E5,2.3080053E5,7.69592E3,3.5272E4,1.5665325E5,1.0896278E5,0E0,2.6764E4,5.23E2,8.2594E4,4.0752062E4,1.38736E5,5.2132625E4,4.8075438E4,1.1479475E5,2.2611775E5,5.1613125E4,5.800075E4,7.952358E4,4.307846E4,6.945314E4,8.254819E4,3.4703914E4,3.1191656E4,1.0415419E5,8.968592E4,3.682305E5,1.681355E5,2.2682188E4,5.0955477E4,0E0,1.2736433E3,1.940648E4,2.8276E4,1.3507875E5,1.195245E5,7.007841E4,3.932047E4,0E0,0E0,0E0,0E0,0E0,0E0,0E0,0E0,0E0,0E0,0E0,0E0,0E0,0E0,0E0,0E0,0E0,0E0,0E0,0E0,0E0,0E0,0E0,0E0,0E0,0E0,0E0,0E0,0E0,0E0,0E0,0E0,0E0,0E0,0E0,0E0,0E0,0E0,0E0,0E0,0E0,0E0,0E0,0E0,0E0,0E0,0E0,0E0,0E0,0E0,0E0,0E0,0E0,0E0,0E0,0E0,0E0,0E0,0E0,0E0],"parents":[2147483647,0,0,1,1,2,2,3,3,4,4,5,5,6,6,7,7,8,8,9,9,10,10,11,11,12,12,13,13,14,14,15,15,16,16,17,17,18,18,19,19,20,20,21,21,22,22,23,23,24,24,25,25,26,26,27,27,28,28,29,29,30,30,32,32,33,33,34,34,35,35,36,36,37,37,38,38,39,39,40,40,41,41,42,42,43,43,44,44,45,45,46,46,47,47,48,48,49,49,50,50,51,51,52,52,53,53,54,54,56,56,57,57,58,58,59,59,60,60,61,61,62,62],"right_children":[2,4,6,8,10,12,14,16,18,20,22,24,26,28,30,32,34,36,38,40,42,44,46,48,50,52,54,56,58,60,62,-1,64,66,68,70,72,74,76,78,80,82,84,86,88,90,92,94,96,98,100,102,104,106,108,-1,110,112,114,116,118,120,122,-1,-1,-1,-1,-1,-1,-1,-1,-1,-1,-1,-1,-1,-1,-1,-1,-1,-1,-1,-1,-1,-1,-1,-1,-1,-1,-1,-1,-1,-1,-1,-1,-1,-1,-1,-1,-1,-1,-1,-1,-1,-1,-1,-1,-1,-1,-1,-1,-1,-1,-1,-1,-1,-1,-1,-1,-1,-1,-1,-1],"split_conditions":[9.123789E0,7.279896E0,1.0503369E1,5.8145933E0,8.439215E0,9.505196E0,6.8350983E0,4.4915357E0,9.543252E0,-3.502E0,1.07E1,8.058942E0,3.0084122E2,-2.4356604E0,1.18412316E-1,3.458913E0,9.348581E0,6.861314E0,1.017E3,1.13E1,9.98E2,1.009E3,-3.762628E0,-3.5951765E0,2.9467432E2,2.3381836E2,3.171438E2,-3.0987337E0,1.0919365E1,1.16E1,7.262186E0,-7.769364E1,1.24E1,-5.5067062E-14,1.31E1,4.73998E0,9.4E1,9.4E1,7.1891475E0,8.765754E0,2.9467432E2,2.1219585E2,8.343058E0,1.690636E-1,1.0349133E-1,2.5380585E2,1.77E1,7.983353E0,7.9E1,1.003E3,3.4254416E2,2.1323305E2,1.37E1,9.7524605E0,1.7520131E-1,-1.5791553E1,-2.717005E0,-5.778168E-1,1.690636E-1,1.6735138E2,9.9785276E-2,1.002E3,1.13E1,-7.2238525E1,-6.3775948E1,-2.8131086E1,-6.7141884E1,-6.144074E1,-4.979397E1,-2.4403612E1,-1.2516496E2,-5.1394188E1,-2.958327E1,-4.420182E1,-1.8007982E1,-2.8415882E1,8.074384E0,-4.24411E1,-1.7625172E1,-2.6855131E1,-4.9794994E1,-3.5872417E1,-5.610886E1,-7.951858E1,-3.2942207E1,-1.1258564E1,-4.7107414E1,1.2271925E1,-5.165899E0,-1.4141652E1,8.746553E0,-2.4765835E1,2.065763E1,-2.5283496E0,-3.2297768E1,-1.6141748E1,-6.892061E1,-6.568296E0,9.096339E0,-3.3767838E1,5.6502074E-1,1.4472413E1,-1.1968056E1,2.1651407E1,2.350433E0,-4.8646893E1,-2.161049E1,4.5866857E0,3.5096558E1,6.2678103E0,-3.4401124E0,1.7280396E1,-2.4732643E1,3.267329E1,1.5984567E1,1.6622944E1,3.426293E1,1.0133438E1,2.8178368E1,7.3986845E0,2.6490786E1,5.0508986E0,-2.2542969E1],"split_indices":[1,1,1,1,1,1,7,1,7,0,5,7,2,0,6,1,7,7,4,5,4,4,0,0,2,2,2,0,1,5,7,0,5,8,5,0,3,3,1,7,2,2,7,6,6,2,5,7,3,4,2,2,5,1,6,0,0,0,6,2,6,4,5,0,0,0,0,0,0,0,0,0,0,0,0,0,0,0,0,0,0,0,0,0,0,0,0,0,0,0,0,0,0,0,0,0,0,0,0,0,0,0,0,0,0,0,0,0,0,0,0,0,0,0,0,0,0,0,0,0,0,0,0],"split_type":[0,0,0,0,0,0,0,0,0,0,0,0,0,0,0,0,0,0,0,0,0,0,0,0,0,0,0,0,0,0,0,0,0,0,0,0,0,0,0,0,0,0,0,0,0,0,0,0,0,0,0,0,0,0,0,0,0,0,0,0,0,0,0,0,0,0,0,0,0,0,0,0,0,0,0,0,0,0,0,0,0,0,0,0,0,0,0,0,0,0,0,0,0,0,0,0,0,0,0,0,0,0,0,0,0,0,0,0,0,0,0,0,0,0,0,0,0,0,0,0,0,0,0],"sum_hessian":[8.751E3,3.317E3,5.434E3,2.188E3,1.129E3,7.52E2,4.682E3,1.266E3,9.22E2,7.19E2,4.1E2,2.05E2,5.47E2,4.165E3,5.17E2,5.48E2,7.18E2,7.86E2,1.36E2,5.05E2,2.14E2,2.18E2,1.92E2,2.3E1,1.82E2,4.95E2,5.2E1,6E0,4.159E3,4.29E2,8.8E1,1.37E2,4.11E2,2.36E2,4.82E2,5E0,7.81E2,6.5E1,7.1E1,2.25E2,2.8E2,6.8E1,1.46E2,1.19E2,9.9E1,7.6E1,1.16E2,1.4E1,9E0,1.54E2,2.8E1,2.54E2,2.41E2,1.7E1,3.5E1,2E0,4E0,2E0,4.157E3,2.94E2,1.35E2,7.1E1,1.7E1,2.43E2,1.68E2,2E0,2.34E2,3.81E2,1.01E2,1E0,4E0,7.49E2,3.2E1,5.5E1,1E1,6.8E1,3E0,1.8E1,2.07E2,2.32E2,4.8E1,2.8E1,4E1,2E0,1.44E2,1.14E2,5E0,1.4E1,8.5E1,6.2E1,1.4E1,1.13E2,3E0,9E0,5E0,2E0,7E0,6.6E1,8.8E1,1.7E1,1.1E1,1.92E2,6.2E1,1.89E2,5.2E1,5E0,1.2E1,3E1,5E0,3E0,1E0,1E0,1E0,4.145E3,1.2E1,5E1,2.44E2,7.2E1,6.3E1,3.3E1,3.8E1,9E0,8E0],"tree_param":{"num_deleted":"0","num_feature":"9","num_nodes":"123","size_leaf_vector":"1"}},{"base_weights":[-5.714874E-1,-1.15231125E2,6.2715042E1,-1.4663338E2,-7.511998E1,-1.0591984E0,7.3042114E1,-1.6232411E2,-1.313773E2,-4.3475845E1,-8.850951E1,-2.0619438E1,1.4019951E1,4.7026302E1,7.521606E1,-5.753409E1,-1.5949786E2,-1.556015E2,-1.2453549E2,-8.887185E1,-3.5416725E1,-1.1713624E2,-8.015173E1,-1.9014969E1,-8.5402115E1,1.1993361E1,1.1086431E2,4.2130215E1,1.5486115E2,6.959079E1,7.776799E1,-1.726373E2,-1.528381E2,-1.5268153E2,-8.659995E1,-7.835368E1,-1.2685177E2,-1.504911E2,-6.731524E1,-1.2481829E1,-4.965298E1,-1.267065E2,-8.549305E1,-9.212188E1,-6.702793E1,-1.5014319E1,-1.1167205E2,1.6671425E1,-2.2215078E1,-1.2779517E1,1.3537195E2,4.714678E1,5.6821287E-1,7.646484E1,5.2386353E1,7.5067116E1,5.075383E1,7.813419E1,4.5617638E1,-5.1946968E1,-2.1286102E1,-4.9324696E1,-4.3945076E1,-4.8415794E1,-3.8514538E1,-2.9118824E1,-2.2173615E-1,-4.2102272E1,-3.5740646E1,-8.352429E0,-4.717894E1,-8.339844E0,-3.7225765E1,-8.3976096E-1,-1.7144203E1,-1.710233E1,4.266625E0,-4.1192474E1,-2.5203402E1,-4.7887238E1,-2.2855171E1,-3.6490257E1,-2.4879145E1,2.874568E1,-2.0461601E1,4.6499906E0,-6.0087028E0,-5.4863117E1,-4.302529E0,-3.7392452E-1,9.253445E0,-2.9583876E1,3.1611118E0,4.5296803E1,3.9075441E0,1.1435253E1,2.0157486E1,6.028909E1,-2.9169135E0,2.9712452E1,-2.0762696E0,1.9882391E1,2.7648012E1,-1.3393726E1,1.5909002E1,2.3381992E1,3.1461515E1,5.244943E1,2.892012E0],"categories":[],"categories_nodes":[],"categories_segments":[],"categories_sizes":[],"default_left":[0,0,0,0,0,0,0,0,0,0,0,0,0,0,0,0,0,0,0,0,0,0,0,0,0,0,0,0,0,0,0,0,0,0,0,0,0,0,0,0,0,0,0,0,0,0,0,0,0,0,0,0,0,0,0,0,0,0,0,0,0,0,0,0,0,0,0,0,0,0,0,0,0,0,0,0,0,0,0,0,0,0,0,0,0,0,0,0,0,0,0,0,0,0,0,0,0,0,0,0,0,0,0,0,0,0,0,0,0],"id":9,"left_children":[1,3,5,7,9,11,13,15,17,19,21,23,25,27,29,-1,31,33,35,37,39,41,43,45,-1,47,49,51,53,55,57,59,61,63,-1,65,67,69,71,73,75,77,79,81,83,85,87,89,91,-1,93,95,97,99,-1,101,103,105,107,-1,-1,-1,-1,-1,-1,-1,-1,-1,-1,-1,-1,-1,-1,-1,-1,-1,-1,-1,-1,-1,-1,-1,-1,-1,-1,-1,-1,-1,-1,-1,-1,-1,-1,-1,-1,-1,-1,-1,-1,-1,-1,-1,-1,-1,-1,-1,-1,-1,-1],"loss_changes":[6.3515332E7,3.910056E6,3.714586E6,3.96392E5,5.761965E5,2.3241612E5,2.70992E5,4.0674E4,1.28128E5,1.4648588E5,2.205365E5,1.3990455E5,8.600771E4,1.9251988E5,5.887E4,0E0,4.248E4,3.0527E4,6.4833E4,7.089606E4,1.13331125E5,5.427675E4,1.11174E5,1.2509882E5,0E0,7.030312E4,3.9615703E4,7.544969E4,1.14334375E4,1.413325E5,3.2604E4,1.284E3,1.4982E4,1.94685E4,0E0,5.2203703E4,5.2394E4,8.0803438E3,1.0198719E5,5.822475E4,1.0181506E5,6.22455E4,2.4414375E4,9.51615E4,7.5560875E4,5.065392E4,9.440286E4,9.781173E4,1.336552E5,0E0,1.331925E4,5.5898688E4,8.444681E4,1.00983125E4,0E0,1.57407E5,7.1854375E4,7.594E3,1.7032027E5,0E0,0E0,0E0,0E0,0E0,0E0,0E0,0E0,0E0,0E0,0E0,0E0,0E0,0E0,0E0,0E0,0E0,0E0,0E0,0E0,0E0,0E0,0E0,0E0,0E0,0E0,0E0,0E0,0E0,0E0,0E0,0E0,0E0,0E0,0E0,0E0,0E0,0E0,0E0,0E0,0E0,0E0,0E0,0E0,0E0,0E0,0E0,0E0,0E0,0E0],"parents":[2147483647,0,0,1,1,2,2,3,3,4,4,5,5,6,6,7,7,8,8,9,9,10,10,11,11,12,12,13,13,14,14,16,16,17,17,18,18,19,19,20,20,21,21,22,22,23,23,25,25,26,26,27,27,28,28,29,29,30,30,31,31,32,32,33,33,35,35,36,36,37,37,38,38,39,39,40,40,41,41,42,42,43,43,44,44,45,45,46,46,47,47,48,48,50,50,51,51,52,52,53,53,55,55,56,56,57,57,58,58],"right_children":[2,4,6,8,10,12,14,16,18,20,22,24,26,28,30,-1,32,34,36,38,40,42,44,46,-1,48,50,52,54,56,58,60,62,64,-1,66,68,70,72,74,76,78,80,82,84,86,88,90,92,-1,94,96,98,100,-1,102,104,106,108,-1,-1,-1,-1,-1,-1,-1,-1,-1,-1,-1,-1,-1,-1,-1,-1,-1,-1,-1,-1,-1,-1,-1,-1,-1,-1,-1,-1,-1,-1,-1,-1,-1,-1,-1,-1,-1,-1,-1,-1,-1,-1,-1,-1,-1,-1,-1,-1,-1,-1],"split_conditions":[8.76331E0,6.6058183E0,1.01783085E1,5.070283E0,-3.6071234E0,9.373963E0,1.0861716E1,3.2401893E0,8E1,8.2E1,9.96E2,-4.1905543E-1,1.035E3,1.021E3,5.1939044E0,-5.753409E1,8.9E0,3.6903417E0,9.230778E-2,-3.703782E0,-3.6954856E0,9.310791E0,8.3E1,1.690636E-1,-8.5402115E1,3.0084122E2,-3.68625E0,-1.6351887E0,-3.0206819E0,2.6199963E2,2.2227325E1,1.9206642E-1,8.782195E0,1.015E3,-8.659995E1,9.615985E0,9.191306E0,8.603027E-2,1.16E1,2.8391495E2,9.451455E0,7.847768E0,1.3132806E2,8.975547E0,-7.381319E-2,7.6E0,1.24E1,1.003E3,3.171438E2,-1.2779517E1,-3.4791226E0,8.8E1,6.986935E0,-3.2162938E0,5.2386353E1,2.3692462E2,6.1E0,1.3640018E-1,2.4802374E2,-5.1946968E1,-2.1286102E1,-4.9324696E1,-4.3945076E1,-4.8415794E1,-3.8514538E1,-2.9118824E1,-2.2173615E-1,-4.2102272E1,-3.5740646E1,-8.352429E0,-4.717894E1,-8.339844E0,-3.7225765E1,-8.3976096E-1,-1.7144203E1,-1.710233E1,4.266625E0,-4.1192474E1,-2.5203402E1,-4.7887238E1,-2.2855171E1,-3.6490257E1,-2.4879145E1,2.874568E1,-2.0461601E1,4.6499906E0,-6.0087028E0,-5.4863117E1,-4.302529E0,-3.7392452E-1,9.253445E0,-2.9583876E1,3.1611118E0,4.5296803E1,3.9075441E0,1.1435253E1,2.0157486E1,6.028909E1,-2.9169135E0,2.9712452E1,-2.0762696E0,1.9882391E1,2.7648012E1,-1.3393726E1,1.5909002E1,2.3381992E1,3.1461515E1,5.244943E1,2.892012E0],"split_indices":[1,1,1,1,0,1,1,1,3,3,4,0,4,4,0,0,5,0,6,0,0,7,3,6,0,2,0,0,0,2,1,6,7,4,0,7,7,6,5,2,7,1,2,7,8,5,5,4,2,0,0,3,7,0,0,2,5,6,2,0,0,0,0,0,0,0,0,0,0,0,0,0,0,0,0,0,0,0,0,0,0,0,0,0,0,0,0,0,0,0,0,0,0,0,0,0,0,0,0,0,0,0,0,0,0,0,0,0,0],"split_type":[0,0,0,0,0,0,0,0,0,0,0,0,0,0,0,0,0,0,0,0,0,0,0,0,0,0,0,0,0,0,0,0,0,0,0,0,0,0,0,0,0,0,0,0,0,0,0,0,0,0,0,0,0,0,0,0,0,0,0,0,0,0,0,0,0,0,0,0,0,0,0,0,0,0,0,0,0,0,0,0,0,0,0,0,0,0,0,0,0,0,0,0,0,0,0,0,0,0,0,0,0,0,0,0,0,0,0,0,0],"sum_hessian":[8.751E3,3.112E3,5.639E3,1.744E3,1.368E3,7.86E2,4.853E3,8.55E2,8.89E2,4.08E2,9.6E2,3.42E2,4.44E2,3.76E2,4.477E3,6.9E1,7.86E2,1.91E2,6.98E2,6E1,3.48E2,2.14E2,7.46E2,3.41E2,1E0,4.36E2,8E0,3.61E2,1.5E1,1.406E3,3.071E3,2.56E2,5.3E2,1.89E2,2E0,3.5E1,6.63E2,1.4E1,4.6E1,1.34E2,2.14E2,1.62E2,5.2E1,3.87E2,3.59E2,3.28E2,1.3E1,3.84E2,5.2E1,1E0,7E0,3.22E2,3.9E1,4E0,1.1E1,1.087E3,3.19E2,3.035E3,3.6E1,2.54E2,2E0,1.79E2,3.51E2,1.35E2,5.4E1,2.8E1,7E0,2.35E2,4.28E2,1E0,1.3E1,2.8E1,1.8E1,1.11E2,2.3E1,1.92E2,2.2E1,1.28E2,3.4E1,4E0,4.8E1,8.9E1,2.98E2,2E0,3.57E2,4.6E1,2.82E2,7E0,6E0,1.7E2,2.14E2,1.5E1,3.7E1,6E0,1E0,2.24E2,9.8E1,1E0,3.8E1,3E0,1E0,7.21E2,3.66E2,7E0,3.12E2,3.017E3,1.8E1,7E0,2.9E1],"tree_param":{"num_deleted":"0","num_feature":"9","num_nodes":"109","size_leaf_vector":"1"}},{"base_weights":[-4.713564E-1,-8.0927414E1,4.3936474E1,-9.979841E1,-4.7723E1,-9.0280443E-1,5.119741E1,-1.1222752E2,-8.7230965E1,-5.9584003E1,-3.339233E1,-3.8520414E-2,-6.8026855E1,3.8424984E1,5.3492817E1,-1.0535367E2,-1.20926025E2,-2.1334645E2,-8.598756E1,-7.114683E1,-4.4558594E1,-5.4703857E1,-2.1343773E1,-1.6057043E1,1.033834E1,3.561006E1,1.2499603E2,-7.0982533E0,5.374609E1,-1.0626841E2,-3.7238567E1,-9.903326E1,-1.2467337E2,-7.612178E1,-2.9826193E1,3.71521E1,-8.69088E1,-6.4649025E1,-1.1940129E2,2.9460255E1,-4.598506E1,5.9853638E1,-5.821853E1,-4.9734974E1,-1.2358658E1,-9.850522E0,-5.1328014E1,5.3907658E1,7.3976746E0,1.6750263E1,4.4752663E1,1.3123497E2,-1.8391114E0,1.09062195E2,-9.093328E1,4.0643536E1,5.4306713E1,-3.2137714E1,-1.4649883E1,-1.3384738E1,3.2668855E0,-3.0456673E1,-1.0148685E1,-4.200376E1,-3.6395805E1,-4.8661194E0,1.4128182E1,-2.7987303E1,-2.077552E1,-2.7641884E1,-1.6023005E1,-3.7701176E1,1.8765125E1,-9.392183E0,-1.9103794E1,4.165933E1,-4.310358E0,-1.3826858E1,-2.592383E1,1.7742075E-1,-1.7627245E1,-1.8151104E1,-4.8001835E-1,-1.6368382E1,-1.100314E0,-2.8460393E0,-1.9744944E1,2.2952564E1,-9.384658E0,2.3893642E1,1.6190476E0,3.4465137E0,2.5250841E1,1.6554232E1,5.9025393E0,1.7715792E1,4.319844E1,3.8966286E1,9.317187E0,-3.5631218E1,6.867041E0,1.7315058E1,6.869727E0,1.6404385E1,1.1378649E1],"categories":[],"categories_nodes":[],"categories_segments":[],"categories_sizes":[],"default_left":[0,0,0,0,0,0,0,0,0,0,0,0,0,0,0,0,0,0,0,0,0,0,0,0,0,0,0,0,0,0,0,0,0,0,0,0,0,0,0,0,0,0,0,0,0,0,0,0,0,0,0,0,0,0,0,0,0,0,0,0,0,0,0,0,0,0,0,0,0,0,0,0,0,0,0,0,0,0,0,0,0,0,0,0,0,0,0,0,0,0,0,0,0,0,0,0,0,0,0,0,0,0,0,0,0],"id":10,"left_children":[1,3,5,7,9,11,13,15,17,19,21,23,-1,25,27,29,31,33,35,37,39,41,43,45,47,49,51,53,55,57,59,61,63,-1,-1,65,67,69,71,-1,73,75,77,79,81,83,85,87,89,91,93,95,-1,97,99,101,103,-1,-1,-1,-1,-1,-1,-1,-1,-1,-1,-1,-1,-1,-1,-1,-1,-1,-1,-1,-1,-1,-1,-1,-1,-1,-1,-1,-1,-1,-1,-1,-1,-1,-1,-1,-1,-1,-1,-1,-1,-1,-1,-1,-1,-1,-1,-1,-1],"loss_changes":[3.1273392E7,1.945844E6,1.836289E6,3.00116E5,1.9008325E5,1.5361483E5,1.40253E5,4.6693E4,1.37057E5,1.0402525E5,1.3081381E5,1.3065026E5,0E0,1.7661112E5,6.3485E4,3.11225E4,2.30945E4,1.6189125E4,1.14741E5,1.01082E5,5.9702688E4,7.797156E4,8.3567734E4,6.71376E4,6.071577E4,1.2357075E5,1.9620594E4,1.8520705E5,2.7872E4,2.20965E4,3.6813213E3,7.6014375E3,1.7925E3,0E0,0E0,5.0088496E3,1.03526E5,9.024075E4,5.3489062E4,0E0,6.7869E4,3.7180977E4,5.75715E4,3.590628E4,1.3043234E5,7.277952E4,2.7261492E4,6.0154336E4,6.433168E4,8.3109266E4,1.2574731E5,1.17594375E4,0E0,8.961914E3,3.757275E4,5.0786844E4,2.1999E4,0E0,0E0,0E0,0E0,0E0,0E0,0E0,0E0,0E0,0E0,0E0,0E0,0E0,0E0,0E0,0E0,0E0,0E0,0E0,0E0,0E0,0E0,0E0,0E0,0E0,0E0,0E0,0E0,0E0,0E0,0E0,0E0,0E0,0E0,0E0,0E0,0E0,0E0,0E0,0E0,0E0,0E0,0E0,0E0,0E0,0E0,0E0,0E0],"parents":[2147483647,0,0,1,1,2,2,3,3,4,4,5,5,6,6,7,7,8,8,9,9,10,10,11,11,13,13,14,14,15,15,16,16,17,17,18,18,19,19,20,20,21,21,22,22,23,23,24,24,25,25,26,26,27,27,28,28,29,29,30,30,31,31,32,32,35,35,36,36,37,37,38,38,40,40,41,41,42,42,43,43,44,44,45,45,46,46,47,47,48,48,49,49,50,50,51,51,53,53,54,54,55,55,56,56],"right_children":[2,4,6,8,10,12,14,16,18,20,22,24,-1,26,28,30,32,34,36,38,40,42,44,46,48,50,52,54,56,58,60,62,64,-1,-1,66,68,70,72,-1,74,76,78,80,82,84,86,88,90,92,94,96,-1,98,100,102,104,-1,-1,-1,-1,-1,-1,-1,-1,-1,-1,-1,-1,-1,-1,-1,-1,-1,-1,-1,-1,-1,-1,-1,-1,-1,-1,-1,-1,-1,-1,-1,-1,-1,-1,-1,-1,-1,-1,-1,-1,-1,-1,-1,-1,-1,-1,-1,-1],"split_conditions":[8.76331E0,6.975155E0,1.01783085E1,5.3512216E0,7.899761E0,1.3818946E-1,-4.615836E-2,-3.435161E0,6.861314E0,9.299508E0,1.0609866E-1,9.320533E0,-6.8026855E1,1.029E3,1.1299223E1,9.3E1,9.91E2,8.3E1,8.9513615E-2,-3.3508954E0,-3.6592286E0,7.7E1,9.98E2,1.3286914E-1,-3.8808248E0,9.97E2,1.3131513E-1,9.897577E-2,8.427665E1,1.77E1,3.4776157E2,5.136347E0,5.5E0,-7.612178E1,-2.9826193E1,5.7665453E0,-3.3784146E0,1.04976624E-1,-3.270496E0,2.9460255E1,1.07E1,8.7497994E-2,1.41E1,9.5E0,6.9E0,8.6667925E-2,1.3803377E2,2.4825586E2,8.3308674E-2,9.3E1,2.6112686E2,-3.0206819E0,-1.8391114E0,2.78863E2,8.3E1,3.8503403E1,1.2828621E-1,-3.2137714E1,-1.4649883E1,-1.3384738E1,3.2668855E0,-3.0456673E1,-1.0148685E1,-4.200376E1,-3.6395805E1,-4.8661194E0,1.4128182E1,-2.7987303E1,-2.077552E1,-2.7641884E1,-1.6023005E1,-3.7701176E1,1.8765125E1,-9.392183E0,-1.9103794E1,4.165933E1,-4.310358E0,-1.3826858E1,-2.592383E1,1.7742075E-1,-1.7627245E1,-1.8151104E1,-4.8001835E-1,-1.6368382E1,-1.100314E0,-2.8460393E0,-1.9744944E1,2.2952564E1,-9.384658E0,2.3893642E1,1.6190476E0,3.4465137E0,2.5250841E1,1.6554232E1,5.9025393E0,1.7715792E1,4.319844E1,3.8966286E1,9.317187E0,-3.5631218E1,6.867041E0,1.7315058E1,6.869727E0,1.6404385E1,1.1378649E1],"split_indices":[1,1,1,1,1,0,0,0,7,7,6,1,0,4,1,3,4,3,6,0,0,3,4,6,0,4,6,6,2,5,2,1,5,0,0,1,0,6,0,0,5,6,5,5,5,6,2,2,6,3,2,0,0,2,3,2,6,0,0,0,0,0,0,0,0,0,0,0,0,0,0,0,0,0,0,0,0,0,0,0,0,0,0,0,0,0,0,0,0,0,0,0,0,0,0,0,0,0,0,0,0,0,0,0,0],"split_type":[0,0,0,0,0,0,0,0,0,0,0,0,0,0,0,0,0,0,0,0,0,0,0,0,0,0,0,0,0,0,0,0,0,0,0,0,0,0,0,0,0,0,0,0,0,0,0,0,0,0,0,0,0,0,0,0,0,0,0,0,0,0,0,0,0,0,0,0,0,0,0,0,0,0,0,0,0,0,0,0,0,0,0,0,0,0,0,0,0,0,0,0,0,0,0,0,0,0,0,0,0,0,0,0,0],"sum_hessian":[8.751E3,3.112E3,5.639E3,1.983E3,1.129E3,7.86E2,4.853E3,9.93E2,9.9E2,6.16E2,5.13E2,7.84E2,2E0,7.42E2,4.111E3,5.62E2,4.31E2,8E0,9.82E2,3.46E2,2.7E2,1.84E2,3.29E2,3.08E2,4.76E2,7.2E2,2.2E1,1.7E1,4.094E3,5.54E2,8E0,6.7E1,3.64E2,5E0,3E0,7E0,9.75E2,3.07E2,3.9E1,2E0,2.68E2,5E0,1.79E2,7.8E1,2.51E2,2.63E2,4.5E1,2.9E1,4.47E2,2.36E2,4.84E2,2.1E1,1E0,7E0,1E1,1.71E2,3.923E3,5.45E2,9E0,7E0,1E0,6.4E1,3E0,5.8E1,3.06E2,1E0,6E0,7.13E2,2.62E2,8.7E1,2.2E2,3.8E1,1E0,1.48E2,1.2E2,2E0,3E0,1.27E2,5.2E1,1.2E1,6.6E1,4.5E1,2.06E2,3.1E1,2.32E2,1.2E1,3.3E1,2.3E1,6E0,1.1E1,4.36E2,2.2E2,1.6E1,3.41E2,1.43E2,4E0,1.7E1,5E0,2E0,8E0,2E0,8.6E1,8.5E1,3.833E3,9E1],"tree_param":{"num_deleted":"0","num_feature":"9","num_nodes":"105","size_leaf_vector":"1"}},{"base_weights":[-3.651842E-1,-5.7873768E1,3.0298065E1,-7.486475E1,-4.1209503E1,-3.0318942E0,3.5627953E1,-8.188093E1,-6.7413216E1,-5.3012245E1,-3.0930506E1,-1.7621441E0,-1.1274002E2,2.1369877E1,3.703689E1,-7.8824036E1,-9.569841E1,-7.359222E1,-5.1158524E1,-8.5512596E1,-4.8075577E1,-3.9791348E1,-1.791639E1,-2.0911724E1,4.354465E0,-3.86563E1,-4.928272E1,5.4788895E1,1.9862164E1,3.6879356E1,1.2044757E2,-8.602507E1,-7.08033E1,-9.668858E1,5.5476017E0,-8.248832E1,-6.421335E1,-3.543928E1,-7.7033104E1,-1.6490047E2,-7.912805E1,-1.1674311E2,-4.5604443E1,-4.0839085E1,2.9315607E1,-1.2078599E1,-5.106698E1,1.0449716E2,-2.6309301E1,2.6607E1,-7.7682805E0,-1.6025953E1,-3.3021975E0,-2.3940115E1,2.4400402E1,3.70678E1,-9.225792E0,4.066419E1,2.212427E0,-2.5881544E1,-6.90152E-1,-2.2807735E1,-1.666385E1,-3.4739845E1,-2.6375284E1,-2.5868206E1,-1.724695E1,-2.6592543E1,-1.6822552E1,-2.2366966E1,-3.9391038E0,-2.3667753E1,9.642206E0,-1.2327888E1,-5.4433014E1,-2.6576485E1,-3.5492709E0,-3.8191162E1,1.4170789E1,-1.7025552E0,-1.4880476E1,-1.7032524E1,-9.7490425E0,7.3132343E0,-5.7958446E0,-2.6595087E1,-6.2383733E0,-7.450635E0,3.7956352E1,-5.0134554E0,-3.233059E1,2.333601E0,1.8473366E1,-1.5586857E1,-9.143456E-1,-1.3358439E1,1.3918302E1,-5.5763755E0,8.568628E0,1.0369099E1,1.1812157E1,-1.544286E1,1.6590912E1],"categories":[],"categories_nodes":[],"categories_segments":[],"categories_sizes":[],"default_left":[0,0,0,0,0,0,0,0,0,0,0,0,0,0,0,0,0,0,0,0,0,0,0,0,0,0,0,0,0,0,0,0,0,0,0,0,0,0,0,0,0,0,0,0,0,0,0,0,0,0,0,0,0,0,0,0,0,0,0,0,0,0,0,0,0,0,0,0,0,0,0,0,0,0,0,0,0,0,0,0,0,0,0,0,0,0,0,0,0,0,0,0,0,0,0,0,0,0,0,0,0,0,0],"id":11,"left_children":[1,3,5,7,9,11,13,15,17,19,21,23,25,27,29,31,33,35,37,39,41,43,45,47,49,51,-1,-1,53,55,57,59,61,63,-1,65,67,69,71,73,75,77,79,81,-1,83,85,87,89,91,93,-1,-1,95,97,99,101,-1,-1,-1,-1,-1,-1,-1,-1,-1,-1,-1,-1,-1,-1,-1,-1,-1,-1,-1,-1,-1,-1,-1,-1,-1,-1,-1,-1,-1,-1,-1,-1,-1,-1,-1,-1,-1,-1,-1,-1,-1,-1,-1,-1,-1,-1],"loss_changes":[1.5435031E7,8.588E5,1.0142825E6,7.3216E4,1.8507225E5,1.0957123E5,9.80855E4,2.50225E4,7.01575E4,1.10606125E5,9.442275E4,9.1452836E4,2.8011336E4,1.0456694E5,5.4398E4,3.070075E4,1.7052125E4,3.900725E4,8.1056125E4,3.4089312E4,1.00390875E5,7.458731E4,6.4407984E4,1.3068418E5,1.599057E5,1.4529746E3,0E0,0E0,8.8447234E4,3.9186E4,1.265932E4,6.63925E3,2.023875E4,1.2280375E4,0E0,2.018625E4,4.7314625E4,1.1246745E5,1.81665E4,4.8327812E3,5.497675E4,4.2379875E4,9.5959E4,6.2897938E4,0E0,7.623147E4,5.50434E4,2.5929594E4,1.404919E5,1.3713564E5,7.993918E4,0E0,0E0,6.2883812E4,7.227144E4,2.4354E4,5.464781E4,0E0,0E0,0E0,0E0,0E0,0E0,0E0,0E0,0E0,0E0,0E0,0E0,0E0,0E0,0E0,0E0,0E0,0E0,0E0,0E0,0E0,0E0,0E0,0E0,0E0,0E0,0E0,0E0,0E0,0E0,0E0,0E0,0E0,0E0,0E0,0E0,0E0,0E0,0E0,0E0,0E0,0E0,0E0,0E0,0E0,0E0],"parents":[2147483647,0,0,1,1,2,2,3,3,4,4,5,5,6,6,7,7,8,8,9,9,10,10,11,11,12,12,13,13,14,14,15,15,16,16,17,17,18,18,19,19,20,20,21,21,22,22,23,23,24,24,25,25,28,28,29,29,30,30,31,31,32,32,33,33,35,35,36,36,37,37,38,38,39,39,40,40,41,41,42,42,43,43,45,45,46,46,47,47,48,48,49,49,50,50,53,53,54,54,55,55,56,56],"right_children":[2,4,6,8,10,12,14,16,18,20,22,24,26,28,30,32,34,36,38,40,42,44,46,48,50,52,-1,-1,54,56,58,60,62,64,-1,66,68,70,72,74,76,78,80,82,-1,84,86,88,90,92,94,-1,-1,96,98,100,102,-1,-1,-1,-1,-1,-1,-1,-1,-1,-1,-1,-1,-1,-1,-1,-1,-1,-1,-1,-1,-1,-1,-1,-1,-1,-1,-1,-1,-1,-1,-1,-1,-1,-1,-1,-1,-1,-1,-1,-1,-1,-1,-1,-1,-1,-1],"split_conditions":[8.640211E0,6.229753E0,1.0052952E1,9.363949E0,7.3260984E0,-1.8415742E0,1.0861716E1,3.0084122E2,1.018E3,5.9E0,1.015E3,9.112204E-2,7E0,4.4E0,7.671187E0,4.880359E0,1.77E1,8.6E1,2.9948828E2,-3.4835181E0,8.473999E0,-3.3202379E0,2.894246E2,8.3308674E-2,1.1001331E-1,-4.1905543E-1,-4.928272E1,5.4788895E1,6.6E0,1.690636E-1,2.2280585E2,2.966161E2,-3.4180486E0,3.1592038E2,5.5476017E0,1.27E1,4.3458366E0,1.4692628E2,1.77E1,6.281451E0,7.1891475E0,3.4776157E2,6.3228793E0,8.9623575E0,2.9315607E1,-3.6954856E0,8.931666E0,8.1E1,1.65E1,1.013E3,9.86E2,-1.6025953E1,-3.3021975E0,1.1125214E-1,9.82E2,8.5E1,1.2154438E1,4.066419E1,2.212427E0,-2.5881544E1,-6.90152E-1,-2.2807735E1,-1.666385E1,-3.4739845E1,-2.6375284E1,-2.5868206E1,-1.724695E1,-2.6592543E1,-1.6822552E1,-2.2366966E1,-3.9391038E0,-2.3667753E1,9.642206E0,-1.2327888E1,-5.4433014E1,-2.6576485E1,-3.5492709E0,-3.8191162E1,1.4170789E1,-1.7025552E0,-1.4880476E1,-1.7032524E1,-9.7490425E0,7.3132343E0,-5.7958446E0,-2.6595087E1,-6.2383733E0,-7.450635E0,3.7956352E1,-5.0134554E0,-3.233059E1,2.333601E0,1.8473366E1,-1.5586857E1,-9.143456E-1,-1.3358439E1,1.3918302E1,-5.5763755E0,8.568628E0,1.0369099E1,1.1812157E1,-1.544286E1,1.6590912E1],"split_indices":[1,1,1,7,1,0,1,2,4,5,4,6,5,5,7,1,5,3,2,0,7,0,2,6,6,0,0,0,5,6,2,2,0,2,0,5,1,2,5,1,1,2,1,7,0,0,7,3,5,4,4,0,0,6,4,3,1,0,0,0,0,0,0,0,0,0,0,0,0,0,0,0,0,0,0,0,0,0,0,0,0,0,0,0,0,0,0,0,0,0,0,0,0,0,0,0,0,0,0,0,0,0,0],"split_type":[0,0,0,0,0,0,0,0,0,0,0,0,0,0,0,0,0,0,0,0,0,0,0,0,0,0,0,0,0,0,0,0,0,0,0,0,0,0,0,0,0,0,0,0,0,0,0,0,0,0,0,0,0,0,0,0,0,0,0,0,0,0,0,0,0,0,0,0,0,0,0,0,0,0,0,0,0,0,0,0,0,0,0,0,0,0,0,0,0,0,0,0,0,0,0,0,0,0,0,0,0,0,0],"sum_hessian":[8.751E3,3.043E3,5.708E3,1.505E3,1.538E3,7.87E2,4.921E3,7.7E2,7.35E2,7.14E2,8.24E2,7.79E2,8E0,4.44E2,4.477E3,6.36E2,1.34E2,5.3E2,2.05E2,9.2E1,6.22E2,4.89E2,3.35E2,1.88E2,5.91E2,4E0,4E0,3E0,4.41E2,4.47E3,7E0,3.3E2,3.06E2,1.33E2,1E0,2.68E2,2.62E2,1.29E2,7.6E1,5E0,8.7E1,2E1,6.02E2,4.86E2,3E0,2.86E2,4.9E1,7E0,1.81E2,2.08E2,3.83E2,2E0,2E0,4.1E1,4E2,4.452E3,1.8E1,6E0,1E0,3.29E2,1E0,2.25E2,8.1E1,3.8E1,9.5E1,2.31E2,3.7E1,6.3E1,1.99E2,4.6E1,8.3E1,7.5E1,1E0,1E0,4E0,7.6E1,1.1E1,1.9E1,1E0,5.5E1,5.47E2,1.65E2,3.21E2,4.7E1,2.39E2,2.1E1,2.8E1,1E0,6E0,1.63E2,1.8E1,1.36E2,7.2E1,3.6E1,3.47E2,3.2E1,9E0,3.5E1,3.65E2,2.142E3,2.31E3,1.1E1,7E0],"tree_param":{"num_deleted":"0","num_feature":"9","num_nodes":"103","size_leaf_vector":"1"}},{"base_weights":[-2.9689088E-1,-3.7244747E1,2.3408833E1,-4.934994E1,-2.051739E1,9.565969E0,2.5922482E1,-5.769646E1,-4.419752E1,-1.4513993E1,-3.292931E1,-1.2515625E2,1.0378754E1,-2.617897E1,2.6113718E1,-7.713392E1,-5.5625923E1,-5.968116E1,-4.021065E1,-2.8965738E0,-2.4752422E1,-5.057456E1,-2.4771608E1,-5.183533E1,9.803467E0,9.947596E1,9.151433E0,-6.570763E0,-2.1577354E1,2.1114462E1,2.7445318E1,-6.6655807E0,-2.3282337E1,-5.3819775E1,-7.072536E1,-4.7204235E1,-5.7857895E1,-6.32464E1,-3.7439404E1,-7.884797E1,-6.6624796E-1,-7.0031767E0,-3.781667E1,-1.5405978E2,-4.429987E1,-1.9986181E1,-5.800921E1,-7.0140386E0,1.1409959E2,7.8896966E0,8.005622E1,-3.0967773E1,1.8764927E1,-5.0086136E1,2.1687342E1,5.70103E1,2.682503E1,-1.6672974E1,-1.1726165E1,-2.5281067E1,-1.6677647E1,-1.8852331E1,-1.1242376E1,-2.339756E1,-1.1001249E1,-9.725028E0,-1.610729E1,-4.3494747E1,-1.3352809E1,1.0144531E1,-1.0008941E0,-5.014121E0,1.5170599E1,-3.0811712E1,-9.36365E0,-5.368703E1,3.0328493E0,-1.0234648E1,-2.2886444E1,-1.1514614E1,-1.9211775E0,-2.1109924E1,1.2769337E1,3.7997315E0,3.7188812E1,4.2461353E1,2.1611636E0,-1.0968311E1,2.755175E1,-1.52961035E1,3.8160646E0,-6.67251E0,8.791895E0,1.3359752E0,7.8347015E0,3.8738317E0,1.9952354E1,3.8423204E0,8.290842E0],"categories":[],"categories_nodes":[],"categories_segments":[],"categories_sizes":[],"default_left":[0,0,0,0,0,0,0,0,0,0,0,0,0,0,0,0,0,0,0,0,0,0,0,0,0,0,0,0,0,0,0,0,0,0,0,0,0,0,0,0,0,0,0,0,0,0,0,0,0,0,0,0,0,0,0,0,0,0,0,0,0,0,0,0,0,0,0,0,0,0,0,0,0,0,0,0,0,0,0,0,0,0,0,0,0,0,0,0,0,0,0,0,0,0,0,0,0,0,0],"id":12,"left_children":[1,3,5,7,9,11,13,15,17,19,21,23,25,27,29,31,33,35,37,39,41,43,45,-1,-1,47,49,51,-1,53,55,-1,-1,57,59,-1,61,63,65,67,69,71,73,75,77,79,81,-1,83,85,87,89,91,-1,93,95,97,-1,-1,-1,-1,-1,-1,-1,-1,-1,-1,-1,-1,-1,-1,-1,-1,-1,-1,-1,-1,-1,-1,-1,-1,-1,-1,-1,-1,-1,-1,-1,-1,-1,-1,-1,-1,-1,-1,-1,-1,-1,-1],"loss_changes":[7.666536E6,6.916985E5,1.85285E5,8.27715E4,1.0667269E5,9.119859E4,4.564E4,2.6055E4,7.359125E4,1.1542303E5,6.611328E4,4.3233125E4,8.8429305E4,1.4776195E4,2.935025E4,9.725E1,1.487475E4,3.5414E4,6.0321E4,7.7192195E4,1.193855E5,8.862781E4,5.0056688E4,0E0,0E0,2.2430273E4,7.1565125E4,8.6166045E3,0E0,1.0597428E5,6.35185E4,0E0,0E0,1.3771E4,9.663625E3,0E0,2.2733875E4,3.7894375E4,7.00085E4,2.30695E4,4.0990766E4,1.2383723E5,1.24076625E5,3.4507703E4,4.3006688E4,7.046384E4,5.2707453E4,0E0,8.434461E3,7.17571E4,2.2595062E4,6.770767E3,3.6776895E3,0E0,7.223334E4,2.9296125E4,3.91665E4,0E0,0E0,0E0,0E0,0E0,0E0,0E0,0E0,0E0,0E0,0E0,0E0,0E0,0E0,0E0,0E0,0E0,0E0,0E0,0E0,0E0,0E0,0E0,0E0,0E0,0E0,0E0,0E0,0E0,0E0,0E0,0E0,0E0,0E0,0E0,0E0,0E0,0E0,0E0,0E0,0E0,0E0],"parents":[2147483647,0,0,1,1,2,2,3,3,4,4,5,5,6,6,7,7,8,8,9,9,10,10,11,11,12,12,13,13,14,14,15,15,16,16,17,17,18,18,19,19,20,20,21,21,22,22,25,25,26,26,27,27,29,29,30,30,33,33,34,34,36,36,37,37,38,38,39,39,40,40,41,41,42,42,43,43,44,44,45,45,46,46,48,48,49,49,50,50,51,51,52,52,54,54,55,55,56,56],"right_children":[2,4,6,8,10,12,14,16,18,20,22,24,26,28,30,32,34,36,38,40,42,44,46,-1,-1,48,50,52,-1,54,56,-1,-1,58,60,-1,62,64,66,68,70,72,74,76,78,80,82,-1,84,86,88,90,92,-1,94,96,98,-1,-1,-1,-1,-1,-1,-1,-1,-1,-1,-1,-1,-1,-1,-1,-1,-1,-1,-1,-1,-1,-1,-1,-1,-1,-1,-1,-1,-1,-1,-1,-1,-1,-1,-1,-1,-1,-1,-1,-1,-1,-1],"split_conditions":[9.320533E0,6.975155E0,1.0793224E1,4.880359E0,-3.5249999E0,6.3758683E0,-2.820374E0,3.2401893E0,8E1,1.13E1,9.99E2,2.6773087E2,8.2403E-2,2.517479E2,9.97E2,7.5770054E0,4.738982E0,6.861314E0,6.4435745E1,4.9E0,2.0292064E2,8.377925E0,1.67E1,-5.183533E1,9.803467E0,-3.2162938E0,1.035E3,1.41E1,-2.1577354E1,3.3145099E0,-1.6351887E0,-6.6655807E0,-2.3282337E1,4.5832953E0,4.8068705E0,-4.7204235E1,8.5E0,9.323874E0,2.9467432E2,8.765754E0,-3.7950273E0,1.846091E2,2.1798485E2,-3.2162938E0,2.438354E2,7.2E0,9.750565E0,-7.0140386E0,2.2453085E2,4.4E0,-3.68625E0,2.4343092E2,7.5615495E-2,-5.0086136E1,1.3924683E0,1.7901837E2,9.325586E1,-1.6672974E1,-1.1726165E1,-2.5281067E1,-1.6677647E1,-1.8852331E1,-1.1242376E1,-2.339756E1,-1.1001249E1,-9.725028E0,-1.610729E1,-4.3494747E1,-1.3352809E1,1.0144531E1,-1.0008941E0,-5.014121E0,1.5170599E1,-3.0811712E1,-9.36365E0,-5.368703E1,3.0328493E0,-1.0234648E1,-2.2886444E1,-1.1514614E1,-1.9211775E0,-2.1109924E1,1.2769337E1,3.7997315E0,3.7188812E1,4.2461353E1,2.1611636E0,-1.0968311E1,2.755175E1,-1.52961035E1,3.8160646E0,-6.67251E0,8.791895E0,1.3359752E0,7.8347015E0,3.8738317E0,1.9952354E1,3.8423204E0,8.290842E0],"split_indices":[1,1,1,1,0,7,0,1,3,5,4,2,6,2,4,7,1,7,2,5,2,7,5,0,0,0,4,5,0,7,0,0,0,1,1,0,5,7,2,7,0,2,2,0,2,5,7,0,2,5,0,2,6,0,0,2,2,0,0,0,0,0,0,0,0,0,0,0,0,0,0,0,0,0,0,0,0,0,0,0,0,0,0,0,0,0,0,0,0,0,0,0,0,0,0,0,0,0,0],"split_type":[0,0,0,0,0,0,0,0,0,0,0,0,0,0,0,0,0,0,0,0,0,0,0,0,0,0,0,0,0,0,0,0,0,0,0,0,0,0,0,0,0,0,0,0,0,0,0,0,0,0,0,0,0,0,0,0,0,0,0,0,0,0,0,0,0,0,0,0,0,0,0,0,0,0,0,0,0,0,0,0,0,0,0,0,0,0,0,0,0,0,0,0,0,0,0,0,0,0,0],"sum_hessian":[8.751E3,3.42E3,5.331E3,1.983E3,1.437E3,8.2E2,4.511E3,7.53E2,1.23E3,9.7E2,4.67E2,4E0,8.16E2,1.6E1,4.495E3,6.9E1,6.84E2,2.49E2,9.81E2,4.55E2,5.15E2,1.46E2,3.21E2,3E0,1E0,1E1,8.06E2,1.2E1,4E0,9.49E2,3.546E3,1E0,6.8E1,6.15E2,6.9E1,3E0,2.46E2,1.03E2,8.78E2,1.2E1,4.43E2,2.19E2,2.96E2,7E0,1.39E2,2.82E2,3.9E1,1E0,9E0,7.93E2,1.3E1,6E0,6E0,2E0,9.47E2,7.1E1,3.475E3,5.47E2,6.8E1,3.4E1,3.5E1,1.96E2,5E1,6.5E1,3.8E1,6.73E2,2.05E2,3E0,9E0,3.1E1,4.12E2,1.88E2,3.1E1,2.6E1,2.7E2,6E0,1E0,1.07E2,3.2E1,1.19E2,1.63E2,3.5E1,4E0,1E0,8E0,3E0,7.9E2,1E0,1.2E1,4E0,2E0,1E0,5E0,1.94E2,7.53E2,1.3E1,5.8E1,1.91E2,3.284E3],"tree_param":{"num_deleted":"0","num_feature":"9","num_nodes":"99","size_leaf_vector":"1"}},{"base_weights":[-2.540023E-1,-2.569574E1,1.6883951E1,-3.6397186E1,-1.5582187E1,-1.0250206E1,1.7350317E1,-8.365733E1,-3.570368E1,-7.6464264E1,-1.4584336E1,3.720883E1,-3.2644665E1,1.856953E1,8.667541E0,-6.463071E1,-1.6263281E2,-4.0248123E1,-2.9325644E1,-3.1022959E1,-1.0251045E2,-4.5318556E0,-1.9786232E1,-1.4972303E1,1.123798E2,-1.2300631E2,-8.004948E0,3.095672E1,1.847147E1,-4.5556498E0,1.7669964E1,-1.7222061E1,-7.157536E1,-5.5963776E1,-1.3634034E1,-5.104986E1,-3.7265423E1,-3.463223E1,-1.7445494E1,6.4128213E0,-5.867892E1,-1.1664616E2,7.0501304E0,3.352192E0,-2.2946283E1,-9.2559654E1,-1.8829788E1,8.061386E0,-3.9848366E1,5.821216E0,1.1906814E2,-1.661141E1,-1.874267E2,-5.3795612E1,6.6659193E0,1.374107E1,2.0177582E1,-9.759689E1,4.1003118E0,1.8963627E1,-3.1833202E1,-4.1562197E-1,-6.6117435E0,-5.632306E0,-2.2073082E1,-1.3755603E1,-2.122486E1,-9.421478E0,-1.3896265E1,-9.195534E0,-1.4216135E1,-1.0282819E1,-9.099743E-2,-2.3855493E0,1.1735413E1,-7.8060427E0,-2.3000391E1,-3.6653618E1,-5.0486393E0,9.621533E0,-6.448975E0,4.0974504E-1,1.2773017E2,-1.9218773E1,-4.241778E0,-9.489323E0,-4.2575485E1,-5.8764963E0,2.4156885E1,1.1598726E1,-1.4815223E1,1.788085E1,4.3360085E1,-1.7595337E1,1.3493605E1,-6.307039E1,-2.3800587E1,-2.2576221E1,-8.315269E0,7.814585E0,-1.760512E1,4.4216394E0,-2.8551643E1,1.2699027E1,5.648755E0,-3.613858E1,-1.5355486E1,-2.3034887E0,7.8141313E0,3.208484E1,5.5301733E0,5.1990237E0,-1.1766407E1],"categories":[],"categories_nodes":[],"categories_segments":[],"categories_sizes":[],"default_left":[0,0,0,0,0,0,0,0,0,0,0,0,0,0,0,0,0,0,0,0,0,0,0,0,0,0,0,0,0,0,0,0,0,0,0,0,0,0,0,0,0,0,0,0,0,0,0,0,0,0,0,0,0,0,0,0,0,0,0,0,0,0,0,0,0,0,0,0,0,0,0,0,0,0,0,0,0,0,0,0,0,0,0,0,0,0,0,0,0,0,0,0,0,0,0,0,0,0,0,0,0,0,0,0,0,0,0,0,0,0,0,0,0],"id":13,"left_children":[1,3,5,7,9,11,13,15,17,19,21,23,25,27,29,31,33,35,37,39,41,43,45,47,49,51,53,-1,55,57,59,61,63,-1,-1,65,67,69,71,73,75,77,79,81,83,85,87,89,-1,-1,91,93,95,97,99,101,103,105,107,109,111,-1,-1,-1,-1,-1,-1,-1,-1,-1,-1,-1,-1,-1,-1,-1,-1,-1,-1,-1,-1,-1,-1,-1,-1,-1,-1,-1,-1,-1,-1,-1,-1,-1,-1,-1,-1,-1,-1,-1,-1,-1,-1,-1,-1,-1,-1,-1,-1,-1,-1,-1,-1],"loss_changes":[3.8164748E6,3.80726E5,6.636075E4,5.30915E4,1.0902675E5,9.580559E4,5.4273125E4,2.5552219E4,4.7746E4,3.1143438E4,9.325147E4,1.1543528E5,1.3483094E5,3.550075E4,7.567137E4,5.6813047E3,2.731211E3,2.976825E4,4.3904188E4,1.2800167E4,2.8699266E4,8.863685E4,8.011103E4,4.9934453E4,5.151828E3,8.598858E4,3.327625E4,0E0,3.6072625E4,2.0818342E5,2.4810953E4,2.7461267E2,5.2096094E2,0E0,0E0,1.8259125E4,3.9621125E4,2.3272562E4,6.3462336E4,3.129855E3,2.1175918E3,6.7798125E3,2.8322908E3,3.5854247E5,6.5360734E4,4.0621242E4,8.9148125E4,3.0035553E4,0E0,0E0,8.042828E3,1.817343E4,3.0436875E3,4.6292773E3,4.966142E4,1.3147575E5,9.8014375E4,1.7180812E4,6.1465125E4,1.5226672E4,4.311967E3,0E0,0E0,0E0,0E0,0E0,0E0,0E0,0E0,0E0,0E0,0E0,0E0,0E0,0E0,0E0,0E0,0E0,0E0,0E0,0E0,0E0,0E0,0E0,0E0,0E0,0E0,0E0,0E0,0E0,0E0,0E0,0E0,0E0,0E0,0E0,0E0,0E0,0E0,0E0,0E0,0E0,0E0,0E0,0E0,0E0,0E0,0E0,0E0,0E0,0E0,0E0,0E0],"parents":[2147483647,0,0,1,1,2,2,3,3,4,4,5,5,6,6,7,7,8,8,9,9,10,10,11,11,12,12,13,13,14,14,15,15,16,16,17,17,18,18,19,19,20,20,21,21,22,22,23,23,24,24,25,25,26,26,28,28,29,29,30,30,31,31,32,32,35,35,36,36,37,37,38,38,39,39,40,40,41,41,42,42,43,43,44,44,45,45,46,46,47,47,50,50,51,51,52,52,53,53,54,54,55,55,56,56,57,57,58,58,59,59,60,60],"right_children":[2,4,6,8,10,12,14,16,18,20,22,24,26,28,30,32,34,36,38,40,42,44,46,48,50,52,54,-1,56,58,60,62,64,-1,-1,66,68,70,72,74,76,78,80,82,84,86,88,90,-1,-1,92,94,96,98,100,102,104,106,108,110,112,-1,-1,-1,-1,-1,-1,-1,-1,-1,-1,-1,-1,-1,-1,-1,-1,-1,-1,-1,-1,-1,-1,-1,-1,-1,-1,-1,-1,-1,-1,-1,-1,-1,-1,-1,-1,-1,-1,-1,-1,-1,-1,-1,-1,-1,-1,-1,-1,-1,-1,-1,-1],"split_conditions":[9.505196E0,6.5522346E0,-3.7132E0,6.599547E0,9.61E2,2.0694266E2,2.8870087E2,4.73998E0,1.014E3,9.58E2,-3.6371667E0,1.8161978E2,2.3319336E2,4.4E0,3.5056343E0,9.96E2,2.1003384E1,1.24407295E2,5.8145933E0,3.171438E2,9.162631E0,2.593872E2,8.058942E0,1.7979433E2,9.65E2,2.1426309E2,9.99E2,3.095672E1,1.9140587E2,9.060982E-2,2.2227325E1,-3.5579216E0,4.8E0,-5.5963776E1,-1.3634034E1,1.4748137E-1,2.4191661E2,1.4408976E-1,9.3E0,9.055412E0,-3.565102E0,2.842171E-14,-3.5292232E0,2.5882074E2,2.7136835E2,9.8E0,-3.0987337E0,1.1492276E-1,-3.9848366E1,5.821216E0,1.9488087E2,-3.8468156E0,2.310892E2,7.830685E0,1.67E1,1.8958401E2,2.1219585E2,8.3E1,3.201709E2,1.1784511E1,2.925253E2,-4.1562197E-1,-6.6117435E0,-5.632306E0,-2.2073082E1,-1.3755603E1,-2.122486E1,-9.421478E0,-1.3896265E1,-9.195534E0,-1.4216135E1,-1.0282819E1,-9.099743E-2,-2.3855493E0,1.1735413E1,-7.8060427E0,-2.3000391E1,-3.6653618E1,-5.0486393E0,9.621533E0,-6.448975E0,4.0974504E-1,1.2773017E2,-1.9218773E1,-4.241778E0,-9.489323E0,-4.2575485E1,-5.8764963E0,2.4156885E1,1.1598726E1,-1.4815223E1,1.788085E1,4.3360085E1,-1.7595337E1,1.3493605E1,-6.307039E1,-2.3800587E1,-2.2576221E1,-8.315269E0,7.814585E0,-1.760512E1,4.4216394E0,-2.8551643E1,1.2699027E1,5.648755E0,-3.613858E1,-1.5355486E1,-2.3034887E0,7.8141313E0,3.208484E1,5.5301733E0,5.1990237E0,-1.1766407E1],"split_indices":[1,1,0,7,4,2,2,0,4,4,0,2,2,5,0,4,0,2,1,2,7,2,7,2,4,2,4,0,2,6,1,0,5,0,0,6,2,6,5,7,0,8,0,2,2,5,0,6,0,0,2,0,2,7,5,2,2,3,2,1,2,0,0,0,0,0,0,0,0,0,0,0,0,0,0,0,0,0,0,0,0,0,0,0,0,0,0,0,0,0,0,0,0,0,0,0,0,0,0,0,0,0,0,0,0,0,0,0,0,0,0,0,0],"split_type":[0,0,0,0,0,0,0,0,0,0,0,0,0,0,0,0,0,0,0,0,0,0,0,0,0,0,0,0,0,0,0,0,0,0,0,0,0,0,0,0,0,0,0,0,0,0,0,0,0,0,0,0,0,0,0,0,0,0,0,0,0,0,0,0,0,0,0,0,0,0,0,0,0,0,0,0,0,0,0,0,0,0,0,0,0,0,0,0,0,0,0,0,0,0,0,0,0,0,0,0,0,0,0,0,0,0,0,0,0,0,0,0,0],"sum_hessian":[8.751E3,3.522E3,5.229E3,1.71E3,1.812E3,8.8E1,5.141E3,2.3E1,1.687E3,2.8E1,1.784E3,2.8E1,6E1,4.507E3,6.34E2,2E1,3E0,9.82E2,7.05E2,1.1E1,1.7E1,6.09E2,1.175E3,1.7E1,1.1E1,1.2E1,4.8E1,4E0,4.503E3,2.57E2,3.77E2,3E0,1.7E1,2E0,1E0,2.09E2,7.73E2,4.86E2,2.19E2,5E0,6E0,1.5E1,2E0,4.27E2,1.82E2,1.4E1,1.161E3,1.5E1,2E0,1E0,1E1,5E0,7E0,1.1E1,3.7E1,1.196E3,3.307E3,2.1E1,2.36E2,3.68E2,9E0,1E0,2E0,1E0,1.6E1,1.68E2,4.1E1,4.72E2,3.01E2,3.73E2,1.13E2,1.1E2,1.09E2,4E0,1E0,3E0,3E0,1.4E1,1E0,1E0,1E0,4.26E2,1E0,3.1E1,1.51E2,7E0,7E0,1.153E3,8E0,1E1,5E0,4E0,6E0,3E0,2E0,5E0,2E0,5E0,6E0,2.9E1,8E0,1.186E3,1E1,1.88E2,3.119E3,1.3E1,8E0,1.54E2,8.2E1,1E0,3.67E2,1E0,8E0],"tree_param":{"num_deleted":"0","num_feature":"9","num_nodes":"113","size_leaf_vector":"1"}},{"base_weights":[-2.1022508E-1,-2.0886236E1,1.0263047E1,-2.7304136E1,-1.5548272E1,-3.5024443E0,1.2097518E1,-3.132115E1,-2.341201E1,-1.82352E1,3.5814092E0,-6.486375E0,3.2888527E1,-1.8685085E1,1.2379881E1,-2.872705E1,-3.871396E1,-2.7556742E1,-1.1521554E1,-4.40914E1,-1.6482037E1,-1.7414463E1,1.4370333E1,3.918773E1,-8.744217E0,6.852739E1,-5.386005E0,8.288539E0,-5.5513905E1,7.137311E0,1.3853669E1,-3.107847E1,-1.2946611E1,3.4528809E0,-4.0580338E1,-3.698919E0,-2.8687511E1,-2.642903E1,6.2534046E0,-5.6735874E1,-1.7332739E1,-1.36569805E1,-2.936961E1,5.2157417E1,-2.4988474E1,7.206343E1,9.563005E0,9.7013985E1,2.0688913E1,-2.6322771E1,-3.3340683E0,2.8417524E1,9.044981E1,2.2975735E1,-6.151104E1,-3.5897297E1,3.8990982E1,2.536691E0,-8.057392E1,-4.119873E1,7.519609E0,5.076775E0,1.5133223E1,-8.853745E0,-1.3083517E1,-2.192848E0,-1.5659221E1,1.1016321E1,-7.155674E0,-1.392795E1,-7.7916236E0,2.8288171E0,-7.9881434E0,-7.7786393E0,-1.1150462E1,-4.948052E0,-1.3306161E1,-4.081416E-1,1.836281E1,-2.1686594E1,-9.621138E0,-2.1861023E1,8.214574E-1,-1.9802436E0,-6.1226516E0,-1.7685732E1,-3.158164E0,3.8688965E0,1.9584778E1,2.5652602E0,-1.1052067E1,3.310386E1,8.445167E0,-1.5716886E1,4.1259484E0,5.5788574E0,3.2095276E1,-1.388064E1,1.222337E1,-4.9040446E0,-2.9614143E1,-8.415239E0,1.3067069E0,1.2613603E1,1.0965235E0,1.5586059E1,4.1406773E1,2.99417E1,2.140242E0,-2.5652409E1,1.9569727E1,1.5024903E0,-1.9749317E1,2.1179361E1,9.155274E-1,-8.705215E0,1.6284376E1,-2.84261E1,-6.4308476E0,-1.0178921E0,3.82465E0,-4.861492E0,4.1508503E0,3.9075434E0,6.903808E0],"categories":[],"categories_nodes":[],"categories_segments":[],"categories_sizes":[],"default_left":[0,0,0,0,0,0,0,0,0,0,0,0,0,0,0,0,0,0,0,0,0,0,0,0,0,0,0,0,0,0,0,0,0,0,0,0,0,0,0,0,0,0,0,0,0,0,0,0,0,0,0,0,0,0,0,0,0,0,0,0,0,0,0,0,0,0,0,0,0,0,0,0,0,0,0,0,0,0,0,0,0,0,0,0,0,0,0,0,0,0,0,0,0,0,0,0,0,0,0,0,0,0,0,0,0,0,0,0,0,0,0,0,0,0,0,0,0,0,0,0,0,0,0,0,0],"id":14,"left_children":[1,3,5,7,9,11,13,15,17,19,21,23,25,27,29,31,33,35,37,39,41,43,45,47,49,51,53,55,57,59,61,63,65,67,69,71,73,75,77,79,81,83,85,87,89,91,93,95,97,99,101,103,105,107,109,111,113,115,117,-1,119,121,123,-1,-1,-1,-1,-1,-1,-1,-1,-1,-1,-1,-1,-1,-1,-1,-1,-1,-1,-1,-1,-1,-1,-1,-1,-1,-1,-1,-1,-1,-1,-1,-1,-1,-1,-1,-1,-1,-1,-1,-1,-1,-1,-1,-1,-1,-1,-1,-1,-1,-1,-1,-1,-1,-1,-1,-1,-1,-1,-1,-1,-1,-1],"loss_changes":[1.8954205E6,1.00398375E5,1.4675875E5,2.0139E4,8.276806E4,7.448761E4,4.47945E4,1.14300625E4,3.3293344E4,6.3234156E4,4.53283E4,6.5620734E4,7.130025E4,4.7150242E4,3.9159125E4,1.7705594E4,1.3282906E4,1.3517625E4,4.7331664E4,2.9129688E4,4.7766844E4,3.7135133E4,3.5921004E4,3.0084402E4,5.73542E4,2.1170883E4,4.2800156E4,3.9384836E4,2.9299375E4,6.2723652E4,4.4452125E4,7.0346875E3,1.4000451E4,8.1430166E3,1.24585625E4,7.4752886E3,1.03130625E4,1.6543438E4,3.4394355E4,2.069861E4,3.364011E4,5.1652406E4,1.3148588E5,2.765254E3,2.496E4,1.3704758E4,3.265023E4,3.4834219E3,3.4114336E4,1.0093446E5,8.812258E4,3.5583584E3,2.3962594E4,2.119593E4,3.2951043E4,1.50232E4,1.9095316E4,1.300436E4,9.708664E3,0E0,6.3669992E4,9.45503E4,5.7172688E4,0E0,0E0,0E0,0E0,0E0,0E0,0E0,0E0,0E0,0E0,0E0,0E0,0E0,0E0,0E0,0E0,0E0,0E0,0E0,0E0,0E0,0E0,0E0,0E0,0E0,0E0,0E0,0E0,0E0,0E0,0E0,0E0,0E0,0E0,0E0,0E0,0E0,0E0,0E0,0E0,0E0,0E0,0E0,0E0,0E0,0E0,0E0,0E0,0E0,0E0,0E0,0E0,0E0,0E0,0E0,0E0,0E0,0E0,0E0,0E0,0E0,0E0],"parents":[2147483647,0,0,1,1,2,2,3,3,4,4,5,5,6,6,7,7,8,8,9,9,10,10,11,11,12,12,13,13,14,14,15,15,16,16,17,17,18,18,19,19,20,20,21,21,22,22,23,23,24,24,25,25,26,26,27,27,28,28,29,29,30,30,31,31,32,32,33,33,34,34,35,35,36,36,37,37,38,38,39,39,40,40,41,41,42,42,43,43,44,44,45,45,46,46,47,47,48,48,49,49,50,50,51,51,52,52,53,53,54,54,55,55,56,56,57,57,58,58,60,60,61,61,62,62],"right_children":[2,4,6,8,10,12,14,16,18,20,22,24,26,28,30,32,34,36,38,40,42,44,46,48,50,52,54,56,58,60,62,64,66,68,70,72,74,76,78,80,82,84,86,88,90,92,94,96,98,100,102,104,106,108,110,112,114,116,118,-1,120,122,124,-1,-1,-1,-1,-1,-1,-1,-1,-1,-1,-1,-1,-1,-1,-1,-1,-1,-1,-1,-1,-1,-1,-1,-1,-1,-1,-1,-1,-1,-1,-1,-1,-1,-1,-1,-1,-1,-1,-1,-1,-1,-1,-1,-1,-1,-1,-1,-1,-1,-1,-1,-1,-1,-1,-1,-1,-1,-1,-1,-1,-1,-1],"split_conditions":[8.498125E0,5.911337E0,9.698804E0,9.395747E0,9.543252E0,1.027E3,-3.7132E0,5.5409875E0,1.31E1,8.6184635E0,1.0636492E-1,-3.8808248E0,1.24558344E-1,1.009E3,9.97E2,4.880359E0,9.258087E-2,9.87E2,-3.502E0,1.3053262E-1,2.9585413E2,8.816534E-2,1.0868199E-1,9.82E2,9.198473E-2,1.028E3,2.6393936E2,9.92E2,2.1323305E2,3.3145099E0,7.3E0,-3.396856E0,2.9339224E2,9.218425E0,-3.433688E0,1.8764436E2,1.0759565E1,3.0371524E2,5.601016E0,2.5519336E2,7.8E1,-3.4952464E0,3.171438E2,8.4711425E-2,9.6E0,9.714629E0,9.82E2,7.305443E1,7.983353E0,9.2E1,1.3526024E2,1.8225515E1,-3.703782E0,8.581648E0,-3.6283088E0,-3.8101633E0,8.5E1,1.0124588E1,7.8998775E0,-4.119873E1,1.3924683E0,1.1690486E1,6.5196066E0,-8.853745E0,-1.3083517E1,-2.192848E0,-1.5659221E1,1.1016321E1,-7.155674E0,-1.392795E1,-7.7916236E0,2.8288171E0,-7.9881434E0,-7.7786393E0,-1.1150462E1,-4.948052E0,-1.3306161E1,-4.081416E-1,1.836281E1,-2.1686594E1,-9.621138E0,-2.1861023E1,8.214574E-1,-1.9802436E0,-6.1226516E0,-1.7685732E1,-3.158164E0,3.8688965E0,1.9584778E1,2.5652602E0,-1.1052067E1,3.310386E1,8.445167E0,-1.5716886E1,4.1259484E0,5.5788574E0,3.2095276E1,-1.388064E1,1.222337E1,-4.9040446E0,-2.9614143E1,-8.415239E0,1.3067069E0,1.2613603E1,1.0965235E0,1.5586059E1,4.1406773E1,2.99417E1,2.140242E0,-2.5652409E1,1.9569727E1,1.5024903E0,-1.9749317E1,2.1179361E1,9.155274E-1,-8.705215E0,1.6284376E1,-2.84261E1,-6.4308476E0,-1.0178921E0,3.82465E0,-4.861492E0,4.1508503E0,3.9075434E0,6.903808E0],"split_indices":[1,1,1,7,7,4,0,1,5,7,6,0,6,4,4,1,6,4,0,6,2,6,6,4,6,4,2,4,2,7,5,0,2,7,0,2,7,2,1,2,3,0,2,6,5,7,4,2,7,3,2,2,0,1,0,0,3,1,7,0,0,1,7,0,0,0,0,0,0,0,0,0,0,0,0,0,0,0,0,0,0,0,0,0,0,0,0,0,0,0,0,0,0,0,0,0,0,0,0,0,0,0,0,0,0,0,0,0,0,0,0,0,0,0,0,0,0,0,0,0,0,0,0,0,0],"split_type":[0,0,0,0,0,0,0,0,0,0,0,0,0,0,0,0,0,0,0,0,0,0,0,0,0,0,0,0,0,0,0,0,0,0,0,0,0,0,0,0,0,0,0,0,0,0,0,0,0,0,0,0,0,0,0,0,0,0,0,0,0,0,0,0,0,0,0,0,0,0,0,0,0,0,0,0,0,0,0,0,0,0,0,0,0,0,0,0,0,0,0,0,0,0,0,0,0,0,0,0,0,0,0,0,0,0,0,0,0,0,0,0,0,0,0,0,0,0,0,0,0,0,0,0,0],"sum_hessian":[8.751E3,2.942E3,5.809E3,1.334E3,1.608E3,6.83E2,5.126E3,6.53E2,6.81E2,1.41E3,1.98E2,6.32E2,5.1E1,4.6E1,5.08E3,4.87E2,1.66E2,5.04E2,1.77E2,8.8E1,1.322E3,6.7E1,1.31E2,2.9E1,6.03E2,2.6E1,2.5E1,2.7E1,1.9E1,1.116E3,3.964E3,4.23E2,6.4E1,7E0,1.59E2,2.3E1,4.81E2,9.6E1,8.1E1,5.9E1,2.9E1,1.086E3,2.36E2,6E0,6.1E1,9E0,1.22E2,6E0,2.3E1,1.41E2,4.62E2,1E1,1.6E1,1.7E1,8E0,1.1E1,1.6E1,6E0,1.3E1,2E0,1.114E3,5.05E2,3.459E3,3.79E2,4.4E1,5.7E1,7E0,3E0,4E0,1.12E2,4.7E1,1.5E1,8E0,3.66E2,1.15E2,6.3E1,3.3E1,7.2E1,9E0,3.5E1,2.4E1,7E0,2.2E1,5.32E2,5.54E2,9.1E1,1.45E2,2E0,4E0,1.6E1,4.5E1,4E0,5E0,7E0,1.15E2,1E0,5E0,5E0,1.8E1,1.25E2,1.6E1,1.09E2,3.53E2,6E0,4E0,1E1,6E0,2E0,1.5E1,7E0,1E0,5E0,6E0,8E0,8E0,4E0,2E0,1E1,3E0,3.61E2,7.53E2,1.47E2,3.58E2,2.731E3,7.28E2],"tree_param":{"num_deleted":"0","num_feature":"9","num_nodes":"125","size_leaf_vector":"1"}},{"base_weights":[-1.562388E-1,-1.4660596E1,7.1908317E0,-1.8251684E1,-9.782223E0,-8.449289E-2,8.941712E0,-2.2369394E1,-1.2485541E1,-8.4859604E1,-9.169366E0,1.1640146E0,-3.798822E1,-3.1277344E1,9.086298E0,4.9562134E1,-2.3156372E1,-1.3596341E1,4.354956E1,-5.058752E1,-1.2362086E2,-5.663596E0,-2.1756176E1,-1.0470879E1,5.0125875E0,-5.3789673E0,-7.411745E1,1.1036551E1,-5.5360973E1,1.0432159E1,5.9091063E0,8.50676E1,-7.3474976E1,-2.2752163E1,-3.4737553E1,-2.32635E1,-9.96579E0,6.573079E1,-9.522802E0,-3.1667407E0,-1.6650053E1,-4.268451E1,-1.0145756E1,-1.5375385E1,-1.0037002E-1,-4.2509926E1,-8.497743E0,2.945416E1,-1.8304895E1,4.4794495E1,2.0457714E0,2.2904348E1,-6.1177177E1,8.008155E0,-8.208652E1,1.804795E1,-2.0644726E1,-6.2182667E1,1.9283936E0,1.7635191E1,8.791325E0,-7.6094007E0,9.353497E0,-1.7405273E1,3.3061634E1,-3.560755E1,2.543811E0,-2.19408E1,-6.646093E0,-5.900983E0,-1.450332E1,-4.8115015E0,1.0647393E0,-4.72392E0,2.2960024E1,1.0269288E0,-9.19596E0,1.1396203E1,-5.2076507E0,5.648857E0,-2.2990663E0,-9.442323E0,-1.9690094E1,-4.8871975E0,4.0440373E0,-9.965543E0,1.9553291E1,-1.7814068E1,-4.6826047E-1,7.3547874E1,3.5520575E0,2.1419487E0,-6.295148E0,1.4124723E1,-1.4793421E1,1.813965E-2,-2.57053E1,-3.332522E1,-1.6073877E1,-1.0649927E1,-2.416809E0,-3.3820314E0,-1.9975992E1,4.468775E0,2.1515438E1,-2.7541016E1,2.7383993E0,1.4914516E1,-4.154862E0,2.6761942E0,1.5524628E1],"categories":[],"categories_nodes":[],"categories_segments":[],"categories_sizes":[],"default_left":[0,0,0,0,0,0,0,0,0,0,0,0,0,0,0,0,0,0,0,0,0,0,0,0,0,0,0,0,0,0,0,0,0,0,0,0,0,0,0,0,0,0,0,0,0,0,0,0,0,0,0,0,0,0,0,0,0,0,0,0,0,0,0,0,0,0,0,0,0,0,0,0,0,0,0,0,0,0,0,0,0,0,0,0,0,0,0,0,0,0,0,0,0,0,0,0,0,0,0,0,0,0,0,0,0,0,0,0,0,0,0],"id":15,"left_children":[1,3,5,7,9,11,13,15,17,19,21,23,25,27,29,31,33,35,37,39,41,43,45,47,49,51,53,55,57,59,61,63,65,67,-1,69,71,73,75,-1,-1,-1,-1,77,79,81,83,85,87,89,91,93,95,-1,97,-1,99,101,-1,103,105,107,109,-1,-1,-1,-1,-1,-1,-1,-1,-1,-1,-1,-1,-1,-1,-1,-1,-1,-1,-1,-1,-1,-1,-1,-1,-1,-1,-1,-1,-1,-1,-1,-1,-1,-1,-1,-1,-1,-1,-1,-1,-1,-1,-1,-1,-1,-1,-1,-1],"loss_changes":[9.3275825E5,5.1378875E4,7.4009875E4,3.9941812E4,5.6736562E4,5.3424656E4,2.7516344E4,5.7020312E4,4.4660734E4,7.030617E3,5.463772E4,4.899455E4,4.2014617E4,1.7935219E4,1.9894719E4,5.430373E4,3.394822E4,2.416064E4,1.710688E4,7.907832E2,1.8912422E3,5.2514527E4,7.393255E4,8.561353E4,9.692541E4,3.2964395E4,1.5848539E4,1.2136001E4,5.0362656E3,3.857578E4,6.4840324E4,3.8765527E4,1.2123585E4,2.7751562E4,0E0,1.6083586E4,4.166641E4,1.0006797E4,1.4726887E3,0E0,0E0,0E0,0E0,3.8127586E4,8.87667E4,2.4728344E4,2.8650688E4,1.0291489E5,1.5671806E5,3.734621E5,9.0012414E4,2.6766213E4,1.0510502E4,0E0,7.274258E3,0E0,6.4904004E2,1.4913672E3,0E0,8.885753E4,9.129822E4,1.01921164E5,1.988936E4,0E0,0E0,0E0,0E0,0E0,0E0,0E0,0E0,0E0,0E0,0E0,0E0,0E0,0E0,0E0,0E0,0E0,0E0,0E0,0E0,0E0,0E0,0E0,0E0,0E0,0E0,0E0,0E0,0E0,0E0,0E0,0E0,0E0,0E0,0E0,0E0,0E0,0E0,0E0,0E0,0E0,0E0,0E0,0E0,0E0,0E0,0E0,0E0],"parents":[2147483647,0,0,1,1,2,2,3,3,4,4,5,5,6,6,7,7,8,8,9,9,10,10,11,11,12,12,13,13,14,14,15,15,16,16,17,17,18,18,19,19,20,20,21,21,22,22,23,23,24,24,25,25,26,26,27,27,28,28,29,29,30,30,31,31,32,32,33,33,35,35,36,36,37,37,38,38,43,43,44,44,45,45,46,46,47,47,48,48,49,49,50,50,51,51,52,52,54,54,56,56,57,57,59,59,60,60,61,61,62,62],"right_children":[2,4,6,8,10,12,14,16,18,20,22,24,26,28,30,32,34,36,38,40,42,44,46,48,50,52,54,56,58,60,62,64,66,68,-1,70,72,74,76,-1,-1,-1,-1,78,80,82,84,86,88,90,92,94,96,-1,98,-1,100,102,-1,104,106,108,110,-1,-1,-1,-1,-1,-1,-1,-1,-1,-1,-1,-1,-1,-1,-1,-1,-1,-1,-1,-1,-1,-1,-1,-1,-1,-1,-1,-1,-1,-1,-1,-1,-1,-1,-1,-1,-1,-1,-1,-1,-1,-1,-1,-1,-1,-1,-1,-1],"split_conditions":[8.498125E0,1.014E3,1.0503369E1,8.7E1,6.546966E0,5.3290705E-14,-3.270496E0,8.927792E-2,-3.2883527E0,3.5056343E0,2.966161E2,9.230778E-2,1.16E1,1.009E3,1.16E1,-3.4873078E0,6.039613E-14,1.0206789E-1,1.01E1,7.8E1,2.1003384E1,1.0779889E-1,3.171438E2,2.1092178E2,9.9785276E-2,1.009E3,-3.8101633E0,1.0556612E1,1.3361971E-1,1.9316424E0,1.3924683E0,8.379481E-2,-3.4022498E0,9.59E2,-3.4737553E1,1.33E1,7.0815234E0,6.2E0,2.885476E0,-3.1667407E0,-1.6650053E1,-4.268451E1,-1.0145756E1,8.727566E-2,-3.5249999E0,6.0991344E0,8.8E1,1.8161978E2,2.1798485E2,-3.7439632E0,1.41E1,8.444555E0,1.5940169E2,8.008155E0,8.095103E0,1.804795E1,-3.4058063E0,1.5196321E2,1.9283936E0,1.032E3,1.173268E1,1.1256103E2,6.8350983E0,-1.7405273E1,3.3061634E1,-3.560755E1,2.543811E0,-2.19408E1,-6.646093E0,-5.900983E0,-1.450332E1,-4.8115015E0,1.0647393E0,-4.72392E0,2.2960024E1,1.0269288E0,-9.19596E0,1.1396203E1,-5.2076507E0,5.648857E0,-2.2990663E0,-9.442323E0,-1.9690094E1,-4.8871975E0,4.0440373E0,-9.965543E0,1.9553291E1,-1.7814068E1,-4.6826047E-1,7.3547874E1,3.5520575E0,2.1419487E0,-6.295148E0,1.4124723E1,-1.4793421E1,1.813965E-2,-2.57053E1,-3.332522E1,-1.6073877E1,-1.0649927E1,-2.416809E0,-3.3820314E0,-1.9975992E1,4.468775E0,2.1515438E1,-2.7541016E1,2.7383993E0,1.4914516E1,-4.154862E0,2.6761942E0,1.5524628E1],"split_indices":[1,4,1,3,7,8,0,6,0,0,2,6,5,4,5,0,8,6,5,3,0,6,2,2,6,4,0,1,6,0,0,6,0,4,0,5,1,5,0,0,0,0,0,6,0,1,3,2,2,0,5,7,2,0,7,0,0,2,0,4,1,2,7,0,0,0,0,0,0,0,0,0,0,0,0,0,0,0,0,0,0,0,0,0,0,0,0,0,0,0,0,0,0,0,0,0,0,0,0,0,0,0,0,0,0,0,0,0,0,0,0],"split_type":[0,0,0,0,0,0,0,0,0,0,0,0,0,0,0,0,0,0,0,0,0,0,0,0,0,0,0,0,0,0,0,0,0,0,0,0,0,0,0,0,0,0,0,0,0,0,0,0,0,0,0,0,0,0,0,0,0,0,0,0,0,0,0,0,0,0,0,0,0,0,0,0,0,0,0,0,0,0,0,0,0,0,0,0,0,0,0,0,0,0,0,0,0,0,0,0,0,0,0,0,0,0,0,0,0,0,0,0,0,0,0],"sum_hessian":[8.751E3,2.942E3,5.809E3,1.693E3,1.249E3,1.127E3,4.682E3,9.86E2,7.07E2,9E0,1.24E3,1.092E3,3.5E1,1.6E1,4.666E3,1E1,9.76E2,6.94E2,1.3E1,6E0,3E0,9.71E2,2.69E2,2.71E2,8.21E2,1.9E1,1.6E1,6E0,1E1,3.276E3,1.39E3,8E0,2E0,9.73E2,3E0,1.88E2,5.06E2,9E0,4E0,1E0,5E0,2E0,1E0,3.53E2,6.18E2,1.04E2,1.65E2,4.4E1,2.27E2,5.6E1,7.65E2,1.3E1,6E0,1E0,1.5E1,2E0,4E0,9E0,1E0,6.06E2,2.67E3,2.82E2,1.108E3,1E0,7E0,1E0,1E0,1E1,9.63E2,1.66E2,2.2E1,3.49E2,1.57E2,1E0,8E0,3E0,1E0,1.2E1,3.41E2,1.76E2,4.42E2,7.2E1,3.2E1,1.22E2,4.3E1,1.6E1,2.8E1,6.5E1,1.62E2,7E0,4.9E1,6.27E2,1.38E2,1E1,3E0,2E0,4E0,6E0,9E0,1E0,3E0,1E0,8E0,5.78E2,2.8E1,8E0,2.662E3,2.7E1,2.55E2,1.098E3,1E1],"tree_param":{"num_deleted":"0","num_feature":"9","num_nodes":"111","size_leaf_vector":"1"}},{"base_weights":[-1.296486E-1,-8.877407E0,6.0571084E0,-1.3761697E1,-5.661059E0,7.740078E1,5.986295E0,-1.3442346E1,-6.3009468E1,-1.0169233E1,4.93892E-1,2.9337013E1,9.3633795E0,-5.082973E0,6.4276714E0,-3.8462997E1,-1.2805864E1,-7.4536695E0,-2.1109222E1,-8.690534E0,-4.9999573E1,2.649938E1,-7.8874655E-2,-3.5892315E1,5.3599324E0,6.380787E0,3.5607204E1,-3.5389653E-1,-3.952487E1,-4.437557E1,-1.2315109E1,-1.02442E1,2.437695E1,-3.211283E1,-9.155826E1,-5.806396E1,7.504818E-1,1.4311794E1,-6.218873E1,7.521721E0,-9.713353E0,7.0150895E0,-3.3606243E-1,-1.3285189E0,-1.2136263E1,1.3285822E1,-1.5306887E1,-4.826036E0,-2.8093834E0,-2.6285534E0,-1.16716175E1,5.0035114E0,6.6015015E1,-1.3886588E1,1.340432E-1,-9.154703E0,-3.45893E1,-2.2449003E1,6.829859E0,-3.5287216E0,1.2553022E0,2.7224415E1,-6.620215E0,-2.2688505E1,8.459649E0,1.9469707E0,6.2018557E0,-2.103069E1,-7.39152E-1,-3.4772792E-1,2.274735E0,3.557803E-1,-3.2122047E1],"categories":[],"categories_nodes":[],"categories_segments":[],"categories_sizes":[],"default_left":[0,0,0,0,0,0,0,0,0,0,0,0,0,0,0,0,0,0,0,0,0,0,0,0,0,0,0,0,0,0,0,0,0,0,0,0,0,0,0,0,0,0,0,0,0,0,0,0,0,0,0,0,0,0,0,0,0,0,0,0,0,0,0,0,0,0,0,0,0,0,0,0,0],"id":16,"left_children":[1,3,5,7,9,11,13,15,17,19,21,-1,-1,23,25,27,29,-1,-1,31,33,-1,35,37,39,41,-1,-1,43,45,47,49,51,53,55,57,59,61,63,65,67,69,71,-1,-1,-1,-1,-1,-1,-1,-1,-1,-1,-1,-1,-1,-1,-1,-1,-1,-1,-1,-1,-1,-1,-1,-1,-1,-1,-1,-1,-1,-1],"loss_changes":[4.7371425E5,5.688503E4,2.5438594E4,2.1784625E4,6.0716742E4,1.6566953E3,2.5062156E4,2.229639E4,7.7789453E2,7.39525E4,4.659432E4,0E0,0E0,6.357497E4,2.5175484E4,1.3390273E3,2.1097219E4,0E0,0E0,6.2876844E4,3.0510523E4,0E0,4.4334742E4,6.689944E4,4.895679E3,2.0989672E4,0E0,0E0,9.298125E2,1.4636336E4,1.5173047E4,4.91554E4,7.9182164E4,1.5252121E4,1.5320109E4,1.9321223E4,3.9106664E4,5.2054957E4,4.2220203E4,1.6298813E3,8.1452974E3,2.088311E4,6.933239E4,0E0,0E0,0E0,0E0,0E0,0E0,0E0,0E0,0E0,0E0,0E0,0E0,0E0,0E0,0E0,0E0,0E0,0E0,0E0,0E0,0E0,0E0,0E0,0E0,0E0,0E0,0E0,0E0,0E0,0E0],"parents":[2147483647,0,0,1,1,2,2,3,3,4,4,5,5,6,6,7,7,8,8,9,9,10,10,13,13,14,14,15,15,16,16,19,19,20,20,22,22,23,23,24,24,25,25,28,28,29,29,30,30,31,31,32,32,33,33,34,34,35,35,36,36,37,37,38,38,39,39,40,40,41,41,42,42],"right_children":[2,4,6,8,10,12,14,16,18,20,22,-1,-1,24,26,28,30,-1,-1,32,34,-1,36,38,40,42,-1,-1,44,46,48,50,52,54,56,58,60,62,64,66,68,70,72,-1,-1,-1,-1,-1,-1,-1,-1,-1,-1,-1,-1,-1,-1,-1,-1,-1,-1,-1,-1,-1,-1,-1,-1,-1,-1,-1,-1,-1,-1],"split_conditions":[9.698804E0,6.0991344E0,4.4E0,9.9670607E-1,1.014E3,-2.3186796E0,9.76E2,3.1054316E0,6.307708E0,1.41E1,8.343728E-2,2.9337013E1,9.3633795E0,1.1835027E1,2.1944588E-1,9.0064324E-2,7.1E1,-7.4536695E0,-2.1109222E1,9.4E1,8.439215E0,2.649938E1,7.8998775E0,-2.6093466E0,2.902254E2,2.9836124E2,3.5607204E1,-3.5389653E-1,9.104689E0,9.2919454E-2,9.245965E0,1.7520131E-1,-3.270496E0,1.603111E2,1.42E1,3.2881946E2,9.2919454E-2,8.620441E-2,1.3640018E-1,1.0420379E-1,1.7196436E0,9.325586E1,7.830685E0,-1.3285189E0,-1.2136263E1,1.3285822E1,-1.5306887E1,-4.826036E0,-2.8093834E0,-2.6285534E0,-1.16716175E1,5.0035114E0,6.6015015E1,-1.3886588E1,1.340432E-1,-9.154703E0,-3.45893E1,-2.2449003E1,6.829859E0,-3.5287216E0,1.2553022E0,2.7224415E1,-6.620215E0,-2.2688505E1,8.459649E0,1.9469707E0,6.2018557E0,-2.103069E1,-7.39152E-1,-3.4772792E-1,2.274735E0,3.557803E-1,-3.2122047E1],"split_indices":[1,1,5,0,4,0,4,1,7,5,6,0,0,1,6,6,3,0,0,3,1,0,7,0,2,2,0,0,7,6,7,6,0,2,5,2,6,6,6,6,0,2,7,0,0,0,0,0,0,0,0,0,0,0,0,0,0,0,0,0,0,0,0,0,0,0,0,0,0,0,0,0,0],"split_type":[0,0,0,0,0,0,0,0,0,0,0,0,0,0,0,0,0,0,0,0,0,0,0,0,0,0,0,0,0,0,0,0,0,0,0,0,0,0,0,0,0,0,0,0,0,0,0,0,0,0,0,0,0,0,0,0,0,0,0,0,0,0,0,0,0,0,0,0,0,0,0,0,0],"sum_hessian":[8.751E3,3.625E3,5.126E3,1.438E3,2.187E3,4E0,5.122E3,1.43E3,8E0,1.262E3,9.25E2,2E0,2E0,1.96E2,4.926E3,3.4E1,1.396E3,2E0,6E0,1.218E3,4.4E1,5E0,9.2E2,4.9E1,1.47E2,4.925E3,1E0,1E0,3.3E1,2E1,1.376E3,1.164E3,5.4E1,3.2E1,1.2E1,1.2E1,9.08E2,1.7E1,3.2E1,1.29E2,1.8E1,4.5E3,4.25E2,1E0,3.2E1,1E0,1.9E1,6.02E2,7.74E2,1.108E3,5.6E1,5.3E1,1E0,2.2E1,1E1,4E0,8E0,1E1,2E0,1.95E2,7.13E2,5E0,1.2E1,2.8E1,4E0,1.21E2,8E0,1E0,1.7E1,2.92E2,4.208E3,4.2E2,5E0],"tree_param":{"num_deleted":"0","num_feature":"9","num_nodes":"73","size_leaf_vector":"1"}},{"base_weights":[-9.163491E-2,-8.089349E0,3.4796615E0,4.0751045E1,-8.322373E0,-2.9377853E1,3.6372886E0,2.505815E1,1.9565496E1,-8.736075E0,1.7968555E1,-5.4051968E1,-2.745215E0,4.1957774E0,-4.5070004E0,8.2597655E-1,7.0273204E0,-8.844487E0,2.694939E1,-3.3137005E1,5.069263E1,-9.689047E1,-4.45697E0,5.5711145E0,-1.7876076E1,3.555164E1,3.886129E0,-1.5233469E1,5.9156513E0,-7.409741E0,-1.6043823E1,1.839E0,-7.271488E1,8.044685E1,1.4750193E1,-3.2374245E1,-1.2763892E1,-1.2617616E1,2.651582E1,1.2801197E1,-5.6505406E-1,2.1452791E1,9.685117E1,4.523472E0,-2.4761524E0,6.364413E-1,-2.8515379E1,-1.2167469E-1,3.7049416E1,-2.6449904E0,1.2671158E0,-1.120978E1,-2.534914E0,-8.554089E0,1.1368307E1,-2.7621279E0,-2.4141638E1,1.0131821E1,2.7031773E1,1.2827147E1,-2.7857618E1,9.4021E-1,1.2317701E1,-3.587051E0,1.7479494E0,2.6212322E1,2.8140564E0,-2.1379433E1,3.703471E1,1.391771E0,-9.710962E0,-2.059375E1,-2.2211218E-1,-1.1685991E1,5.360062E0,1.7450378E1,-1.0044264E1,1.1751443E0,-1.1469136E1,1.7817242E1,2.3309376E0],"categories":[],"categories_nodes":[],"categories_segments":[],"categories_sizes":[],"default_left":[0,0,0,0,0,0,0,0,0,0,0,0,0,0,0,0,0,0,0,0,0,0,0,0,0,0,0,0,0,0,0,0,0,0,0,0,0,0,0,0,0,0,0,0,0,0,0,0,0,0,0,0,0,0,0,0,0,0,0,0,0,0,0,0,0,0,0,0,0,0,0,0,0,0,0,0,0,0,0,0,0],"id":17,"left_children":[1,3,5,7,9,11,13,-1,15,17,19,21,23,25,27,-1,-1,29,-1,31,33,35,37,39,-1,41,43,45,47,49,51,53,55,57,59,-1,-1,-1,61,-1,63,65,67,69,71,73,75,77,79,-1,-1,-1,-1,-1,-1,-1,-1,-1,-1,-1,-1,-1,-1,-1,-1,-1,-1,-1,-1,-1,-1,-1,-1,-1,-1,-1,-1,-1,-1,-1,-1],"loss_changes":[2.5000456E5,3.109064E4,3.1446414E4,1.01468125E4,2.9415047E4,1.8908584E4,2.74145E4,0E0,5.8427466E2,2.910136E4,7.191986E4,3.1436793E4,7.42268E3,5.4593156E4,4.3356035E4,0E0,0E0,2.7222578E4,0E0,2.3666416E4,2.6618805E4,2.0122656E2,1.0432269E4,3.2111978E3,0E0,4.545618E4,2.265E4,4.0277656E4,3.703355E4,3.619203E4,7.076822E4,1.2024253E4,3.20025E3,3.2684688E3,4.3149754E4,0E0,0E0,0E0,1.5715474E3,0E0,1.0162116E3,3.57893E4,5.351279E4,2.182525E4,5.8410832E4,6.0725035E4,4.6711805E4,2.5699576E4,2.0471266E4,0E0,0E0,0E0,0E0,0E0,0E0,0E0,0E0,0E0,0E0,0E0,0E0,0E0,0E0,0E0,0E0,0E0,0E0,0E0,0E0,0E0,0E0,0E0,0E0,0E0,0E0,0E0,0E0,0E0,0E0,0E0,0E0],"parents":[2147483647,0,0,1,1,2,2,3,3,4,4,5,5,6,6,8,8,9,9,10,10,11,11,12,12,13,13,14,14,17,17,19,19,20,20,21,21,22,22,23,23,25,25,26,26,27,27,28,28,29,29,30,30,31,31,32,32,33,33,34,34,38,38,40,40,41,41,42,42,43,43,44,44,45,45,46,46,47,47,48,48],"right_children":[2,4,6,8,10,12,14,-1,16,18,20,22,24,26,28,-1,-1,30,-1,32,34,36,38,40,-1,42,44,46,48,50,52,54,56,58,60,-1,-1,-1,62,-1,64,66,68,70,72,74,76,78,80,-1,-1,-1,-1,-1,-1,-1,-1,-1,-1,-1,